(60000, 784)
[-4.09605265e-03 -8.23947076e-04 -6.74990589e-05  4.99787256e-03
 -2.16921545e-03 -5.93860464e-03 -7.03804208e-04 -2.45466519e-04
  7.48007557e-05 -1.05678281e-03 -5.59900724e-03 -2.89964852e-03
 -6.31594199e-03 -4.41338518e-04 -4.34018773e-03 -4.56934147e-03
 -1.67980712e-04  3.13278866e-03  4.13554515e-03  4.29485437e-05
  5.94019497e-04 -1.17356838e-03 -2.20114388e-05 -3.75555003e-04
 -3.46703196e-05 -2.09899953e-03  9.81944509e-04  2.20582627e-03
 -4.03969441e-03 -2.46673240e-03  1.21621206e-04  6.25958671e-03
 -1.11967476e-03  3.37731531e-03  4.03849381e-04  3.81235619e-04
  3.85360010e-03 -1.17629542e-03 -1.51720817e-04 -9.04535749e-06
  5.33773624e-05  2.40743129e-04 -5.02111999e-03 -1.67892927e-04
  1.39387754e-03 -3.63011830e-03 -1.62771496e-03 -1.25260368e-03
 -9.92384252e-05 -2.12531238e-04 -6.15495626e-04  5.64358741e-03
  1.04729686e-04  8.21323052e-04 -1.45534522e-03  2.99088041e-03
 -1.40331812e-03 -3.26912747e-03 -7.04351364e-03 -2.70498797e-03
 -1.76520447e-05  4.11203862e-04 -6.36745539e-06  1.49405576e-04
 -1.07398989e-03 -2.47240099e-05  6.26956503e-03 -1.53037369e-03
  5.84659714e-03 -5.51386063e-03  7.05122869e-03 -4.86804741e-06
 -2.42348973e-03  5.64431557e-04 -5.84678393e-03  8.26044951e-06
  6.06273159e-03 -5.65257987e-03 -4.74411580e-04  1.07166171e-05
  1.36661452e-04 -7.99509472e-04  7.96688249e-04 -2.01031961e-03
  8.81947937e-04 -3.88215875e-03 -7.57111973e-04 -1.95278471e-03
  3.21600534e-05 -8.75550978e-05  6.46177417e-03 -4.52662661e-03
 -7.46034995e-04  1.23388106e-04 -1.48215309e-03 -1.22609622e-05
 -1.76647813e-05  1.60970474e-04  1.72653784e-04 -1.46286327e-04
  2.89753827e-04 -1.10496096e-04 -1.92286755e-03 -2.34166413e-03
  6.60649272e-05  5.66429223e-03  5.18655567e-05 -1.53171879e-04
 -2.22084221e-03 -5.05552281e-03 -2.54429237e-05 -4.37141751e-03
  6.80470924e-04  1.05479766e-04 -1.52891266e-04  2.59865364e-04
 -6.65263477e-03 -7.99970724e-04 -1.18157396e-04 -1.20307208e-04
  1.47209368e-03 -6.59931359e-05  7.61665026e-04  1.97344995e-03
 -9.96040957e-04 -3.53295368e-03  3.02741144e-04  7.46618138e-04
  2.02616746e-03 -2.29107789e-03 -5.35190911e-03  1.51022253e-03
 -4.42844751e-03  1.57084157e-03  8.14982920e-05  4.66263066e-03
 -3.58687227e-03  2.58217463e-05 -7.14098676e-04 -1.54698845e-04
  7.15322821e-03  2.95475324e-05  4.43258605e-04  4.97566470e-05
 -3.59860180e-04  6.15899182e-05  2.42578780e-03  1.86902102e-05
 -2.92187484e-03 -3.55147689e-03  7.05931406e-03  7.16545447e-04
  1.39096385e-03 -5.01580984e-03 -1.05543998e-04 -4.20100218e-03
  2.66676703e-05  1.15929963e-05  6.49822368e-03  3.35872728e-04
 -4.19628775e-04  3.41726271e-03 -6.15345328e-04 -4.32633509e-04
 -4.20534656e-03 -8.11349869e-04 -1.10942394e-03  6.94420286e-04
 -3.48298200e-06 -4.39926744e-03 -5.19593265e-03  2.65083941e-03
  6.25622690e-05  2.07875185e-04 -2.76571675e-03 -8.06939195e-06
  4.39452643e-03 -8.59743003e-05  1.43842906e-03  4.81397138e-03
  2.98704306e-03  4.75270451e-04 -1.09864023e-04  1.65220659e-04
  6.28828359e-03 -3.30804735e-03  6.08151978e-03  1.64209683e-03
  2.35265450e-03 -4.15199361e-03 -3.46637860e-03  6.66127160e-04
 -1.02169273e-05  4.81207327e-03  1.84252890e-03 -3.01472348e-04
 -1.20020404e-03 -1.00169702e-03  6.63689888e-04 -1.41941218e-03
 -1.22345625e-03 -1.66200502e-03 -1.03988829e-03 -4.49027528e-03
  3.35101853e-03  5.81742456e-03  5.06643179e-03  7.37803036e-04
  5.41025030e-03 -7.04707545e-03 -2.81643273e-04  6.65385150e-05
 -1.76945590e-03 -1.25315998e-03 -2.21032906e-03 -1.17215710e-03
  5.84512721e-03  6.42729318e-03  4.05031769e-03  3.25245279e-03
 -2.49648812e-04  6.71261893e-03 -2.35824140e-03  3.11782727e-03
 -1.36428187e-05 -2.79575662e-05  8.81861897e-06 -2.87684806e-03
 -2.38777035e-04  4.24375077e-03 -3.76635103e-03 -1.77813956e-03
  2.39704110e-04 -3.91865601e-05 -1.42854307e-03  1.38456940e-05
 -4.23032515e-03  5.13738314e-03  2.22813196e-04  3.56770908e-05
 -7.08974129e-03 -3.51696255e-03 -1.64207235e-03 -5.68631931e-03
 -5.62900171e-03 -4.02923030e-04 -6.28242990e-03  8.16424229e-04
 -4.36807999e-06  4.96025692e-03 -9.40245358e-04  6.85649418e-03
  3.15520873e-04  4.86890514e-03 -3.52208503e-03  1.37140670e-03]
[-1.00897750e-04  5.30797687e-03 -7.25277130e-04 -5.58524000e-03
  3.65189928e-03  7.66094807e-04 -1.44783734e-05  6.07708128e-03
 -1.36784869e-03  1.56893347e-04 -6.93131282e-03 -1.11268813e-03
  1.20783964e-03 -1.06793039e-03  1.18284492e-04 -9.50114848e-06
  8.69174289e-06 -4.56476746e-05 -3.49035456e-05 -2.58583066e-03
 -6.84164819e-03  3.58521188e-03  2.58539324e-03  3.47874066e-03
 -1.68419004e-04  8.30953597e-05 -2.96916379e-03 -5.98333936e-04
 -7.07846252e-03 -4.38259026e-03 -1.77270604e-03  1.76846947e-03
 -5.12584701e-04  1.66505896e-05 -5.04113532e-05 -5.70491510e-04
  5.76398749e-03 -7.05019770e-03 -9.90682904e-04 -5.05658590e-03
 -5.48961517e-04 -2.30272509e-03 -8.69436844e-05 -7.27123249e-04
 -4.64901255e-03 -3.25970443e-04  2.14385779e-03  7.81978346e-04
  1.85108617e-03 -2.31300918e-03  5.07917423e-03 -7.18254509e-03
 -4.58145615e-03  1.12323365e-03 -1.29445772e-04  7.82575695e-04
 -5.32700143e-03 -1.12646795e-03 -1.44755627e-03  3.37957299e-04
 -6.85934405e-03 -1.08921187e-03 -2.86609286e-03  2.29695811e-03
 -3.28840405e-03 -6.88062545e-03  1.44523326e-03  5.86818458e-04
 -2.96487074e-03  7.25106686e-04  4.36695921e-03  2.33771513e-04
 -3.95133632e-05 -1.00466704e-04 -6.48915479e-03 -4.79265649e-03
  1.54302937e-05 -3.69816590e-05  3.91937754e-03  1.16043810e-03
 -2.05396462e-04  2.80601772e-03 -1.05346923e-04 -4.21169375e-03
 -1.98312454e-05 -8.12138651e-04 -1.57355189e-03 -1.06861734e-03
  3.29579911e-03 -1.13663961e-04  4.42242184e-03 -2.76347430e-03
  1.33617303e-03 -6.52887839e-03  2.88643102e-03 -2.97248102e-03
 -1.35507104e-03  2.38579210e-03 -2.72564346e-03 -3.08542782e-03
  5.16871075e-05  1.23593019e-03  2.68381576e-03  4.37552971e-04
 -1.89477854e-03  4.39189990e-03 -1.40637842e-03 -1.86537908e-04
  7.06695937e-03  1.23759489e-04 -1.18613126e-03 -2.20362560e-03
  1.46075445e-04  6.89846842e-03  6.78002614e-03 -1.18627990e-03
 -9.06509482e-05  3.60277935e-03  3.06537981e-03  8.53187431e-04
 -1.63296538e-04 -5.43496401e-04  1.84396002e-04 -1.08323862e-03
 -4.73512004e-03 -7.15818191e-03  7.55615496e-04  5.96754521e-03
  6.50562477e-03  4.55594316e-03 -4.69472141e-03 -1.69296471e-06
  1.29113271e-04 -1.12048832e-03 -1.71202564e-03  6.60908677e-03
  5.98177490e-04  2.28639385e-03 -5.08299701e-03  4.11108130e-03
  7.43101980e-05  1.30810593e-04 -3.51973429e-03 -4.11151870e-03
 -1.64557794e-03 -3.34781580e-03 -4.47860633e-04  1.77266884e-03
  8.73339814e-04  4.01314277e-05 -4.51614282e-03 -5.33662438e-06
  2.01994580e-03 -3.48890674e-03 -1.59518633e-03 -1.01121712e-03
  4.14783631e-03  2.21790375e-04 -5.65874183e-03  6.47412443e-03
  1.08161631e-04 -1.78982160e-04 -1.81540428e-05  5.10403211e-03
 -1.33850798e-03 -6.05317869e-05  4.04342580e-03 -1.29632624e-03
  3.60908674e-03  2.52079537e-05  1.20069735e-03  4.68172699e-04
 -6.15555255e-03  3.25703064e-03 -2.50397079e-03 -1.59732155e-03
 -3.07410144e-03 -1.37772907e-03  3.69736532e-03  2.07101136e-03
  2.43237206e-03 -5.34826468e-03 -6.27801703e-03 -6.97430013e-03
 -2.20486620e-03  6.90693547e-03 -4.16902117e-03 -2.87805097e-03
  5.46489296e-05 -1.05271196e-06  3.16552646e-04  2.21465001e-03
  4.43293382e-03 -3.66952473e-03 -3.76098416e-03 -2.30818253e-03
  2.16288461e-04 -3.72944991e-04 -6.39969532e-03  1.61919611e-04
 -1.54119028e-03  6.33195879e-05 -5.37897547e-04 -4.21955152e-05
  6.68163527e-04 -3.83961431e-06  3.49594411e-06  1.22719454e-03
 -1.51891637e-04  1.01223346e-03  4.48629525e-03  1.27644775e-04
  6.81257910e-03 -1.44861814e-03 -2.86928184e-03  2.29027619e-03
  3.50523583e-03  4.00187467e-03 -3.56007877e-03 -1.59374285e-03
  3.10994580e-06 -1.67684367e-04 -3.84485942e-03  4.01334396e-03
  2.35661750e-06  8.23625907e-04  3.87812276e-03 -7.85079192e-04
 -1.05660796e-03 -2.12506397e-04  2.56889114e-03 -4.46179322e-03
  2.95644791e-03 -1.74596834e-03  5.98134872e-04 -5.44670456e-04
 -1.95618625e-04 -1.29975062e-03  6.45247555e-03  3.29920893e-04
  1.19198345e-05  1.27006223e-05 -2.24936806e-04  6.43192646e-06
  3.97162396e-03 -6.59476171e-03 -6.69347929e-04  2.11276576e-03
  3.79082181e-03  3.91124869e-03 -5.81602434e-03 -3.27524363e-03
 -3.15914159e-04 -1.06173825e-03 -3.22446450e-03  1.65237229e-04]
[-2.91267597e-05  5.34616287e-03  5.41911003e-04  1.95409372e-03
  9.17049767e-04  1.13571331e-04 -2.45814377e-03  1.64364486e-03
  1.25474207e-04  1.22900621e-03  1.53948650e-03  4.60450993e-03
 -5.73794674e-04  1.33202157e-04 -9.10058069e-04 -9.88446472e-04
 -2.68911582e-05 -4.13711038e-03 -2.40857628e-04  7.00506382e-05
 -7.19527992e-04  7.11496688e-03 -2.86809582e-06  3.06320639e-03
  4.06294677e-04 -2.74181280e-03  1.22464171e-03  1.60465329e-04
  2.13498447e-03  2.22526740e-03 -4.32428565e-03  2.72562835e-03
 -7.10079789e-04 -1.49638338e-03 -7.94401124e-04  9.08150223e-04
  3.44393946e-03 -3.80522092e-03  1.06971078e-04  8.69203857e-05
  5.74373412e-03  6.98284888e-05  1.99183382e-04  2.93845935e-04
  2.98292401e-03 -5.19387455e-07  1.26106737e-03 -4.65573985e-03
  2.53002655e-05 -3.91479966e-06  1.92933316e-04  8.10904937e-05
  3.91500918e-04 -3.09409238e-03  9.69744687e-04  4.17953921e-03
  4.48105196e-05 -1.23219845e-04  5.60470309e-04 -3.44961189e-03
  4.90847413e-04  1.27263259e-03 -2.21016232e-03  7.84890140e-04
  4.67541345e-04  3.88036731e-04  4.90813716e-04  2.21195250e-03
  1.56867368e-03  2.97648935e-03  1.34945519e-03  2.72635557e-03
  6.46948204e-03 -3.56577042e-03  4.12225906e-04  1.20187745e-04
 -4.28028553e-03  9.31161365e-04 -1.28242988e-04  4.19245728e-04
  4.48171203e-03  3.18391007e-05  1.55352852e-03 -3.20763686e-03
  5.63777176e-03 -8.96242713e-05 -1.83208896e-04  1.28123425e-05
  1.68317759e-04  1.77081042e-04 -3.74664619e-05  4.30086769e-03
  2.84980158e-03 -2.77267106e-04  2.73278208e-03 -1.97881412e-03
  6.81359315e-04 -4.04090309e-03  3.88719900e-03  2.05838347e-03
  8.50781770e-04  1.85174392e-03 -4.69255711e-04 -7.04992508e-05
 -6.14739668e-03 -6.56011174e-03  6.16145514e-03 -2.62877247e-03
  9.89488057e-04  2.76267655e-03 -2.91601775e-03  4.97207004e-03
  4.06906348e-03 -2.54697473e-04 -5.74417787e-03  9.47252175e-04
 -6.92310448e-04  2.17142742e-05  1.68519184e-05 -2.12835122e-03
  1.54882608e-03  1.18950856e-03 -6.21328317e-03 -2.98615949e-05
  7.25642543e-07 -1.97824363e-04 -1.96485231e-04 -5.88792268e-03
 -1.14148145e-03  3.18456159e-03  2.38458790e-04  2.09218206e-03
 -3.64386543e-03  2.35939458e-03 -6.11888316e-03 -1.26911291e-04
 -3.00876238e-03  5.41289146e-05 -1.95918186e-03 -2.43583039e-05
  3.00328109e-03 -8.42719188e-04 -1.94664088e-03 -1.62740354e-04
  2.04242838e-03  5.51784247e-03  5.20547601e-03  5.37179876e-05
 -3.49059330e-03  6.38922882e-03  8.50498110e-05  1.69693599e-04
  1.78916340e-04 -3.44445234e-04 -7.29437256e-04 -2.42820636e-04
 -2.52730860e-03 -1.06907500e-03  8.88115803e-04 -1.87361363e-03
 -1.64344347e-03 -1.38228133e-03  2.35138801e-03  3.54296531e-03
 -3.46823735e-04 -2.43680787e-03  6.89247752e-03  2.66578654e-03
  2.45440141e-04 -3.70949020e-03 -3.04907960e-03  1.69075713e-03
 -6.29451149e-04  4.33136332e-03 -3.53126786e-04  2.88331304e-04
 -4.67656962e-05 -5.51439717e-03  3.67885334e-03  1.68352064e-03
 -2.12626498e-06  4.60254539e-03  3.35930818e-03 -4.85484535e-03
  4.09930196e-04  4.99097585e-03 -1.00036679e-03  2.07817129e-06
  8.62104499e-05  6.06567446e-04  1.66800539e-04 -5.24681909e-03
 -3.52322305e-04 -7.64184382e-04  2.26200023e-03 -6.51057612e-05
 -1.61114674e-05 -3.84253439e-03  3.06972922e-03  4.83831274e-04
  1.76165954e-04  1.56966700e-04 -5.23723769e-05 -1.22066870e-03
  1.10771571e-03  3.74974288e-03 -3.19692266e-03 -9.61355338e-04
  4.68781056e-03 -2.61365115e-03  3.42797374e-04 -1.10821891e-03
 -6.32006747e-03  3.77730206e-03  3.69843393e-03  3.62163234e-04
 -7.05962132e-04 -1.95001869e-03 -2.00603001e-04  3.99885795e-04
 -2.94809356e-03 -1.13699911e-04 -2.13249154e-05 -5.11007545e-03
 -4.84461090e-04  6.62160048e-03 -4.56752984e-05 -2.00692469e-03
 -4.91941968e-03  3.74214622e-05 -1.02499088e-03 -2.04660450e-03
  5.13264727e-03  4.73239508e-05  2.26440821e-04 -2.34279337e-03
  1.29826206e-03 -7.52169179e-05 -4.13615288e-04 -1.05085179e-03
  3.69424049e-04 -1.17467380e-03  1.09263500e-03 -3.58952723e-04
 -5.04298399e-03 -3.39274848e-04  2.28614742e-04  4.71987129e-05
  1.31787840e-03  2.50123951e-03 -2.25406509e-03 -6.43976620e-03
  3.99267668e-05 -1.72183887e-03  4.77759495e-03 -3.32069315e-03]
[-8.61628578e-06  2.31335531e-04 -3.62736647e-04 -1.76397806e-03
 -1.77625362e-03 -1.48043135e-03  9.01963993e-05 -4.15017042e-05
  2.47246475e-04  1.45125719e-03  1.90267855e-04  7.20435411e-04
  1.39881702e-03 -2.42646411e-03 -2.41163070e-03  2.81426422e-04
 -7.23198188e-04 -2.67207654e-03  2.65351570e-05  2.76068071e-04
 -1.54464107e-04 -1.46282138e-04  2.61323754e-04 -1.37484926e-03
 -1.51096929e-03 -1.08921801e-04  4.72962870e-04 -4.41609807e-03
 -6.80214349e-03  2.93974301e-04  4.37738690e-03 -2.57305299e-03
 -5.65003603e-03  2.06393695e-03 -3.38769706e-03  2.45220405e-03
 -3.72662081e-03  6.69863800e-03  4.87144703e-06 -2.03565037e-03
  1.04014139e-03  6.83284940e-03  5.55700828e-03 -4.08149867e-03
  8.09116913e-04 -1.46336393e-04 -1.94650100e-03  6.83840191e-03
  7.17779820e-04  1.58414166e-04 -5.61569562e-03  6.27374140e-04
  2.40359349e-03 -7.67125012e-04 -9.28543065e-04 -6.70062857e-03
  1.28193992e-03 -7.52662336e-04 -1.88087450e-03 -6.94954610e-03
 -7.87680416e-04 -9.46227165e-04  1.18965508e-04 -1.81710985e-04
  8.24577854e-05  2.81872448e-03 -2.78847353e-03  1.79121504e-03
  2.73466314e-03  5.81405242e-04  1.17423205e-03 -2.60348531e-04
 -5.22649268e-03  3.07544133e-05 -3.93294429e-03 -2.89360781e-03
 -1.78417376e-05 -6.97711764e-03  8.87769798e-04 -8.31241515e-04
 -2.02743838e-03  3.75442983e-03 -1.05738296e-03  4.29833421e-04
 -1.05984996e-03 -1.50053811e-05  4.60291486e-05 -1.84225395e-03
  4.27391608e-03  5.04882326e-06  1.13879458e-03 -1.83908119e-03
 -5.61643108e-04 -2.08640360e-03 -5.15005936e-03 -4.25209181e-04
  9.22199914e-04  6.87633090e-03 -8.00206639e-04 -2.84616730e-03
  1.33756722e-04 -2.98769604e-06  3.23322481e-05  3.14678708e-03
  2.53692974e-03 -2.28908632e-03  6.63204380e-03  7.30069419e-04
  4.00436364e-03  1.72757603e-04  1.95047535e-03 -9.42318024e-04
  4.76988566e-04  3.91134292e-03  1.93156536e-03 -4.61999109e-05
  3.11051091e-03 -7.14271191e-03 -1.18587170e-03 -2.58651117e-05
 -3.43907340e-03  1.73834986e-03  3.11093375e-04 -2.60531034e-03
  6.35560451e-03  1.26506641e-04 -1.45322460e-03  6.32319577e-06
 -2.46742722e-03 -2.78369903e-04  1.87368396e-04 -5.80079811e-04
 -2.83773442e-03  2.05158866e-04 -1.88380476e-03  6.71631372e-05
  3.26766266e-05  6.57285696e-04  2.81164069e-03 -3.78974031e-03
  2.13109869e-04 -4.98765405e-03 -2.31910722e-04  1.44097391e-03
 -6.52055075e-04 -3.45140112e-03  4.28793219e-04  1.53028074e-03
  2.72711618e-03 -1.08239783e-03 -9.24341623e-04 -5.92030090e-03
  1.16926871e-04 -4.20776821e-04 -5.40931528e-04 -4.78814897e-03
 -6.77304599e-03 -4.15405797e-03 -2.90018880e-03  3.56861329e-03
 -9.30372395e-04 -4.04053156e-03  3.38810580e-05 -1.59691484e-03
  2.99523116e-03  1.28894873e-04  5.71924045e-05 -4.03388254e-03
  4.86977466e-03 -3.84043525e-04  6.18248190e-03  8.24179990e-05
 -2.15083493e-03 -1.98385934e-03 -1.93791414e-05  1.03126754e-04
  4.86397049e-03  4.83673431e-03 -1.92501530e-03  4.72486815e-03
  4.74474447e-04 -2.69735963e-03 -7.88608667e-05  2.23439104e-03
 -1.50665316e-04 -1.94283249e-03  6.17489804e-03  1.74038907e-03
 -2.78978615e-03 -4.00530293e-04  9.67153767e-04  6.96319080e-03
  4.85216154e-03  7.12707591e-03  6.94941785e-04  3.60097399e-05
  3.37310078e-03  5.93204457e-03  2.92257118e-04 -3.23005939e-03
 -1.71681283e-03 -2.53733777e-03 -3.18498589e-06 -5.37329756e-03
  2.46275565e-03  1.69923026e-03  4.20037232e-03 -1.56513570e-03
 -6.85527912e-05 -6.08995258e-04  2.48011422e-04  7.20345230e-03
  1.63023213e-03  4.75426833e-05  4.71097508e-04  6.62548138e-03
  4.90832265e-03 -7.48062753e-04 -2.52581849e-03  6.79294603e-03
  7.34690016e-05  3.65606445e-03  4.61818578e-03  4.73418233e-04
  3.53958182e-04 -4.40732666e-03  6.31467260e-04 -7.53267388e-06
  2.02311841e-03  5.10513646e-03 -2.16887786e-03  1.47274093e-04
 -2.53387541e-03 -2.93458896e-03 -2.99928910e-03 -6.46338025e-03
 -4.27312908e-04 -1.23969540e-03  5.22047243e-03 -1.52297997e-03
 -4.38450487e-03 -6.79837880e-04  1.73063204e-03 -1.95336949e-03
  1.24284250e-03  9.10132163e-06 -6.22348289e-05  1.35898053e-03
  7.03788280e-04  2.46836620e-04 -1.79457987e-03  8.68071281e-04
  1.77797160e-04  2.49012164e-03  7.30492024e-04  7.41366202e-04]
[-3.20163612e-04 -4.26901422e-03  7.05958961e-03  3.88300799e-04
  1.04391806e-04 -3.48532641e-04 -6.88263839e-03  6.22485977e-03
  5.30660166e-04 -1.64452798e-03 -9.47210755e-04 -7.60753406e-04
  1.89287114e-05  1.44975306e-04  7.27630386e-04  6.51507353e-03
 -1.47891008e-03  2.93944072e-03 -1.14386757e-05  6.66072161e-04
 -1.04914868e-04  6.54726691e-03 -3.86943279e-03 -5.98846002e-03
 -4.77982720e-03 -2.77108629e-05 -8.98624445e-04  2.47913374e-04
  1.59777954e-04  3.02172741e-03 -2.09268459e-04  1.11892798e-05
  2.57037727e-03  6.15733894e-03 -5.90506789e-03 -1.26921429e-06
 -1.57646714e-03 -1.33147342e-03 -5.31048229e-04 -2.32783446e-03
 -4.89902739e-03  2.31189474e-03 -9.30380086e-05  5.04711959e-05
 -6.43542091e-04  1.29455183e-03  1.93217882e-04 -3.62102965e-03
 -3.06789562e-04 -3.46275041e-03  1.50668250e-04 -3.77317643e-05
  6.17328373e-03 -1.71826316e-04 -1.00770492e-03 -1.10474238e-04
  6.17729641e-03  5.61532903e-05 -6.27353675e-04 -2.58023166e-03
  3.97555784e-03 -2.18622691e-03  3.16573763e-04 -2.28429659e-04
  5.11224209e-03  2.09158273e-05 -1.10074763e-04 -1.49164919e-03
  4.94191547e-03 -4.29427163e-03 -9.51747246e-04  1.64995345e-03
  1.09020690e-05 -1.82388979e-03  1.36222608e-04  2.08221155e-03
 -5.23804956e-03  1.62541636e-04 -1.10024433e-04 -4.19602462e-03
 -9.32025381e-04  2.20637574e-04  2.35365116e-03  2.51710281e-04
 -2.08032680e-04 -3.53406745e-03  4.82116745e-03 -6.76974536e-04
 -4.75552567e-03  1.90948216e-04 -1.95448465e-03  1.61531035e-03
 -1.52950824e-03 -9.28729509e-04  6.47070694e-03 -4.00796737e-03
  6.57344419e-03  7.00945258e-04 -1.80705151e-03 -3.98425901e-03
 -1.15106004e-03 -2.04660682e-03  7.11143540e-03 -6.73167059e-03
  2.37763569e-04  2.16011029e-03 -4.41743199e-04 -6.48854611e-04
 -1.27173344e-05  1.20213806e-03  3.78810427e-03  1.97263913e-03
 -2.43834208e-04 -4.72336233e-03  9.39609173e-04  5.99865686e-03
  1.13727147e-04  2.72900019e-04  5.47304901e-03 -1.22362018e-03
  5.83103975e-03  2.59587484e-04 -6.87824484e-04 -1.32361178e-03
  8.39648498e-04  1.26421331e-04  7.43723781e-04  6.64751530e-03
 -5.95026102e-03  2.24404777e-05  7.18469889e-03 -9.05518761e-04
 -2.61574414e-03  8.56698009e-04  1.85820013e-04  5.61339994e-03
  1.60209908e-03  3.09489783e-03 -2.83096928e-03  5.37642368e-04
  1.18703415e-03 -1.62987900e-03  5.10769267e-03  2.15712965e-03
  1.25206726e-03 -5.56096295e-03  1.20239126e-03  4.86310065e-03
 -7.17686221e-03 -5.53978036e-05  3.63292008e-03 -1.41311337e-03
  2.32108050e-03 -6.07774627e-03 -1.54247228e-05 -1.90420770e-05
  4.13885638e-05 -4.92607577e-04 -8.67508893e-04 -5.98797013e-03
 -3.41439516e-04 -4.48875445e-05 -7.92864026e-04  2.74358336e-04
 -3.01777264e-03  3.91186755e-04  5.16036804e-04  1.96438877e-03
 -1.19192362e-03  8.82480136e-06  3.78186966e-03 -6.15951667e-03
  5.86496606e-03 -7.36587516e-04  1.73330927e-03 -6.19012764e-06
 -2.72727739e-05 -2.48671835e-03  6.93679584e-03 -3.59455790e-04
  1.13380508e-04  5.26478299e-03  2.01958054e-03 -2.78791888e-03
 -5.07081645e-04  3.16897428e-03 -7.28854478e-05  6.61495700e-03
 -2.81980191e-03 -9.56799085e-04 -7.68746468e-04 -4.66236882e-04
 -5.77934485e-04  1.57108911e-03 -9.95252472e-05  2.76404436e-03
  2.18856100e-03 -2.09603646e-03  1.42515273e-04 -1.17748590e-03
 -2.93014347e-03  1.59698819e-03 -5.50837918e-05 -2.76525181e-05
  3.65918206e-03  1.28833006e-03  6.36663863e-04 -7.59166909e-04
 -7.77852065e-05 -1.69135158e-04 -4.38258043e-03  3.37627460e-03
 -6.00699516e-03 -6.36323259e-03 -5.11717001e-03  2.26546142e-03
  3.67444866e-03  5.58091895e-03  2.93382843e-03 -1.96787175e-03
  2.61190369e-04  6.20373729e-03 -2.33979422e-03 -2.29465648e-04
  4.38417269e-03 -2.26411608e-04  5.90576561e-04  3.10368798e-04
 -1.71772004e-04  1.15992664e-04  4.90051387e-05  2.82124489e-03
 -1.41596190e-03 -7.54561967e-04 -1.67068579e-04  3.39024368e-05
 -4.15091892e-04 -1.24041213e-04 -6.15359704e-03 -4.77973083e-04
  3.90770670e-03  4.04684234e-03  5.76045716e-04  2.60097069e-04
 -1.64580870e-03  1.98128093e-04  2.31572855e-05 -2.40423881e-03
  2.76929215e-03 -2.34521393e-05 -1.78664795e-03 -8.09705545e-04
  2.63575330e-03 -3.92421760e-03  3.88863311e-04  4.60850203e-03]
[ 1.27910549e-04 -3.55178926e-04 -1.19684357e-03 -1.34868129e-04
 -5.02081690e-03  5.05211532e-04  3.25203441e-03 -1.05768234e-05
  5.70138141e-03  2.62196292e-03  1.33637751e-04 -2.24398509e-03
 -4.95679437e-03 -3.19025287e-03  4.07281270e-03 -5.06510478e-03
  2.76498285e-04 -2.81506532e-03 -2.46224231e-03  3.23139775e-03
  5.03822941e-03  5.37268769e-04  4.86635423e-03  8.85043497e-04
 -4.28332607e-05 -3.90486131e-03  5.23509891e-05 -8.19391600e-04
  5.57925755e-04  5.72135790e-03 -1.00215270e-03  3.04758270e-03
 -6.47509890e-03 -6.38382243e-05 -6.13643910e-04  6.64351214e-03
  4.03113118e-03 -2.99064766e-03 -1.81438228e-03  1.06197830e-03
 -9.91999497e-05  3.99204380e-04  1.10043346e-03  1.49727190e-03
  5.87572981e-03 -8.41746946e-04  2.02500432e-04  2.46514242e-03
 -3.80155395e-03  4.20160104e-06  6.40347194e-06  1.75716999e-04
  2.31930084e-03 -1.28848645e-03 -5.77589156e-05  2.65591536e-03
 -7.60275639e-06 -4.04746787e-03 -1.92761337e-03  2.19717766e-03
  1.60829022e-03  9.99317615e-04  1.65717183e-04 -4.74281339e-03
  6.79304004e-03  7.73132720e-04  1.38810665e-04  6.30429471e-03
  4.48637717e-03 -2.16278954e-03  6.60597226e-03 -4.51458341e-04
  1.02594104e-03 -1.12205703e-03 -3.35917656e-03 -4.25677330e-04
 -7.00158625e-03  3.86251423e-03  1.21309357e-03 -8.50756252e-04
  1.59748931e-05 -1.25849788e-03 -7.56353315e-04  3.25594869e-04
  6.06705453e-04  1.55630584e-03 -3.29802279e-04  6.87532238e-04
  2.92350616e-03 -4.86472396e-04  4.74621521e-03  1.64202822e-04
  6.35463014e-04 -1.41116149e-03  2.15714197e-03 -4.60978279e-03
  3.21752829e-06  5.21565052e-05  7.67317107e-05  4.03891041e-03
  1.90502121e-03  1.73153164e-04 -3.84139757e-03 -2.43500443e-04
 -4.44185640e-04 -2.41892215e-06  5.65247458e-05 -6.08583225e-03
  1.34035458e-03 -3.75724633e-03 -5.96000730e-03 -1.26192024e-03
 -3.03124809e-03  1.03153008e-04  6.37133460e-03  4.96821910e-03
 -9.39647033e-04 -2.19220253e-03 -6.83687913e-03 -6.68262126e-04
  5.04384187e-03 -4.60218057e-03  8.51573424e-04 -1.59011936e-03
  3.66548822e-03 -6.74844753e-05 -4.61385438e-04  1.53920382e-03
 -6.80741093e-04 -4.74595176e-03 -6.47089592e-05 -4.47422961e-04
  4.88843199e-05  7.03887004e-03 -2.26313766e-04  4.28249226e-04
  8.49538169e-04 -2.27607013e-03  6.03937476e-03  4.26995133e-03
 -8.00845610e-04  2.96435279e-03 -6.20196210e-04 -2.45896250e-03
  4.51935309e-03 -4.38783556e-03 -1.79534433e-04  5.02941807e-03
 -4.42543385e-04 -1.69973489e-03  1.07337170e-03 -1.56124164e-03
  2.38229631e-05  4.96339717e-04 -2.55381247e-04  2.97832005e-04
  8.15163951e-04  1.67051505e-04  3.06559808e-04  6.68532205e-03
  9.91555901e-04  2.39483115e-04 -5.10856498e-03  1.66759828e-03
 -2.01989875e-04 -6.17485258e-03  5.66722410e-03 -6.56299608e-04
 -1.42261247e-03  3.49256051e-04  4.06160995e-04 -1.10310581e-03
 -3.59348362e-03 -3.85213794e-03 -2.99611256e-03 -1.33826672e-03
 -2.13740029e-05  7.66010412e-05  1.89233189e-05 -2.10420380e-03
 -4.50761679e-05 -6.03629083e-03 -1.50068278e-03 -1.22592893e-04
  5.49898513e-05 -5.24510065e-03 -3.43881370e-03  5.49581454e-03
  3.09534812e-04 -4.29338491e-03 -1.28879039e-03 -9.24649151e-05
 -3.53665654e-03  2.77948156e-05  1.77493391e-04  3.95360794e-03
  4.61241615e-03 -4.21771290e-06  1.21102523e-04  1.27125872e-03
  4.47223081e-03 -4.28610454e-03 -2.49721394e-04  2.55370072e-03
 -1.35511658e-04 -3.61390255e-03 -7.03118965e-03 -3.28382377e-03
 -2.40832381e-03  1.83349507e-04  5.85631685e-03  1.45773255e-04
  5.35862622e-03 -3.74196259e-03 -2.68622816e-04 -7.05403183e-03
 -5.32809302e-06  5.19080205e-03 -1.86120157e-03  3.35924859e-03
  2.20158518e-03 -2.74635360e-03 -6.29397508e-03 -1.25506105e-03
  3.94448892e-03 -1.66377988e-04 -9.64005193e-05  2.38614127e-03
  5.33398870e-03 -7.04347705e-03 -7.59933309e-04 -2.27377117e-03
  3.51349317e-04 -1.67796607e-03 -2.98785359e-03  2.09462042e-03
 -1.16186467e-03 -1.00623516e-03  4.92964849e-04 -3.79782488e-03
  4.78309189e-03  1.16839582e-05 -6.88613450e-06 -4.09828318e-03
  6.61770321e-03 -4.92908518e-04  5.34133042e-03  4.35007855e-04
  4.19301273e-03 -2.18528389e-03  3.68384355e-03 -2.91665716e-03
 -1.16064302e-03 -2.67728230e-04  4.80333139e-04  3.86361652e-03]
[-1.52941945e-03 -8.66249667e-05 -5.97152310e-05  5.74126039e-03
  5.74053061e-04  6.75989657e-03 -4.16681644e-04  2.53112464e-03
 -4.49454706e-03  3.24686830e-03  4.42504079e-03 -2.50149475e-03
  6.63316952e-04  7.50609462e-04 -1.19334138e-03 -2.89687838e-03
 -4.07161876e-03  5.45146540e-04 -1.47630291e-03 -2.18544259e-03
 -6.01174836e-05  5.24298491e-04  4.23733281e-03 -2.90870827e-03
 -6.39500205e-03  1.96812069e-03  6.83279315e-03  4.34474202e-03
  1.66160652e-04 -4.99355365e-03  1.58360753e-03  4.55576904e-03
 -1.86677714e-03  4.66112094e-04  2.65676242e-03  2.36505604e-03
  6.72572360e-03  2.57553429e-05 -1.55066347e-04 -1.17117866e-03
 -2.84762915e-04 -1.16223055e-03 -2.22463211e-03 -5.10227510e-03
 -1.05015997e-03 -3.82583893e-03 -5.14156266e-04 -1.55369086e-04
 -4.07764523e-04 -4.11487885e-05  6.72997674e-04 -2.27304698e-04
 -4.54145972e-03 -1.59757707e-05 -1.44689035e-04 -7.16716972e-03
  8.22290420e-05 -6.41426725e-06  1.36090156e-03 -4.88911868e-06
 -3.36861383e-03  2.33430684e-03 -1.87776497e-04  5.02844855e-05
  1.73717013e-03 -2.02640194e-03 -4.06349739e-03 -3.10380358e-03
 -5.06118807e-05 -4.01844627e-03  6.02122698e-04 -4.28958278e-04
 -1.76828738e-03  2.26106342e-03 -4.26106472e-03 -2.52259479e-03
  1.05064365e-03 -8.64447116e-05 -6.98899137e-04 -3.34190586e-03
  1.80251471e-06 -2.58610299e-03 -1.33416881e-03  4.60822631e-04
  2.04099935e-03 -3.92596142e-04  4.26969041e-03 -5.58026838e-04
  1.47528540e-03 -3.33945059e-03  1.43492596e-04 -5.80166465e-03
 -8.44164234e-05 -4.45861208e-03  8.83616727e-05  1.36016395e-04
 -5.06092801e-04 -4.94753164e-04  7.67861658e-05 -1.45215824e-04
  3.00797442e-04 -9.09421341e-04 -4.01676503e-03  2.06642690e-03
 -4.44920278e-03 -1.54753423e-03  2.82249715e-03 -7.89975739e-05
 -9.42073031e-04 -1.70950280e-03  2.62676485e-03 -1.99772579e-04
 -7.10615387e-03 -2.77011802e-04 -3.22104624e-03 -4.05078544e-04
 -2.88854093e-03  1.28312531e-04  1.72371181e-03 -1.21626892e-03
  5.70725699e-04  3.47729086e-03 -8.37818883e-04  5.54530200e-03
 -2.99089469e-03  6.73744181e-05 -5.48036524e-03  1.27431251e-04
 -6.48356799e-03 -3.25874392e-04 -2.85957684e-03 -2.31242988e-03
  1.46807824e-05  4.48638393e-04 -1.20088000e-03  1.35529190e-03
 -5.09838181e-05 -8.65371866e-04 -4.50309354e-03  1.64542563e-03
 -5.01963371e-03 -2.49017211e-03 -1.77390283e-04  2.42720684e-04
  4.46205209e-03  3.27521927e-03  9.69728196e-04  4.37031516e-03
 -7.20996001e-03  3.37204768e-03  2.46352207e-03 -4.55009807e-04
 -4.29936127e-04 -9.10846916e-04  2.10349395e-04 -3.82792177e-04
  3.99404045e-04  1.14299381e-05 -2.14794218e-03  8.58928020e-04
 -3.14866156e-03 -1.26135752e-03 -5.36178072e-03 -2.53187987e-04
  2.66534066e-04  2.78481557e-05  4.63362064e-05  6.23405888e-03
 -1.67161769e-03  4.99637920e-03 -6.68206453e-03 -5.58989326e-03
 -2.51576023e-03  3.33639024e-03 -1.21312408e-03 -3.02198605e-03
  4.23774328e-04 -1.29130687e-03  4.02592050e-03  1.82694903e-03
 -1.56404117e-06 -9.45454331e-04 -1.98113170e-03  5.08695813e-03
  1.84256732e-03  6.70320212e-03  1.49072883e-04  1.62659549e-03
 -5.10809912e-03 -4.34322083e-04 -3.15127011e-03 -2.41588399e-03
  1.39155912e-03  3.22643440e-03  1.11237442e-03  2.95379154e-04
  8.96559286e-05  4.33281121e-04  7.13831874e-03 -1.21024761e-03
  2.94333362e-05 -4.33515321e-03 -6.44896170e-05 -9.26604621e-04
  4.47051696e-03  2.28813989e-03 -5.75469707e-03  4.90621599e-03
  1.78780001e-03  1.92627667e-05 -1.82397636e-04  1.14557654e-03
  3.84024550e-04 -2.48803274e-04 -3.82177568e-04  1.03751174e-03
 -3.42321584e-04  1.36901688e-04 -6.61988410e-03  4.27074892e-03
  1.35190960e-03 -2.49573270e-03  8.77171901e-04 -9.46289853e-04
  3.93038189e-05  6.75396636e-03  1.55084550e-04  1.73045987e-03
  1.54067370e-03  3.74225067e-03 -8.19458095e-04  3.21074133e-04
  4.66906560e-05 -2.55085842e-05 -6.98311531e-04 -1.47102968e-03
  6.99520916e-04  3.36451498e-03 -2.12204316e-03  1.16043591e-04
 -1.87143802e-04  6.20238706e-04  4.27434341e-03  8.22384355e-04
 -1.28010152e-03 -4.25800575e-03 -6.79814046e-03  2.12451832e-03
 -9.60592089e-04 -3.92700481e-04  1.62198951e-03 -9.66303482e-05
 -1.54986933e-05 -2.00281310e-03 -5.98326195e-04 -2.97621626e-03]
[-4.77886912e-05  1.04051824e-05  3.79066527e-05  1.22076465e-03
  1.35092662e-03  4.39304964e-04  1.36167019e-04 -2.58889642e-04
  6.06321443e-03 -7.83048000e-04 -1.44842955e-05 -9.23005383e-05
  1.47962712e-04  9.77175489e-04  5.57463828e-04 -2.82001087e-03
  9.22793235e-04 -2.81786389e-05  9.18183475e-04 -3.84321229e-04
 -4.33622802e-03 -6.90692880e-03  5.07538684e-03  6.85392705e-06
 -3.89564126e-04  4.85804552e-03 -1.47794223e-03  9.49393377e-04
 -4.88379780e-03  4.85342341e-03  1.29765439e-04 -5.42190887e-03
 -9.97562923e-04  6.80700916e-03  4.26187437e-04  3.36088392e-03
  4.33197056e-03 -1.67126330e-03  1.97548427e-04  2.73352062e-03
 -8.70578923e-04  4.67424525e-03 -1.24885180e-04 -3.67312482e-05
 -4.84522987e-03  9.84547175e-04  2.23507128e-03 -5.34662815e-03
  7.16696920e-04  4.05484826e-03 -1.49588634e-05  8.71531160e-04
 -9.27913938e-06 -3.29955934e-05 -2.33854675e-03  6.69486940e-03
 -6.52244422e-05 -3.54971534e-05  1.89350402e-04  2.39663245e-04
  1.42361665e-03 -2.14185874e-03  7.32529042e-04  2.62228879e-04
  5.15619663e-03 -2.32809219e-03  1.91111169e-03  5.39442828e-03
  1.70234320e-04 -4.42233208e-03 -1.50462222e-03  3.80666540e-03
  2.40690741e-04  2.11940752e-03 -1.25937737e-03  1.98118938e-03
 -9.65043336e-04 -1.00932224e-03 -2.01187059e-03  5.57398271e-03
 -5.76897169e-04  2.51246181e-04 -1.61993664e-03 -4.70185183e-03
 -1.91984464e-03 -7.98378688e-05  5.47155660e-04 -4.57941134e-04
 -6.10456630e-04 -3.36216188e-03 -1.25157761e-03 -9.03098029e-04
 -2.11202854e-03 -5.06906585e-06 -2.90099259e-03  1.69395666e-03
  1.79661294e-04  6.85305225e-03  6.31536189e-03 -2.05527758e-03
  2.19190763e-03  6.21012196e-03  2.91776006e-03 -8.05460562e-04
 -1.77442537e-04 -1.30316820e-04 -3.28800098e-04  1.47934481e-03
 -8.94000710e-04 -2.36329107e-03 -4.16166009e-03 -9.42723578e-05
 -5.27305722e-04  1.82717452e-03  5.71928253e-03  1.28033933e-03
  3.96956070e-04 -1.05560742e-03 -2.74579605e-05 -6.28762494e-03
  2.60881196e-03 -6.28267562e-03  7.23792589e-07  6.30264252e-03
 -1.02522751e-03 -6.85288045e-03  6.62603321e-04 -5.61836530e-04
 -6.72457478e-05  4.64545495e-04 -1.27427782e-03  4.29396319e-03
 -1.93264009e-03 -1.44423728e-03 -3.71092417e-03  5.15351578e-03
  7.61962634e-05 -2.16000217e-03  7.78288454e-04  2.18864339e-03
  1.35416768e-03  6.30030845e-03  8.74918437e-04  2.00729986e-03
  1.85251286e-03  5.61381867e-03 -1.33784977e-05  9.89936218e-04
  1.21061387e-04  2.52496929e-03  2.72942166e-04  2.12228086e-03
  2.21062609e-04 -4.61699684e-04  1.70804719e-04 -2.38001041e-03
 -3.06172009e-03  1.58805054e-03 -4.69137577e-03 -6.35309321e-03
  8.07050964e-04  6.50495551e-04  3.12283562e-03  3.16035308e-03
  3.84951109e-03  5.18603452e-03  3.76829596e-04 -3.17065966e-03
  2.37946089e-03  3.33201082e-03  7.93416010e-05 -6.68420649e-03
  3.42525610e-03  1.05053519e-05  3.49098789e-05  9.20421873e-05
  6.48236004e-03  6.02822399e-04  1.12522151e-05 -6.38025093e-04
  4.53726646e-04 -5.81023915e-03  3.26600864e-05 -5.89262176e-03
 -2.44073326e-04  4.38598208e-03  4.44536056e-03 -1.65140973e-04
 -4.15768028e-03 -4.91844367e-03  2.27957313e-04 -1.19297639e-03
  5.14576932e-03  9.44806063e-05  4.17326211e-03 -3.40621400e-03
 -3.82459168e-03 -4.40961699e-03  7.91621497e-05 -5.57025328e-04
  6.54951112e-05 -9.30394008e-04 -5.23663440e-03  5.14154888e-03
  5.03630029e-03 -1.84311814e-03  2.07929591e-04 -1.33674002e-03
 -1.11789754e-05  9.29468140e-05 -1.90909033e-04 -3.77536670e-03
  6.11212764e-03  4.55346401e-03  4.14202778e-03  3.29140972e-03
  2.25514535e-03  3.54787742e-03  4.59448800e-03  5.41069591e-04
  2.98465676e-04 -2.28551443e-03  1.32268296e-03 -3.28774483e-04
  7.93006839e-06  1.51271532e-03 -1.42805189e-03  3.03123881e-03
  1.99832088e-05  3.08300095e-03 -1.63393366e-03 -4.61021675e-03
  2.88885996e-04  2.19211636e-03  2.48292048e-03 -1.67689142e-04
 -1.73506478e-03  2.34647877e-03  2.82361461e-03  5.78731220e-04
 -8.08417203e-04  8.71469077e-04 -3.36258694e-03 -5.21680890e-03
 -5.53283833e-04 -2.25323956e-05 -1.84924735e-03 -9.11019611e-04
  1.18765183e-03 -2.30967233e-03 -4.24956134e-03 -2.91347759e-05
  1.16311387e-03 -3.55640124e-04  2.01709458e-03 -1.82780293e-04]
[-3.71793529e-03 -9.35582452e-05 -5.71904226e-04  4.36909574e-04
 -2.10352048e-03  3.46274553e-03  1.38129239e-04 -3.88241953e-03
  6.43641123e-03  7.09850846e-03  9.87155333e-04 -3.93764124e-04
 -5.17869449e-04  2.43836073e-05 -2.54838312e-03  4.13215696e-06
  1.22797784e-04 -1.67109858e-06 -6.40686374e-05  5.24872135e-03
 -4.07844671e-03 -5.35915922e-04  1.42301639e-04 -6.78887764e-03
 -8.93998096e-05  1.76081222e-04 -4.55787415e-04 -1.75985049e-06
 -1.40314615e-04 -1.67900009e-03 -6.53627140e-04  3.39025941e-03
  2.31560784e-04  2.49890760e-05  5.56015226e-03 -3.05015067e-04
  1.17498875e-05  7.54223394e-06 -2.05711431e-03 -4.17742447e-04
 -4.97525922e-03  1.24574378e-05 -8.07890275e-04 -8.09108999e-04
 -2.79270478e-03  6.82658377e-04 -3.34421991e-03 -8.95043786e-04
  6.17163222e-04  1.72847204e-03  3.93781169e-04 -7.86781971e-04
  1.02270766e-04 -6.20341694e-03 -9.44234578e-04 -3.19820137e-03
 -2.95194741e-04  7.54332729e-05  1.07392663e-03 -5.71966148e-04
  2.50303660e-03  6.86129126e-03 -1.28112871e-03  1.25463172e-03
 -3.46721377e-04  2.32794601e-03  1.91625573e-04 -2.71572427e-03
 -4.25418679e-03  3.25488553e-04  1.62407125e-03  8.69081161e-04
  2.72475473e-04 -1.86975715e-03 -3.01305072e-03 -3.17193470e-05
  2.11726556e-04  1.86179374e-03  9.58670133e-05  1.05448068e-03
 -2.44239678e-04 -1.00421600e-03 -1.92505877e-03 -1.76188376e-04
  1.14825459e-03 -1.69334019e-03  1.58473345e-03  1.36794340e-04
 -1.53084693e-05 -1.12704127e-03 -4.92369759e-03 -4.65125420e-04
 -4.71641654e-03  7.99794418e-04 -4.30287153e-04  2.35311309e-03
 -5.67248694e-03  4.41344301e-06  8.43527033e-04  1.45502853e-05
 -6.26063700e-05 -1.38985005e-03  1.17876136e-03  6.01011693e-04
  4.22458632e-04 -3.22500451e-03  1.12993706e-03  3.09693744e-03
 -1.22309525e-03  2.69411957e-04  6.90418005e-04  4.11674707e-05
  4.74703721e-03 -4.95140219e-04  1.85012703e-04  4.74431830e-04
  2.05686649e-05 -4.89889448e-03  1.16754316e-04 -5.42526599e-03
  2.20497495e-03  2.85942622e-03 -8.51170213e-05 -6.26797000e-04
 -8.64943155e-05  5.12209238e-03 -2.69472062e-03  3.13422627e-03
  4.40132826e-04 -9.75761548e-06  2.57785740e-03  4.95458540e-04
 -5.10790772e-03 -8.70712858e-04 -1.88382794e-04  1.70071167e-04
 -3.11744576e-05 -5.14749932e-03  3.09602686e-03  3.51781244e-03
 -3.16922702e-04  5.62877042e-05  1.85496409e-04  4.27715395e-04
  1.17744902e-03  6.07596084e-03  1.59678096e-03 -1.14834519e-03
  6.61139937e-03  1.89634990e-03  1.35548587e-03 -3.03673172e-03
 -3.99733481e-03 -1.02050818e-03 -1.41937391e-03 -2.34805553e-03
  1.02947423e-04 -5.69088564e-03 -3.68906716e-04 -1.69720898e-04
  1.09604506e-03  2.46706944e-03  1.02371611e-04 -5.42444504e-03
  4.75184825e-05  3.53911998e-06 -2.10537439e-03 -5.12814068e-03
 -3.50682549e-03 -8.29060537e-05  3.74382336e-03 -3.03181792e-05
 -1.12869238e-03 -4.10880740e-04  5.60950866e-03  6.83259799e-04
  6.67484707e-05 -4.72458545e-05 -1.25344016e-04  6.88418247e-03
  3.05199994e-05 -1.88962132e-03  2.25276691e-03 -4.66576263e-03
  2.63404757e-03  1.80713885e-04  6.42991412e-03 -4.31218002e-04
 -8.21255914e-04 -1.72451753e-03  3.61164835e-05  2.13480663e-03
  7.41507562e-05  1.31126468e-03 -3.31632131e-03  1.40613036e-03
 -1.97155785e-03 -2.28327715e-04 -3.66181539e-03  7.63477480e-04
 -1.16092888e-03  6.68228378e-03 -1.99602695e-04 -4.17321546e-03
  3.87587802e-04 -6.12779788e-03 -5.25405740e-03  1.26783807e-04
 -3.65997331e-04  1.15610601e-03  5.50263218e-04 -3.77135661e-03
 -1.34977855e-03 -3.16654045e-05  1.81886608e-03 -4.19795417e-03
  2.45931821e-03  5.33722273e-04 -7.36022213e-04  4.45208635e-03
  3.26836933e-04  1.81886914e-03 -1.93104090e-03  5.08902685e-04
 -4.36926131e-04  4.14258309e-03  2.77464859e-03  1.27516302e-03
 -5.69596181e-04 -2.97925838e-03  1.31927899e-03 -1.45535097e-04
 -3.06455020e-04  3.79189017e-04 -3.90138086e-04  3.99255080e-04
 -4.12762157e-03  2.55488709e-03 -1.54464779e-04 -5.65968970e-03
 -3.13926523e-03 -1.05507366e-03  6.84969638e-04 -5.77661969e-04
  5.02180113e-04 -1.14736931e-03  5.45136449e-04 -1.74570300e-03
  1.97252796e-03  2.69014359e-03  1.35722476e-04 -1.07568036e-03
 -2.85259632e-03 -1.80625864e-03  2.21420025e-03  3.91992841e-06]
[ 4.53756161e-03 -1.14556584e-03 -4.95874511e-03 -8.95259466e-04
 -7.17507674e-03  1.51156550e-05 -6.95987693e-05 -3.11628290e-03
 -5.45255463e-04 -2.29966858e-03 -7.08233720e-03  2.78408054e-04
 -3.62142592e-03 -2.03030674e-03  1.37142851e-03 -4.14816288e-03
 -5.08235537e-04  5.47382403e-03 -7.93212446e-04  4.48842443e-03
 -2.48353561e-05  2.66211311e-03  2.80942597e-03 -3.01780719e-03
  6.77420115e-03 -4.37814979e-06 -3.73740873e-04 -1.01468284e-03
 -1.88402736e-04 -1.67034710e-03  2.20743556e-03 -6.00345619e-03
 -5.61342549e-03 -6.07671347e-03  4.12919717e-04 -7.99856873e-05
  2.63250656e-03  2.88190570e-03  9.46674327e-04 -6.70052388e-03
  3.09953563e-04  2.81763827e-03 -5.96195373e-04  2.39177539e-03
  6.69322757e-04 -3.53732627e-04  1.26775278e-03  8.34509063e-05
  1.92023651e-04  3.24057673e-03  1.19361104e-04 -1.50704401e-04
 -5.68495586e-03 -4.60535883e-03 -1.37437183e-04 -4.88774935e-03
 -1.73639153e-04  3.46798066e-04  3.62461422e-03 -2.61542463e-05
  6.47676783e-03 -4.36042526e-04 -1.97588439e-03 -2.56382264e-03
  6.10499375e-05 -3.62315591e-04 -1.69385243e-04 -4.72223243e-03
 -1.97888746e-03  1.03813471e-03  2.37052726e-03  2.62176442e-03
 -4.60179565e-03 -2.30092303e-04 -2.97431349e-03 -4.74978014e-05
 -6.04355883e-03 -1.39489099e-06 -7.02622162e-07  7.16425644e-04
  4.31266445e-03  1.21133857e-04  1.23883993e-03 -4.97735437e-05
 -4.98902813e-03 -3.91568526e-03 -3.53231392e-03  1.90876842e-03
  7.10723113e-03  3.04439114e-03 -5.39420294e-03 -2.36142348e-03
  5.03106331e-04  1.79459970e-04  5.06740397e-03  3.13044675e-05
  4.00046173e-03  4.21294626e-04 -6.41026267e-03  2.37512723e-03
 -7.00217774e-03 -3.29221141e-03 -7.20693564e-03  1.93441579e-04
 -1.65222657e-03  8.85076803e-04  2.72457038e-06 -3.72097991e-03
  4.18119469e-04  9.79112117e-04  4.90870277e-04 -3.23917435e-03
  3.29251715e-03 -1.95083816e-03 -2.77831304e-03  2.66571093e-03
  1.15596859e-03 -3.32493503e-03  1.57168912e-03  5.14090834e-03
 -1.48996437e-04 -6.09752814e-04 -6.18723481e-03 -6.23536381e-03
  6.97224396e-03 -8.06921438e-04 -1.26804253e-03  1.88422834e-03
 -4.59611916e-03  5.85093611e-04  3.90969290e-03  3.79851952e-04
 -5.97893305e-03  1.05326448e-04 -5.98092226e-03  2.34311969e-03
  1.71348816e-03  2.49450143e-04  2.21303044e-04 -5.50387480e-05
 -4.51550333e-03 -3.63746237e-03  2.23711029e-03  1.44615958e-03
  6.45072786e-03 -2.28659934e-03 -3.04531076e-04  2.66050209e-04
  2.96290494e-03  3.11771640e-03 -3.14294130e-03  3.04355551e-03
 -2.30983804e-05 -3.05166812e-04 -2.41760139e-03  7.69628895e-04
  4.44467236e-03 -7.26409110e-06 -7.00527404e-03 -4.98663616e-03
  6.74424480e-03 -8.06871500e-07  5.28910972e-03  3.67063247e-03
 -2.21004530e-03  1.64063945e-03 -4.35876795e-03  1.09317885e-03
  6.32563430e-03 -8.43622567e-04  8.05318605e-04  5.74186556e-03
  3.21820594e-03 -3.02983082e-05  2.95355153e-03 -7.82019903e-05
  1.11291278e-04 -7.50659057e-04 -1.99408829e-03  6.60198900e-03
 -6.56477022e-03  3.93355241e-04  4.55356703e-05 -8.58576446e-05
  2.17097639e-04  3.80561762e-04 -5.28736109e-03  5.55653586e-03
 -5.74246519e-03 -3.54122642e-04  1.96726778e-04  1.99631219e-03
 -3.41762475e-04 -1.12957636e-04 -6.89158151e-03  2.54773612e-04
  4.89963544e-03 -2.37499168e-04  2.79617261e-03  6.33145424e-03
 -4.78597582e-04 -5.17135393e-05 -8.20491551e-05  5.93804551e-03
 -4.04110953e-05  7.49472990e-04  4.88081746e-03  2.40643737e-03
  5.40961369e-03 -1.35508667e-06  1.61599199e-03 -2.91104478e-03
 -2.66099047e-04 -8.82932060e-04 -1.41356280e-05 -1.27668620e-03
  1.22539120e-04  1.04786688e-03  1.27352438e-03 -4.43658402e-03
  3.44876575e-03 -7.64728583e-04  3.38498762e-03  2.82575669e-04
  5.62654401e-03  2.90111730e-04  1.82853121e-03 -1.35993903e-03
  5.74992258e-03 -3.83815878e-05  5.78408291e-03 -1.37199374e-03
 -1.69242979e-04 -1.00528303e-04 -1.54682840e-03  2.69303389e-05
  3.22096982e-03  3.63215667e-03  1.52498588e-03 -3.83836275e-03
 -1.43727531e-04  2.88056764e-03 -2.96075391e-03 -6.80764237e-04
 -3.95254601e-05 -1.27108411e-03  1.67115512e-03 -2.99324192e-05
  3.27490981e-04 -1.50410962e-03  5.51358066e-05  6.86341046e-03
 -4.22770365e-03  5.16406722e-04  1.83386725e-03 -2.49116922e-03]
[ 3.31732885e-03  1.77514534e-03  5.14910110e-03 -2.96488757e-03
 -5.37416443e-03  4.30957982e-03 -1.30771921e-03  4.36630527e-03
  1.46721315e-03  2.94570594e-05 -5.99857886e-04 -3.37285365e-04
  3.42778724e-05 -6.17815129e-03  5.14345643e-03 -3.99003853e-03
 -2.42548076e-05  1.87620873e-05  5.45034889e-03  2.06752685e-06
 -5.82797449e-03 -3.21296838e-03 -1.34057547e-04  1.78402890e-03
  1.72579788e-03  8.89476050e-04  7.43006983e-05  1.60780402e-03
 -9.66333547e-05 -5.99546669e-05 -3.08829973e-03 -4.59298573e-03
  6.92380578e-04  2.02309924e-05 -1.80747920e-06 -1.91066735e-03
 -4.11231444e-05  5.45278314e-03 -2.90215402e-03  1.77631357e-04
  5.36440575e-03  1.70549561e-05 -5.91440975e-04  1.21710404e-04
  1.34972183e-05  3.67025722e-05 -5.74375079e-04  6.75332665e-03
 -3.61728697e-03  3.79288477e-04 -7.11044337e-04 -6.67110036e-04
 -8.52714872e-05 -1.02839857e-04 -1.99200279e-04  8.01853179e-04
  4.89343173e-04  2.58444021e-05 -3.08354830e-06  2.82442186e-03
 -8.03959007e-04  6.32567845e-03 -1.94612183e-04 -1.74733605e-03
 -6.68692945e-04 -5.72885597e-03 -1.18981953e-03 -4.50693605e-03
  2.66457491e-03  1.19797555e-03 -4.18050579e-03  5.82328775e-03
  1.20280916e-03  1.19922412e-03  1.21369584e-04 -5.55015823e-03
 -8.79434738e-04  3.62270896e-04  8.82126300e-04 -4.12556882e-04
 -4.28299758e-03 -5.56115080e-03 -1.70517914e-03 -6.42370895e-03
 -1.03434250e-04  1.28456150e-03 -3.12500558e-04  5.47119696e-04
  2.69488293e-04  1.65674419e-03 -2.65623994e-03  6.73860118e-03
 -2.71586350e-03 -1.82126662e-03  3.34900881e-04  7.43922943e-05
 -3.44489929e-05 -3.59418329e-03  4.19176548e-05 -5.62426114e-05
 -5.93048143e-04 -4.31206599e-03  5.93636512e-03  2.49190763e-03
 -1.81325868e-03 -1.78802668e-03 -1.05881166e-03 -2.66340862e-03
  3.01784380e-03 -7.07467982e-03 -1.68051536e-04  3.81547485e-04
 -1.19500753e-03  5.56937922e-04  3.10656429e-04 -9.03446206e-04
 -9.08455845e-04  2.26413531e-04 -2.93679274e-03  1.07029688e-03
 -7.74138915e-05 -3.58721945e-05 -5.16978899e-04  4.94659502e-03
 -1.33650127e-03  5.60358058e-04 -1.92170809e-03  1.36174064e-03
  8.84422675e-04  4.47042599e-03 -9.32049685e-04  8.20979665e-06
 -2.53015895e-05  1.10564154e-04  3.12946057e-05 -1.99975508e-03
  2.86540350e-03 -2.06260465e-05  2.69832324e-03  3.09333498e-04
 -6.07055348e-03 -6.40850598e-04 -8.18968725e-06 -2.53710095e-05
 -2.76024974e-04  3.66558905e-05  1.70785478e-03  4.59153421e-04
 -4.46213886e-03 -4.47067805e-04 -2.24955623e-03 -9.24008031e-04
  2.00310334e-03  5.40854186e-04 -4.73218418e-03 -4.08888522e-03
 -9.09061780e-04  3.07542712e-05  2.60107352e-05 -3.61478449e-03
  3.28417061e-03 -5.77436035e-03 -4.54734472e-03  4.76123560e-03
 -8.82542529e-04 -2.05049747e-03  7.76774974e-04  5.40428101e-05
 -9.06183816e-05  7.47053334e-04  3.73190950e-03  6.47016215e-03
 -2.65259928e-04  2.08103974e-03 -1.92541021e-03 -1.53265538e-04
 -3.36965731e-03 -4.51968286e-04  2.94987473e-03 -6.88591415e-04
  7.28436369e-05  2.83952657e-03 -2.49785688e-04 -1.82255197e-05
 -5.02562204e-03  1.12041444e-04  2.07098279e-04 -9.90939666e-04
 -1.13497916e-03  5.22313217e-03  3.06956966e-03 -4.73467664e-04
  5.86236279e-04 -2.89711300e-03 -5.00136487e-03 -3.67582787e-05
  7.47552771e-05  5.16199872e-03 -4.66629965e-05 -3.66617832e-03
  3.61062771e-04  2.55692511e-03 -1.39026701e-04  4.27796666e-04
  7.62343879e-04  1.27725163e-03  2.44292163e-03  4.46474829e-04
 -1.11055402e-03  3.15246864e-03  1.20944523e-04  1.83377443e-03
  6.42940172e-03 -1.04930820e-03  7.44197972e-04  2.23274636e-03
 -5.11402435e-04  7.00115616e-03 -1.41485811e-03 -7.20149860e-04
  4.40249256e-03 -3.36096570e-03 -1.78700994e-03  4.55801987e-04
 -3.24415169e-05 -1.81122847e-05 -3.59239686e-03  7.08295688e-04
  2.51986179e-04 -4.17368155e-04 -6.90807470e-04 -4.81844047e-06
 -3.73312041e-03 -7.53462569e-04 -3.85254993e-03 -6.19313561e-05
 -5.73687633e-04 -1.26865358e-05 -3.52496940e-03 -2.41511104e-04
 -7.87099231e-04 -1.21546916e-03  2.98185914e-03 -1.11396732e-04
 -9.15721151e-05  1.11372792e-03 -2.01449207e-03 -6.53987009e-03
  1.32673551e-04  3.11540548e-03  1.21342871e-04 -6.31467577e-03
 -4.77153430e-05  5.83944525e-04 -2.65660389e-03 -2.72729559e-04]
[ 4.19582324e-03  4.36175261e-03  6.42946517e-03 -6.36564081e-03
 -2.33987393e-04  5.34228872e-03 -5.28079594e-03  4.62892887e-04
 -1.12622145e-03 -2.59361102e-04  6.23776943e-03  2.65631125e-03
  2.11874124e-03  7.05031156e-03 -3.16806631e-04 -2.43993398e-03
 -4.68347934e-03  2.54665900e-05  3.06033077e-03 -1.89654292e-03
  4.21400053e-03  7.36601940e-04 -1.37369118e-03 -2.45186543e-04
  5.53697123e-06 -4.79472437e-04 -3.50340465e-04 -1.71890573e-03
 -4.43064925e-04 -1.02980966e-05 -6.37789947e-03  2.16853689e-04
 -1.15636008e-03 -5.58121804e-03  3.59524711e-03  6.52311214e-03
  3.14825569e-03  3.31518351e-05 -5.10704428e-03 -2.44802024e-03
 -2.05182428e-03 -1.18480860e-03  2.69657313e-03 -6.56007644e-04
 -4.49607930e-05 -6.42053626e-03  1.19584903e-03  2.48374883e-04
  2.97215533e-03  3.87242915e-03 -4.57776555e-03 -4.59227174e-03
 -2.48708763e-03 -3.71100719e-03 -3.80282506e-03 -2.43989641e-03
  1.61402018e-03  2.62258844e-03 -2.68637018e-03  3.81963335e-04
 -6.26903639e-03 -4.25981845e-03 -2.55748136e-03 -5.13323646e-03
 -2.50163523e-04  4.04918044e-05  1.12921786e-03 -6.00848153e-03
  6.73546382e-03  2.23730836e-05  9.09311551e-05  5.22301143e-03
 -8.88871695e-04  3.28017541e-04 -1.04452935e-03  4.00123278e-04
 -1.09939598e-03  7.19900068e-03 -2.75168418e-04  6.81787820e-03
  1.74021876e-03 -6.48801744e-05  6.34819787e-05  2.63911636e-03
 -8.08360368e-05 -7.17188136e-04  5.13957002e-03 -1.35908322e-03
 -2.79496834e-03 -1.09742515e-03 -3.14309924e-03 -3.53306242e-03
  1.18589665e-03 -1.38887406e-03 -6.34290872e-03  8.36427478e-05
 -1.83941035e-04 -9.63404976e-05 -1.16898418e-03  1.62877159e-03
  1.73551973e-04  3.66516861e-03  4.52641083e-03 -7.18917122e-03
  5.04911329e-03  3.71717817e-03  4.82925970e-03  1.61699252e-04
  1.30316663e-04  1.62960835e-03  6.90511255e-03 -1.47632904e-03
 -7.05199482e-03 -5.69494860e-03 -6.98819838e-03  6.80208664e-03
 -3.97600312e-03  5.70573440e-03  8.86919932e-04  4.39573744e-03
 -2.20576937e-04  7.18687091e-03  2.99250122e-04  2.90268990e-05
  1.89156057e-04 -2.84943967e-04 -1.94722443e-04  1.49125392e-03
  5.34662243e-03  3.20702915e-03 -5.02877896e-03  1.13505668e-05
  1.46842110e-03  1.97973503e-03 -1.72279228e-05  4.44574426e-03
  3.67957296e-04 -5.93636671e-03 -3.99831863e-03 -5.66561429e-04
  1.51802019e-04 -1.23307451e-04 -5.14900621e-03  8.48533142e-06
 -2.95157941e-06 -5.76547390e-03 -6.85646896e-03 -2.44620709e-04
  3.35328936e-03  2.63451101e-05 -2.81468373e-04  1.11572401e-03
 -8.98785752e-04  1.98170597e-05 -1.66277067e-03 -5.58558142e-03
  9.36045711e-04  5.13408121e-04  1.02736048e-03  3.59140041e-04
  2.76751018e-03  2.31836742e-03  1.92217965e-06 -2.99842682e-04
  1.42215903e-04 -9.90146019e-04  7.17703339e-03  2.48315583e-04
 -1.49829509e-05 -5.91461905e-05 -6.73401555e-06  2.30901128e-04
 -2.76178053e-03 -6.68643261e-03 -2.30343757e-05 -4.05388203e-04
 -1.72529591e-04  3.36987016e-03  2.03547685e-04  8.48516382e-04
 -1.25536865e-03 -3.23103313e-03  6.35634482e-04 -1.77618644e-03
 -4.12233841e-03  1.48688745e-03  2.54276527e-04 -2.96630371e-03
  1.76849515e-04  7.48061371e-04  2.59809399e-04 -3.02269698e-03
  1.56666685e-04  6.25147458e-05  2.78047376e-03 -3.24017567e-05
 -7.06939604e-03  2.39703627e-03  3.14987460e-03 -3.10690014e-04
  1.46258863e-03 -6.63147108e-05  5.19041341e-03  2.44796693e-04
  5.81568760e-04  3.09809367e-03  7.99111430e-05  2.24836006e-03
  8.17693886e-06  4.28574015e-04 -7.72797911e-05 -1.33082937e-04
  6.75959945e-03 -2.33248485e-05  8.09569341e-04 -2.54903749e-04
  1.29200561e-03 -4.68034000e-04  1.99692700e-03 -6.30540296e-03
 -2.93199201e-03  6.59882908e-03  8.36589176e-04  6.18076457e-04
  1.04312698e-05 -8.04738465e-04 -4.67425219e-03  1.98621418e-03
  2.61633755e-04 -1.61448147e-03 -9.02971719e-04 -3.78823578e-04
  4.85363696e-03  2.98908283e-03  2.08650275e-03  4.24319770e-03
  7.19365548e-04 -6.73378074e-03  2.11237643e-03  1.05880628e-05
  1.85366381e-03  3.27198089e-03  7.40525005e-04  9.65926701e-05
 -8.93890021e-06  4.51391281e-04 -4.08815999e-04 -7.05796920e-04
 -2.85486983e-04  1.81550517e-03  2.92485713e-04  4.22172891e-03
  3.97184397e-03  3.80212037e-03  4.67382482e-03 -3.89425543e-03]
[-4.17578274e-03 -2.51312802e-03  3.97680111e-03  3.36651316e-03
 -2.98292140e-04 -5.41294670e-05 -4.87472481e-04 -5.79718204e-05
  6.48311081e-03 -2.21244270e-03  7.06670209e-04 -4.27824444e-03
  1.06647765e-03  9.98112605e-04  1.22674313e-03 -3.80322318e-04
  1.00558459e-03  1.48863569e-03  2.05000053e-03  2.51868890e-04
 -5.69798057e-03  6.85750478e-03 -8.63974959e-04  1.10760900e-03
  4.22131304e-03  1.78757274e-03 -2.84565293e-03  6.70281294e-04
 -2.49569010e-05 -6.42227433e-03 -3.08857733e-03 -5.93353548e-03
 -1.85983178e-04 -2.24584251e-03  1.38226147e-03  3.27404238e-06
 -1.25717900e-03  1.62796280e-04  2.33652074e-03 -4.96019080e-04
 -5.07743899e-03 -4.68009118e-04  5.52413913e-03  1.74954240e-03
  2.12712158e-04 -3.15335806e-04  3.54738933e-05  5.40357705e-04
 -2.60309019e-04 -1.54207114e-03 -1.22610660e-03  1.04508192e-03
 -1.65470394e-04  3.84258952e-03 -6.16020389e-04 -1.71885141e-03
  1.93717649e-03  4.99172240e-03 -1.55425378e-04  4.70527045e-03
 -3.78886182e-04  1.48316727e-03  2.20247046e-03  2.19840313e-04
 -1.38937846e-03 -1.04405734e-04  1.61562468e-03 -3.84311726e-05
 -2.44804662e-03  6.02600433e-04 -2.03533472e-04  4.10056133e-04
  5.01458509e-05 -3.53456009e-03 -5.52392914e-04  4.81293903e-04
 -4.92072918e-04 -5.03797525e-03  6.75589894e-04 -1.30571435e-04
  4.84892456e-04 -3.69140181e-04  1.60208119e-03 -4.96511803e-03
 -2.18402490e-04  9.84909494e-04 -3.21870416e-03 -9.81581160e-07
 -6.26278320e-03 -3.83481464e-04  1.13883154e-03  3.63488255e-03
  1.07657504e-03 -7.84686972e-04 -2.60219892e-04  4.25621681e-03
 -4.58935709e-03  2.99637943e-04  6.54915015e-05  1.15956004e-04
 -4.89108890e-03  5.27322576e-03 -4.04310777e-05 -1.86662024e-03
  1.19058489e-03 -6.23398245e-03  8.98877925e-04  7.98411670e-04
  6.60977350e-03 -2.28071202e-04  2.30498280e-05 -7.13767781e-03
  2.61110012e-03 -3.16300523e-04  8.03484394e-04 -1.09224542e-04
  7.01282865e-05  6.66129401e-03 -9.12053143e-05 -2.12188620e-06
  3.47804196e-03  8.55213335e-04  1.51625823e-03  8.69063646e-04
 -4.21767602e-05  9.84777304e-04 -4.49224585e-03 -5.97841268e-03
 -4.30666064e-05  8.42581438e-04 -1.93208787e-04 -4.53543828e-03
  2.58777184e-04  5.80772387e-03  3.17924726e-03 -2.94652514e-03
 -5.95104344e-04  9.26506622e-04  5.69207094e-03 -3.74232729e-03
  2.95230188e-03  1.00420052e-03  3.67743002e-03 -2.02169576e-03
 -8.61583594e-05  1.08056257e-04 -5.58071430e-05 -2.31019546e-03
 -2.16881897e-03 -2.56169781e-03  2.55637508e-03  1.59762976e-03
  5.91535328e-05  2.33073724e-03  3.91168523e-03  5.07364419e-04
  4.23513854e-03 -5.69191876e-03 -3.84854881e-03  4.21253527e-03
 -4.59893126e-04 -6.08282251e-04 -2.54447304e-03  7.90090889e-04
  9.07472507e-05  4.98939027e-03  8.80166116e-05  3.73222026e-03
  2.71383807e-05  3.06023222e-03 -2.59352447e-05  4.86116930e-03
 -2.63499054e-04 -6.70883446e-03 -1.44104180e-04  9.02820520e-04
 -4.30345221e-03  5.23800011e-03 -4.85218274e-03  2.16265799e-03
  6.80167046e-03  5.27421313e-05  3.17902390e-04 -1.84300254e-03
  1.18458614e-03  1.62521198e-03  2.71434629e-03 -4.02131195e-03
 -1.39491925e-03  1.41174622e-04 -1.98119097e-04  6.04241534e-03
 -2.68096383e-04 -1.11752057e-03  1.18768820e-04  1.11779780e-04
  4.72968025e-05  1.70224264e-04 -5.44795682e-03  5.51069347e-04
 -1.44131503e-04  5.48653116e-04  5.65910598e-04 -1.49764421e-05
 -5.29048429e-04  2.17763811e-03  4.95201216e-03 -1.53727165e-04
 -4.99749928e-03  3.71367480e-03 -5.59130361e-05  2.72900171e-03
 -3.72308758e-03  4.82270421e-03 -1.95685432e-03 -2.97483457e-03
  2.67372590e-04  1.57474077e-03 -2.99248749e-05 -3.14339490e-03
  8.82102192e-05  4.16106956e-03  1.26843671e-05  9.99193807e-06
 -1.51973243e-03 -5.33081523e-03  2.94002676e-03  1.14583319e-04
  6.92989537e-03 -4.41763104e-04 -6.10815297e-03  7.59073052e-05
 -4.49934242e-04  4.30324186e-03 -5.07003076e-03 -5.60512550e-04
 -4.20222936e-04  3.51358102e-03  7.82443787e-05  3.77041580e-04
  4.82522736e-03 -8.90391094e-04  3.11774224e-03 -3.05577666e-04
  1.21200634e-03  1.61384501e-03 -5.31603119e-03 -4.60242563e-03
 -6.88975616e-04 -6.80717519e-04 -3.84084239e-04 -8.83781289e-04
 -1.24351384e-04  6.37586407e-05 -4.29359803e-03  5.19569960e-03]
[-2.81791050e-03  6.60625927e-03  6.53929569e-03 -6.91795285e-03
  1.23432380e-03 -6.77576329e-04 -2.92778160e-04  1.40470204e-03
 -4.22104968e-04 -2.64062483e-04  2.66158474e-03 -2.98742662e-04
 -1.13269881e-03  3.69997746e-05  4.83506456e-05  6.28119038e-05
  1.12708481e-04 -5.13289448e-03 -5.32572718e-03 -3.50613746e-04
  7.27308153e-05 -5.81735875e-04 -3.30220772e-03  4.67059189e-03
  2.86152676e-04 -1.92931627e-04 -2.94096350e-03  1.87858601e-03
  7.62995199e-04 -1.53582619e-04  5.25451771e-03  6.06298983e-03
 -3.24521897e-03 -2.11695248e-03 -4.37380930e-03 -1.56104697e-03
  3.43887473e-03 -7.63042671e-04  2.91815140e-03  1.21577932e-03
 -4.33206135e-06  8.62705321e-04  9.41218986e-04 -1.19235469e-03
  5.09470489e-03  2.23962054e-05 -3.59604710e-04  2.40955275e-04
  6.28640536e-06 -4.99302711e-03  2.00160735e-03  6.64464319e-03
 -5.39350591e-03 -2.68016335e-03  8.52575810e-04 -1.94073475e-03
 -5.16399442e-03 -1.03792294e-03  2.28192967e-03  2.87066007e-04
  2.93607016e-03  1.77130653e-04  5.14327758e-05 -5.30196174e-03
  3.89621134e-05  1.08499833e-03  1.29266287e-05  3.82169524e-03
 -2.67458180e-04 -4.87795656e-04  9.86668705e-04  1.44885471e-03
  6.78856125e-03  2.64034242e-04 -1.01804153e-03  2.60146153e-03
 -2.12062477e-03 -3.13655685e-05 -6.28704352e-03 -1.53847639e-04
  6.91571941e-03  1.56434039e-03 -3.56610225e-04 -1.60845260e-04
  7.04795677e-03 -2.41725960e-03 -3.55271128e-03 -3.21860885e-05
 -2.02319841e-03  1.95051303e-04  1.81840033e-03 -3.10181340e-03
 -5.56367666e-05 -4.46667227e-03  3.53204603e-03 -8.41935247e-05
  5.96093703e-03 -6.37209167e-03  6.36979137e-03  9.49986955e-04
 -2.43584257e-03  8.02478581e-05 -7.38548507e-04  6.55199595e-07
 -1.40042947e-03 -4.24092332e-03 -6.09453798e-03  5.44390488e-03
  6.56814292e-03  5.34048484e-03 -3.62809043e-03  1.69353987e-03
 -6.02935879e-03  3.63991145e-04 -1.45643362e-03  2.55014058e-03
 -5.32717360e-03  3.54084087e-03  1.78042510e-03  3.08069420e-03
  1.31061116e-05  2.18145210e-03  1.89040235e-04  6.71437427e-03
  1.57558225e-04 -4.22997340e-03 -1.76991350e-03 -4.15771829e-03
 -1.96279875e-04  5.02568983e-04  4.16507032e-04  4.78668173e-05
  5.63834106e-05  4.50893285e-03 -6.03673189e-04 -3.45048866e-03
  1.08158585e-04 -4.23023497e-03  7.28365937e-04  2.17293579e-04
 -1.50001198e-05 -2.51277717e-03  9.73510583e-05 -4.45416280e-03
  7.38844293e-05  4.01734778e-03  1.71082744e-03  5.98052080e-03
  1.57267345e-03  9.29555267e-04  4.95087175e-05 -2.05570772e-03
  6.69621149e-05 -6.48952924e-03  4.13631790e-05  4.66270229e-05
 -2.38103823e-05  2.67192783e-03  4.34873701e-04  5.14306839e-03
  4.08208936e-05 -2.63518720e-03  4.56672544e-04 -4.68214736e-05
 -2.75233245e-05  4.15800534e-03  6.58597244e-03 -3.33740535e-04
 -3.03001266e-04  4.96949926e-03 -6.35711657e-04  3.98444512e-03
 -2.51755900e-03  2.10096759e-04 -4.56853954e-04 -4.92694569e-04
  2.47789321e-04 -1.17107259e-03  3.26107471e-03 -4.20909699e-03
 -1.02879917e-03 -7.44390445e-05 -4.00654060e-03 -2.93925730e-03
 -1.43748311e-03  3.05770914e-03  3.65660070e-03 -1.51982299e-03
  4.10026258e-04  3.32451126e-03  6.61635822e-03 -6.33975969e-04
  4.28467604e-04  4.93344211e-05 -1.48599610e-04  3.48419152e-04
  4.10521756e-03 -5.85525431e-03 -1.12564118e-03  1.76321658e-04
  1.72708522e-03  7.10944814e-04 -5.69459310e-03  3.79337531e-03
 -4.16592912e-03  1.13401233e-03  4.90551005e-03  4.36564033e-03
  8.73113675e-05 -6.42471931e-03 -7.52274168e-04 -1.15570951e-03
 -8.65646229e-05  5.76473843e-03 -2.86968257e-03  1.50508157e-03
  8.20528444e-04  6.45799602e-04  1.45747005e-05  4.27625431e-04
  6.40524194e-03  4.40247476e-04  3.98825992e-05 -5.21812396e-05
  9.39631054e-04 -4.98633425e-03 -4.53818495e-03 -1.86977778e-03
  2.35451875e-03 -2.96025773e-04 -1.49766583e-04  6.70187454e-05
 -6.76785080e-03  3.55360551e-03 -3.28439896e-05 -8.88543352e-04
  2.97535273e-03  6.47809726e-04 -8.42596732e-04  1.65555902e-04
  6.09602432e-04 -3.36093994e-03  3.37811905e-04 -1.83333749e-03
 -2.20901544e-03  5.13769201e-04 -8.92948047e-04  4.61212933e-03
  4.37265792e-03  6.36125599e-04  1.41720486e-03 -3.65186806e-04
  1.20220325e-03 -1.90874856e-03 -9.74680777e-05 -1.78606694e-03]
[-1.85265227e-05  7.03309445e-05 -8.93852282e-04 -1.49715678e-03
  3.82559351e-04  3.68720440e-03 -4.18929795e-03 -1.74309967e-03
  7.12806874e-04  3.63777114e-03 -1.47377057e-04 -1.11945887e-04
 -1.64762525e-04 -5.51341745e-03 -1.13315289e-03 -1.88205184e-03
  4.35236685e-05  6.12273349e-03 -6.69172305e-03 -1.85567116e-04
  6.66971570e-03  1.35007014e-04  4.22663169e-04  4.95257333e-04
 -4.34784595e-03  1.75642512e-04 -2.08381861e-04 -6.33947574e-03
  8.71120143e-04  1.41206707e-05 -1.10735248e-03 -7.30274985e-05
  5.57458661e-03 -3.52412301e-04 -1.09692244e-03  5.42663292e-04
  5.48015852e-03  6.20863571e-03  4.01888096e-04  5.63769047e-04
 -4.24479965e-03  8.70923586e-04  1.85625391e-06 -4.47398933e-03
 -5.86789183e-03  2.27574084e-03  3.92658467e-05 -3.06226942e-04
  1.11187657e-03 -4.92547880e-03 -3.53408897e-03 -7.57451550e-04
 -4.98056892e-03  2.78774117e-03  1.20398153e-03  1.61216246e-04
  2.98424475e-05  3.44832508e-03 -3.72281691e-03 -2.67737586e-04
  1.94451268e-03  4.83483907e-04  6.18746672e-03  5.10875792e-03
  6.09814041e-03 -2.86045291e-05  5.83392288e-03  5.23348164e-03
  2.79802316e-04  3.81221349e-05 -1.43167766e-04  3.52201506e-03
 -6.31246029e-05  6.41923328e-03 -5.74427651e-04 -2.86497851e-05
 -5.14577238e-06  2.07952309e-03 -6.25146759e-04 -1.59864640e-03
 -5.65502550e-03 -3.26272044e-03  1.17977011e-03  5.18929269e-03
 -1.56109618e-03  5.00258187e-03 -5.23151457e-05 -7.04378313e-06
 -9.01157768e-04  6.73181047e-04 -5.31369994e-03  3.82409336e-03
 -1.13817544e-04  1.24185782e-03  5.02833190e-03  9.40701045e-04
 -1.05092415e-04 -1.12532154e-03 -8.87381818e-05  6.26677664e-04
  2.19951554e-03 -7.20569744e-04  1.48471585e-04 -6.22159302e-04
  5.85759061e-03  4.99453955e-03 -5.81752170e-05  5.37196786e-03
  3.19695904e-04  1.88902681e-03 -1.02546490e-03 -8.60122623e-04
 -5.09543312e-05  2.61504051e-03  3.93267202e-03  9.69679785e-04
  1.58640055e-03 -8.85073923e-04 -1.00681648e-03 -4.90010717e-05
 -3.85909302e-03  1.38681392e-04 -4.72476965e-03  1.46634981e-05
 -3.09673614e-04 -1.49995948e-03 -5.11888593e-03 -4.80219252e-03
 -6.46621954e-03  6.94853589e-03 -3.53129763e-05  4.81609853e-04
  8.12453288e-04  8.33624831e-04 -2.37780544e-04 -8.06100302e-04
  1.17821420e-03 -3.36097194e-03  3.07518526e-03 -2.16073811e-04
 -1.49916266e-03 -7.97782909e-05  6.88828733e-03  3.63412274e-05
  1.80007301e-03  3.15806442e-04  2.20224802e-03 -1.93085818e-03
 -7.39516481e-05 -1.34700107e-03 -2.09829118e-04 -1.20500616e-04
 -1.19602240e-04  7.06982707e-04  4.56007712e-03  6.70179911e-04
 -4.28062068e-04  5.49069064e-04  3.09765446e-04  1.22732895e-03
 -1.83452693e-04  1.85401303e-03  4.16879008e-03 -1.04759546e-03
 -2.65574494e-05  6.78767916e-03  4.21025023e-03 -9.84488563e-04
  2.02298716e-03  2.50134459e-03 -2.12872308e-03  2.26954881e-03
 -1.27298766e-04 -1.59507302e-03 -1.18984656e-03  4.33380122e-03
  2.00912270e-04 -6.43631559e-03 -2.71125902e-04  4.71724580e-04
  1.86905022e-04  7.71855682e-04 -2.27953869e-03  6.07297672e-04
  3.21409842e-03 -2.90196179e-03  3.43078946e-03  3.29371286e-03
 -5.68901660e-03 -5.76392661e-03 -5.81531159e-03 -7.45809826e-05
  6.62616488e-04  5.66527928e-05 -8.84140022e-04  2.05090819e-03
  6.90969578e-04  5.08945359e-03  1.76852484e-05 -1.98585696e-03
  4.10045147e-04 -4.74406077e-04 -1.06013216e-03 -5.08732843e-03
  2.06037558e-03  1.35601517e-03 -8.48108187e-04 -2.32022236e-03
 -2.88421488e-04  1.04461859e-03  6.48091818e-03 -7.06786964e-03
 -5.61209116e-03 -8.01280549e-04 -5.49248666e-03 -1.91622586e-04
 -4.61348972e-03 -5.15989005e-03 -2.96087047e-04 -3.73656223e-04
 -1.39946083e-04  1.43611931e-03 -2.67814592e-03  4.05960451e-05
  4.33687193e-04 -3.05172928e-04 -2.10514348e-03  2.99185155e-03
  3.08405685e-05 -4.98136903e-03  3.31808623e-04 -2.25859967e-03
 -1.53125390e-03  4.36713081e-03  6.51535199e-03 -4.10351892e-03
  5.28380183e-03  8.67285173e-05 -5.17753823e-03  4.39837676e-04
 -4.15233592e-04 -2.46421266e-03 -1.19716619e-03  3.43513221e-03
  1.92515727e-05  7.67756433e-04 -6.20094963e-03 -6.15334829e-04
 -9.12875228e-05  3.13440116e-03  8.84370747e-06  5.69294979e-03
  7.05825104e-04 -6.07155414e-05  2.98614787e-03  5.63580312e-03]
[-7.15570201e-03 -5.57188010e-03  6.66466752e-04  2.93785392e-03
  2.13351792e-03  1.29375370e-03 -9.62876776e-05  6.22190178e-05
 -2.66338946e-05 -1.41456791e-03 -1.79946328e-03 -1.43980095e-03
  1.81774621e-04 -2.06669405e-03  3.96557168e-05 -7.79722882e-05
 -7.00896252e-03  2.07247802e-03  4.07538366e-04  2.06557026e-03
 -8.46618819e-08 -1.13312574e-03  2.48995004e-03 -6.48520862e-06
 -1.48519415e-04  2.96174200e-03  6.51148673e-04  2.39928059e-03
 -1.34605527e-03 -1.36814274e-04 -6.40472472e-04  4.66501066e-04
  2.70178324e-03  1.96806476e-03 -3.10455142e-03  5.94802461e-03
  5.00291178e-03  2.61464385e-03  7.95171475e-05  9.20718258e-04
  3.06381286e-04  1.50213805e-03 -4.79569938e-05  1.41432206e-03
  5.65883073e-03  5.23420990e-03  5.36531218e-03 -3.52170672e-03
 -4.50418048e-03  5.04582711e-03  7.90210318e-05  6.48422571e-03
  3.47223940e-04  4.02557895e-03  3.18358125e-03  2.54815878e-03
  1.23177477e-03 -3.78842895e-03  4.94163129e-03  3.97538844e-03
  3.10148433e-04  1.31601874e-04 -4.50811932e-03  2.78635604e-03
  2.05384233e-04 -1.77868101e-03 -8.72144431e-05  5.42857607e-03
 -2.87688303e-03 -2.61900950e-04  1.16662788e-03 -1.51813380e-03
 -1.00952268e-03 -3.20594261e-04 -3.92303602e-03  4.89775053e-03
 -1.95903749e-03 -1.67013225e-03  9.42036244e-04 -1.65764087e-03
 -5.31279981e-03  5.46069856e-05 -5.42203825e-03  1.10416928e-03
  1.09704064e-03  2.23133381e-04 -1.35402973e-03 -6.04702663e-04
  8.64143541e-04 -1.67225161e-03  1.73777969e-03 -5.85308031e-04
  1.37416018e-03  6.19090327e-03 -6.29747471e-04  1.80146425e-03
  6.02806440e-05  7.23824166e-05  1.38328508e-05 -2.80956708e-04
  2.94321313e-03 -3.98987932e-03 -5.07477759e-03 -2.31474122e-04
 -1.56133740e-03  4.79561029e-03  8.34812600e-05 -8.31622277e-05
 -5.58813472e-03 -5.93262355e-03 -7.91659663e-05  9.69070691e-04
  1.49602684e-03  3.32478122e-03 -1.19501848e-03  1.82221874e-04
 -1.51764770e-04  5.53577822e-03  1.36993324e-04 -5.35735320e-04
 -3.01585852e-05  1.36193213e-05  4.62479285e-03  3.10980973e-06
  3.23499774e-04 -3.03298231e-03  3.65971938e-03  3.83438938e-03
  2.42927357e-04 -4.54607141e-04 -1.50401337e-05 -1.36681207e-03
 -5.40895447e-04 -3.87061178e-05 -9.08001520e-05 -1.71113618e-03
 -1.13222719e-03  2.23803197e-03  1.04281635e-04 -2.00055816e-04
  3.49298612e-05 -9.25046266e-05 -3.85510570e-04  4.75318718e-04
 -1.63709072e-04  1.88293391e-03 -5.79834759e-03  6.81488307e-04
 -4.03359989e-05 -4.49050579e-03 -4.97244679e-06  2.98314200e-03
  3.04826364e-03 -3.70626835e-03 -9.83440911e-04 -3.71191840e-03
  3.59279213e-04 -3.38419253e-03  4.51966452e-03 -4.28646294e-03
 -1.60587664e-03  3.00995743e-03 -1.82597267e-03  4.91343716e-03
  4.71216102e-03  8.82793872e-07 -8.61939846e-06 -3.35729251e-04
  3.48417319e-03 -7.73182583e-05  5.22980229e-05  2.20317536e-03
  9.39733093e-06  4.97892893e-05  3.07758889e-03  6.70293151e-03
  3.49233131e-04  6.66793555e-03 -4.89832743e-04 -6.84546518e-03
  1.58268511e-03 -2.77486405e-03 -6.29047532e-05  5.75771284e-03
 -4.24845675e-04 -2.85536200e-03 -5.21815961e-04 -3.15606849e-03
  4.57053621e-03  4.40258396e-03 -3.45144632e-03  1.27004567e-03
 -3.91630132e-03  5.80672385e-03 -4.51698802e-03  2.62322615e-04
 -2.38804122e-03 -6.14759655e-03 -2.33816955e-03  2.40249130e-04
  9.05028505e-04 -4.93383795e-03 -2.08700516e-04 -5.57075843e-03
  3.31996746e-03  1.12033476e-03 -2.94501160e-04  1.18079161e-03
 -6.94732924e-03 -4.06078735e-04  5.88579846e-03  5.94516816e-03
 -1.64214212e-04  1.68577858e-03 -9.75825783e-04 -2.54958486e-04
  5.06155672e-03 -5.66913027e-06  6.30676744e-03 -3.61329437e-05
  2.14262906e-04  1.39917803e-04 -4.65776113e-04 -5.34672291e-04
 -1.36081468e-05 -3.48670798e-03  1.16989798e-03  1.24330441e-05
 -9.59995676e-04  6.35211768e-05  4.58087524e-05 -1.62250568e-03
  3.27621708e-03  2.61257439e-04 -9.61579646e-04 -5.59035834e-03
  1.58705034e-04 -6.43617167e-03 -1.63600736e-03  9.99298579e-04
 -1.05560487e-03  1.22460921e-03  1.81102166e-03 -4.24038334e-06
 -5.40871878e-04  4.90854691e-03 -4.39623931e-03 -2.95169371e-03
 -5.64133675e-04 -1.59582040e-03  6.13151499e-03 -7.84825643e-04
  4.92376339e-03 -8.63847965e-05 -8.79290701e-06  1.32256106e-04]
[-1.17054493e-03  2.93962429e-06  1.03459389e-04 -1.85955308e-03
  1.89600801e-05  8.81519443e-05  1.36978971e-03 -1.27397010e-05
 -4.61372657e-04  2.89201100e-03 -2.07070064e-03 -4.88491985e-04
  1.46121487e-03 -1.89001635e-04  9.42042813e-05 -2.80296901e-03
 -2.79374029e-03  2.24603812e-03  4.78508979e-04  4.94930610e-04
 -8.40272657e-04 -4.72118315e-04  1.78235411e-04 -5.26970825e-03
  1.88978454e-04  1.02305535e-04  1.68803635e-03  6.07512611e-03
 -2.80276616e-05 -2.87490861e-03 -1.25480795e-03  3.59390806e-03
  1.00029374e-03 -3.53988560e-04  1.44241419e-03  6.48729249e-04
 -1.77155745e-05 -5.26688358e-03  1.34526044e-03  1.09503543e-05
  3.71364647e-05 -4.88578819e-03 -4.84516975e-03 -6.26164298e-04
 -1.87761749e-03 -5.29996826e-03 -2.01994542e-04  1.75295705e-04
 -1.42736397e-04  3.63410904e-05 -8.87343338e-04 -9.25867108e-04
 -5.94730195e-03 -1.52282495e-03  3.00564321e-03 -1.07141663e-04
  1.86657169e-03  3.60576049e-03  1.51954620e-04 -1.18052750e-04
  2.73264441e-03 -4.35486340e-05 -2.60429207e-03 -6.72763126e-05
  7.29555172e-04  6.01658575e-03 -2.62519747e-04  6.08308673e-03
 -4.80083691e-04  1.10544228e-04 -4.34393610e-03  6.84121064e-03
  7.67133679e-04  2.03026248e-03  8.02568994e-04  4.95721529e-05
  3.46800193e-04 -1.69483738e-03 -7.66326600e-04  4.03821162e-03
 -1.80943381e-03 -3.16447316e-04 -1.97957636e-03 -1.97189386e-03
  3.03473094e-03  2.95381754e-04  1.68043832e-03  1.89403866e-03
  4.34227925e-03 -3.15107755e-03 -1.89813236e-05  6.38156179e-04
 -7.98704047e-04 -6.75686996e-03 -2.40025451e-04 -6.36908744e-04
  2.07526047e-03 -4.28303484e-03 -2.34463456e-03 -9.81471592e-04
 -3.32449576e-03  3.36562661e-04  1.05055966e-03 -2.01632908e-04
 -6.72442506e-03  4.61917332e-04 -1.11936914e-04  7.98261173e-05
 -1.30407494e-03  1.70180408e-03  2.17417589e-04 -4.21312044e-03
  2.60424572e-03  2.70037573e-05 -3.80463053e-03  5.54495993e-03
  4.82759855e-05 -4.99308669e-03 -5.58311625e-03  3.61621414e-04
 -5.62737563e-04 -9.33411648e-06 -6.94511904e-04  9.33986715e-04
 -1.04284210e-03  4.44168963e-04  4.00144470e-05 -3.08727074e-04
  4.17628056e-03 -1.26782054e-04  8.10783584e-04 -4.57463957e-03
  5.48712420e-03 -1.01389687e-04 -2.03976840e-03 -6.37766140e-03
 -4.62567269e-05  5.86028714e-03 -4.92759773e-03  7.98726122e-04
 -3.09446638e-03  2.37484177e-05 -5.49272701e-04  5.50846534e-05
  4.71054061e-04 -3.80822199e-03 -2.11602198e-04 -5.34427246e-04
  3.54988811e-03  1.38527767e-04 -3.93714619e-03 -2.25093629e-03
  5.07947838e-03 -2.26273983e-03 -1.68853491e-03  3.13881549e-03
  6.10758332e-06 -1.01078128e-03 -3.63506740e-03  4.54320941e-04
 -2.45284435e-03 -5.71331849e-04  3.77409503e-03 -2.17860046e-03
  2.91221721e-03  1.34770462e-05 -4.05848228e-05 -1.66662767e-04
 -2.99197157e-03 -3.85524020e-04 -2.35300290e-03 -1.86929416e-04
  2.10980938e-03 -2.14403130e-05 -5.38549773e-03 -1.75549834e-05
  1.49744479e-03  4.71642026e-03  1.04100520e-03  5.75106991e-03
  2.76783680e-04  1.84358446e-03  7.14695463e-04 -3.68010108e-03
  4.06185545e-06  3.26569380e-03  1.35497226e-03  6.28289648e-03
  6.59771457e-03 -6.43432507e-04 -3.81563803e-03 -2.76652545e-03
  4.75079975e-03 -1.05241641e-04  1.56298537e-04  1.14156714e-03
 -4.59414355e-03  3.82189496e-04 -1.72158881e-04  5.06921694e-03
  1.20026492e-05 -2.59457900e-03  4.21086276e-03  1.27745993e-03
 -6.29835292e-03  1.14839298e-03  4.13807769e-03 -1.48448728e-03
  1.25258343e-04 -1.31814108e-04 -3.90686244e-04 -3.88411220e-03
  3.25765642e-03  6.77563341e-03 -3.25293338e-03 -2.26785014e-04
  2.11692390e-04  6.01626089e-05  1.63403705e-03  3.27831976e-03
 -9.26965170e-04  2.51749432e-03  2.25730976e-05  3.93214675e-03
 -3.42896803e-03 -2.58974049e-03 -4.01432981e-03  1.89346469e-04
  1.58729142e-04 -4.17465613e-05 -4.16284436e-05 -2.20887727e-03
  1.39975440e-03 -4.26898619e-04  4.72093825e-06  3.62255592e-03
  9.83119608e-05 -8.99424262e-05  5.18210301e-04  5.47941400e-03
  7.06333206e-03  1.96685968e-05  2.47775401e-03  2.18061535e-04
 -2.01717296e-04  1.66981594e-04 -7.38849372e-04  3.40359212e-03
 -5.01199294e-03 -2.23768216e-04 -7.44582724e-04 -2.87685562e-03
 -3.00941516e-03  8.84393206e-06  5.09431658e-04 -4.45877176e-03]
[ 1.63009384e-03  4.49581879e-03  4.66893316e-04 -2.97973350e-05
 -6.51630717e-04 -1.27174550e-03 -7.85096218e-06  4.51808551e-03
  7.69449060e-06 -3.04917725e-07 -2.83905660e-05  3.55395969e-03
  7.42236485e-04 -4.98426345e-03 -1.02958217e-03  7.13702270e-03
  5.37702275e-03  4.04583310e-03 -1.68502444e-03  1.02028840e-04
  3.99138484e-04  6.41503746e-03 -1.97559861e-03 -9.43393120e-04
 -5.58601198e-03 -5.50836188e-04 -4.28336078e-03  2.30661930e-04
  7.15511494e-03 -5.69675741e-03 -3.45763831e-05 -1.19371903e-03
  4.36557176e-03 -3.65573932e-04  4.03412985e-04  6.47313647e-03
 -4.65134908e-03  1.30461465e-04  2.96030249e-03 -7.74425613e-04
  4.21605492e-05  2.73555854e-04 -1.93964449e-03 -1.36424037e-03
  6.11997505e-03  6.88045314e-04  3.37001449e-05 -3.95294454e-04
 -2.35084326e-03 -1.12120304e-03  2.47947594e-04  3.66212976e-03
 -4.75926647e-05  1.97237956e-04  2.84664196e-03 -4.90765277e-03
 -8.39735679e-06 -5.13656027e-03  1.06194726e-03  4.90540181e-03
  6.67087120e-03 -2.47710413e-03  6.76807103e-04  1.76398427e-04
 -1.30639188e-03 -1.02911390e-03  4.37900188e-04 -2.37180693e-03
  2.17297335e-03  4.00280590e-03  1.91173118e-03  2.90954756e-03
 -2.11251012e-03 -5.81363902e-04 -1.31464113e-03 -2.77691285e-03
 -3.17284108e-03 -1.69544549e-03  6.18645881e-04  4.74000882e-03
  6.59685101e-03 -2.47051895e-04 -2.37325918e-04  1.55621017e-04
 -7.08060817e-03  1.75017307e-03 -1.24888221e-03 -2.81913395e-04
  2.37846866e-03  1.47545318e-04 -2.48300989e-03  1.13830913e-04
 -9.99037706e-04  1.64410390e-04 -8.67292857e-04 -1.85305510e-04
 -1.31880285e-03 -6.38320502e-04  1.32288428e-03  1.04386600e-03
 -1.81381997e-03 -5.40742755e-03  6.76691137e-04  2.46942205e-03
 -2.14080645e-03  8.02042466e-04 -1.58217918e-04 -1.41503688e-03
 -3.37013069e-03 -3.49927022e-03  2.86583702e-05  7.14950238e-03
 -2.79486906e-03 -2.45281915e-03 -1.75550787e-03  8.24221969e-04
 -7.05443726e-03 -9.93201011e-05  4.03693240e-04  1.00568278e-04
  4.42584846e-03 -3.80882543e-04 -1.40141937e-03  9.37198287e-05
 -2.09067601e-04 -3.82916815e-05 -4.95044955e-03  2.77067166e-03
 -1.14672319e-03 -9.83196470e-04  5.34205408e-06  3.02917852e-06
  8.19625598e-04 -2.69666331e-04 -8.31600938e-05 -3.56572523e-04
  3.85372475e-05  4.17032000e-03 -1.15371591e-03 -5.71803254e-03
 -5.18469620e-03  4.92440089e-04  1.36575283e-03 -3.03996416e-03
 -1.70305178e-04 -1.64706024e-04 -1.17104508e-05  9.82960084e-04
  2.50234617e-03 -4.25185114e-04  2.82135742e-03 -9.31935110e-04
 -3.63739671e-04  9.53036297e-05 -6.95413160e-05  5.90859477e-03
 -4.58310856e-03  1.87810584e-04  2.57794774e-04  4.74673874e-03
 -8.21393300e-04 -1.12860158e-05  1.65658403e-03  1.59424577e-03
 -1.32094839e-03  4.42230791e-03  2.87861823e-06  5.91361284e-03
 -1.49888647e-03  7.81107903e-05  1.70784374e-03  3.33088505e-03
 -2.06134409e-04 -7.80479359e-04  9.17463811e-05 -2.43340645e-04
  2.70892125e-04  3.26877100e-04 -3.36984291e-03  3.67025029e-03
 -4.35424578e-05  2.11307630e-03 -1.78276626e-04  7.65880127e-05
  1.25213990e-03 -4.49165854e-04 -5.28251572e-03 -3.26318140e-04
 -1.10471195e-04 -4.83747948e-05  5.45305168e-03  2.14136869e-04
 -2.31789264e-03  1.26925221e-03  4.68629595e-03  1.93754529e-03
 -2.69563069e-03 -1.35382974e-03 -1.94019663e-03  5.33820220e-03
 -1.28592678e-04  3.25055071e-04 -6.37240664e-05 -6.69815043e-03
  2.69614323e-03  1.69172432e-05  4.34180024e-03 -4.93643060e-03
  7.01595739e-05 -1.32344441e-03 -6.52374747e-03  2.40025223e-04
 -3.08365126e-03  3.72718555e-03 -3.02638486e-03 -1.19516830e-05
 -4.65403186e-03 -4.49534612e-05  6.15956375e-04  1.78152307e-06
 -7.85331719e-04 -1.36307441e-04  1.32041095e-03  4.64942023e-03
  6.18839465e-03 -3.59989049e-04 -1.09174950e-03 -9.81433412e-04
 -1.81887220e-03  2.61628409e-05 -9.22572813e-04  6.55014588e-03
  1.62028673e-03  1.90100378e-04  1.57067635e-03 -1.76592529e-05
  3.80898278e-05 -1.05567753e-03  2.87844467e-05  6.84985731e-03
 -9.28423702e-04 -4.55336157e-03 -1.14254285e-03  5.36432988e-03
  3.65014794e-03  6.73633720e-04 -1.92167971e-03 -5.86244270e-03
 -1.26258478e-03  1.44275074e-03 -2.49809269e-03  1.84843223e-03
 -5.85644914e-04 -1.16228433e-03  2.73929098e-03 -3.47605719e-03]
[-4.73618228e-03  1.04768368e-03 -1.48516383e-03  2.54207703e-03
 -5.80357184e-03  5.73222032e-03  6.17980918e-03  7.45738418e-04
 -1.10996668e-04 -6.78044686e-03 -3.06729081e-04  1.73768173e-05
  5.41213453e-04 -4.04136192e-03 -1.05811859e-04  3.88267659e-04
 -2.86974529e-03  5.86283832e-04  3.80928263e-03 -9.46681568e-05
  2.42789412e-04  2.08293524e-04 -1.11904908e-06  1.09702476e-05
  6.42896691e-04 -2.12612462e-05 -6.90790358e-04 -3.45800109e-04
 -3.32553077e-04 -2.87056444e-05 -9.55252021e-04  8.68502770e-06
 -2.88591321e-05  3.92987749e-03  4.66361982e-04 -6.61883855e-03
  1.23839450e-04 -4.31098260e-03  8.87682679e-04  5.42017676e-03
  3.41959347e-03 -1.24744454e-03 -5.35781416e-05  1.84388482e-03
  3.50578951e-03 -4.18169857e-04 -3.01626365e-03 -1.11581044e-03
  2.62440312e-04 -2.51724668e-03  3.41096803e-03 -1.65988061e-04
  6.93739547e-03  6.50322398e-03  6.80486319e-03  3.22366284e-05
  2.41417786e-03 -3.81042297e-04  3.15656420e-03  1.40496313e-05
  5.48967488e-05 -4.60297041e-03  3.44257979e-05  4.99875037e-04
 -2.24994372e-03 -9.25928179e-04  7.12647236e-03  2.26588272e-04
  1.47045548e-03  2.69677538e-04 -4.69252735e-03 -3.67690769e-04
 -5.23663114e-03 -8.25549747e-04  1.35698349e-03  8.04965528e-04
 -4.34357307e-04  3.24647956e-03  9.64635718e-04  2.64106987e-03
 -5.10335458e-03  4.44137302e-03  3.43258540e-04 -4.01624372e-03
  3.47024819e-03  2.64169591e-04 -1.37952464e-03  1.31064274e-04
 -1.60592449e-03  3.12618255e-03 -2.61494276e-04  4.31996122e-03
 -6.77462823e-03  3.70002130e-05 -2.93880265e-06 -2.90327459e-05
 -1.57666733e-04  5.74843647e-03  8.32400753e-04 -2.81328175e-03
  7.14685597e-03  6.42658700e-04  1.93040229e-04  4.73499264e-03
  2.00941866e-03  6.35688040e-04 -9.22844478e-05 -3.08656044e-04
 -1.93667041e-03  1.81537577e-03 -1.81244908e-05  5.03971873e-06
 -3.44123673e-05  5.01901148e-03  1.20478987e-04  6.28155864e-03
 -3.66675835e-03 -2.89430682e-03 -5.71695796e-03  4.89615397e-03
 -4.79130974e-03 -1.38668978e-03 -2.87007643e-04  1.82856213e-03
 -1.79864404e-03 -4.18580234e-03  5.52616365e-03  2.67016489e-03
 -7.12452219e-04  2.16609683e-05 -2.10272368e-04  3.70750326e-03
  1.12336658e-04 -2.43543967e-03  1.55797674e-03  8.53707060e-06
  2.31567520e-05 -6.99048731e-04  6.77358952e-06  3.59509295e-04
 -1.57147511e-03 -2.28806966e-04 -3.37412793e-05 -4.87911277e-04
  2.24392596e-03  2.50158382e-05 -1.94200624e-04 -3.80911491e-03
 -1.06582080e-04 -3.24072565e-03  2.36238520e-05 -1.82992094e-03
  1.62077054e-04  6.62985248e-03  1.13243144e-04 -4.09912001e-03
  2.81539180e-03  5.21316967e-03  6.82057661e-03 -4.07381973e-03
 -4.33127979e-03 -1.80856298e-04  1.24661906e-05 -5.31189935e-03
 -6.95520143e-03  2.86429396e-03  3.43920299e-05  9.02027663e-04
  2.56681734e-03 -9.33654299e-04  6.84560278e-04 -1.92357933e-03
  2.12408040e-03  2.63088383e-03  5.08141129e-05 -2.18261329e-03
 -6.25297799e-05  3.60706137e-03 -4.58691510e-05 -1.01132269e-04
 -1.41170884e-03  2.88186998e-03  2.38958776e-05 -2.40169330e-04
 -1.42987281e-04  2.66204585e-03  9.78520201e-06 -6.41815798e-04
  1.66115882e-04  2.47480934e-04  6.85513875e-04 -4.00714372e-03
 -2.72612244e-03  7.11538649e-03  1.88125355e-03  6.49529293e-03
  4.46260844e-04  1.83531150e-03  2.96557090e-03 -3.68093256e-03
  1.44930025e-03 -5.91901032e-03  1.26310589e-03  5.14265732e-03
 -1.16112206e-06 -6.42906584e-03 -4.26929753e-03 -7.21217974e-04
  4.10484625e-03  3.55635699e-03  1.49590818e-03  2.20741631e-05
  1.83437499e-03 -3.79409544e-04 -8.21155998e-05 -1.02730007e-04
  4.53516603e-03  1.88037205e-03  3.82774568e-04  6.25705433e-04
 -4.80696999e-03  1.86570899e-04 -5.26418671e-04 -7.13742343e-05
 -5.41552544e-03 -4.27567072e-03 -1.44356601e-03  1.23990889e-04
 -3.07036042e-05  2.82740211e-04  1.02190122e-03  2.28437134e-04
 -1.52178713e-03  7.91973233e-04  2.55268551e-04  1.79732233e-04
 -6.44759984e-03 -5.39590683e-03  7.61538989e-05 -9.84069830e-05
 -1.12303853e-04  2.58548647e-03  7.26141128e-06 -1.12460211e-05
  1.15490718e-05 -4.75780905e-04  2.04312042e-03  2.30242570e-03
 -2.90476771e-03  4.72793491e-04 -1.51193113e-04  6.78997618e-05
 -1.42407922e-03 -3.13789208e-03 -4.95054770e-03 -8.03166490e-04]
[-2.44931257e-03 -8.35054042e-05 -1.08459969e-03 -6.36476301e-04
 -2.23297618e-04  4.38860332e-03  4.30800822e-04 -6.14260534e-03
  8.52026616e-04 -2.26157620e-04  8.55724225e-04  4.39809706e-03
  8.64949394e-06 -4.38969641e-03 -2.16414243e-05  5.69890342e-03
  3.74404034e-04  7.46873943e-05  5.36983514e-03  1.94611335e-03
  4.18539850e-06 -4.93013865e-04  1.19761880e-03  5.50631173e-04
 -3.79831136e-03 -5.97685195e-03 -7.25454648e-05 -2.54712570e-05
 -5.99794616e-06  1.35231143e-04  2.95785480e-03 -1.02590833e-04
  4.91689013e-03  6.22886164e-03 -1.01598589e-03 -6.87695493e-03
  1.83243140e-03  9.14092033e-04  1.76564390e-03  6.72436423e-05
 -3.78577840e-04  8.79527807e-05 -7.09928437e-03  3.99965284e-04
 -6.78507498e-03  1.45094534e-03  2.08633187e-03 -2.77794160e-03
  3.69995416e-03  2.61853145e-03  2.82808798e-03 -1.11965360e-03
  5.33177621e-04 -1.34893389e-04  1.54119940e-04 -1.90762780e-03
  3.69622402e-05  3.55853850e-03  7.13305511e-03  2.14446283e-04
  1.33637583e-04 -3.55739767e-03  3.07226052e-04  7.62574371e-04
 -6.87463999e-03 -1.75088193e-03 -6.23303550e-03  1.84457536e-03
  6.00603475e-03 -2.44643249e-03 -1.22281060e-03 -1.81034668e-06
 -1.14577669e-04  4.64854249e-03 -4.17214059e-03  2.90695064e-03
  1.96668942e-03 -3.08361619e-03 -1.22194547e-05 -1.12513513e-03
 -6.36072845e-03 -4.05186212e-03 -1.91137206e-04 -5.22016675e-04
  2.10190952e-03 -3.71270805e-05  1.93361431e-03  1.53114745e-04
  3.84073618e-03  4.34099077e-03 -1.48059508e-03 -6.88637395e-04
  3.76173857e-06  3.19330988e-03 -4.54287769e-05 -3.59356622e-03
  2.71512098e-05 -3.73308803e-04 -2.98109676e-04 -3.61099679e-03
 -3.60479368e-04  2.27708678e-05 -6.90628331e-04 -6.33398787e-03
  8.00871627e-04 -1.83628256e-03  2.90754159e-05  7.03070365e-03
  6.70822773e-05  6.07688752e-03  2.44852532e-04  1.09678669e-04
  3.81766209e-03  6.31703966e-03 -5.78377988e-03  2.25105515e-03
  5.10327272e-03 -2.24410174e-04 -4.91934529e-06  2.20914864e-04
  3.00920705e-05 -1.55399940e-03  3.18269812e-03 -3.81710237e-04
  3.92732833e-03  1.64947600e-03  1.33427721e-03 -4.97074058e-05
 -5.22230818e-03 -4.77515687e-03 -4.64607514e-03 -4.40452885e-03
 -3.31999807e-05 -1.53070849e-03  2.95778294e-04  1.43195180e-03
  3.58150038e-04 -8.14463128e-04 -4.90258608e-04  1.49582970e-03
  4.12976515e-03 -2.41179792e-05 -1.48615718e-03  4.39704656e-03
  6.20374146e-03 -1.08001081e-03 -1.06861561e-06 -4.09607726e-04
 -8.38188010e-04 -4.33358139e-03  1.84047443e-03  2.80505207e-03
 -5.70682176e-03  1.97659634e-03 -4.56539342e-03 -1.53422655e-05
  7.11999643e-04  4.34453377e-04  9.09984854e-06 -6.54462554e-03
 -1.65551119e-03 -2.33046266e-05  2.55875476e-04  2.67317437e-03
 -1.64100798e-03  6.87943988e-03  6.45240668e-04  1.06747652e-04
 -1.45786003e-03 -3.21640434e-03  2.52364833e-04 -9.20115267e-04
 -3.46022267e-03 -3.08932216e-04 -2.25280213e-05 -4.96273980e-03
 -3.87898208e-03  4.53477399e-03  8.80846741e-04 -5.74384727e-03
  4.38281341e-05  3.27628441e-04  4.78082702e-06 -1.39309678e-03
 -2.98918254e-03  1.11644781e-03 -4.47544481e-03  6.40741617e-03
  1.33780276e-03  2.22933537e-04 -4.62288977e-03  5.67856751e-05
  2.31221864e-04  5.39514001e-03  4.04086955e-03 -5.73417387e-03
 -9.08966359e-04 -1.54360354e-04  2.17095566e-05 -1.30128608e-05
  1.69006488e-04  1.22220480e-03 -2.94258930e-03  2.81734455e-03
 -4.68713101e-04  4.66520418e-04  1.21012418e-03 -2.49634480e-03
  3.50583910e-04 -4.44367256e-05 -1.73137877e-03  3.18455937e-03
  3.00966665e-03  2.21013594e-03  1.11004552e-04  3.67326447e-03
 -3.63200432e-03 -2.03120395e-04 -1.85657880e-04 -6.60452765e-04
  6.07649603e-04  7.46914125e-04 -7.27876699e-06 -6.65621887e-03
 -1.22779065e-04 -2.11412061e-05 -5.64917391e-03  4.67000441e-03
 -1.13949759e-03  9.48083531e-04 -3.71443075e-03  9.91216075e-04
  6.58398298e-04 -1.37394365e-03  1.33499984e-04 -1.32646954e-04
 -5.45134192e-03 -1.11096132e-03  4.13831004e-04 -1.25320640e-03
 -6.54608577e-03  2.60044628e-05  8.28866218e-04 -7.03295118e-03
 -3.13605097e-04 -4.59616180e-03 -1.54371745e-03 -1.66776475e-05
  6.94247545e-03 -3.43394601e-04  1.38925355e-04  7.21654517e-03
 -4.02778376e-03 -5.08607615e-04  1.09704719e-03  6.86619705e-03]
[-5.81592478e-04 -9.66589619e-05 -1.75563608e-04 -1.07035364e-04
 -1.69471025e-03 -4.49697848e-03  1.29064234e-03  1.08708014e-03
  5.38059593e-04  9.04875084e-04  2.89172753e-03  2.75232267e-03
  6.58891153e-03 -2.08443315e-03 -5.09743586e-05 -4.11961205e-04
 -1.10000258e-03 -1.49662610e-07  7.14921690e-05  7.89983767e-04
  4.98561594e-04  1.97168037e-03 -1.18082277e-03 -4.58068999e-04
 -1.11306038e-04 -5.14015646e-03  3.49612781e-03  4.75897219e-03
 -3.83638431e-05 -4.60781082e-03  1.29481885e-04  4.34821210e-03
 -1.01152772e-03 -1.50699299e-05 -4.22976956e-03 -5.32830160e-04
  1.36677691e-03 -1.09023670e-04 -3.48859044e-04 -7.69594696e-04
 -4.30112054e-03  6.12453127e-05  3.20951606e-04 -2.26155986e-03
  2.80863046e-03 -6.67962507e-03 -4.62274384e-03  5.02384470e-03
  1.69020226e-05 -1.88540094e-03  3.47551160e-04 -6.66473411e-04
  3.84841891e-03 -1.02651966e-04 -1.20477176e-04  1.06847554e-04
  5.13096510e-03  6.00059608e-03  2.59770809e-03  3.35473231e-03
 -3.88082192e-04  2.39443916e-04 -7.80677392e-04 -1.65836813e-03
 -1.10924559e-04  5.88059028e-04  2.51019970e-04 -6.17234914e-05
  2.49333451e-04 -7.03849365e-03 -5.19599391e-03 -1.05087723e-06
  8.39279230e-04 -1.52658587e-03  5.76584554e-03 -6.89452991e-03
  1.17912718e-04 -2.30853543e-03 -3.18285280e-04  1.33542771e-03
  6.78114444e-03  3.82271143e-03  3.35671334e-03 -1.80870966e-03
  2.74935418e-03  1.66321716e-03 -1.81264116e-03  4.56950794e-03
  8.50428925e-05 -1.36934422e-04  6.16655424e-03  3.00216038e-04
 -6.42652431e-03 -6.83359677e-05  6.52326186e-04  2.13329684e-04
 -1.65107820e-03  6.70993038e-03  4.60657654e-03  5.49255751e-04
  2.18011089e-04  3.83575342e-03 -5.68393755e-03 -2.16520340e-03
  9.33841118e-05 -4.60412503e-05  1.46579494e-03  2.81052038e-05
  6.94599942e-05 -2.28864962e-03 -6.76801358e-03  1.81102692e-04
  1.36393735e-03  4.63930125e-03 -1.21751247e-03 -2.01954321e-04
 -3.92179188e-03 -5.33344047e-05 -4.66951924e-03 -6.52795518e-03
  4.09551764e-05 -7.46389204e-04 -2.35639127e-03  2.19213316e-03
  4.82378199e-07 -2.86056309e-03  8.99485530e-05 -8.60532204e-05
  5.82596876e-03 -7.09126769e-03 -4.38416660e-03  1.92196157e-03
  6.98654034e-03 -3.86788249e-03  2.06841273e-03 -9.43401672e-04
 -8.29931762e-04  4.21239095e-03 -2.70613871e-05  4.21827632e-03
  1.71659047e-03 -6.97051376e-03  5.04638928e-04 -1.76452082e-04
  3.62185633e-04 -7.38435028e-05 -4.47839154e-03  1.30711122e-03
 -6.06431960e-04  4.08018528e-05  5.44462011e-04  1.29104965e-03
 -2.94463508e-04 -2.66234020e-03  1.49865797e-03 -2.64656489e-03
 -6.57357836e-03  5.79561151e-03 -5.89737037e-03  1.76418200e-04
  3.16702953e-03  1.40936179e-04 -3.66451582e-03 -6.26350952e-03
 -3.49215320e-03 -1.28230707e-03  2.16654269e-03 -7.04262957e-03
 -2.15072870e-03  7.66498283e-04 -2.26103463e-07 -6.70401250e-03
 -5.14777896e-03  1.29369485e-04  2.75968857e-04 -4.33611790e-03
  2.60496887e-03  3.49918592e-03  4.92041327e-03 -3.77233350e-04
  4.12118614e-03  4.75677006e-03  3.01609903e-03  3.93727687e-03
  2.59945142e-03  3.51029923e-03  4.48932463e-03 -4.74941485e-03
 -6.22372459e-03 -6.36816024e-03  2.93146501e-03 -2.64375812e-05
  1.67815756e-04 -5.37438266e-04  4.37146242e-03 -4.34487544e-03
  1.35290081e-03 -5.05568147e-03  1.32024133e-04  3.34807128e-03
 -5.26485782e-04  6.82112330e-03  2.42300071e-03 -8.81708963e-04
  3.59053241e-03  3.31193757e-03 -9.08512828e-04  4.89593282e-04
 -7.25919654e-05  2.20015496e-03 -3.09315560e-04  3.45071666e-03
 -4.22772369e-03 -7.76294310e-04 -9.90909141e-05  6.76847744e-04
  1.82188892e-03 -6.25886489e-03  2.89447961e-03 -1.10585799e-04
  4.57720733e-03 -7.72418477e-04 -3.59575059e-04  2.07082078e-03
 -1.80464210e-05  6.33418725e-03  5.50742237e-03  3.87933923e-03
  3.06348555e-03  1.02040863e-05 -6.38616758e-03 -1.55616593e-03
 -9.43292654e-05 -7.79010489e-05 -4.19924097e-03 -6.10995844e-04
 -1.49712025e-05  5.22274574e-03  4.92904889e-03  1.97515094e-03
  1.62278318e-03  5.60387829e-04 -4.17266083e-03  1.18812493e-03
  5.30615678e-03  6.42358108e-04 -7.18345638e-03  5.08205324e-04
  2.85907352e-04 -7.69655387e-04  3.26022902e-03  1.10685909e-03
  5.94752510e-03  2.05597414e-03  1.70070906e-03  7.61905749e-05]
[-3.75509905e-03 -1.13469528e-05  3.99991939e-04  6.56877583e-04
 -7.16925121e-03 -3.71631471e-05 -6.23398102e-03  2.00772958e-03
  3.79848573e-06  4.13444083e-05  3.31132769e-03 -4.21241685e-03
  4.18589435e-04 -2.97129780e-03 -4.95961581e-03  3.67873580e-03
 -2.78543404e-03 -5.29402881e-03  3.74348279e-03  4.79207423e-03
  6.64879088e-04  1.36050452e-04 -8.47552187e-04  1.41754118e-03
 -2.73776652e-03  4.99190099e-04 -9.86300263e-04  3.37093849e-04
  1.83228170e-05  5.69963690e-04 -4.13385024e-03 -3.75460274e-04
  7.87950704e-04 -1.52374455e-03  2.37238034e-03 -9.79768896e-04
 -1.42812828e-03 -1.51337268e-03  1.82632727e-03 -8.07209957e-04
  3.22010615e-04 -1.33723827e-04 -5.37818384e-03 -4.57589999e-04
  1.04690362e-04 -2.35958855e-03 -7.59396934e-05  1.26322977e-05
 -2.34821843e-03  2.99361730e-03  3.53170740e-03  1.59534189e-04
  5.37832235e-05  2.18265678e-03 -7.20305176e-04  5.71719626e-04
  3.61033261e-03 -1.99082289e-03  7.13750829e-03 -1.69156854e-04
 -9.14632671e-07 -1.57100976e-03  7.20848469e-06 -3.14662527e-03
  3.58799299e-03 -7.81844575e-05 -4.58624774e-04 -1.73512221e-04
 -5.47193122e-04  4.61511674e-03  4.19241905e-06  2.52242004e-04
  1.54259450e-03  1.84397013e-04 -2.26836504e-04  3.85444542e-03
  1.35914782e-04 -3.02551584e-04  7.43771862e-06  6.79841359e-03
  2.38804531e-03 -9.55309424e-05  4.43648879e-03 -1.38192534e-03
 -1.84664164e-04  1.05314994e-03 -3.50639188e-04  2.07331145e-03
 -2.17313951e-03  2.04568994e-03  1.98865410e-04  6.12325653e-03
 -6.76403326e-03  1.64257880e-04  6.39674270e-05  2.94253470e-04
 -5.87948091e-04 -4.39740128e-03  1.10537329e-03  1.77012263e-04
  6.29598139e-04  1.79396839e-04 -6.82028337e-03  9.15428970e-04
 -1.06958349e-03  3.79716494e-03 -9.28872181e-05 -5.45125853e-03
 -4.28108722e-03  6.47651546e-03  3.28599729e-04  4.54508586e-03
  7.10773557e-04  1.48472206e-03  1.88197651e-03 -2.38968184e-03
  3.13864907e-04 -4.92388781e-03  3.71534269e-04  9.50432153e-04
  9.82239610e-04  2.40325181e-04  3.32118449e-03 -2.73476899e-03
 -2.23106681e-03 -3.86936183e-03  3.61114388e-03 -1.99225824e-03
 -2.22411318e-03  1.37080337e-04  1.83200111e-04 -1.74434253e-06
  3.23185151e-03 -3.05148287e-03  1.33488322e-03 -2.14737298e-03
 -2.26441900e-03  1.20362214e-04 -6.32801104e-03  2.71461832e-03
  2.43119056e-03  4.42897560e-03  1.76607652e-03  2.61957941e-05
 -7.18678753e-04  3.26683487e-04 -4.40380154e-03 -3.30942276e-03
 -3.15568389e-05  2.88084267e-04 -4.61163768e-04  3.39341122e-03
 -4.00273124e-03  6.12165218e-03 -6.12181001e-03 -5.16647568e-03
 -6.27977321e-03 -5.26956972e-03 -9.05396924e-04  1.64274316e-04
  2.20411995e-04 -1.02903459e-03 -8.40215454e-05  1.70359202e-03
 -4.37753398e-05 -2.35065290e-03 -6.70030303e-03 -8.41686383e-04
 -4.80724760e-03  2.05111102e-03  2.75628232e-03 -1.15135366e-04
 -4.58952233e-03 -4.36541885e-03 -2.38994373e-04 -9.14379415e-05
  5.33555431e-04 -9.17121517e-04  1.79237809e-03  2.10279523e-04
 -3.51672199e-03  1.58038833e-04  2.11470598e-03 -8.27878052e-04
 -2.62273335e-03  2.31182989e-03  6.74360838e-03  3.41239625e-04
 -6.80273709e-03  1.82761690e-04  6.37959943e-05  2.52002109e-03
  2.01860915e-05  7.99785723e-04  2.01282205e-04  5.59919907e-03
  9.12961329e-04 -2.43720215e-03 -5.67831796e-04 -5.60473417e-03
  3.13338964e-03  1.69405010e-04 -1.42159909e-03  2.38403953e-03
  2.80677771e-03  6.97195536e-05  1.90080936e-05  3.70573514e-03
 -1.16807478e-03 -5.38756483e-03 -2.60765288e-04 -4.88012502e-06
 -1.06547682e-03 -2.52767269e-04 -2.81811113e-03  7.21360853e-03
 -1.62887251e-04  7.02994624e-03  8.93984546e-06 -2.96111243e-03
  2.15907509e-05  6.59188046e-05 -1.31606979e-04 -6.21933362e-03
  7.44470234e-05 -3.32402023e-03  2.17481257e-04  6.11773751e-03
 -5.46905590e-03 -1.52736386e-04 -2.89864811e-04  3.74472654e-03
  1.75832780e-04  1.63923067e-04  5.79218737e-05  4.86147761e-03
  3.68140121e-03  8.30026429e-04  1.73010619e-03  6.96027002e-03
  1.80229729e-03 -3.71143095e-03  6.57744401e-04 -6.95507965e-04
 -5.21432261e-05  1.40866527e-03  7.04846753e-04  9.44677119e-05
  9.37838498e-04  5.29379872e-05 -3.06512492e-03 -1.02484061e-03
 -3.37314878e-07 -2.15506570e-03 -3.13810078e-03  4.25473973e-04]
[ 1.96709786e-03  3.34649909e-03  3.39434443e-03 -2.70361985e-03
  3.98598402e-05 -2.80472458e-04  1.34988569e-04 -4.14185512e-03
  4.30316412e-03  5.64101800e-04 -3.97360957e-03  1.41376749e-03
  3.25595405e-04  1.60367433e-03 -2.07411294e-05  6.74763935e-03
 -1.91421845e-03 -1.27844309e-03  7.97207046e-05 -6.54637332e-03
 -3.06367453e-03 -6.47600309e-03  2.51798661e-04  2.22333305e-03
  3.50200755e-04 -1.99035769e-03 -1.28356379e-03 -6.56116058e-06
 -7.20206511e-04 -4.26229603e-03 -1.64632738e-03  4.95263873e-03
  5.75786448e-03 -6.47289299e-03 -3.76710000e-04 -2.22677967e-04
 -6.38118913e-04  4.57867307e-03 -7.06746910e-03  4.89841048e-03
 -1.05962124e-03 -5.51812904e-03  4.64962042e-03  3.32838772e-03
 -2.58053750e-03 -2.13095704e-03 -7.02559873e-04  3.65251753e-03
  5.86859358e-03 -1.45848406e-03 -8.64957971e-04  3.22806646e-03
 -5.21966821e-03 -5.10151955e-04 -7.67781185e-04  6.86720898e-04
  3.05595977e-03 -1.94286081e-03  1.86712700e-04  5.78943743e-03
  3.07022888e-03  9.68742206e-04 -2.39843640e-04  3.30086786e-03
  5.72509811e-03 -1.76036536e-03  3.76526461e-05  2.19776355e-03
  5.20037938e-04  5.58669200e-03  8.79058580e-04  5.99169350e-04
 -1.24374485e-03 -1.69478080e-05  7.30703624e-04 -1.32141346e-03
 -8.79810987e-06  5.33784419e-04 -8.12388021e-05 -1.73236013e-04
 -4.96896489e-06 -9.82041231e-04  1.23874509e-03  1.33750249e-03
 -6.53767597e-04 -2.06863455e-03  5.80705775e-04  1.54016470e-03
 -9.87469689e-04 -5.02114562e-04 -2.73482796e-04  1.17424673e-04
 -3.06781993e-03  6.68261163e-05 -6.73619708e-04  1.70902502e-03
  8.33931752e-04  1.31046285e-04  2.44402636e-03 -5.47889902e-04
 -4.73140165e-03 -4.62106396e-04 -5.29916303e-05  6.91355606e-03
  9.24152087e-06  5.15296202e-03  7.72962525e-04 -5.23887814e-03
  4.91903059e-03  5.49028409e-03  1.15113834e-03 -6.15795421e-03
  2.54407752e-04 -2.88551793e-03 -3.78454347e-03 -2.20843475e-03
  4.12595012e-04  1.43200758e-03  5.06956563e-04  1.15585630e-03
  1.10162789e-03 -7.81265052e-04  9.16570499e-04  1.54945373e-03
 -4.79585274e-05  8.77450130e-04  2.18011126e-03 -3.16869264e-03
 -3.61275114e-03 -2.42660432e-03 -3.88051736e-03  2.13624241e-04
 -4.43869301e-04 -5.27931886e-03 -6.05139634e-03  6.92577571e-03
 -1.13842008e-03  1.66663755e-03 -5.40010493e-03  1.85379165e-03
  8.24191079e-07  1.84395893e-05 -4.28633163e-03 -3.45949269e-04
  6.56497908e-04 -2.28943641e-03 -1.72116940e-04  8.34682519e-05
  1.89798448e-03 -1.60864404e-04 -4.59360476e-04  2.01427850e-03
 -3.27713060e-03 -6.36486468e-04  1.60788461e-04 -4.40116936e-04
  2.08380735e-03  3.43995981e-03  3.29143762e-03  6.11906977e-04
  1.49924019e-03  5.81330361e-03 -6.60289720e-03 -3.04752744e-03
 -6.48082328e-04 -6.87392283e-03  1.16437567e-03 -1.38740649e-03
  1.87806918e-04  1.70954709e-06  5.29021994e-05  2.05989266e-03
  7.13587056e-04  2.20767401e-03 -1.91616329e-03 -2.72005178e-03
 -2.83846746e-04 -1.66244850e-04  2.36034841e-03 -1.35492951e-04
 -5.24633468e-03 -7.84160777e-04 -1.53469976e-04 -2.71073477e-03
 -5.27275182e-04  1.79081565e-03 -1.58225224e-03 -1.54224822e-03
  5.30348618e-04 -1.78669001e-03 -1.80923851e-03  3.37610979e-03
  1.23582117e-04 -2.17431468e-03 -1.65197995e-05  6.89212045e-05
  5.25165534e-05 -3.45993699e-05 -4.95777882e-04 -6.67618482e-03
  4.84671463e-03  3.63894334e-03 -6.61989321e-04 -3.73682342e-03
  6.69032762e-04  2.39683990e-05 -6.24123848e-03 -1.19536756e-03
 -4.48096350e-07 -3.91013116e-04 -5.27498677e-03  1.40590709e-04
  2.62295449e-03 -4.51757104e-03 -5.60277253e-03  3.84402018e-03
 -2.00452233e-04  3.15159691e-04  1.35687429e-03  4.07874358e-04
  2.61233065e-03  2.35057288e-03  1.11426605e-04  1.72799985e-04
 -6.51440289e-03 -2.84303520e-03 -1.21406196e-03 -4.44960127e-03
 -4.19888230e-04 -5.52400541e-03 -1.54016542e-03  4.14098616e-03
  3.54052589e-03 -5.61001238e-03  6.40829255e-03 -1.61127157e-03
  4.14751550e-04  1.12884171e-03  2.15455878e-03 -2.39484909e-03
  6.07436525e-03  7.03185671e-03 -6.12437144e-04 -4.34023041e-04
  2.38593556e-03  3.02731650e-03 -5.09617513e-03  2.78380488e-04
 -1.81345558e-05 -3.81132658e-04  1.21547524e-04 -3.70112192e-04
 -3.99492266e-03 -8.36067786e-05 -1.64795240e-03 -5.25097076e-04]
[ 2.37964965e-04 -4.12194693e-03 -6.23057769e-03  5.72820330e-03
 -1.39034971e-03 -3.63103752e-03 -4.43701217e-04  3.89914105e-03
 -1.93364474e-03 -4.05588901e-03  2.13710750e-03  2.16523880e-04
  4.33479642e-04 -5.56844220e-03  7.32304152e-06  4.09636019e-05
  1.01915261e-03 -1.01785333e-03 -1.42842607e-03 -1.52241509e-03
  4.16990503e-03  4.03447690e-06 -1.25584606e-04  4.09684884e-03
  4.71584148e-03  2.39377395e-04 -3.64862696e-03 -4.00662871e-03
 -3.11145837e-03 -7.79629937e-04  5.53455331e-04  3.98086708e-05
  3.84147720e-05  1.58965043e-03  5.34390041e-05  3.28684313e-03
 -3.46940459e-04  2.90349640e-04 -1.97895219e-03 -1.47392201e-04
 -3.82456109e-03 -7.24205442e-05 -1.84256505e-04  3.69462508e-04
 -4.12214268e-03  4.32839851e-04 -6.82082694e-03 -5.68832329e-04
  2.79621466e-04  1.20481853e-05  1.88224454e-03 -3.74418192e-03
  6.84032629e-03 -3.50733177e-05 -5.93765322e-04  3.10352385e-05
  2.99319368e-03  2.98380855e-03  5.03019691e-03  4.48956155e-04
 -2.70152419e-03 -5.16405932e-06 -1.80449812e-03 -3.17068251e-03
  1.71559845e-03 -3.10956029e-04  6.80464780e-03 -3.11265604e-04
 -2.12073659e-03  1.56461255e-05  6.06667380e-04  2.23803463e-03
  1.00796818e-04  2.56262925e-03 -2.70225566e-04 -6.64591004e-05
 -2.15350185e-03 -1.31803005e-04  2.84498491e-03 -6.90793184e-03
  1.15540683e-03 -2.27350641e-04 -4.58100186e-03  4.67899984e-03
 -6.53552330e-05  3.07457635e-03 -5.50092045e-05  2.42132394e-04
  1.40942943e-03  8.69375577e-04 -8.94486102e-04  6.18413127e-04
  3.30705938e-03 -2.30741374e-05 -5.66153343e-03 -4.00728309e-05
  2.42135688e-03 -8.61341295e-04 -2.32695469e-04  1.38484046e-06
  4.67945321e-03  4.44842856e-03  5.66013368e-03  3.90410445e-04
 -1.39887587e-04 -1.39574785e-04 -3.22773781e-04 -7.16641640e-03
  4.23515338e-03  3.53712761e-05  3.69786930e-03  6.07829551e-03
  1.38122048e-03 -5.22768618e-04  7.62519127e-04 -5.28300139e-05
 -2.12848576e-04 -4.62288986e-03  4.22960733e-05  3.00640079e-04
 -2.16874632e-03  2.53330918e-03  4.54657946e-03 -9.35504162e-06
  4.94283206e-03 -4.45544598e-04  1.30242898e-03  2.73243466e-03
  3.01817975e-04  1.94611430e-03  2.96358679e-04 -5.37537152e-03
 -3.09564005e-04  5.57730825e-03  1.90947167e-04 -1.29900979e-03
 -3.45232007e-03 -4.79323771e-03 -5.34442063e-03  3.44910956e-03
  6.51447602e-03 -1.50830160e-03  1.81327594e-03 -4.12741020e-03
  7.90043145e-06 -6.52211342e-05 -1.07333605e-04 -9.31136772e-04
 -4.96621600e-03 -9.59267637e-04  3.43384770e-03  1.62053047e-03
 -6.85156278e-03  1.53452525e-04  4.26919807e-03 -9.19662127e-04
  6.93219602e-04 -4.91616548e-04  3.55842049e-03 -5.22256758e-03
 -8.17030600e-05 -4.52633807e-03  1.09094573e-03 -4.17476391e-03
  5.76010514e-05 -6.89898200e-03 -2.46898243e-03 -1.62487982e-03
 -2.15341736e-05 -1.82526229e-03 -8.75974811e-04 -6.24089393e-05
 -2.99098721e-03  6.42672447e-03  4.89494345e-03  6.23501910e-03
 -3.25379657e-04 -5.89664370e-03 -3.92568164e-03 -3.37189807e-03
  9.29270720e-06  2.76423563e-03 -2.94919923e-04 -4.12832932e-03
  4.88912951e-03 -7.20498595e-06  5.72148815e-04 -3.65058914e-03
  3.91969783e-03  2.48125389e-03  1.95300900e-03  4.09792896e-04
 -5.95684585e-03 -1.78465633e-03  1.71653390e-03  1.12190359e-03
 -4.16410859e-04 -2.39808545e-03 -2.01087863e-04 -5.54870608e-03
 -4.52922997e-03 -8.18663227e-04 -6.60855379e-03 -5.32243209e-03
  2.50249929e-03 -2.60031521e-03  2.39906774e-03 -6.71750177e-03
  4.66354669e-04  3.07378863e-03 -6.06045121e-03 -1.52529762e-04
 -1.79149850e-03  5.75284694e-04 -5.16597090e-03 -2.01423589e-03
 -5.66308549e-03 -1.63827295e-03  2.07705810e-03 -1.81903314e-04
 -2.03724574e-04  1.88330251e-03 -5.40178857e-05  3.22191648e-03
 -8.69129570e-04  7.95993493e-04 -1.64424960e-05 -6.05970235e-03
 -4.81597486e-04 -6.06035681e-03 -2.89344766e-04  1.55872997e-04
  1.20409717e-03  5.82974155e-04  1.52025936e-03 -5.01333926e-03
 -6.34124943e-03  8.86810255e-04  2.91877909e-05  3.63901579e-03
 -7.02496552e-03 -5.11727562e-03  1.52946158e-04 -4.74922382e-03
 -4.05518827e-03 -3.23932824e-03  1.12262670e-03 -3.45996763e-04
 -1.44265309e-03 -8.03000652e-05  2.65877668e-03 -8.95918874e-04
  2.27710794e-03 -1.71789778e-03 -2.66436520e-03  2.86027234e-03]
[ 6.43026181e-05 -8.60360010e-04 -4.65946533e-04 -6.74701012e-03
