(60000, 784)
[-1.83647446e-05  1.81684951e-03 -2.21646619e-03 -6.29586044e-03
  1.64721326e-04 -9.67370461e-03  6.16395203e-03  6.80623358e-04
  7.02777220e-04  1.54480664e-03  6.02249298e-04 -3.47321619e-03
 -1.87414476e-04 -3.80346798e-03  1.58872414e-03 -2.04792487e-03
  2.60746110e-03 -1.48061869e-03 -8.57954661e-05  3.24361979e-04
  8.86185380e-04 -6.48368984e-03 -5.73480946e-03 -7.26674352e-03
 -2.12680525e-03 -4.78421985e-03 -3.17988722e-04  7.09309102e-04
  4.18397199e-04  4.78543353e-03  3.34687112e-03  7.67191157e-05
  5.71293607e-03  5.98804388e-03 -3.14603573e-03 -9.63736971e-03
 -1.48108405e-04  1.47432117e-03  1.41808865e-03 -1.40783300e-03
  3.07094613e-03 -4.07446583e-04  4.05595966e-04  1.59143564e-03
  4.79271845e-03 -3.53846899e-03  3.76241371e-03 -4.50718055e-03
  2.11850240e-04 -6.52888463e-03 -1.52763224e-03  1.75617527e-03
  1.69821033e-04  1.48182379e-03  6.55755710e-04  1.71300236e-03
  7.76915114e-03  6.26941925e-03  9.86148107e-03 -1.56861675e-03
 -1.72233530e-03  1.38111573e-03  2.21854807e-03  2.99596193e-04
 -9.88464993e-04  8.38265808e-03 -8.81162027e-03  8.92538170e-04
 -7.54225510e-04 -3.56388758e-03 -1.07263775e-03  9.66974727e-04
  3.16230156e-04 -1.00245927e-02 -1.71260169e-03  7.09543104e-03
 -1.30951495e-03 -3.83302392e-03  3.59081661e-03  7.38784476e-03
  2.11382273e-04  9.45230538e-04 -9.51195896e-04 -3.32681803e-03
 -1.44140911e-04  8.73223674e-05 -3.41008130e-04 -7.24986777e-06
 -1.03117271e-02  4.95748410e-03  1.64429553e-03  4.60972284e-04
 -8.34075696e-05 -4.26077354e-05 -6.18848011e-03 -7.55046346e-03
  3.28140397e-03 -1.56184461e-03 -4.86230623e-03  1.03070601e-02
  4.03923592e-04  1.38580732e-03 -3.87015837e-05 -5.51153764e-04
  5.90825167e-04 -5.68599207e-03 -1.12490712e-03  8.84818385e-07
  9.86552541e-03 -9.82874297e-03  1.00866419e-02  4.62443494e-03
 -1.26136983e-03  8.55471895e-05 -1.77495191e-03  3.94073624e-04
  6.47052836e-04 -2.69265117e-03  4.39029026e-03  5.09431433e-04
  6.93831453e-05 -6.53895505e-03 -6.75755089e-03 -7.37158522e-04
 -4.53318810e-03 -4.02546535e-04 -2.40179228e-03  1.15097545e-03
 -3.03083994e-04 -6.45511786e-03 -1.27162994e-03 -2.38755702e-05
 -3.67319291e-03 -2.23403055e-03  1.55762758e-03 -8.32121798e-03
 -8.74045098e-04 -8.80246977e-06 -5.87706968e-05  1.01152399e-02
 -6.33643746e-04  2.81617813e-03  7.04046308e-03  1.26058446e-03
  2.99649812e-03  3.76133645e-03 -9.40527981e-04 -2.06781080e-03
  1.37265363e-04  6.55839468e-05 -2.36571462e-04 -3.60115467e-04
 -4.81561182e-03 -1.68332325e-04  6.79483281e-03  4.03594752e-03
  1.83643879e-04 -3.84757959e-03 -1.65544843e-03  1.05510643e-03
 -6.91307185e-04  1.71072754e-04 -3.57338212e-04 -5.54285682e-04
 -3.49109885e-03  1.54300686e-03 -8.67980862e-03 -9.39740075e-04
  1.70534035e-04  4.82329080e-03 -4.96273685e-04  1.77026005e-03
 -4.55694293e-03  3.18280254e-03 -9.50133050e-04 -9.85952420e-03
  1.82958264e-04 -9.61563703e-03  9.73241118e-04  3.43343340e-04
  2.32005413e-04  1.68290133e-03  1.04567058e-04  1.48216545e-03
 -1.23009107e-03 -7.01336033e-03  2.64349788e-03  4.09269582e-03
  6.05560079e-03  6.84709900e-06 -1.46731108e-04  1.24022706e-03
 -1.20751410e-05 -7.81235085e-04 -3.45644045e-03 -2.74068316e-03
  2.86007207e-04  2.30228912e-03 -1.02100941e-03 -1.35242906e-04
  3.98527428e-03  5.13634240e-04 -3.46970636e-03  8.96730540e-05
  1.03946759e-05  2.03121233e-03 -3.38720348e-04  2.50739251e-04
  1.45176128e-05  1.36975290e-04  3.68918908e-03  4.77269807e-05
  2.24536967e-03 -1.71100434e-03 -1.11607786e-03 -1.34012721e-03
  9.77926979e-04  8.86331359e-04  6.09538803e-03  6.08477697e-05
  1.09170682e-03  7.65575627e-03 -6.97290229e-03 -5.32996828e-03
 -7.81592654e-03 -4.69255240e-03 -7.79487379e-04  4.08559103e-03
 -6.09392797e-03 -4.74453495e-04  2.65401744e-03 -1.95727494e-03
  3.52031610e-04 -2.05247614e-03 -1.10060499e-03  9.28079603e-03
  7.36904771e-05 -8.32474159e-04 -1.63051551e-03 -9.32882430e-03
  1.75231025e-04 -3.23738672e-03 -4.98314249e-03  7.68746727e-06
  9.12232098e-03  6.88494464e-03  5.83531801e-03  2.06945268e-03
  1.91427209e-03 -8.21374699e-03  9.02596419e-05  8.17850319e-03
  2.38574960e-03 -1.63106034e-03  1.68196870e-04  1.92765583e-04]
[-1.28260457e-04 -2.60010906e-03  3.53227609e-03  9.01491595e-04
 -1.49974743e-04 -3.70907680e-03 -4.61964805e-04  2.85462088e-03
  4.81888769e-06  1.28143885e-03  3.35272746e-03 -6.28849186e-04
 -9.74231691e-04  8.86003894e-03  9.65686505e-03  6.51282440e-03
  6.31272189e-04  8.76640804e-04  6.04328568e-03  3.40163664e-05
 -6.08441176e-03 -5.49928915e-03  4.55858162e-03  2.73567256e-04
 -3.71417023e-03 -5.80526149e-04  1.98245103e-04  4.74662995e-03
 -5.68976760e-03 -5.33873268e-03  3.01029748e-03  2.67839473e-03
  5.55724479e-03  2.42993152e-03 -7.72245136e-03  4.43612015e-03
  8.85528777e-03  8.66867918e-03  1.35899516e-03 -5.57845399e-04
 -4.21290807e-03  7.83251426e-03  4.56442707e-04 -8.31551057e-04
 -6.94612544e-04 -2.36243140e-03  8.47763743e-03 -3.66218610e-04
 -9.89413516e-03 -2.01855177e-03 -1.13099988e-03  8.75085346e-04
 -1.02002594e-02 -3.09209050e-03  3.03372943e-04  2.72443037e-04
  2.14274284e-04 -7.42196782e-03 -2.86942920e-03  4.10203714e-03
  6.29333516e-05  2.48293221e-03 -2.62812057e-03  6.85704164e-04
  4.85894332e-03 -3.20369313e-03  8.26210695e-04  2.23017035e-03
  5.89206444e-03  9.27882344e-03 -4.12594237e-03  1.36417741e-05
 -2.92301515e-03 -2.36915318e-03  6.87817987e-03  8.30626330e-04
  8.78949645e-04 -3.62963786e-03  7.58527785e-06  5.22049667e-03
 -7.80126384e-03  9.15709112e-06 -2.43188199e-05  2.37587139e-03
  9.21232363e-03  3.61454498e-03  7.00818970e-03 -3.30205831e-04
 -9.17033652e-03  1.09199942e-03 -2.90785202e-03  5.83857338e-05
 -3.06475049e-04 -1.54536881e-03  9.91854933e-03 -9.49806586e-04
 -2.88400280e-03  8.47064682e-05 -6.33861498e-03 -1.04880259e-03
 -3.67684339e-03 -2.35264133e-03 -1.47822524e-03  5.58083125e-05
 -1.13503803e-03  5.10752782e-03  1.04528133e-03 -9.23631375e-03
 -2.81026404e-03 -8.67747301e-04 -7.32043691e-04 -3.23011834e-03
 -1.30667144e-03  1.35900937e-03 -2.34382718e-03  1.65530412e-03
  7.97931583e-03 -4.92081432e-03  3.56635113e-04  9.10978864e-03
  2.71591772e-04 -2.92576666e-05 -2.04068257e-03 -9.41596035e-03
 -3.31940137e-03 -2.40713785e-03  8.16833599e-04  4.08268188e-03
 -2.13348242e-05 -4.51514259e-03 -3.30348068e-03 -2.64592744e-03
  8.72490797e-04  2.10539635e-04  7.55731189e-03  2.15566672e-04
 -5.61858094e-03 -3.23714384e-03  2.31172959e-03 -1.98404201e-03
 -6.94344781e-05 -4.11914247e-03 -6.63746033e-03  4.30048731e-03
 -5.77245685e-03  2.53056027e-03 -1.02910126e-02 -1.40123939e-05
 -1.01865648e-03  4.47791190e-03  1.02232084e-03 -7.85630113e-03
 -1.75266311e-03  3.44882757e-03  1.78549194e-03 -1.82608872e-03
  9.66684796e-03  5.11140324e-03  1.50590885e-03  8.49639462e-03
  1.78625595e-03  6.33252588e-05 -4.07820742e-03  6.19193327e-03
 -8.13050704e-03 -3.53967238e-03 -9.77622604e-03 -7.64035696e-04
 -7.07855347e-03  7.84771437e-03 -9.36969640e-03  2.45369027e-03
  4.07050184e-03 -1.97286777e-04  3.71140667e-03 -1.28025709e-03
  1.83794126e-03  9.12033605e-03  2.56990175e-04  7.64992158e-03
  4.90841107e-03  5.45702207e-04  5.61364455e-03 -5.20736640e-03
 -4.97818067e-03 -1.25514179e-03 -3.47248846e-03  4.05624644e-06
  3.47141027e-03  3.35302862e-04 -4.79580553e-05 -3.19851255e-03
  2.57335098e-03 -2.38026066e-04 -5.31718195e-04 -8.32738945e-04
 -5.10396421e-04  5.02709530e-03 -5.03699092e-03 -6.60576843e-03
  6.50384104e-05  1.78920823e-04  1.87087670e-04  3.47233179e-03
  7.90943588e-03  4.85435789e-05 -3.52917728e-03 -1.15127227e-03
 -8.83883055e-03  1.16227600e-03 -5.17081425e-03 -3.73625220e-04
  6.23573187e-03  4.30750792e-03 -3.19203404e-05 -4.56662417e-03
 -1.65375346e-03  5.67714419e-03 -9.15160917e-04  9.16097989e-03
  3.76029421e-04 -7.89951823e-04 -5.35904643e-03  5.28205264e-04
  2.57315143e-03 -4.41249790e-04  8.75509389e-05  1.74936430e-03
  6.06640716e-03  8.47242435e-05  6.07105056e-04 -2.72002146e-03
 -2.43063374e-03  1.99331615e-04 -1.78768154e-03 -6.04437183e-03
  1.01566201e-03 -4.17070979e-06  2.92847639e-05  1.38633854e-03
  2.13600600e-05 -8.40195233e-03 -1.00777181e-02  3.25441136e-03
  7.96400141e-04 -5.81378524e-03 -9.61308421e-05 -1.33552468e-03
 -6.35373561e-04  1.02193187e-02 -9.50294873e-03  9.06579316e-03
 -8.05609419e-05  8.66633172e-04  8.09287427e-05  3.30072034e-03]
[ 6.88840173e-03  9.26114528e-04  4.01738356e-03  3.67922732e-03
  1.52621175e-03  1.96224803e-03  2.40232790e-05 -2.51570025e-03
  2.69579414e-05 -6.43889563e-03 -9.04563339e-03 -3.09633419e-03
 -8.36862546e-03  1.44388326e-04 -6.07124246e-04  6.50927790e-04
  3.59122943e-03 -9.71825587e-04 -9.21126583e-03  2.77803768e-03
  8.28954790e-03 -6.87611805e-03 -1.71486498e-03  7.45751283e-03
 -6.21159960e-03 -1.70328851e-03  3.72059784e-04 -6.47760781e-05
  1.06807228e-04 -2.29450916e-03  6.73088181e-03 -1.50607321e-03
  1.01462796e-02  3.72457781e-03 -3.48595986e-04 -2.24520850e-03
 -1.08210545e-03  4.99294994e-04 -3.66448731e-03  4.42161924e-03
 -1.03701239e-03 -4.43321861e-03  2.85636768e-06 -7.80536692e-03
 -3.64842953e-03 -3.50905480e-03  9.76226948e-03  8.39499979e-05
 -3.13552973e-04  3.51906535e-03 -1.14132801e-03  5.03818940e-03
  3.54153303e-04 -3.95593850e-03 -1.82308924e-05 -2.59504190e-03
 -8.36080944e-03  2.47268469e-03 -8.52770998e-05 -7.97341031e-05
 -1.18069026e-04  1.01622146e-04  6.16518729e-03 -8.54971599e-03
  2.49843024e-03  2.78436425e-03  4.64580413e-03  4.36332202e-04
 -3.03433939e-03 -7.16632511e-04  1.10672427e-04 -3.52452442e-03
 -2.39456977e-04  5.68170055e-03 -1.02477841e-02 -7.43212290e-03
 -3.02160540e-03 -6.11533152e-03 -1.68347386e-03 -3.96081514e-03
 -4.16630931e-03  2.28865127e-04  8.25114121e-03 -9.01018797e-03
 -1.97811794e-03 -2.74322275e-03 -8.01440843e-03  3.28035055e-05
 -7.48964884e-03  1.86498885e-03  2.20744058e-03  1.19790488e-03
  8.88386323e-04  5.23663613e-03  2.42616881e-04  5.79644085e-03
  4.84137180e-03  3.00696525e-03 -2.78778260e-04 -2.24699430e-04
 -3.28882842e-03  3.01223390e-03 -6.22256507e-03  1.48293546e-03
  4.36222302e-04 -1.88048219e-03 -3.71491096e-04  3.24722885e-03
 -4.37889787e-03 -3.14928829e-03  5.06955943e-03 -1.00677454e-02
  3.25352317e-04  2.84377587e-03  4.40445582e-04 -3.83445932e-03
  1.50973313e-03 -7.62897289e-05  8.63885045e-04 -2.20213346e-03
 -3.84364671e-03 -8.04911593e-03  9.87169959e-03  1.16662716e-03
  2.89750133e-03 -2.11836327e-03  4.31034881e-03 -1.65607761e-04
 -5.95464269e-03  4.70488001e-03 -2.43666092e-04 -6.94962626e-03
  6.01197477e-04 -1.16591610e-03 -1.98463319e-03  2.60333808e-03
 -7.77623110e-03 -9.25901556e-03  1.34928517e-03 -6.86162102e-03
 -4.60266870e-03 -8.59792343e-03  3.78595334e-05 -5.91444008e-03
  4.78927199e-03 -8.84716205e-04 -9.03960656e-03  8.45742258e-05
 -2.40446810e-05  1.38126914e-03 -1.29298707e-03 -9.37766444e-03
  2.64103892e-03 -4.01667054e-06 -2.33795957e-03  1.04273024e-04
 -2.50109357e-03 -2.39991181e-04  1.69323446e-05  9.68522618e-03
 -4.49722908e-05  3.69043137e-03  4.06502675e-05  3.12321609e-03
 -1.00498164e-04  5.30457500e-04 -1.41696518e-04  5.28613364e-03
  1.09519788e-04 -3.34417613e-04 -2.85555318e-04  3.89020480e-05
  3.68187877e-04  4.52601592e-03  9.00823709e-04 -3.53306873e-04
 -2.48701660e-03 -6.04792349e-03  6.88326972e-03  9.71550309e-05
  3.95689593e-03  9.66764207e-03  1.36003526e-03  5.14887757e-03
 -2.30817976e-03  8.80469869e-03 -9.37288033e-04 -3.80836440e-03
  2.45693764e-03  8.44266281e-05  2.97330450e-04  5.34444826e-03
 -3.44605058e-04 -7.65630948e-03 -2.94737454e-03  4.08767812e-03
 -9.52149834e-03  1.88234905e-03  1.14099160e-04 -6.92510044e-03
 -5.84855287e-03  6.28736014e-04  4.77721931e-04 -1.37119471e-04
 -4.84705845e-04  2.96777555e-03  4.08778167e-03  8.63153987e-03
  7.83120807e-03  7.52148484e-04 -3.59299612e-03  3.73877057e-03
  1.02998009e-05 -2.26984447e-03 -5.27792908e-03  8.28999408e-03
  4.40313824e-05  1.01146778e-02  2.43598467e-03  3.78425007e-03
 -4.21078363e-03 -8.01695179e-03  5.22039141e-03  1.45897235e-03
  2.27498941e-03 -2.56628254e-05 -1.66198288e-04 -7.13549867e-03
  4.66394494e-04  7.27712768e-04 -5.26391366e-04 -1.30536449e-04
  2.11167413e-03  4.77124609e-05  3.92475338e-03  7.67303392e-05
 -8.86896156e-03 -4.57042864e-03  3.52122424e-04 -4.45757833e-06
  8.95301332e-04  5.50290178e-03 -6.25149810e-03  5.40282350e-04
  1.50203236e-05 -5.91674728e-03 -8.07704782e-03 -1.17161740e-04
  9.13498231e-03 -4.09552074e-03  9.54326363e-03 -9.27939984e-04
 -6.16798663e-03  1.77801684e-05 -5.44376962e-05 -6.93395957e-03]
[-9.09109454e-04 -4.44543667e-05 -2.17225787e-03 -3.92079940e-03
  7.40924010e-03 -4.54627237e-05 -8.68629972e-04  1.45069488e-03
  7.74628600e-03  9.33866723e-05 -6.56756983e-03  8.91819671e-06
 -4.97027840e-05 -8.87395988e-03 -3.58093929e-05  2.51842196e-03
 -4.34477606e-03 -7.79998550e-04  1.46982040e-03 -1.67576353e-03
  3.54855038e-05 -2.21549406e-04 -4.31004957e-03  1.55407385e-03
  1.33271715e-04  1.26705445e-03 -1.75352185e-03 -8.11657033e-04
 -5.64424146e-05  7.13401002e-03 -6.63092360e-05  2.42679062e-03
  5.78864627e-03 -1.05803507e-03 -1.74291349e-03  1.40217969e-03
  1.21032344e-04  4.71090391e-03 -1.00042623e-04 -8.53859592e-04
  2.47909776e-03  1.79477840e-03  7.37842252e-04  1.15839233e-03
 -6.54914605e-03 -1.67029531e-04 -8.24274410e-04 -4.41424212e-03
 -1.39723666e-04  1.65041518e-03  8.29937452e-03 -2.56755621e-03
 -4.65696929e-04  6.72841941e-03  3.28286211e-03 -5.67838922e-03
  1.29555044e-03 -2.55842394e-04  8.94235586e-03  5.79327576e-03
 -9.41603580e-04 -7.00341818e-03 -5.19178741e-04  2.86018241e-03
 -1.95373475e-03 -8.41193387e-03 -7.21978433e-04 -5.24324278e-04
 -1.54629220e-03 -1.00588504e-02  6.60534604e-04  9.90044519e-03
 -2.36294846e-03 -1.49159103e-03  4.10242811e-03  2.41670041e-05
  2.89406863e-04  9.87946974e-03  6.67769037e-04 -3.47448857e-03
  4.19072773e-05 -7.06916452e-05 -2.46525724e-04  1.62418076e-03
 -4.65022360e-04 -1.11448617e-03  6.61071495e-03  2.20984435e-03
 -2.53225276e-03  3.88631304e-04 -7.88160394e-03 -6.92291877e-04
  1.29216398e-03  2.51131255e-03 -5.51623486e-05 -2.26521470e-03
  7.08717391e-03 -4.01818438e-03 -1.38313565e-03 -3.03917137e-03
  2.20363356e-03  1.09287279e-03  4.21888996e-03  9.53842147e-04
  7.58032884e-04  5.78537916e-03  6.02755706e-03 -6.57500667e-03
 -9.41082732e-03  4.35754692e-04 -1.83044964e-03  3.99594346e-04
  6.99942869e-04 -1.54458228e-04  8.42082694e-05 -6.92173476e-03
  1.21270303e-03  1.48715869e-03  9.43268995e-03  8.00726396e-03
  8.69797621e-04  3.35330614e-03 -1.91603808e-03  4.42209717e-04
 -1.92963863e-03 -9.81422246e-05  1.03374274e-02 -2.49571625e-03
  3.94614844e-03 -2.99343993e-03 -1.96446865e-03  7.78924232e-04
  1.57405156e-03  1.14106932e-03  2.19844918e-03  7.82749165e-04
 -2.72731594e-04  7.22587653e-03  1.25034389e-03  9.95995725e-03
 -2.88750930e-05  7.64743461e-03  9.88824975e-03  3.46055124e-03
 -3.42596466e-04  4.79221839e-03 -2.02967537e-03  9.71645870e-03
 -6.47457355e-04  6.65581223e-03  6.73987007e-05  1.71448884e-03
  5.31088102e-04 -3.79102508e-03  9.53551525e-04  3.14813597e-04
  2.95839888e-03 -6.54502432e-04  1.03253728e-03 -1.25989498e-03
 -7.46818816e-03  7.84264143e-04  6.49294602e-03 -7.88126780e-04
  4.91856920e-03  2.89086239e-03 -4.67613798e-04 -7.13071913e-06
  2.12786666e-03 -4.95697697e-03 -1.27779009e-03 -5.54224311e-04
  5.04564715e-03  8.40957463e-03  8.04931389e-03 -1.68347108e-03
 -9.28211927e-03 -1.32896690e-04 -1.34663443e-04  8.58612829e-04
 -1.96856815e-03 -5.48412358e-03  5.92655006e-03 -9.55943966e-03
  8.93489128e-03 -5.61545426e-03  1.66100470e-03 -1.55641052e-04
 -2.24740895e-03 -4.92205357e-04 -6.78825828e-03 -3.92717070e-05
  1.45560543e-03 -9.72983472e-04 -6.00029592e-03  8.65008248e-04
  8.91493458e-04  9.59257174e-08 -3.67019685e-03  1.37778067e-04
  2.71258953e-04  2.28179048e-04  2.12634274e-03  3.64557128e-04
 -5.56651639e-03  6.13061370e-03  7.95546180e-03 -5.09237993e-03
  8.37335373e-04  4.20577664e-03 -4.20690837e-03  2.37912449e-03
 -3.31515762e-04 -6.25826538e-03  2.12176747e-05  9.62979095e-04
 -2.32474501e-03 -2.19911435e-04 -1.64929875e-04  1.12529808e-03
  8.68042396e-03 -8.92790523e-03  6.22418181e-04  8.44801865e-03
 -3.39592281e-03  7.14145264e-04  3.45235675e-03  5.62112602e-03
  2.60697501e-04 -1.59666624e-03  1.23625731e-03  3.49149889e-03
 -5.83139930e-04 -2.11247038e-04 -1.06180148e-03 -9.98877260e-04
  8.03710248e-03  5.01943143e-03 -3.45411648e-03 -5.01834971e-05
  8.32851709e-03 -4.89925802e-03 -8.20830822e-04 -1.20846363e-04
  2.07966005e-03  4.40993576e-03  5.62465069e-03 -2.04091428e-03
  4.91843699e-04 -1.73461957e-03 -2.03145683e-03 -8.09166678e-05
  8.53509459e-03  3.53469176e-04 -7.60584311e-03 -3.57444048e-03]
[ 4.35234751e-05 -3.03913934e-04 -6.84457419e-04  1.65227264e-03
 -6.83162705e-04  2.28990740e-03 -1.01518457e-03  2.07655850e-03
  9.54420507e-03 -1.66694357e-03 -8.13156953e-03  8.04801193e-04
  4.57794932e-03 -6.16789841e-03  1.36339208e-03  3.03771588e-03
  1.18388162e-03  8.57967421e-03  2.14503707e-03 -4.62133931e-03
 -3.25320007e-04 -1.18036443e-03 -4.36731484e-05  1.06202606e-03
 -2.42510209e-03 -1.56669746e-03 -4.64994409e-03  7.67137401e-05
 -1.26383607e-04 -1.45239219e-03  4.67993488e-03 -3.12204791e-04
 -3.85228072e-03  4.41967991e-03 -5.42498368e-05  4.90374918e-03
 -1.38287048e-03  1.14297935e-03  1.15417789e-03  1.36184826e-03
  6.89128551e-03  2.78998198e-05 -6.52546477e-03  3.50239110e-04
  7.41954123e-03  4.05359177e-03  4.57307716e-05  1.06842879e-03
 -6.95673584e-03  2.73274830e-04  9.86418482e-03  3.87988570e-05
 -4.07656910e-03 -1.32522048e-03 -2.82956345e-03  2.15828474e-03
 -5.96569298e-03 -1.95278632e-06  9.66977758e-03  9.99479236e-03
  8.55168701e-05 -2.08441782e-04 -6.85848670e-03 -1.68966410e-03
  4.81643885e-03 -1.09039366e-03  2.64844097e-03 -6.12790411e-03
 -4.13908382e-03 -2.50731861e-04 -5.98863514e-03 -9.22611797e-03
 -1.03906831e-03 -5.51886519e-03  7.67401226e-03  5.08278545e-04
 -4.14237993e-03  8.18504735e-03  8.90631892e-04  8.61191547e-04
  1.31984019e-05  3.24520806e-04 -7.54833398e-03  1.00924060e-03
  3.01860170e-04  8.05017949e-03  1.66880213e-03 -8.56469536e-03
 -2.67593141e-03 -3.72518609e-03 -6.30817181e-03 -7.03357800e-03
  1.61288521e-03 -4.71656069e-03  3.41773392e-03  1.33373215e-03
 -8.70523732e-04 -5.06508640e-03 -1.91279785e-03 -2.75339099e-03
 -1.71844026e-03  8.02417467e-04  4.47613129e-03  5.18810711e-03
 -2.80347321e-04 -1.02049173e-03  5.91134529e-04  5.39729559e-04
  1.66017015e-03 -9.08982772e-03 -6.21742515e-03  6.14686478e-03
  1.03300179e-02 -8.15786873e-03  4.36376381e-04 -6.44753536e-04
  6.92611990e-03  5.72990599e-03  5.62597920e-03  3.69150899e-03
 -1.73444972e-03 -5.57806472e-03  6.85554896e-03  9.64247878e-04
 -5.58000615e-05 -9.20154037e-03 -1.71203112e-03 -4.32295895e-03
 -7.89739250e-03  6.61556898e-03 -1.27526586e-03  1.18604197e-03
 -1.39347924e-03 -4.07813845e-04 -4.46353199e-04 -7.66183385e-03
 -2.18318690e-03  3.10473667e-03  4.83175838e-03 -2.24794205e-04
  3.03815768e-03  2.45305409e-03  1.62583337e-04  3.88053212e-03
  1.91898446e-03  6.05630378e-03 -7.89212788e-04  2.80076970e-03
  1.11414061e-03  2.10814300e-03 -7.44322880e-03 -6.14963708e-03
 -9.75332766e-03  1.00149015e-02 -4.63180306e-04  7.10367184e-03
  9.31561573e-03  2.92482386e-04  3.05961064e-03  1.42546110e-04
 -4.83036090e-03 -3.32386981e-03 -1.30647895e-03 -3.85702153e-03
  6.13202498e-03  7.84096682e-03  6.36124578e-03  2.19348966e-06
 -3.23877685e-03 -3.99154401e-03  6.15023740e-03  1.36354968e-03
 -2.41171219e-03  1.31852674e-03  6.95642728e-04 -9.53126247e-05
  4.39570070e-03 -2.25237047e-03 -7.43895548e-03  3.35702556e-03
 -4.64023182e-04  5.55951925e-04 -6.17705100e-04  5.06932409e-03
 -3.25525540e-03  1.66869471e-04 -6.84732171e-04 -1.39857476e-03
 -2.33300976e-03 -5.05638749e-03  7.49126528e-03  3.05662371e-03
 -3.11160426e-03 -3.36476351e-03  2.36918006e-03  1.67278689e-03
  6.24418236e-05  1.27028910e-03  1.48440796e-03  1.49432718e-03
  5.94870608e-04 -6.89851650e-03 -3.64104144e-04 -9.95902654e-03
 -2.36154766e-05 -5.19013734e-03 -7.14681184e-03  1.37515040e-03
  2.94837936e-04  2.51362208e-03  2.43099088e-04 -8.48238223e-04
 -8.67350309e-04  1.72840652e-04 -1.56364561e-03  2.91021018e-04
 -1.93596954e-03 -4.41651982e-05  6.77492561e-03 -9.33091166e-03
 -2.81997783e-04 -2.23777376e-03 -1.68583282e-03 -3.94393496e-03
  4.65876518e-04  1.52324153e-03 -8.80142498e-03 -5.13326020e-03
 -9.15689048e-03 -8.45781305e-03  6.97955751e-03  6.72667082e-03
  5.07290746e-03  4.54026386e-03  3.08037194e-03  7.00121725e-03
  8.42875270e-04  8.56733241e-03 -2.50145122e-04 -9.16818009e-05
  8.35356352e-04  9.49602588e-05  7.36319852e-03  1.00836102e-02
 -1.09206497e-03  7.36811363e-04 -2.33011837e-04 -9.18265451e-03
 -2.35596680e-03  2.36332439e-03 -3.29976086e-03 -2.46825412e-03
  1.20548693e-03 -1.01197226e-02 -3.66357617e-03  4.07930291e-04]
[-9.55657173e-03  9.47541491e-03 -5.02784033e-03  9.55235169e-03
 -1.42905766e-03  1.42576005e-04 -1.26538332e-03 -1.13984823e-06
 -4.81461082e-03  2.36606105e-06 -2.54517071e-03 -2.96681751e-04
  1.98429388e-03  8.82639679e-03  3.69171814e-03 -6.07944039e-03
  2.19142042e-04 -5.71684490e-04 -1.82467728e-04 -7.78997715e-03
  2.50863818e-04 -6.25284981e-03  4.89616979e-03  7.99133832e-03
  6.62554599e-03 -2.22785584e-03  3.80016009e-03 -4.72293119e-04
 -7.14019395e-04  1.02066954e-02  7.58553570e-03  2.88204828e-05
 -1.68566473e-04 -3.63137478e-03 -7.59563539e-04  1.48247228e-03
 -5.32671019e-03  1.99659498e-03  1.11329392e-03 -9.70245295e-03
 -2.53659956e-04  2.83237166e-03  9.96075745e-03  2.17471706e-04
 -8.04690497e-03  1.64924028e-04 -3.26685363e-04 -5.51221596e-06
  5.87606662e-03 -8.23099722e-03 -5.10108780e-03 -7.82280020e-04
  4.19835118e-04 -9.58156384e-04  8.01857634e-04 -4.49419706e-03
  4.53941266e-03  1.17178748e-05 -2.40863446e-04  2.67192025e-03
 -4.10620764e-03  2.07801594e-03 -1.02042095e-02 -4.76009401e-03
 -2.17842255e-03 -4.98487731e-03  1.36151685e-05 -1.36063301e-03
  1.12740391e-03 -1.10447444e-03 -6.31177851e-04  5.97844252e-03
 -5.15718505e-05  3.83689824e-03  2.13190975e-04  4.21626555e-03
  6.79749895e-04  5.87999467e-04  8.52059014e-06  5.21946140e-03
  9.86380232e-03 -4.52233565e-03  9.59856262e-03  5.16539959e-03
 -4.03794692e-03 -1.38742115e-03 -2.27923458e-04 -7.65657072e-03
 -2.57090697e-03 -6.16033848e-03 -2.53706824e-03  6.41521304e-03
 -7.21928124e-04 -9.42093263e-04 -8.91858803e-03 -2.13321888e-03
 -8.70122420e-04  8.80274838e-03 -1.07847404e-05  7.82459834e-05
 -3.63622866e-03 -5.88615812e-03  1.74806631e-05 -5.64379207e-03
  9.20270862e-03  1.19126723e-03 -1.78143085e-04  1.40331418e-03
  2.56667813e-03  4.01059617e-04  5.55995967e-03 -4.75415456e-03
 -7.14766739e-06  5.16262797e-04  3.17787778e-04 -6.48182731e-03
  7.18391569e-03 -4.63757526e-03  2.08275835e-03  9.65804152e-04
 -3.14864875e-04 -2.62655217e-03 -9.23758513e-03  2.37158487e-03
  2.10225639e-03 -3.02053198e-03 -6.05979661e-03 -4.16040453e-05
  4.11683165e-03 -3.87066611e-04 -2.00191228e-05 -7.05766342e-04
  3.11165870e-03  2.19286868e-04  5.12133505e-05 -8.31703780e-05
  1.97947563e-03 -6.64781224e-03  4.05957092e-03 -6.75872498e-05
 -1.73735909e-03 -7.08572291e-04  1.34063245e-03  2.38529132e-03
 -5.25538098e-03 -2.49426902e-03 -8.72848613e-03  5.89326930e-03
 -4.01484140e-04 -2.91454268e-04  2.55849207e-04 -4.48461543e-03
 -5.67777824e-03  5.36334250e-03 -2.24225555e-05 -6.71890737e-03
  8.25691020e-03 -9.50057072e-03  6.86688396e-03 -3.09017196e-03
 -8.95355214e-05 -5.25266993e-04 -5.66545453e-03 -7.38568314e-04
 -5.39589018e-03 -6.79391143e-03 -7.21774361e-05  5.97145684e-03
  1.66904890e-03 -2.86175664e-03  3.31481553e-04  1.10455862e-03
  8.67298243e-03  4.34269772e-04  4.27388874e-03  8.30112369e-03
  6.25733533e-03 -7.92873349e-03  5.19609614e-04 -2.91790022e-04
  1.04601686e-03 -9.50746084e-03 -7.03344707e-03 -6.98491206e-03
  1.04643796e-03 -7.71032365e-05 -1.90440987e-03  2.28804857e-04
  2.64746971e-03  6.74690481e-05  4.95641437e-03  8.67223169e-03
 -5.75203708e-03  9.80540725e-03  1.54367642e-03  1.98179216e-03
 -3.35761942e-03  2.16084877e-06  3.21339020e-03  5.31021590e-05
  2.82973946e-04 -3.60979453e-03 -1.78571113e-03 -3.51659928e-03
  2.27665903e-04 -1.10176052e-03  6.71752909e-03 -8.82340793e-03
  6.84623712e-04  3.14759963e-04 -3.22898986e-03 -3.58473667e-03
 -9.11937859e-04  2.58875178e-03 -1.01391905e-03 -1.34155525e-03
  4.90236193e-04 -4.65745596e-03 -5.85761021e-03 -6.73326904e-03
  2.87099703e-03 -1.04913617e-03 -4.04304822e-04 -3.90208979e-03
  2.51290647e-04 -1.43808129e-03 -3.73385721e-04 -2.29269205e-04
 -2.65136608e-03 -6.63267268e-04  9.30374007e-03 -2.35734073e-03
 -4.26070270e-04  4.79623561e-04 -3.31273400e-03  5.41929442e-03
  4.04354961e-03 -5.40175873e-04  3.05182789e-03  7.67243151e-05
 -6.08712079e-04 -1.34071057e-03  3.11720190e-03  3.57067317e-03
  8.66123756e-04 -5.45495941e-03  7.31041312e-03  1.18291945e-04
 -4.37667067e-03  6.65206905e-05  3.14750662e-05  7.83728682e-04
  9.11652375e-03 -9.81554534e-03 -8.45527246e-04  2.23467978e-05]
[ 1.50339798e-04 -7.03335308e-03 -8.97441414e-03  5.26799005e-03
  7.75486748e-03 -2.23918547e-03  4.72160048e-04  3.59090943e-05
 -2.46488365e-03  5.64538111e-03  6.84989866e-03 -2.30720378e-03
  2.06901516e-04 -3.91065200e-03 -7.78377618e-04  1.59070584e-03
  7.70085821e-04 -6.76657384e-03 -1.58772618e-04  3.27286302e-03
  1.07317124e-03  2.67877803e-03  4.56963472e-03 -7.44054748e-03
  2.72081946e-03 -5.56515464e-03  2.33713646e-03 -7.22317228e-04
  2.27570180e-03  1.05466519e-04  1.65897302e-03 -6.77467815e-03
  5.05210206e-05 -4.61998540e-03 -9.45179296e-03 -1.52979146e-04
  5.26010687e-06  4.20251575e-04  9.23536281e-03  5.86755699e-03
  2.31679687e-04  7.37897543e-04  7.95357254e-04 -9.65234082e-03
  1.73884745e-03  9.52996153e-03 -3.40153709e-03  5.14838262e-05
 -4.71469607e-03  1.52224408e-04 -6.26940662e-04  2.01214963e-04
 -6.58912252e-03 -7.43501575e-03  5.23677774e-03 -1.84081228e-03
 -3.31946636e-03 -8.26986117e-03  1.14276075e-03  5.74272008e-04
 -4.44513385e-04  7.05193321e-03  1.91459677e-03  8.91333784e-04
 -2.45328924e-04 -2.42154034e-03 -3.70651883e-03 -5.03900505e-03
 -7.68207097e-04  8.80028294e-04 -1.06573266e-03  7.47811078e-03
 -3.36882961e-03  2.27601477e-04 -3.51018493e-05  6.11399342e-04
  1.17620904e-04 -3.23443045e-03  4.14810366e-03 -3.62187255e-03
 -2.22100906e-03 -3.10552721e-03  2.92569700e-03 -1.27778507e-03
  2.09776273e-04  3.22055149e-04 -1.14904281e-04  3.38455349e-04
  4.18285544e-04 -3.88911048e-04  1.45540022e-06 -3.86915306e-05
  1.00331605e-05  1.43387718e-03  9.33993277e-03  3.57314296e-04
 -1.28314182e-04 -8.68646177e-03 -1.69972164e-03  4.12730837e-03
  8.61344244e-03  5.17562785e-03  4.25377049e-03  5.01224321e-04
  6.74690699e-04 -6.19737134e-04 -1.21673281e-04  5.83566069e-03
  4.40007255e-03  2.31633279e-03 -3.63433958e-07  1.55400264e-03
  2.15665083e-03  1.45456667e-03 -5.93187789e-04  7.56094243e-03
  8.85223716e-03  5.67398847e-04 -7.99149456e-03  4.56506580e-03
  3.52514403e-03  3.90511428e-03 -1.76954975e-03  2.62957301e-04
 -1.38629543e-03  6.80034810e-03  2.09468230e-04 -1.12694169e-03
  1.22270657e-03  8.75609425e-03  5.00326449e-05 -1.31938826e-03
 -1.13515799e-04 -5.64322914e-03  5.51505347e-03 -1.28137191e-03
  4.22777872e-03  9.71592802e-04  4.14198432e-03 -2.41143169e-06
  5.77803332e-03 -2.11809949e-03 -3.74088743e-03  1.04462978e-03
 -8.05096415e-03  1.94104398e-03 -8.44032361e-04  1.87663801e-03
  5.11048899e-04  3.19859646e-03  4.76224679e-03 -2.59303552e-03
  1.87197598e-05 -2.44896892e-03  6.98954162e-03 -8.00682237e-03
  5.22503669e-04 -4.54151295e-03  1.53157186e-05 -1.27176439e-05
 -4.17923603e-04 -4.54560955e-03 -6.86065490e-03  7.88281906e-03
 -6.63746302e-03 -6.11651695e-05  1.49362217e-04  1.13852314e-03
 -2.91376525e-05  3.64770015e-04  3.68603101e-03  2.64954559e-04
 -7.34807709e-03 -5.27359161e-03 -5.57953627e-06  1.50635302e-03
  6.68134648e-05 -6.26295253e-04 -3.35508496e-04  5.67268882e-03
  8.54293918e-03 -2.17190666e-03 -7.91178004e-05  2.25127104e-03
  2.31750322e-03 -8.75512473e-03 -3.83108104e-04  2.95084258e-05
  7.48786385e-05 -2.80044826e-03 -3.69274761e-04  3.59867016e-04
  3.78040295e-04  1.66518087e-03 -1.32320328e-05 -1.16979935e-04
  9.35211320e-03  5.05950727e-04 -8.59408600e-05 -4.86401916e-05
 -9.48493530e-03 -3.75105988e-04  1.05863184e-03  6.72830471e-03
  6.26732147e-03  1.20220743e-03 -1.99497580e-05 -6.90253234e-04
  3.45159946e-05 -3.87045627e-04  4.33929983e-04  6.74905720e-03
 -9.30297630e-03  5.10598849e-03 -2.53387900e-03 -1.88825907e-03
  6.27101375e-03 -2.86519054e-04  7.08840102e-04  5.38707501e-06
  2.21391185e-04 -1.00397990e-02 -3.98933688e-03 -1.92755687e-03
 -9.89004196e-05  2.97122762e-03 -8.60447305e-04 -8.20953788e-03
  3.00156146e-03  2.16577994e-03 -7.86886667e-04  1.68086902e-04
 -8.00513480e-03 -8.47977190e-04  9.14820569e-04 -2.61230168e-03
  7.66782883e-03 -5.77974636e-03  1.15648990e-04  7.57845959e-03
  5.19031874e-03 -1.80253761e-04  2.57542811e-03  9.75588502e-03
  5.27197826e-04  3.42045047e-03 -1.08622620e-03 -2.62444828e-03
 -4.88404124e-04 -3.13986760e-05  2.52432787e-04  3.24600284e-05
  3.62693662e-04 -9.89068701e-04  7.00018301e-04 -9.71152944e-03]
[ 5.66203366e-03  3.72910844e-03  6.53635933e-05  3.87582207e-04
 -7.38370430e-04 -1.92795792e-03  6.20029758e-03 -5.14195295e-05
  1.01580655e-02  6.50617020e-04  6.39367692e-03  1.90733059e-03
  7.01009449e-03  8.74637959e-03  1.01918991e-02  5.36178883e-05
 -3.98065430e-06  6.96038006e-04 -9.92892439e-04 -8.90534337e-03
  1.82550849e-03 -2.87073865e-03 -1.42353435e-03  9.52653186e-03
 -1.28647868e-03 -4.52671369e-04 -4.36531722e-03  7.10207034e-03
 -3.28100679e-03 -4.06842196e-04 -6.08554882e-04  2.58015274e-03
 -6.73051721e-03 -1.76543020e-03  5.67547369e-03 -5.14944316e-04
  4.92720014e-04 -3.23175006e-03 -9.98900442e-03 -6.33920362e-04
  7.04278736e-03 -8.89054595e-03 -7.70156500e-04 -3.60205223e-03
  1.76811273e-03  7.77460412e-03 -7.63153023e-05  4.82069784e-05
  5.36964186e-03 -1.92751930e-03  3.54832348e-06  1.54428166e-05
 -4.52127778e-03 -1.32246283e-05 -7.13848473e-04 -1.18616031e-03
  1.10326262e-03  3.17788635e-03  3.35845175e-03 -1.37857401e-03
 -8.49030922e-03 -6.77049303e-03  2.62713911e-03  8.66643736e-05
  2.16140937e-04 -1.00182062e-02 -6.03972187e-03 -7.43896441e-03
 -7.15252359e-03  9.94605595e-04  4.55823271e-03 -9.23562783e-03
 -3.15668481e-04  9.04047589e-04 -8.20679651e-03  1.12360685e-03
  4.28272976e-04  3.60429336e-05  3.13036799e-05 -6.68917648e-03
  5.36405317e-05 -8.63174136e-03  3.36493799e-03  2.05866771e-03
  7.90755074e-04 -3.93990646e-03 -6.05869234e-03  8.50366294e-03
  4.35975690e-04  4.44393588e-05  4.05553888e-04  9.07491172e-03
  1.04064879e-03 -6.85903663e-03 -6.63635879e-04 -1.08007860e-04
  4.80801759e-03 -9.87031952e-04 -6.86112460e-03  2.76928733e-04
 -6.92994488e-04  4.66554867e-04  5.28697681e-03 -6.93696100e-04
  1.16700613e-03 -8.68706134e-03  6.13013562e-03  2.46442105e-03
 -4.68563737e-03 -3.25179731e-03 -2.72874100e-03 -2.13931853e-03
 -5.01054822e-03  1.00945634e-02  3.04402860e-03 -2.12040707e-03
  6.25925230e-05  3.61246686e-03  6.07475401e-03 -3.17916026e-03
  3.26621608e-05 -6.05123788e-03  1.60972696e-03 -3.56024810e-04
  3.05861528e-03 -6.86240035e-03  2.09249412e-03  1.41781119e-03
 -4.68650206e-05  7.67992241e-04 -4.70122024e-04  3.35312161e-03
 -1.02764967e-02 -4.15503166e-04  4.23123541e-05  8.07284832e-03
  1.36771074e-03  6.17974113e-04 -1.12465483e-03 -2.73657252e-03
 -9.13487676e-03  2.53420807e-03 -1.18760238e-05  2.18780020e-03
 -2.29766788e-03 -3.94300338e-05 -2.80436941e-03  2.03709548e-03
 -8.53691352e-03  9.61483621e-03  1.98356678e-03  9.48046610e-03
 -9.66365875e-03 -5.30309205e-04  1.00709413e-02  9.17885619e-04
  1.56325382e-03  6.55962494e-03  5.59781297e-03 -9.70588268e-03
 -9.43684337e-03 -4.29284953e-03  1.37332338e-03 -8.88765444e-03
 -1.13504011e-03 -1.08220560e-03  4.07788647e-04  7.64224829e-03
 -3.40128292e-05  2.47673785e-03 -3.90806102e-03 -1.06087656e-03
 -1.21247071e-04 -6.34660288e-03  6.87798427e-03  4.70027630e-03
  5.65644086e-04  7.05734362e-04  8.74522924e-04 -5.72911999e-03
 -9.35514405e-05 -1.20668468e-04  1.05976567e-03  6.88086439e-03
 -8.29690815e-03  6.69533172e-03 -6.47350395e-04 -2.52251790e-04
 -6.47252851e-03 -8.99640914e-04 -2.30485622e-03 -6.17547381e-03
  9.15020844e-03  3.82910158e-03 -3.65911956e-03 -5.16182400e-04
  2.19859585e-03  1.69789657e-05  2.17437611e-04 -9.81437567e-04
  1.82503095e-04  6.91276822e-06 -3.72293651e-03 -1.36671821e-03
 -2.54543252e-03  1.01642034e-02  5.93454995e-03 -2.61978543e-05
  3.56148744e-03 -4.23485550e-03  5.79205497e-03 -3.01350568e-03
 -2.00703317e-03 -7.41083062e-04  7.30835004e-03 -2.31880179e-03
 -9.74552919e-03  1.60969685e-03 -1.45376860e-03 -1.61766925e-04
 -7.73527343e-03 -6.00435977e-03 -1.86661419e-04  7.50686539e-04
  1.53993019e-04  2.19492629e-03  1.70581733e-04  5.63020933e-04
  6.35315133e-04 -5.90349888e-03  1.28202043e-03 -9.98185744e-04
  1.70739712e-03 -8.61948737e-03 -3.73551188e-04 -3.12014963e-05
  8.55712904e-04 -1.10289530e-03  1.56001137e-03  2.26262399e-03
  2.59321561e-03 -7.53621451e-03  6.67222517e-05  1.69105838e-04
  1.00150451e-02  9.04712995e-04 -1.46239575e-03 -2.33868571e-03
 -1.84842033e-04 -6.08049041e-03 -6.43808992e-03  2.84572921e-03
  4.21464386e-04  2.57911262e-04 -2.02953102e-03 -5.31205202e-04]
[-1.86988581e-03  4.80722939e-03  4.31978935e-06  5.31387970e-04
  2.86154340e-04  2.94790489e-03  1.10754179e-04 -1.03408631e-02
 -1.22306097e-03 -1.63444715e-03  1.66160952e-03  4.79550075e-03
  1.55523925e-03 -4.85161733e-05  8.86461815e-04  1.27409623e-03
  7.50396989e-03 -1.86351819e-04 -1.80599094e-03  5.00173410e-03
 -4.88534073e-03  7.78023365e-05  4.20014127e-03  4.11392943e-03
 -2.53499780e-03 -1.14863999e-04  3.81619852e-04 -3.30500224e-03
 -3.14161464e-03 -5.47201775e-03  5.47283926e-04 -2.00559578e-04
 -2.29085154e-03 -6.26704523e-03 -6.70503266e-03  2.86102862e-03
 -2.16082665e-03  3.38738986e-03 -3.39833134e-03  1.10256317e-03
 -7.62938519e-04  3.13816100e-03 -7.62491176e-03  5.95838279e-03
  3.91711540e-03 -8.30755281e-03  2.95351094e-03 -1.44410177e-04
 -6.11637256e-03  1.48208316e-03  6.38017737e-04  1.03445994e-03
 -4.94734469e-03  1.32070776e-03 -8.65531810e-04 -7.13493486e-03
 -8.33021397e-03  7.35981260e-03  1.02797114e-02  5.89491349e-05
  8.91872383e-03  4.29758042e-04 -7.89719814e-03 -5.66407657e-03
  1.24093989e-03  1.09611380e-03  5.21175823e-03 -7.03104116e-03
  8.82011874e-03  6.99133293e-03 -2.02961124e-04  1.29815447e-03
  1.27106967e-03  2.37984096e-03  6.05298132e-03  1.96778604e-03
 -8.53977884e-03  5.75560337e-03  1.29184907e-03 -5.99474398e-04
  5.05550334e-04  1.14281898e-03 -3.30287350e-03  2.88849731e-03
 -4.41101947e-03 -3.18940791e-03 -3.80921625e-03 -2.32486189e-03
  7.73792898e-03  1.24456357e-03 -6.33288335e-03  1.47652873e-03
  4.96671562e-03 -5.00250477e-03 -3.73833510e-03 -8.97682618e-03
 -2.21220428e-03  2.37170150e-03  6.33302101e-03 -8.34730984e-03
  3.44038977e-03  1.41894167e-04 -5.65783411e-03  8.60267232e-03
 -8.37324984e-05 -2.09032423e-03 -4.97564084e-03 -2.07490611e-03
  4.26761516e-04 -5.01619863e-03  1.20740573e-04  4.38248501e-03
 -1.76271813e-03 -1.98453853e-04  3.39167807e-03  1.93404498e-03
 -3.91906052e-04  1.28313223e-03 -3.73973825e-04  6.61067152e-03
  3.51396644e-03 -8.00855942e-03  2.39482874e-03  9.86824449e-05
  6.55992365e-03 -8.58524034e-03  1.06169908e-04 -7.35010882e-05
 -1.71015004e-03  1.87315752e-04  2.94537554e-03 -2.36520256e-04
 -5.64078004e-03  4.05684852e-05  2.02477890e-03 -3.50949963e-04
 -4.89260506e-03 -5.59999541e-03 -1.81575728e-03 -1.56069507e-03
 -4.67277863e-04  2.69615682e-04 -4.27897773e-04 -3.12809791e-03
  4.24104593e-03  2.93385575e-03  7.66628585e-03 -9.23701601e-03
 -5.62918232e-07  1.18237180e-03  3.64140636e-03 -3.34369370e-03
 -6.80388775e-03  2.87534636e-04  2.36699022e-03 -7.82400026e-03
  2.17597327e-04 -6.52467102e-04  1.14883937e-03 -8.35229363e-03
 -1.87109390e-03 -1.63055011e-03 -6.22695347e-03 -3.01586245e-03
 -8.98070565e-03  2.49314415e-05 -7.08178844e-04 -6.77489139e-04
  1.52004272e-05  6.64124632e-03 -6.63519108e-04 -6.02280953e-03
  1.12645459e-03 -2.64710273e-03  4.31814276e-04  1.05648589e-03
 -2.83068616e-04  8.05375908e-03  2.46950210e-04  1.72549364e-03
  4.63568375e-03 -9.16942043e-03 -1.12334843e-04 -1.87549007e-04
  4.90641793e-03  5.09438218e-04  9.23493953e-03 -7.90858928e-03
 -7.90877084e-03  1.13584447e-04 -4.40673034e-04  9.80516455e-03
 -5.26804898e-03  2.40841616e-03  4.00626731e-05  2.27043297e-03
  6.24364579e-03  3.73541855e-03  6.76713157e-03 -6.13751545e-03
  9.41366659e-04  4.80925194e-04  1.26133578e-03  5.75268365e-03
 -8.87481247e-03  2.78962066e-03  1.96053981e-03 -1.42676078e-03
  5.19542787e-04 -2.73890434e-04  1.57571041e-04 -9.26813807e-03
  4.67191227e-04  4.96235201e-03  1.34385555e-04 -1.42919467e-03
  3.91805713e-03  2.43227870e-03 -5.99499922e-03  8.36200709e-03
 -6.71034843e-03  2.87291478e-03 -6.42990341e-03 -1.31953788e-03
 -6.21151649e-03 -6.29926321e-04  1.54903439e-03 -2.50924410e-04
 -9.43338942e-03 -8.83613295e-03 -4.47273806e-03  2.48049694e-03
  7.25276973e-05 -4.53049862e-03 -2.69226733e-03 -1.83167446e-03
 -1.62326027e-03 -2.54929709e-05  2.57667470e-04  1.46939092e-03
 -7.97276062e-03 -1.10211528e-03  4.24883590e-03  6.11174090e-03
  6.06566182e-03  5.94526305e-04 -4.08496159e-04  1.38803309e-03
  1.66948575e-03  3.09988019e-03  9.92427875e-03 -6.49206280e-04
  1.02651574e-02 -6.00326236e-03  8.46126213e-05 -1.80104471e-03]
[ 2.03617533e-03 -2.93613122e-03  1.22077397e-04 -4.43021593e-04
  4.31587331e-04  6.52355112e-03 -3.21006666e-03  9.44617225e-03
  1.95317485e-04  8.07980526e-04  5.00558395e-05  9.53958774e-03
  9.23761771e-03 -6.18932780e-04  1.01343546e-03 -8.08114448e-03
  7.91971564e-03  2.98228122e-03  1.91818916e-03 -8.56181287e-04
 -1.20560808e-03 -1.11353509e-03 -2.84224085e-03 -2.85459950e-04
 -8.50214109e-03  7.77142249e-03 -4.01911983e-03 -1.07958431e-03
  9.31442288e-04  7.43866221e-03  2.63270470e-03  2.95931150e-03
 -1.51439475e-03 -9.65551814e-03 -3.73179466e-04  9.36961162e-03
 -3.29977086e-04 -5.85447627e-03  2.55985220e-03  8.18899534e-04
  8.39735170e-03 -6.21848894e-03  2.73173928e-04  3.90410969e-03
 -3.53144034e-03 -4.91877933e-04 -1.38448904e-03  2.02726833e-03
  9.02637738e-03  9.20403052e-03  4.47512842e-04 -9.64269820e-03
 -5.26122522e-04  8.31029679e-03 -8.02125048e-04 -8.56940353e-03
 -1.66289293e-04  1.12026878e-03 -2.13238326e-04  3.78192912e-04
  2.48765072e-03 -7.97950300e-04 -3.70222063e-03 -7.83851563e-03
  5.36835581e-03  8.77675609e-05 -3.35316268e-04  3.15565314e-04
 -7.83168754e-04  6.88669235e-04 -4.51950088e-03 -7.83041194e-05
  2.11630599e-03 -2.71163172e-04 -1.71117356e-04  9.70439939e-03
  1.06823540e-04  4.66756937e-04 -1.90818742e-03 -7.83852475e-03
 -9.77533530e-04 -7.44973092e-04 -2.04174200e-03  6.81345065e-04
 -9.69349197e-03  5.42289910e-04 -2.76086224e-04  5.87364331e-03
  1.20633823e-03 -1.20537555e-04 -1.92688815e-03 -4.95488781e-03
  2.14761466e-03 -4.28870135e-03  1.19875213e-03 -1.28032544e-04
  6.80116714e-05 -1.20598750e-03  3.09095400e-03  2.40934412e-03
  2.60559161e-03  5.51307201e-04 -3.98493008e-03  5.98618385e-04
 -5.04771168e-03 -2.40201439e-03 -5.23467912e-04 -2.82081118e-03
  2.19264428e-03  6.08734384e-03  5.69849718e-03  3.08651969e-03
 -1.42505509e-03 -2.04906558e-03  1.83851804e-03 -1.17800104e-04
 -1.10212182e-04  6.41936515e-03  5.10667240e-06  9.86999682e-04
  1.88033976e-03  7.25965331e-04 -7.50116833e-03  3.05443034e-03
 -9.04595075e-03 -3.50638139e-04 -2.41951166e-03 -2.35592191e-03
 -4.93045903e-04  9.99710753e-03 -1.59018325e-03 -3.94749989e-04
 -3.90038411e-03  7.56643344e-04 -7.43078185e-05  9.07721452e-04
  3.75281408e-03 -2.38550493e-03  3.40541080e-03  4.37062043e-03
 -1.29213054e-03 -7.76204020e-04  2.86627659e-03  1.03004747e-04
  3.24333754e-03  9.70282147e-03 -1.02207524e-02  8.59280429e-04
  4.79349707e-04 -9.81928804e-04  8.09474466e-04 -3.90014346e-03
  1.38813617e-04  2.60462314e-03 -1.21179962e-03  5.31541681e-03
 -5.57745236e-03 -1.84762756e-03  4.70511451e-03 -2.17473446e-03
  1.44702147e-03 -1.92503341e-03 -3.90648419e-04 -6.80658606e-03
  1.07677102e-03 -9.50634592e-04  2.16194299e-05 -3.03005018e-04
  3.61911385e-04 -7.43013826e-04 -1.20946393e-04  5.54763197e-03
 -1.48434783e-03  1.62188645e-04  4.17850991e-03 -6.26142770e-03
 -1.55959564e-03 -7.41347028e-03 -1.46866506e-03 -9.40703458e-03
  9.25394767e-03 -2.75390517e-03  8.39651214e-03  6.76104371e-03
 -5.99764868e-06 -1.04388977e-03 -2.19466768e-06  3.32101244e-06
 -9.23776737e-03  9.45676515e-03 -4.08821891e-03 -2.68019635e-04
 -4.13292866e-03  3.25914389e-03  4.37674992e-03  3.31061475e-03
  8.20434006e-03 -1.70834228e-04  9.14660117e-03  2.08751724e-03
 -3.67591543e-03 -1.22442859e-05 -2.06976419e-03 -6.61800175e-03
 -5.31985569e-03 -5.22849848e-04 -3.40710600e-03  1.37260679e-03
  3.83328846e-03 -5.86552271e-03 -6.99355107e-03  9.56015142e-05
 -9.35843046e-04 -1.27312162e-03 -7.38075153e-04  1.61679595e-03
 -1.84635354e-04 -2.90825835e-05  9.81528266e-04 -1.44322018e-03
  2.15367725e-03  2.13604035e-03 -3.87636627e-05 -4.78016898e-05
 -7.74363768e-05  6.25149468e-03  8.04262154e-03  7.33000789e-03
 -3.49739372e-03  9.49875432e-04  2.42987951e-03 -7.90894926e-04
  1.37331061e-03  5.63399863e-03 -6.32159179e-03 -4.80981112e-03
 -7.62915595e-04 -7.10115381e-03 -2.52604318e-03 -4.49498172e-03
 -8.46024446e-03 -5.72522364e-03  1.11191333e-03  5.88320042e-04
  7.32227154e-03 -2.59045029e-03 -4.36380612e-03  8.70868848e-03
 -7.46870703e-03 -9.79085305e-03 -8.57407173e-03 -3.88657601e-03
 -1.45545662e-04 -2.59341497e-03 -4.96004755e-04 -5.57092813e-03]
[-1.85875577e-03 -2.69338045e-04 -4.06745730e-04 -1.33048513e-03
  1.41726698e-03 -3.71045273e-03 -3.49105454e-04 -2.23811329e-03
 -1.02084633e-02  3.36514352e-03 -6.11197682e-03  2.83268435e-04
 -2.24834698e-05  3.28682849e-04  1.37287090e-03 -2.11576694e-04
  2.17475164e-03 -7.62270627e-03  2.74516880e-05  2.61366759e-03
  2.64423758e-05 -4.12005664e-03  7.21734159e-05 -1.69604121e-03
 -1.03092173e-04  1.54388222e-04 -2.96991267e-04 -7.62647335e-04
 -5.43834311e-03 -4.12023469e-03  4.78061499e-03 -1.01588714e-03
 -1.02191958e-02 -8.41708915e-04  8.01506621e-03  3.85376069e-04
 -5.15450205e-03 -1.18147415e-04  3.31925744e-05  2.16944548e-03
  8.68814360e-03  1.93357035e-03 -6.26691375e-04 -7.97406462e-03
  7.48622449e-04  5.71642548e-03  3.48300217e-03 -4.20266608e-03
  1.00687298e-03  2.23025106e-04  2.16904196e-03 -4.68827841e-03
 -1.07256916e-04 -6.03071688e-03 -6.05982846e-03 -5.96662517e-03
 -8.93924786e-04  1.75248488e-04 -1.22740832e-03 -1.14523130e-04
 -2.60646859e-03  4.41523153e-03 -4.14498315e-03 -7.11491323e-04
 -5.83334804e-03 -4.84894179e-03 -6.50288825e-03 -2.57314481e-03
  3.01622866e-03  1.02854315e-02  1.12554607e-03  3.21572425e-04
  2.35161831e-03 -9.63583754e-03 -3.12090386e-04 -1.64402234e-03
 -1.19416399e-03  1.22351878e-03 -9.47354770e-04  7.69144044e-03
 -3.91705784e-04 -4.91353675e-03 -5.09099712e-03 -2.84406359e-04
  8.38689933e-03  8.31291269e-04 -2.75986463e-03  2.27818652e-06
 -1.33735932e-04  7.45682136e-04  1.58602124e-03 -3.51377294e-03
  6.41511315e-03 -2.00928663e-05  2.16884769e-03  1.00083844e-02
 -5.08242926e-03  1.78206279e-04  6.84019646e-03  4.13284830e-03
 -4.54821979e-03  1.40137618e-03  1.67737885e-04  3.44133579e-04
  7.45888415e-03  4.80721409e-03 -1.01461591e-02 -4.68414669e-03
 -4.58652289e-03  9.84780327e-04 -2.94405087e-03 -3.40502666e-03
 -1.79776253e-03 -2.20297927e-04 -8.46870597e-03 -2.95898302e-03
 -7.58619861e-04 -7.77989261e-03  2.34283250e-05  2.99505939e-03
  2.34716599e-03 -8.79905527e-03 -9.11386637e-05  6.40279221e-04
  3.72860038e-03  8.00920715e-04  2.06508595e-03 -4.80791598e-03
 -6.92912567e-03  3.19691593e-04  3.55351253e-03  3.31028520e-03
  2.43068533e-03  2.65154807e-04 -2.79708297e-03  8.07215817e-04
  1.01695905e-02 -5.42798189e-03 -9.19008470e-03  5.15279317e-03
  4.06149904e-03  4.55621492e-05 -2.56746164e-03 -4.62235002e-04
  4.04759104e-04 -2.27149131e-03 -4.45108575e-03 -1.45482531e-04
  2.21428713e-04 -1.37863600e-03  7.96130770e-03  4.52993507e-04
 -1.37258038e-04 -7.88209874e-03  7.97904247e-03  3.54953626e-03
 -1.29159848e-03  1.85554141e-03 -2.13336851e-04 -1.39968608e-04
  3.17276178e-05 -1.34720546e-04  4.09935555e-03 -5.17811124e-04
 -9.44043822e-03 -1.83718817e-03  2.52214781e-03  5.34783166e-03
  5.74707358e-03  1.87751772e-03  3.99734749e-03  1.01011807e-03
 -2.41142112e-04 -1.01536048e-02  5.74842971e-03 -5.43414389e-04
  3.90671787e-03 -1.34400736e-03 -7.01926504e-03 -5.31531391e-03
  5.50643014e-05  8.49228930e-03  1.85965969e-04  5.53513555e-05
  1.08243542e-03 -4.17080623e-04 -2.72265348e-05 -6.13122254e-03
  3.56851608e-03 -6.53260116e-03  1.09078807e-04  3.60780585e-04
  9.34944865e-03  5.46428805e-03  1.03233026e-03 -3.55764827e-03
 -5.59302861e-03 -8.05474394e-04 -7.72902747e-03 -9.61380133e-03
 -3.12456445e-05 -8.31252368e-03  8.87088430e-04  2.34177102e-03
 -7.51456748e-03  6.91210998e-03  3.24799053e-03  4.69837995e-03
 -3.75673988e-03  6.54529518e-06 -2.59467585e-03 -2.95450369e-03
 -1.64139064e-03  1.71633179e-03 -3.20487312e-03 -5.85955526e-04
 -1.09036644e-03 -2.88671909e-03  5.75519242e-05 -5.98104767e-04
  3.67849006e-03  3.52895435e-03  2.91239803e-04 -5.98436631e-03
 -1.45367598e-03 -5.29788315e-03 -3.11573712e-04 -6.75526547e-03
  5.20680593e-05 -2.54399996e-05  1.03175174e-02  3.28377826e-04
  9.56372114e-03  1.11220638e-03 -5.44980511e-03 -2.09730334e-05
 -1.33512835e-04 -5.39347917e-03 -2.21514104e-03 -7.26979080e-04
  8.56343396e-03  6.65135752e-03 -1.15957974e-03  6.93457138e-04
 -2.24840618e-03  4.05876647e-05  6.62628284e-03 -7.60450635e-03
 -7.35861014e-03 -5.89315770e-04  4.53203657e-03  2.53660698e-03
  4.43945562e-03  2.17800333e-05 -1.83231514e-04  3.02355504e-04]
[ 5.57722624e-04  9.83856046e-03  8.65753638e-03 -3.13067011e-03
  3.93628009e-03 -9.68200250e-03  9.54793114e-03  1.13221656e-04
 -6.87473706e-03  3.33348656e-04 -8.88761593e-05  1.92941335e-03
 -4.50353073e-03 -3.01092599e-03  5.15296399e-04 -6.32379220e-04
  9.25802714e-03 -1.03386096e-02 -3.88339450e-03  1.38248608e-03
  1.05095354e-03 -4.96532971e-03  7.18622077e-04 -5.30012763e-03
 -9.55098420e-03 -5.55963007e-03 -1.15847047e-03 -1.95918982e-03
  7.80617533e-03 -4.67464146e-03  1.25271709e-03 -1.88304711e-03
  1.06584145e-05  2.31463920e-05 -1.93222913e-03  7.58504310e-03
  8.25494828e-04  3.25170916e-03  2.06406901e-03  9.41700354e-03
 -8.11777029e-04 -4.29839967e-03  1.21929813e-04 -6.32622084e-04
  1.87741577e-03 -3.11935019e-03  7.04871705e-06 -9.16456840e-03
 -5.47073578e-04 -4.04534161e-04 -2.94089052e-03  2.02353623e-03
  1.19239871e-03 -1.13908034e-03  9.03013680e-03  3.09594777e-04
  3.33127306e-04 -9.66776098e-03  2.87269188e-05  3.42312372e-04
  3.85517273e-03 -1.21896883e-03  1.94445734e-04  8.91746782e-05
  2.31734763e-03 -2.40127035e-03  1.27061656e-03 -7.97033106e-04
 -3.72647009e-04  9.18476189e-03  3.03199665e-03 -8.04906590e-03
  7.64008311e-04  9.57524732e-03  1.09411805e-03  3.56056024e-05
  4.21938433e-04 -8.03583570e-04 -1.33404934e-03  4.91111194e-05
 -8.12786221e-04  6.52623800e-03 -6.60662252e-04 -3.07023792e-05
 -1.30738465e-03 -2.04365279e-04 -1.01329229e-02 -3.27593246e-04
  2.16023143e-03 -1.08380096e-03  1.55491359e-03 -1.63401998e-03
  4.28944451e-04 -9.14016747e-03  1.82809453e-04 -4.69876596e-03
  1.08081095e-04 -6.98582516e-03 -6.25457110e-04  1.85574667e-04
 -1.22188309e-03 -2.46449519e-03 -4.62792388e-03  4.21146916e-03
  4.64672126e-03 -9.80289971e-03 -1.86568625e-03  4.11362510e-04
 -4.67015056e-03  3.18559789e-03  7.74437640e-03  9.76244715e-03
 -1.24604794e-04 -6.28773293e-04  1.08286913e-04  8.87720305e-03
 -7.25935253e-03 -6.39442924e-04  7.36573660e-03  8.67729371e-04
  1.46289197e-03  3.38718688e-03  4.62083634e-03 -1.04871082e-03
 -1.78137166e-03 -5.80749142e-04 -8.05005221e-04  8.20160986e-04
  5.84711566e-06  9.76434158e-03  6.25924057e-03  1.10583184e-03
 -9.82587184e-05 -2.99317288e-03  2.25528874e-03  4.13945656e-03
 -1.14751437e-03  2.38826556e-03 -9.37246217e-03 -7.99517145e-04
 -1.93128739e-03  2.33382304e-05 -3.94510228e-03 -1.15151431e-03
 -7.28505958e-03 -1.03547541e-03  5.23658178e-04  9.97461141e-03
 -2.36143981e-03 -4.35326424e-03 -1.12534826e-03  8.70857169e-04
 -4.04966181e-03  6.18571384e-04 -1.03551195e-03  3.54650231e-05
 -8.90029603e-04  4.89872636e-03 -2.26266435e-03  7.65742593e-03
 -8.00936940e-03  1.53087442e-04  3.03356723e-03  1.67741934e-03
 -9.90106021e-03  4.36743716e-03  2.39618087e-03  5.42050890e-03
 -3.49202660e-03  6.15417024e-05 -5.98082057e-03 -6.06645464e-03
 -6.69378320e-05 -6.53337252e-03  5.05416095e-03  5.43242235e-03
 -4.38992171e-03  1.29456919e-03 -9.33923038e-03 -3.19372320e-03
 -1.70788816e-03  8.87904570e-04  5.40868138e-03  5.17949358e-03
 -1.05012584e-05 -5.97375722e-03  8.85090216e-03 -3.28341564e-03
 -3.95796961e-03  3.47371329e-03  5.61821814e-03 -2.85710812e-04
  8.97411030e-04  1.43867043e-05 -2.45397668e-03  2.57289586e-04
  3.00540914e-05  7.65421198e-04  7.00041655e-03  1.56255552e-04
  5.23429500e-04 -4.32741703e-05 -5.15745796e-04 -1.95984380e-04
 -6.65154971e-03  1.55128981e-03  1.10340909e-03  7.12633354e-05
  8.35805817e-03 -5.69217771e-03 -4.08425288e-03  7.50812543e-04
  1.12930268e-03  5.34449793e-03  6.33298307e-03 -1.02815243e-03
 -4.09791714e-03  3.73864715e-03  6.69443161e-04 -6.61460588e-04
  4.98969520e-04 -1.12956828e-03 -2.29997918e-03  3.51327894e-04
 -1.59547610e-03 -8.64399424e-05 -4.46522137e-03 -8.00151967e-05
 -4.89283909e-05  3.63642556e-03  2.93426316e-03 -2.68758520e-03
  6.11994011e-03 -1.04073167e-04 -9.03953776e-03 -6.72324089e-04
  7.13928200e-05  1.66209724e-03 -1.11591768e-03  9.89455797e-04
 -7.43451934e-04  8.75073471e-03  9.33660974e-03 -8.96819625e-03
 -1.53129273e-04  2.21045048e-03 -2.31434111e-05  1.19664902e-03
 -6.70013450e-03 -2.80908419e-03  5.76516343e-04 -2.49375683e-03
 -6.03843352e-03 -9.08057794e-04  5.06153209e-03 -2.44827592e-03]
[ 2.77120413e-03  5.86073833e-03  1.33514577e-03  3.22689584e-03
  4.79345909e-03 -1.09797664e-03 -2.20198907e-04  7.32498572e-03
  1.55053411e-04 -1.46151277e-03  8.73903025e-03 -1.21001225e-04
  2.22127494e-04 -2.88107916e-03 -5.10013117e-03 -1.09425039e-03
 -2.75852381e-03 -5.07761292e-03 -5.87334496e-04 -7.42726386e-03
 -5.25780879e-03  6.01751404e-04  1.88201718e-03 -1.41626610e-03
 -1.13219608e-03 -1.89150305e-04 -6.14402744e-04  1.26494783e-03
  4.88244364e-04  7.17300504e-03 -2.92299836e-03 -1.67249491e-03
 -3.02083587e-03 -3.45290181e-03  2.58220694e-03 -7.50154790e-05
 -5.68562699e-03  3.24247941e-03 -9.36268064e-06  1.33531568e-04
 -9.31530346e-03  6.69742321e-03  9.23959834e-03 -1.66488476e-03
 -1.36446597e-03 -1.84886615e-03 -2.81683381e-05  1.06057174e-03
  8.98450657e-03  5.04788048e-03  2.73419434e-03 -2.15769755e-04
 -9.92828246e-03 -7.64310680e-03 -1.62954985e-03  1.00323822e-03
  3.74736363e-03 -4.48066387e-03 -7.63261562e-04 -8.95832780e-03
  1.27265179e-05  4.66700380e-05  7.95275119e-06  6.25948456e-03
  4.15349870e-07  2.84623261e-03 -6.00732149e-03 -4.15854602e-04
 -1.16697368e-04 -6.07402679e-03  6.91058918e-03 -7.86232378e-05
  5.85550095e-05 -4.69648846e-03 -5.15201044e-03 -5.25039923e-03
 -3.36790237e-04 -7.81305701e-05 -6.46300324e-06  6.31568038e-04
 -1.54017534e-03  6.66697313e-03 -7.46848462e-04 -5.47655055e-04
 -6.20438406e-03  1.27297650e-03  1.89856714e-04  1.26266673e-06
 -6.47474740e-03  2.29788064e-03  3.01231662e-03 -5.43786613e-04
 -8.45614928e-03  9.31753447e-03  8.19393349e-03  3.62753119e-03
  1.63753543e-03  3.22443122e-03 -6.39745460e-04 -9.34957315e-03
  2.39027025e-04  2.31007389e-03  6.48776640e-04  3.70039162e-03
  1.92610262e-04  1.32484794e-04 -6.54292339e-03 -8.76876115e-03
  8.74110434e-03 -6.12772809e-03  9.29025087e-03 -7.21580876e-03
  2.32740563e-03 -9.07799959e-03 -3.19418526e-04  1.03217836e-03
  2.08501434e-03  4.66876489e-03  2.22678817e-03  5.40798343e-04
  1.20052818e-03  9.39683524e-06  1.20088720e-03 -3.17166131e-03
 -1.07585985e-04  1.67073040e-05 -6.17531143e-03  3.20032961e-03
  1.75538424e-04 -2.04695738e-03 -2.31485260e-05 -8.32239214e-05
 -1.59732963e-04  7.05273847e-04 -9.05268503e-03  5.09413263e-03
  1.03288409e-02 -8.03117251e-04 -3.88928201e-03  2.48938981e-05
 -4.73128026e-04 -5.91164959e-03 -8.04605080e-05 -7.37247783e-03
 -1.18564672e-03 -7.70478971e-03 -6.89173960e-06 -8.88586321e-05
 -6.32374830e-03 -5.05758820e-03  2.89286320e-03 -2.29262471e-04
  1.11770818e-03 -2.06841315e-03  1.07830572e-04  4.92062259e-04
 -8.78440814e-03 -2.30198768e-04  4.60029306e-04 -2.72132009e-03
 -9.53596830e-03  3.17405973e-05  4.17496702e-05  3.27720422e-04
  2.04456435e-04  1.34315089e-03  6.24731432e-03  9.98466402e-03
 -2.12575232e-03 -2.86469911e-03  3.05417856e-04  7.91703981e-03
 -5.54589000e-04  2.08954275e-03  1.03404366e-02  9.23865339e-04
  4.16186747e-04 -9.56846329e-03  6.30310585e-03  2.40611877e-03
 -2.40034936e-03  1.01203211e-02 -6.62867756e-05 -7.46745060e-04
 -4.20562810e-03 -9.99328085e-05  9.73174641e-03 -2.07172785e-03
 -5.44080073e-04  3.76549201e-04  7.04569657e-03  8.01789849e-04
  1.96804913e-04 -8.57203185e-03 -9.07538902e-04 -1.23226930e-03
  1.54554232e-04  4.72562580e-05  1.11247042e-03  2.60627893e-03
  1.14290171e-03  5.89827170e-04 -3.08055312e-03 -6.38896160e-03
 -9.77442294e-04  6.83810309e-04 -7.35666012e-05  1.91920838e-03
  5.85551279e-03 -8.42875661e-05  7.36798607e-04 -1.01998989e-02
  3.23495386e-03  5.26564145e-04  2.76684996e-03  1.21710721e-03
 -1.19894626e-03 -8.61491891e-03  2.38326062e-04 -1.03002726e-02
 -1.02953756e-04 -1.48492648e-04 -2.21747090e-03 -6.20230130e-04
  6.71423481e-03  4.63969138e-03 -9.23210852e-03  8.76185242e-03
  6.92131610e-03  6.90839529e-04  5.03970155e-03 -7.37366326e-03
 -8.74094922e-03 -2.32063223e-03 -2.31275603e-03  3.29355403e-04
  2.15881248e-03 -3.76521629e-04 -4.54162214e-03  7.56096321e-03
 -2.73588439e-06  3.74139551e-05 -5.49716844e-03  3.38041235e-03
  3.88745355e-03  5.99411747e-03 -8.48276424e-03 -2.09747021e-03
  6.36565557e-04 -3.25680848e-03 -2.42646612e-04  4.27266433e-03
  1.26869081e-04 -6.21347271e-03  2.75209057e-04  1.85749147e-04]
[ 5.60664537e-04 -6.37614778e-03 -3.92220404e-03  2.88548250e-03
 -1.32365647e-03 -7.51318148e-03 -3.14584199e-03  4.54910702e-03
 -9.27199744e-03  3.86288157e-03 -4.06919841e-03  3.06761005e-04
  8.48876962e-05 -8.98996824e-03 -3.05542528e-03  4.16297057e-03
  8.58111218e-03 -3.50798836e-05 -3.33767453e-03  5.65171550e-03
 -1.72477299e-05  4.78267228e-04  6.22602483e-03 -5.98880692e-04
  7.85449795e-03  3.43223338e-03  7.78218685e-03 -9.27585036e-03
  3.66676492e-03 -8.90009101e-03  6.64382972e-03  1.19911026e-04
 -3.20954698e-03 -5.18074688e-03 -2.40621529e-04 -3.53335091e-03
  1.24554624e-03 -9.92678503e-03  1.45465557e-03 -1.00818343e-02
  4.73785456e-03 -3.48076152e-05 -2.37732034e-04 -9.41134071e-03
 -6.26772146e-04  8.05737033e-04 -1.63981767e-04 -3.58310808e-03
  6.28986200e-03  4.29177828e-03  2.17186427e-03 -2.50224108e-03
 -6.94720132e-03  9.57371456e-03 -8.81004701e-05  4.52406481e-04
  6.90171610e-03 -9.30850841e-03 -1.49171653e-03 -2.85691679e-03
 -2.16969605e-03  5.21040987e-06  6.88294156e-03 -1.77613762e-03
 -8.79826670e-04  3.26244282e-03  1.88861887e-04  4.42811440e-03
 -1.63426636e-03 -7.80080830e-03  3.30594952e-03 -4.05360350e-04
 -6.96221969e-03 -9.40990546e-03 -3.52631845e-03  9.26395470e-04
 -4.90482897e-04  2.01699502e-04 -6.33410089e-03  5.66229428e-03
  3.11882322e-03  1.00253892e-03 -2.79753828e-03 -4.65572442e-03
  1.01550227e-03  9.01763130e-03 -9.61291354e-03 -1.15634864e-03
 -3.26273603e-03 -9.91464988e-04  1.54614093e-04 -4.80317594e-03
 -1.78325349e-04  1.62672480e-03  8.15479993e-03  4.59790914e-03
 -2.09773913e-03  1.87731822e-04 -2.46558689e-03  4.95486444e-03
 -2.66176143e-03 -8.26258586e-04 -9.26301097e-03 -1.00914418e-02
 -2.32222577e-04  4.61209649e-03  5.18516711e-04  2.47011195e-03
 -7.80810654e-03 -3.58959621e-03  9.68250380e-04 -4.05717081e-04
  1.04653778e-03 -9.00485616e-04 -7.02419734e-03 -7.14478558e-04
 -5.85703378e-03 -9.78990946e-03 -4.91310685e-04 -9.76686772e-03
  1.41304006e-04  2.64074677e-03 -2.37638601e-05  4.16051724e-03
  8.85368946e-05 -1.02905752e-04 -1.73368238e-03 -8.19820231e-03
 -7.74480815e-03  5.76534069e-03 -1.53105205e-03  5.58452475e-03
  1.22548149e-03 -5.04190897e-04  7.15556263e-04 -1.29465083e-03
 -7.65567518e-03 -4.13390597e-05  4.20246043e-03  3.90520960e-03
 -7.55693899e-03  4.35099651e-03  3.04618888e-04 -5.52909773e-05
  3.13759283e-03 -9.95713656e-03 -8.79799282e-03  4.15243232e-03
  1.80980871e-03 -8.81154118e-03  4.12305586e-03  1.84137519e-03
 -1.00506436e-03 -6.50867725e-04  3.28766710e-04 -3.27394832e-04
 -7.14018046e-03 -3.30140325e-03 -5.91672233e-05  2.40045579e-04
 -1.29202213e-04 -8.14521574e-05 -6.94673828e-04 -2.74375241e-04
  1.92817032e-03  1.53999603e-04 -1.04285429e-04 -6.12379906e-03
  7.21448657e-05 -6.93171710e-03  3.76008492e-04 -9.76278309e-05
 -3.16193480e-04  7.76079863e-03  7.04186253e-04  5.07493233e-03
 -1.92132692e-03  1.09742068e-05  4.88943796e-03  3.93522895e-04
 -2.80076878e-03  8.93527519e-03 -5.57646897e-03  1.13195209e-03
 -4.29672513e-04 -5.00424603e-03 -1.44605692e-03  6.32336658e-04
 -6.68436218e-03  1.80779572e-03  9.19382482e-03 -3.30587109e-03
  5.74263035e-06 -2.99432271e-03 -8.57385724e-03  3.47344035e-05
  7.53553768e-04 -7.67438659e-05  9.16727619e-03 -3.09107243e-03
  1.86183341e-03  8.83066264e-03 -5.39866016e-04 -7.97133966e-03
 -2.86116545e-04 -9.49654030e-03  2.37270822e-04 -3.31945556e-03
  6.07916181e-04 -5.46696925e-04 -4.50794496e-04  4.61349278e-03
  1.96904113e-05  1.35736497e-03  9.96324484e-03 -1.98367768e-03
 -8.12234778e-03  4.80140959e-05  2.02782010e-03 -2.02883170e-03
 -7.55449805e-03  7.43918090e-03 -6.06046351e-03 -6.92141060e-03
  3.91483696e-03  4.30498233e-03 -6.36039309e-05 -5.94342466e-03
 -1.31313069e-04 -8.88399573e-03 -8.58317130e-03  5.47588729e-03
  8.22976898e-06 -4.61832815e-03  5.87826078e-03  4.61224866e-03
 -4.80396544e-04  8.35888487e-03 -1.03293350e-02 -3.84409810e-04
  2.28572835e-03 -8.30661390e-04 -6.04409801e-03 -1.32370281e-05
 -8.80897046e-03 -6.92196412e-04  9.48036465e-05 -2.99379349e-04
  9.01654930e-03 -5.21391319e-03  6.11693890e-03  9.22374398e-03
 -1.07582803e-04 -2.42172617e-03 -3.26631229e-05 -1.94115777e-03]
[ 1.00150327e-02 -1.80845429e-04  4.62037019e-03  6.30749086e-03
 -9.84284772e-03 -1.55405618e-04  3.23145506e-04 -8.98917609e-03
 -1.45068194e-03  5.71195399e-04  2.91333193e-04  5.89583116e-03
  3.35993034e-03  3.63833244e-04 -6.07766996e-03  1.27059509e-03
  1.29579815e-03  1.01157483e-02 -1.97204485e-05  5.73001248e-03
 -5.11388764e-04 -2.94466744e-03  2.86602016e-05 -1.59623959e-03
 -1.39112920e-06 -6.13223165e-04  1.32212396e-03  1.59888271e-03
 -7.14382024e-03 -4.70025501e-04  2.21780651e-03 -1.36305865e-03
  2.95353088e-03  2.71120832e-03  2.70403029e-03 -1.71525065e-03
 -6.69852302e-03  7.28499741e-03  4.09516486e-03 -8.65487640e-04
  4.33081516e-03 -4.45392078e-04  9.14180648e-04  2.95567854e-03
  1.40779800e-03  1.61636495e-03  1.55072198e-03  2.23270766e-03
 -2.84104642e-04  1.04253037e-03  2.69548754e-03 -3.56677205e-03
  7.68478314e-03  5.63109226e-03  1.55867976e-04 -9.88010621e-03
  8.46491414e-05  5.52719933e-03  6.49561357e-04  7.93170018e-03
  6.46162301e-05 -1.26362690e-03 -6.20875470e-03  9.33568936e-03
  8.27451033e-04 -8.61707886e-03  2.69595814e-03 -4.13425129e-03
 -1.01356937e-02  6.54404650e-04  8.99233640e-03  9.25641143e-03
 -8.23407923e-03  3.30303087e-03  6.67902210e-04  2.37414666e-03
 -3.36601113e-04  8.75613794e-05 -5.63451169e-03  1.83952256e-04
  1.12708979e-03 -2.90250887e-03 -7.58301006e-04  5.28636084e-03
 -1.02249825e-02  7.84573625e-04  1.23775630e-03  2.07925778e-04
 -2.82131231e-03  3.24009419e-03 -5.77929668e-03 -5.58912770e-04
  8.18304715e-03 -8.64878829e-04 -1.92962204e-03 -8.48309779e-04
 -1.79239255e-04  6.70973332e-03 -6.85843094e-04  5.51558642e-03
  6.97859605e-04  4.98500100e-03 -5.77209006e-03 -7.39373561e-04
 -2.08560144e-03  1.75794437e-03 -1.28943665e-03  1.16160582e-03
 -1.75612110e-03  6.39420887e-03  1.55743837e-03 -2.53728708e-03
  2.19171233e-04  1.80024500e-03  2.68245515e-03  1.58833317e-03
 -6.46043684e-03  7.26088972e-04  7.56922864e-03  2.63264333e-03
 -4.56010596e-04 -5.65971362e-03 -1.00622157e-04 -4.29315125e-03
 -9.19789687e-03  2.58369023e-03  8.77797240e-05 -2.81608511e-03
 -3.59881860e-04 -3.44581169e-03  5.54331192e-03  7.55187555e-03
  3.20733132e-04  5.16576414e-04  1.88000402e-03  6.39503117e-03
  7.38862154e-03  5.23477106e-04 -5.34882987e-04 -2.40132210e-03
  1.08482281e-03 -8.72400491e-03 -1.07501014e-03 -3.54419997e-04
 -9.00095178e-03 -2.23379414e-03 -5.50267551e-03 -1.93125441e-03
 -5.88557799e-05  3.24750121e-04 -1.84096007e-03 -6.76503519e-04
  4.41090355e-03 -3.38134430e-04 -6.64070653e-03 -1.30984552e-04
 -4.93379231e-03  2.89573171e-03 -4.70231104e-04  1.59718321e-04
  8.17215919e-04 -7.35472793e-03 -6.21860337e-04 -2.16862328e-03
  7.62085506e-05 -6.62228195e-04  3.67379201e-03  6.95870473e-03
 -3.54020513e-03 -6.15088527e-05  2.89032472e-03  6.35251895e-03
  4.12944696e-03 -2.70295355e-04 -1.10638812e-03 -2.89451892e-03
 -4.01507679e-03 -7.76500318e-04  5.14283379e-04 -1.84138997e-03
  5.56139761e-03 -6.55630208e-03 -2.07759251e-03 -5.04959656e-05
 -5.15548074e-04 -3.76895322e-04 -5.51792916e-03  5.41551588e-03
  7.58513812e-05  7.06460785e-04  6.31471413e-04  1.30253231e-04
 -1.03722533e-02 -2.90348041e-04  4.72769195e-05  9.66477786e-04
 -5.94592157e-05 -1.50981982e-03 -2.21094763e-03  4.53387996e-03
  2.33157684e-05  3.35112315e-03  1.00383946e-02  1.24824938e-05
  6.27877637e-05 -6.04116848e-05  2.45467766e-03 -4.35759783e-04
  1.53650363e-03  4.91879470e-03 -8.20420073e-03  4.17815640e-04
 -9.11228523e-03 -2.65205814e-03 -9.68733563e-04 -8.42299786e-03
 -2.33845860e-03  5.27203246e-03 -8.84957692e-04 -3.60728152e-03
  2.12448686e-03 -7.42090992e-03  1.77724592e-05  3.38456211e-04
  3.72581776e-03  1.03079713e-03 -2.60341005e-04 -1.01455838e-04
  5.89021131e-03 -1.71344756e-04 -2.05426869e-03  1.05780656e-04
  7.78982471e-03 -5.74839214e-05  2.77944507e-03  1.09621931e-04
 -8.54527301e-03  6.06268365e-03  9.65268389e-03 -3.09197787e-03
 -6.44002854e-05  8.63299996e-03 -2.00556531e-04  1.72156965e-04
  2.69001659e-05 -1.02316573e-03  1.14643091e-03 -7.68648914e-04
 -1.23567907e-03  7.61956264e-03 -8.24820218e-04 -8.43473658e-03
 -4.25260440e-03 -8.51841200e-04  2.76980899e-03  6.65670642e-04]
[-5.87698787e-04 -9.27212116e-04 -2.11395429e-03  9.67562239e-03
  5.56539747e-03  8.48818505e-04  2.87126263e-03  1.23755679e-03
  2.79430247e-04 -6.30555248e-03 -4.70738912e-03  4.43187267e-03
  4.57379975e-04  8.62031681e-03  3.08712759e-03  5.67819360e-03
 -4.39828248e-04 -9.24654739e-03  3.78037362e-03  1.03083506e-02
 -1.52807840e-03 -1.44519061e-03 -3.40092999e-03 -1.02454821e-03
  7.80093871e-04 -9.05534649e-03 -8.67866671e-04 -4.60558804e-03
 -1.00955647e-04  1.65885290e-03 -6.15692355e-05  2.64703614e-05
  2.33279510e-03  5.33672951e-05 -1.02652986e-02 -1.24321859e-03
 -5.99754455e-04  3.13135606e-04  8.84834980e-03 -2.88323056e-05
  1.93224103e-03  1.47822575e-03 -8.89241196e-03  7.80281838e-03
 -4.05440580e-04  1.37506846e-05 -2.12146653e-03  1.60081684e-03
 -4.75650435e-04 -1.75954776e-03  8.53697922e-03 -2.38693261e-04
 -6.38458369e-03  7.95454455e-03 -1.52496389e-03 -1.64246531e-05
 -4.90695011e-04 -6.36582924e-03 -9.19281665e-03 -4.81473163e-04
 -8.25997958e-04  3.41069544e-03  8.12472340e-03 -9.62541479e-03
  2.81452593e-03  5.04559256e-04 -1.05443351e-04 -1.23644059e-03
  3.81391456e-03  7.93968822e-03 -6.12603764e-06 -6.55975482e-03
 -9.99679234e-03 -8.94076950e-03 -3.48121541e-03 -1.58145014e-03
 -5.16087821e-03  2.20291643e-04  8.26224958e-03  1.02503155e-03
 -2.99689377e-03  3.17630457e-05 -9.47476392e-03  2.61895346e-04
 -2.13718137e-04 -4.40280261e-03  3.71506205e-03 -3.61667091e-03
  3.96638859e-03  7.81792085e-03  8.70398803e-03  7.40733335e-03
 -3.24884096e-03  4.60192536e-03  1.02758948e-04 -2.64996553e-03
  6.42614326e-03  1.05484145e-03 -6.83585792e-03  5.69815010e-04
 -2.74053646e-03 -3.59138537e-03  6.54704602e-04 -5.76337326e-03
  2.68035607e-03  4.04511566e-05  7.34366156e-04 -1.80921911e-03
  6.37150721e-05  3.93101063e-03 -6.45081062e-03 -4.08371997e-03
 -4.85285319e-03  6.34240916e-05  7.38292108e-04 -8.77845104e-03
 -1.65273294e-03 -3.57400834e-04  5.31062054e-03  3.61507364e-03
  1.64693058e-03 -7.25439681e-05  8.98103020e-04 -7.01381649e-03
 -4.17891393e-05 -2.26776149e-03 -9.54712763e-03 -6.73719851e-03
 -1.65311049e-03  8.70282978e-03  1.81120281e-03  6.90237327e-06
  1.81034261e-03  8.23705723e-04  2.12528568e-04 -1.22058490e-03
  2.23560396e-03  4.73287671e-04  2.01491606e-03 -2.32919674e-04
 -4.36092146e-03 -7.53073708e-03 -2.69054080e-04 -4.18674193e-03
  9.59794723e-04  5.63295100e-03  9.15460557e-05  5.46541746e-03
 -4.84717832e-03 -2.13043984e-04  2.38828519e-04 -6.25868048e-05
 -3.38793533e-04  4.03337617e-03 -6.07809721e-03  1.76862093e-04
  2.01397522e-05  1.37760071e-03  4.06369612e-04 -6.82647662e-04
 -2.95335317e-03  4.64196090e-04 -2.55399165e-04  5.09486830e-04
 -1.86572864e-03  6.20827201e-03 -2.44601395e-05 -8.83848139e-04
 -1.77472195e-05 -2.55209911e-03 -2.08866267e-04  7.39183391e-04
  4.39200519e-04  5.26741201e-03 -2.26229315e-03  1.78613129e-04
 -9.37614230e-03  5.25543458e-04  5.32995692e-03  8.52170647e-03
 -1.54735129e-03  2.98214187e-05  9.62401660e-03 -4.46465031e-03
  1.01393939e-04 -2.92488733e-03  1.90913124e-03  1.68119197e-03
 -1.82613021e-05 -8.34100710e-03  6.93099152e-03  1.80330271e-03
 -8.88668178e-05 -4.39951442e-03 -3.24119303e-03  3.71809295e-03
  3.57145515e-03  5.23796415e-03  9.89700159e-03  6.54409844e-03
 -5.86025944e-05  3.55108667e-04  1.48365220e-03 -2.17247668e-03
  1.04252788e-03 -3.98906905e-05  3.95409375e-03 -1.28806558e-03
 -2.73602802e-04 -4.84970679e-03 -1.58087204e-03 -9.02125513e-03
  1.75369596e-03 -1.44538021e-03  1.50294723e-03 -1.73396063e-03
 -1.55988983e-04  7.44635567e-04 -2.64287099e-03  2.14565883e-03
  7.19822116e-03 -1.19351601e-03  3.03915294e-04  2.31138550e-04
  2.22113045e-05 -9.13922792e-04  3.00469021e-03  4.05763816e-03
 -5.44270592e-04  5.43510729e-05 -7.88640019e-03 -6.98211040e-03
 -3.49331130e-05  1.26647415e-03 -3.04096901e-03 -2.30226995e-04
  7.97730731e-05 -5.19673060e-05  1.50464171e-04  1.56836299e-03
 -3.17235119e-03  7.03379375e-03 -3.39344499e-04  4.58945383e-03
  4.39476477e-03 -5.89967038e-03 -6.46670405e-03 -3.40877259e-03
 -6.52279739e-03  8.87194485e-03 -4.87803770e-03 -1.68226635e-03
 -1.70594858e-04 -1.07590537e-03  5.42769299e-03  8.75968384e-04]
[-1.01769734e-04  1.14952222e-03  9.61871889e-03  2.73129675e-03
 -5.72868873e-04  1.96419851e-03  3.75506342e-03  6.82166500e-03
 -4.88945982e-04  1.01524206e-03  1.44705849e-05 -8.41654073e-03
  1.40412695e-03  1.02273013e-03 -1.06524635e-03  2.88221973e-03
  9.06006353e-03  8.46904651e-04 -2.67697725e-04  6.35233968e-03
  5.54918399e-06 -9.28899229e-04 -6.23986756e-04  3.76788464e-03
 -6.80536649e-03  5.93285797e-04  1.58106955e-03 -8.54544325e-03
 -9.11240703e-03 -5.90141728e-03  4.95759495e-04 -6.76815526e-05
 -1.72421860e-04 -7.24367801e-03  7.29074579e-04  1.02846765e-03
  5.32691020e-03 -2.20472952e-03  4.75221167e-03 -1.59997339e-04
  7.09198608e-03 -1.14959633e-03  2.79923095e-04  1.01816202e-02
  1.43043320e-03 -9.59424968e-04 -4.09310959e-03 -3.00343904e-05
  5.05403826e-04 -1.01364795e-02 -1.99098238e-04 -3.58111452e-05
 -3.38700967e-04  2.74524350e-03  2.29971830e-06 -6.53007304e-03
  5.31318191e-04  4.58784167e-03  2.13326238e-04 -8.34871792e-05
 -5.42683749e-05  2.66271357e-03 -3.82197675e-03 -1.39123617e-03
  3.72306892e-04 -3.45839652e-03  4.48400793e-03 -1.26956069e-03
 -7.95316326e-03  3.71392335e-03 -9.31812294e-04  5.31568783e-03
 -7.22781580e-04 -6.89622554e-04 -4.85863906e-03 -4.95522033e-04
 -4.31867280e-04 -5.96230892e-03  1.62777940e-03 -9.15873260e-03
  6.18305308e-03  4.02600483e-05 -2.95740985e-03  9.29088841e-03
 -2.91902841e-03 -4.93862122e-03 -1.91279589e-03 -3.49464666e-05
  4.83755365e-04  7.62925184e-04  3.53120622e-03  8.94818075e-03
  1.01726450e-02  5.85897938e-04 -1.40488316e-03 -5.53059044e-03
 -5.64633041e-03  5.86363179e-05  2.76040657e-03 -1.87982042e-03
 -1.31667134e-03  8.32612678e-05  2.09562182e-03 -2.41408775e-03
  5.17884953e-04 -9.35637366e-03  7.32121305e-03 -5.15760107e-03
 -7.49007014e-03  6.17584259e-03 -1.19941943e-03  1.58856113e-04
  2.18204447e-03 -6.38592674e-03 -5.70660425e-03  2.53595173e-03
  5.67958780e-04 -5.41277863e-03 -3.30171771e-03  4.56245465e-04
  6.72977378e-04  5.99630516e-03 -3.64593212e-03  9.02891953e-03
  5.73559424e-03  5.85887196e-03  4.00686230e-04  2.80251936e-04
 -4.64673344e-03 -3.65575864e-03 -7.29729494e-03  3.00376106e-03
  5.20227183e-04  3.60673864e-03  1.74323048e-03  9.38119401e-03
  1.18663066e-03 -9.47287860e-03 -4.10948744e-03 -5.67918880e-03
  7.14647289e-04  3.72936237e-04 -5.91520406e-03 -7.47997686e-04
  9.89257696e-03  3.47198701e-03 -8.27523378e-05 -1.24906455e-03
  1.86369536e-04 -9.75098605e-03  1.03373525e-02  5.35030258e-03
  2.09167819e-03 -5.96035619e-03  5.13325226e-03  1.61173548e-05
 -5.83137572e-03  5.07311413e-03  5.20868832e-03  2.52559858e-03
  9.50346661e-03  4.12347288e-03  3.35758536e-03  8.77589555e-03
 -5.18232195e-05 -1.60183745e-03  4.35963379e-03 -3.56167442e-03
  4.49906527e-03  5.50499627e-04 -1.04080609e-03  2.54121975e-03
 -1.75337019e-04 -5.82568338e-03 -1.00334753e-02 -3.23434861e-04
  3.91238322e-03  8.62580884e-03 -7.00053651e-03  3.25904888e-03
  1.71377424e-03 -3.20282010e-04  2.16413936e-03 -9.33071992e-03
  1.03992449e-03 -6.31235195e-03  1.28086860e-03 -2.33192159e-03
 -1.62963630e-04  7.89521884e-05 -4.38868260e-04  8.31122344e-03
 -4.45630877e-03 -6.31168570e-03  2.48525471e-05 -2.89031512e-05
  5.02897734e-05 -6.31165138e-03 -1.58659345e-03 -3.67401569e-03
 -2.07096617e-03  2.96374203e-03 -1.23115195e-03  5.39853150e-04
  1.21447615e-03 -3.04207378e-03 -1.03143077e-02  1.32368424e-03
  8.49386329e-04 -2.41761823e-03  4.67126226e-03 -8.73577049e-03
  5.86441323e-03 -8.49790837e-03  1.64586716e-04  6.86749283e-03
  4.84695439e-03  3.28252915e-03  1.26494375e-03 -4.69073975e-03
 -5.13453175e-03 -9.65520215e-03 -5.25859433e-03 -3.00341957e-03
  8.10153767e-03  2.88840219e-03  4.46776692e-03  1.34741158e-03
 -1.32813632e-04  2.31160829e-04  2.13224000e-04  1.30713427e-03
 -2.21175272e-03  1.66553526e-03  9.13901474e-04  1.34752602e-03
 -1.25203793e-03  5.25755194e-05  4.13056596e-03 -3.98591670e-03
  4.19684732e-04 -1.59267936e-03  8.05883494e-04 -5.96893716e-03
  8.44673646e-03  3.96192047e-03  2.70859373e-04 -1.15393801e-03
 -3.02465123e-03 -8.87582023e-03  2.08682808e-03  7.96438660e-03
  3.59760590e-04 -1.70424384e-04 -7.86621483e-05 -2.84280332e-03]
[ 4.42725121e-05  4.25686293e-05  1.93974283e-03  4.30790629e-04
  6.50630585e-03  1.00826614e-02 -8.71041229e-03 -2.27735585e-04
  2.85398071e-03  1.27673480e-03 -1.29090240e-03  1.06357144e-03
 -5.00050926e-03 -7.07338221e-03 -1.89568521e-05 -4.71382790e-03
  2.68227849e-03 -9.96237356e-03 -3.96058680e-03  3.81298698e-04
  2.18190117e-03  3.77206243e-03  9.89747154e-03  3.59219728e-03
  8.00715540e-05 -9.33837635e-05 -3.10031305e-04 -5.89925778e-03
 -2.25261874e-03  4.21728043e-04 -5.58992800e-03 -2.89579878e-03
  5.65417821e-04  6.35105096e-03 -1.81276820e-04 -1.28742601e-03
  5.46590320e-04 -1.72495650e-03  6.23148589e-03 -2.62411661e-05
  5.05451899e-03  3.56640883e-03 -2.79531640e-03  7.65707616e-04
  1.05748584e-03  2.09921171e-03 -3.36077367e-05 -2.98946258e-04
 -7.58973585e-03  4.12275072e-03 -8.01518049e-03  2.85775811e-03
 -6.24495196e-04  4.55400307e-04  2.05588257e-03  9.67239202e-05
 -8.40827004e-06  6.74109338e-03  9.87140121e-05  1.29216978e-03
 -8.94588187e-05  1.36163340e-03  7.71180957e-05  2.98793984e-03
 -1.60562938e-03  1.27520264e-03  1.67074316e-04 -9.69741664e-03
  1.81155101e-04 -7.50901758e-03 -5.83655133e-03  9.01577745e-03
 -4.46154008e-03  8.51634679e-04  4.32912755e-03  8.37104858e-03
  1.48960763e-03  3.20317705e-03 -1.54104435e-05 -3.57889249e-03
 -8.14866836e-03 -3.67883945e-06  1.93828409e-04  4.30904565e-05
  5.36648570e-03  2.18460532e-05  6.03767144e-03  3.53046446e-03
  2.22583788e-05 -4.62444629e-03  1.74923311e-03  3.60083523e-03
  3.24408170e-03  4.83095133e-03 -1.33827735e-04  8.20197365e-03
 -5.53638093e-03  4.07456765e-03  4.15554455e-03 -2.16842433e-03
  2.14501136e-03  1.48685278e-04 -1.83831472e-03 -6.98936160e-04
  3.76594499e-04 -5.56843775e-03 -5.65518785e-03  2.48034293e-04
  3.22745124e-03  2.90711094e-03 -4.35228804e-04 -6.98134229e-05
 -7.88177343e-03 -2.25717010e-03 -7.91187367e-03  1.55665888e-03
 -8.63522514e-03  2.92469457e-03  2.50266708e-04  2.78664245e-04
  1.77941161e-03  9.02886000e-03  1.56094321e-03 -4.02369047e-05
 -6.93118808e-03  3.76324753e-03 -8.53741412e-03  5.42794088e-03
 -9.19560104e-06 -3.74580472e-04 -2.70618842e-03  1.12283582e-04
 -1.58403916e-04 -9.36135170e-06 -1.28680757e-03  6.08065239e-03
  4.29552033e-04  1.55526946e-03  1.37176045e-03  8.05007690e-03
 -8.97084967e-04  7.98844628e-03  2.20704765e-03  7.08249141e-03
 -2.45585390e-03  6.81780723e-03  4.17863914e-03  5.30755046e-03
  1.03951476e-03 -6.16250080e-04  9.11796948e-03  8.84003757e-03
 -1.70684625e-04  1.22304400e-03 -2.25596944e-04  2.20945910e-03
  1.29462812e-03 -1.85553049e-03  1.59915213e-04  5.10819664e-04
 -3.17542550e-04 -4.01478262e-03 -2.36853906e-04  6.12529360e-03
 -7.41111099e-03 -1.75704343e-04  5.15709730e-04 -3.66013226e-03
  1.00665557e-02  8.37630567e-03 -9.66603818e-03  3.80495680e-04
 -1.29265766e-03  5.37679341e-04 -5.99380053e-03 -8.68898901e-03
 -2.40184774e-03  6.99763129e-03 -3.94333800e-03  2.73294241e-03
  6.98948814e-04  5.61531426e-03  2.31435733e-04 -2.33986066e-03
  1.05794478e-03 -9.29696062e-06 -5.89371394e-04 -1.02595953e-02
 -9.68080528e-04 -5.91970770e-03  7.84945986e-05  9.88759144e-04
 -6.06983669e-03  1.10916947e-03 -3.65069429e-03  4.71874691e-03
  6.83359654e-03 -8.12090289e-03 -7.86821678e-03  3.59637224e-03
  6.34764312e-03  1.38814699e-03 -4.50384836e-04  1.18323786e-03
 -5.13113750e-04 -6.56606662e-03 -8.22515355e-03  8.35968728e-03
  7.80388827e-03 -2.31055903e-04 -4.89116302e-03  3.13777886e-03
  4.37368916e-03 -7.24557028e-03 -1.32829896e-03  9.54755255e-06
 -1.79072561e-03  2.80916880e-03  8.15540748e-03 -1.11736603e-03
 -7.36802064e-03  7.87450916e-04  5.26088015e-03 -5.88856321e-03
  2.92365650e-03 -1.13031422e-04 -2.17643314e-04  9.65552849e-03
 -5.04949004e-04  6.60729251e-03 -5.35732687e-04 -8.37528102e-03
 -5.08599614e-04 -1.00795238e-02 -2.48716189e-04  2.02740563e-03
  2.69979993e-03 -4.93920402e-04 -5.29812457e-04  6.01946932e-03
  1.79351571e-05  4.10299480e-03 -2.41395385e-03  5.97679433e-04
  1.82355626e-03 -9.06637379e-03 -1.30916458e-04  6.07560221e-03
  7.91706036e-05  5.56245594e-04 -8.55483214e-03  2.06938329e-05
 -4.23208860e-04  6.92871815e-04  9.28505322e-04  8.41124280e-03]
[-7.60854892e-03 -2.36863565e-03 -3.07748223e-04  7.42536219e-03
  2.89903555e-04  6.75362013e-03  8.67510803e-03  7.82023274e-04
 -2.83538396e-03 -2.33791979e-03  4.96750249e-05  4.06371778e-03
  3.26903105e-03  7.17622280e-03  7.60422612e-04 -6.56339974e-03
  2.07640776e-05 -3.08692954e-03 -3.47546803e-05  5.87732238e-04
 -2.34462480e-04  1.07204306e-03 -5.54748040e-05 -5.96217464e-03
 -4.17113068e-03  2.31131559e-03  2.29832213e-04 -9.31045730e-03
  9.86221808e-06 -6.94656644e-03  6.97916826e-03  6.41802865e-03
 -5.19700246e-03 -1.04570186e-03  2.77961209e-05  1.63853769e-03
 -1.26876944e-04  2.35685673e-03 -1.78997980e-03  5.71326663e-04
 -5.83700749e-04 -1.72627469e-03  4.15054952e-03 -3.83565673e-03
 -6.50938784e-03 -2.57091895e-04  1.11074801e-03 -3.38080753e-04
  7.17596453e-04  8.62249508e-04  1.25824781e-04 -4.80999406e-03
  6.20581845e-04  3.49127794e-03  7.81844090e-03 -1.64276375e-03
 -8.22272316e-05  7.03578994e-03 -7.05859305e-03 -5.95619108e-03
  2.84277639e-03  4.23831935e-03 -1.13179253e-03  2.34987063e-03
  6.56271378e-03  1.36070027e-03 -2.82326512e-03 -4.70644153e-05
  5.72599310e-03  1.64669031e-04  1.85993649e-03  2.11236754e-03
  6.13571055e-03  9.37186179e-04  2.00266024e-03  2.70491874e-03
 -3.32063420e-04 -1.65538795e-04  2.74827148e-03  5.61935194e-03
  6.54707574e-03  4.43969025e-03  2.63678439e-03 -8.23608266e-03
 -3.37024221e-03 -8.92248933e-04  2.71286653e-03  3.40026217e-03
  1.59039279e-03 -9.25202361e-03 -8.83518671e-03  1.04582217e-03
 -4.39329517e-04  7.90545592e-03 -8.95631957e-03  6.62905469e-04
 -4.23618749e-03 -7.79551513e-05  3.51424194e-04  5.54051134e-03
 -9.76843805e-03  2.45788712e-03  1.58102727e-03  1.32665395e-03
 -1.60041412e-03 -5.11230597e-03  1.75406759e-03 -2.28225264e-04
  1.57817992e-03  1.89421232e-04  3.38620358e-03  5.32773868e-03
  1.32811201e-03 -1.83845128e-03 -7.25383553e-03 -3.36562794e-03
  1.96780506e-03  3.98133545e-03 -1.03716292e-03  4.93710410e-04
  6.89114899e-03  7.42293762e-05  2.62031025e-04  3.84555423e-05
  1.53106493e-03  3.33677719e-03  6.56186260e-03 -1.81667582e-04
 -7.03889563e-03 -7.43498901e-03 -9.97720056e-04 -4.29684331e-03
 -7.26120268e-04  4.52793644e-04 -1.72415983e-03 -3.08773341e-03
 -9.71207445e-03  4.66072781e-03 -3.75378514e-04  5.50875197e-03
 -4.55652856e-03 -4.77301168e-03 -6.34141299e-03 -8.96971010e-05
  7.73688234e-03 -5.74605917e-04 -7.51156095e-03  3.30864012e-03
  2.11219275e-04 -2.34243206e-03  5.61892126e-03 -4.01644609e-05
  5.28336472e-04  1.10923613e-03  4.20638859e-03 -3.95616826e-03
 -4.03505232e-03  2.21581121e-03 -2.30875976e-03 -2.33073593e-03
 -1.18533394e-04 -2.51006205e-03 -1.45923069e-03  2.61531376e-03
 -2.36194214e-04  1.82014240e-03  2.62909251e-03 -9.65635440e-03
  8.99094987e-03 -4.84298870e-03 -1.32255876e-03  6.82225073e-05
 -2.37914826e-04 -2.90057819e-03 -5.90306962e-04  1.75143262e-03
 -1.05753097e-03  8.29150386e-03 -9.99722660e-03 -2.64343062e-03
 -2.14203246e-03 -3.01019580e-03 -1.42443918e-04  5.52778971e-03
  6.10277652e-04  7.82383542e-03  7.12372589e-03  7.10678964e-03
 -4.67154481e-04  2.60304112e-03  2.08771186e-05 -2.00624466e-05
  9.38685628e-05 -6.11602152e-03 -3.86879821e-03 -2.90791722e-03
  1.79469390e-03  6.36366813e-04  2.02650200e-03  2.17110136e-04
 -7.11007297e-03  1.15742534e-03  5.79345794e-03 -1.06973003e-04
  3.71435060e-03  1.00754166e-04  2.49386150e-03 -4.14878758e-04
  7.21453890e-04  2.22335705e-03  1.68283388e-03  4.43393477e-03
  4.72264159e-06  9.09065674e-03  3.76581606e-04 -8.96448591e-04
  9.46765072e-04 -2.42644192e-03 -3.05184591e-03 -9.65683131e-03
 -9.18211569e-05 -6.22557948e-05 -6.76573169e-05 -1.06403681e-03
  2.82568266e-03 -9.41917910e-06  2.18566899e-03 -8.74270895e-04
  6.12823503e-03  1.51475879e-03  2.35923687e-03  1.36054610e-04
  6.39033745e-03 -1.73287252e-03 -4.04399281e-03 -2.28283839e-03
 -5.63135607e-03  2.07600802e-03  1.38078887e-03  6.48261668e-04
 -8.28761430e-03  1.07731783e-03  9.17115821e-03 -8.17811201e-03
 -3.50315433e-04  2.02363435e-03 -2.76042946e-04 -1.68788905e-03
  1.02555508e-02  5.45874979e-05 -2.00907970e-04 -1.23862228e-03
  5.86571272e-04  4.34648486e-03  9.54643130e-04 -3.79268308e-04]
[-5.77807586e-03 -3.70694864e-03  4.63700734e-04 -7.73694265e-03
  3.29071739e-03 -7.57583995e-03  4.87234526e-04 -5.08806805e-03
 -1.58081138e-04  5.72505235e-03 -7.95000165e-04 -1.55928314e-04
 -4.10790739e-03  2.40143824e-03 -1.23102817e-04  1.95438512e-04
  5.24472855e-03  9.90419751e-03  1.54372679e-03  1.36613669e-04
 -9.46011305e-03  6.65785819e-04 -2.59613926e-04 -8.85163998e-03
  1.82961696e-03  5.01826888e-03 -6.29906621e-03 -2.62929461e-05
  5.74731229e-03  5.86069203e-03  4.47912697e-03  3.89243487e-03
 -4.04656807e-05  2.32735551e-03 -1.47847546e-03 -1.71471207e-03
  2.37886481e-04  2.70330777e-03  5.75564489e-05 -9.32404688e-03
 -8.20999535e-03 -2.58755213e-03  2.28084061e-03 -9.66701744e-04
 -1.23015893e-03  1.39452968e-03 -1.45349713e-05 -8.36187266e-05
 -4.03391175e-03  2.51139147e-03  5.47628255e-03  1.87741151e-03
 -4.49645656e-04  1.00458756e-02 -6.79855773e-05 -2.49933872e-03
 -3.66990638e-03 -8.07856350e-03  2.35862901e-03 -4.49676605e-03
  6.20149044e-03 -1.78672636e-03  1.45103757e-03 -5.06644916e-03
  5.74223470e-03  1.21913383e-03 -9.47429361e-03  1.74419310e-03
  6.12164098e-03 -3.89685285e-03 -8.95566412e-03  1.44275416e-03
  3.00941918e-03  6.39330131e-03 -1.47764747e-04 -2.08996845e-03
 -8.45880043e-05  8.98974113e-03  7.81843906e-03 -6.51264564e-03
 -7.13955127e-03 -3.71716200e-03 -1.02477168e-04  1.46603985e-03
  8.38208798e-05  4.70374251e-03  2.34256708e-03 -8.53475486e-03
  1.65222294e-04 -5.08795621e-06  4.43403054e-03  1.71369339e-04
  4.60156322e-03 -2.00457717e-04 -3.27976505e-03 -2.47061883e-03
 -1.23097238e-04 -8.94383962e-03 -1.55832522e-05 -3.33867803e-03
 -4.36938742e-04  1.83887773e-05  5.81376705e-03 -2.17957507e-03
 -1.42516518e-05 -3.14221651e-04  4.02559216e-04  5.21737539e-03
 -2.07016273e-05 -8.00051796e-03 -6.42824922e-03  1.33599787e-03
  3.49519022e-03  1.01540770e-02  4.54076693e-03  5.94466572e-03
  4.26991971e-03  7.78875540e-03  8.79119928e-03 -8.15839982e-03
 -7.27181836e-03 -4.86978273e-04 -8.10281395e-03  6.32901717e-03
  1.00360432e-02 -4.28228915e-05 -5.84219559e-03  4.00347251e-03
 -4.59820405e-03  8.08748887e-04  5.02510826e-04  6.10116850e-05
  6.88503849e-04  4.79041552e-03  9.61875668e-05  3.05058852e-03
 -2.68247106e-04 -3.64954724e-03 -3.71076004e-03 -1.92828950e-03
  5.17738728e-03 -7.97624525e-03 -5.29087351e-04  1.39025659e-03
 -8.34442321e-03  1.20771927e-03 -3.90328281e-03  5.54731735e-03
  4.74697855e-05  6.04699176e-03 -1.52645672e-04  1.01901229e-03
 -6.64260743e-03 -1.45288340e-04 -9.19765433e-03  2.23225653e-03
 -1.86285119e-03  3.63230439e-04  6.80378772e-03  1.94121855e-03
  3.68262891e-03  1.06929283e-04  6.23959430e-03  5.09727215e-03
  1.25211691e-03  4.27605643e-03  3.97893969e-04  1.80340339e-03
 -2.24364345e-03  3.99063467e-03 -4.04344202e-03  2.39461537e-03
 -6.96501337e-04 -2.67681974e-03 -7.68479379e-03 -8.01598707e-03
 -3.20303060e-03 -4.70181828e-03  1.48828209e-04 -6.27120861e-03
 -5.75328422e-04 -7.95704507e-04 -1.92618447e-03 -4.92239569e-04
 -1.83868150e-03 -1.01754472e-04 -8.46830852e-05  9.73250327e-03
 -8.00967828e-04 -2.63558587e-05  4.25083341e-03 -9.08508792e-03
 -2.16288617e-04 -8.27320146e-05 -1.19808274e-04 -1.36551424e-04
  1.79201624e-04  7.81296477e-05  9.99402736e-03  3.12112362e-04
 -1.70344326e-04  8.91539915e-04 -4.08634240e-04  5.71487462e-03
 -7.15147788e-04  6.71891332e-04 -9.08120589e-03 -4.08290100e-06
 -9.71900201e-03 -4.88493526e-03 -1.99787109e-03 -2.98266907e-04
  4.45191744e-03  7.01779559e-03  7.08349069e-03  4.39911607e-04
  1.30961129e-03 -1.19063195e-03 -2.32157793e-05  9.32688324e-03
  1.50176149e-05 -8.41984116e-03  3.36346807e-03 -1.03073078e-03
 -4.00480981e-04  4.84613379e-03  3.96168367e-03  1.30222101e-05
  8.81059711e-03  5.26934650e-05 -2.05028175e-04 -6.14851638e-03
 -1.39306205e-03 -6.93656409e-03 -4.32534334e-04 -7.08503903e-03
 -3.24301482e-03  5.44265091e-04 -1.01954027e-03  2.37207302e-05
  4.21984233e-04  1.31207920e-03 -1.61504443e-05 -1.51491070e-03
 -2.22652148e-03 -5.55797756e-03 -9.14352359e-03 -5.36403616e-03
 -4.40495786e-03  5.56988287e-04 -6.45428711e-04  3.00128828e-03
 -7.03274704e-03 -4.37360887e-03  4.49655584e-03 -8.38606106e-04]
[ 6.20513234e-04  3.68872567e-04  4.97026485e-04 -9.31013447e-03
  3.89218608e-04 -7.01049740e-05 -2.44990029e-03  6.34067264e-04
  6.83114411e-03 -9.07859747e-04  8.75547269e-07  5.29533648e-03
  1.02238607e-02  6.75513340e-03 -5.32508763e-03  9.52967380e-03
 -2.22239004e-03  3.29855028e-03 -1.23953085e-03  1.00465377e-02
  8.62716558e-03 -9.16692291e-03  4.76297848e-03 -4.78001681e-03
  1.00353585e-03  2.86050901e-04  1.11431082e-03 -3.45163599e-03
 -8.01601071e-03  9.03731693e-03 -6.97144461e-03 -9.05787093e-03
 -2.09306487e-03 -1.67688255e-03 -3.58827239e-04 -7.93327736e-04
  2.32927773e-03 -1.02124277e-02  1.52882936e-05  9.30002598e-03
 -4.01020900e-03 -2.29428875e-03 -9.47557095e-04  6.26896027e-03
  2.32102725e-03 -6.51287958e-05 -5.73169280e-04  7.10977742e-03
  4.35343404e-03 -4.13416510e-03  7.34983673e-03  3.65521813e-05
  5.58469510e-04  4.19059186e-05  6.08639251e-03 -1.84980641e-05
 -4.95995045e-03 -3.43283752e-03  6.33474817e-03 -2.04336102e-04
  7.66185012e-04 -1.61706797e-04 -2.63603376e-03  1.43531123e-03
 -7.25359736e-04  2.80018105e-03 -8.20989499e-03 -4.85469317e-04
  6.58600399e-03  1.07439369e-03  1.54453109e-04 -3.02737806e-03
  2.36901479e-03  3.70283488e-04  7.93671537e-03 -2.18157752e-04
 -4.75758497e-03 -4.21843275e-04 -5.66975135e-03  7.67940022e-03
  3.28769004e-03 -8.05876291e-03 -1.69367815e-04 -2.98520162e-03
  3.71200482e-03 -8.16982231e-04 -5.19188881e-03 -2.30007790e-04
 -5.83055379e-03  4.25607430e-03  1.17122154e-04 -9.18862720e-03
  3.44847653e-03  1.35555808e-05  9.75366845e-04  6.72137075e-04
 -3.09820307e-03  5.83011587e-03 -7.01540134e-03 -2.04325712e-05
  9.54457600e-03 -2.52446360e-03 -1.02190760e-02 -1.46459516e-03
  1.68841452e-03  2.39534294e-03  1.92202596e-04  1.89544837e-03
  4.37925381e-03 -3.62876646e-03  1.08718220e-03  3.70924366e-03
 -3.16985996e-03  1.14050809e-04  5.38496867e-03 -3.20004652e-03
 -1.18249479e-03  9.16456251e-03 -7.78235971e-03  1.99177885e-03
 -9.42163413e-05 -3.66969069e-04  4.86874891e-03  7.42152263e-03
  2.64724474e-04 -2.76447818e-03  2.66123707e-03 -3.07507348e-04
  4.30459696e-03  4.12127110e-03  7.38940988e-03 -3.46092150e-04
 -6.71639200e-04  1.57844055e-03  7.59352025e-04 -2.42690491e-03
  6.17701590e-03  8.30992685e-03 -4.52153738e-04  2.85030648e-04
  3.13811536e-03 -1.07637992e-04  5.12858992e-03 -4.59169565e-03
  9.58940054e-03 -1.29544965e-03 -9.45652790e-03  6.39936704e-03
 -6.04986418e-04  1.63507007e-03 -5.68822797e-03  7.34095619e-03
 -1.82304776e-03  7.84489732e-03 -1.71048314e-03  1.91468873e-03
  4.61152808e-04 -2.68019763e-03 -4.33607446e-04 -5.99989901e-03
  5.66347633e-03 -4.71367313e-04 -5.31487989e-05 -9.04657833e-03
  6.67612122e-03 -2.29287972e-03 -9.50389490e-03 -4.68396565e-04
 -3.86765584e-03 -1.10147979e-03  6.88448823e-05  2.54208203e-04
  4.84267166e-03 -3.34973902e-03  9.97982692e-04  7.37478084e-03
 -1.30786719e-03 -3.59886939e-03  8.56095897e-03 -1.54245689e-04
  9.22208282e-03  1.09359024e-03 -1.49424201e-03  1.69784282e-04
 -2.30633227e-03 -7.35746429e-04  1.68678761e-03  3.10231723e-03
  5.22653761e-04 -6.83400507e-03 -3.86229974e-03  7.02768808e-03
 -6.64468304e-03 -5.37788765e-03  8.04715598e-03 -7.43968641e-03
  8.31111516e-06 -2.51262355e-03  2.47813986e-03  6.33310588e-05
  9.66173520e-03 -7.40072135e-03 -2.04978875e-06  1.44726223e-03
 -5.86157751e-04  2.50566176e-03  7.01515365e-03 -3.08506841e-03
 -4.14882165e-03 -1.42962568e-03 -2.38258179e-03  6.22787093e-03
  7.78605877e-03 -7.26514151e-04  3.48218439e-03 -1.82408579e-03
 -4.50505548e-04 -1.63018925e-04  8.71296035e-03  1.95143064e-04
  2.29455523e-03 -3.84128111e-03 -8.48148826e-03  6.93308143e-03
 -6.74099185e-04 -8.21675953e-03  3.01228533e-05 -2.97029860e-04
 -7.03760072e-03  3.54069029e-03 -1.53915235e-04  1.06588569e-03
  7.19619905e-04  5.30440629e-03  1.56559991e-03 -2.04659804e-03
 -3.16852435e-03 -7.93678155e-03 -2.60389072e-03 -2.56693804e-04
  4.77577832e-03  5.38574213e-04 -5.81373030e-04 -1.35846932e-04
 -2.35033210e-03 -9.52191169e-04 -2.50980406e-03  9.10902967e-05
 -6.90162836e-03 -3.06275550e-04  3.86447964e-04  2.01993155e-04
  2.41577629e-03 -1.41738092e-04  2.03430079e-03  1.55454666e-04]
[ 5.25999391e-03 -7.90178038e-03  4.55681530e-03  9.35802711e-04
 -7.31550486e-04 -3.92904836e-04 -2.82232702e-04 -3.82330158e-03
 -3.95419425e-04  1.30244848e-03  3.39721769e-03 -1.04106069e-03
 -1.03781320e-03 -2.17391590e-03  4.06202468e-03  2.34909184e-03
  6.96660167e-03  9.83414815e-03  4.58515218e-04 -9.53489557e-03
  9.27444068e-04 -1.01395134e-02  8.30302254e-03  8.46206305e-04
 -3.09031394e-03  2.46806956e-03 -8.88546421e-05 -3.36692392e-05
 -5.05145436e-03 -3.36911528e-05  1.56038647e-03  5.74212683e-03
 -2.42162653e-03  8.85694956e-04  7.33279138e-04  5.44744189e-04
 -2.04384942e-03 -5.17113699e-03 -3.77433440e-03  5.39408801e-03
 -1.25421783e-03 -8.22388698e-04  5.11480513e-04 -8.36146583e-03
  5.51841580e-04  1.01702153e-03 -7.45316617e-03 -2.25180654e-03
  8.38965649e-04 -1.15775005e-04 -1.47467272e-04  3.88448329e-03
  1.19372791e-04 -4.83620562e-03 -6.75900013e-03 -8.77993404e-03
  1.09919407e-03  2.89072657e-03  4.56527103e-03  9.60580149e-03
 -7.45523775e-04 -4.98053723e-03  2.81923050e-04 -3.63646072e-03
  1.12929089e-03 -1.71274814e-04 -1.24503958e-04 -1.02599872e-02
 -2.12566680e-03 -5.72698800e-04 -2.80401217e-03 -9.36087796e-03
  8.89219345e-07  1.25625136e-03 -2.34068964e-03 -7.12458724e-05
 -7.35455665e-04 -7.02779767e-03 -3.03505743e-03 -2.11889289e-03
 -2.48919027e-06 -4.90112390e-03 -2.40749262e-04 -2.12784302e-03
  8.45996596e-03  1.79231699e-03  7.79205169e-04 -2.28835112e-03
  9.35775441e-03 -8.44624765e-03 -4.90250041e-03  1.36013369e-04
  8.19064415e-03 -6.47276901e-03 -2.86350855e-03 -9.04909507e-04
  1.03471977e-02 -9.75995745e-04  1.60329532e-03  2.43009495e-03
 -3.30294145e-03 -4.14090242e-03  2.11012585e-03 -4.18483114e-03
  9.42485146e-03  4.70739593e-04 -6.26788609e-03  1.52496278e-03
 -2.88197067e-03 -2.66270594e-04  6.15516697e-03 -7.52321786e-05
  4.74563542e-03 -5.37269076e-05 -1.11033288e-03 -2.45467228e-04
  5.25755872e-04 -7.31403054e-03  4.98896309e-03  2.66109114e-04
  1.01352228e-03 -9.07607522e-03 -1.35043280e-03  4.43829371e-04
  2.94677159e-04 -1.13076088e-04 -2.04472897e-03 -7.18238646e-03
 -8.78150255e-03  7.85190825e-04  3.49369391e-03  7.74321432e-04
 -1.63691524e-03 -3.77795594e-03 -7.02986339e-06  5.14528412e-03
 -8.92287892e-04  2.73747579e-04 -6.24594783e-03 -2.27100579e-05
 -6.93385089e-05  2.32665468e-03 -3.47103213e-03 -9.31662768e-03
 -2.86984046e-03  6.34194291e-05  1.22779954e-04 -9.70689634e-03
 -2.15994042e-03  9.85937085e-03  4.37951406e-03  2.97211692e-03
 -4.14916907e-03  6.18256211e-03 -7.16715207e-03 -3.40748081e-04
  7.28826364e-03  8.12072214e-03 -1.11454365e-03 -5.66374609e-03
  2.33297484e-03 -5.72549504e-04  1.50149125e-03 -2.08748619e-03
  9.89176233e-03  6.76660096e-03  2.89084888e-04 -9.63442178e-05
  2.50716188e-04 -5.59717662e-03 -3.70129132e-04  2.52101422e-03
  1.73936610e-03  1.07327674e-03  1.13789673e-04 -2.78451533e-03
 -9.65017186e-05 -8.08851169e-03  2.87590783e-04  6.87232811e-05
  6.45050639e-05 -4.31191443e-03  3.71179872e-03  6.83572661e-03
  1.83368004e-04 -2.37765406e-04 -3.19213818e-04 -1.95738907e-03
  3.92557373e-03 -8.08082500e-04 -8.14399977e-05 -9.24079437e-03
  9.14914442e-05  1.34455835e-03  3.08446499e-05  9.66411700e-03
  9.81724004e-03 -5.65902259e-06  6.20074992e-03 -1.93723501e-03
 -1.17963701e-03 -1.83564746e-04  2.08644950e-03  5.20308231e-03
  4.10256307e-03  2.21673216e-03  2.88982321e-05  3.77040072e-03
  1.01192920e-03 -9.79617632e-03 -5.28119122e-04 -3.20231430e-03
 -5.37050203e-03  3.45005236e-03 -8.02105586e-03  6.63301581e-06
  1.02069123e-02  5.28539598e-04  2.55458312e-03  8.29844142e-04
  8.98017257e-03  4.71724088e-03 -4.61097563e-04 -4.24930192e-05
 -6.70029071e-03 -8.60631037e-03  1.28696126e-03 -1.90964436e-05
  4.57612112e-03  2.60149229e-04 -4.97657246e-05  1.03259205e-02
 -2.84349800e-03  3.43735759e-03  1.06125716e-03  6.65718436e-04
  9.79225370e-04  1.03296201e-04  2.86842725e-03 -4.73048585e-03
  5.40699820e-03  3.54515808e-04  6.04056020e-03 -7.01685221e-03
 -7.33641999e-05 -2.76404372e-04  9.44706891e-04 -7.04110116e-05
  6.12769970e-03 -8.13880748e-03 -8.82956802e-04  4.87913807e-03
 -3.28509157e-06 -2.57465183e-03  6.88800042e-03  6.57289090e-04]
[ 5.72451636e-04  8.46164815e-03  7.09049710e-03  9.56041255e-03
  7.59344226e-04  8.43498607e-03  5.64041013e-03 -5.18601081e-05
  9.07229009e-03 -3.16745562e-03  6.08338112e-03 -2.92852003e-04
 -3.90644742e-04  2.14805513e-04  9.00701258e-03 -3.93742914e-03
 -7.57805844e-03 -1.61748770e-05 -5.79017280e-04 -4.13117745e-03
 -1.97013247e-03  3.77355363e-03  3.38141058e-04 -2.77370974e-03
 -9.61888659e-05 -2.47303687e-04 -4.75341545e-03 -2.20550397e-04
  7.59545479e-04  1.07975252e-03  2.05096329e-03  1.99382770e-03
 -4.12665360e-03 -4.99352635e-05  9.04448317e-04  4.32267274e-03
  1.56588177e-03 -5.04164523e-03 -4.81036614e-05 -1.08713632e-03
 -4.33063672e-03  4.37877249e-05 -4.26785123e-03  7.45014882e-04
  8.33562354e-03  9.81153733e-03  1.44064708e-03  6.93575764e-03
  4.67853372e-03  1.60810597e-03  3.44234903e-03  1.22683236e-03
  4.41058880e-03 -2.92493320e-03  4.39273565e-03  6.60230247e-03
 -8.90049452e-03  5.62659319e-03  7.68498334e-04 -5.24516538e-03
  4.51291925e-03 -3.51735705e-03  9.72409154e-03  6.88906971e-03
 -1.36495178e-03  1.18679850e-04 -6.44909354e-04  7.59859454e-04
  6.96796305e-03 -6.61753429e-04  6.88968650e-03  7.22274311e-03
 -2.59664083e-03  1.17713759e-03 -6.19706715e-05 -2.25072999e-04
  2.38628912e-03  7.73599958e-03 -5.58570159e-03  1.91782738e-04
 -1.02110688e-03 -5.93443447e-04  2.18043077e-03 -8.51251446e-04
 -7.67543096e-03  6.03718044e-03  2.12077218e-03 -3.39604222e-04
 -9.85708042e-03 -6.65198966e-04  2.55101327e-03 -3.31408633e-03
 -4.42836170e-03 -1.86850111e-06  1.23109960e-03 -2.70438225e-04
  3.16983695e-04  2.92695410e-03  5.49133782e-05  9.64156705e-03
 -1.89521808e-04  2.80418278e-05 -2.42466448e-03 -4.00210089e-03
 -3.06952141e-03 -6.56527526e-03 -5.68455645e-03  9.08884176e-03
  4.80051464e-03  1.96621692e-03  3.91742279e-05 -3.58963991e-03
  3.79751228e-03  5.54515474e-04  4.29175865e-03  5.98974543e-03
 -1.36102017e-03  1.31990309e-03 -6.34290166e-03  4.54322663e-03
 -4.44198355e-05 -8.62834222e-04  9.10683301e-03  9.61166839e-04
 -1.95630525e-03  8.37957303e-05  6.81482798e-03  1.56104343e-03
  2.48750751e-04  9.08786405e-04  8.15467698e-03  2.92354830e-03
 -2.95258003e-03 -3.69242217e-04 -7.49431388e-03  2.93497146e-03
  5.87895692e-04 -7.01082424e-04 -4.08700265e-03 -5.73458385e-05
  3.20818046e-03  1.58916833e-03 -3.73699823e-03 -2.75642030e-03
  5.30247339e-03  7.26502338e-03 -6.48471117e-05 -1.38683646e-03
 -6.02804359e-03 -5.87228032e-03  1.99719371e-03  1.01474853e-02
  1.13182994e-03  6.36304583e-03 -7.68300674e-03  5.13938224e-03
  8.89079422e-04 -9.19950709e-03  1.76200521e-03  5.71248073e-04
  4.45109207e-03 -3.31294523e-03 -8.67562724e-03  1.55380432e-03
 -1.56485395e-05  8.21586401e-03  7.00246686e-03  6.11740446e-03
  7.40049084e-03  2.39175014e-04 -6.23104330e-03 -6.46686216e-03
 -1.13769363e-04  1.34677904e-05  4.72471991e-03 -4.68744062e-03
  7.54471340e-03  6.86664691e-03 -2.47882964e-04  5.09729702e-03
  1.02647582e-03 -7.32445258e-06 -1.37309748e-05 -1.33525283e-03
  6.33505577e-04 -4.79321197e-03  6.92729663e-03 -1.03254080e-02
  5.53842264e-03  4.37853734e-03 -3.21514408e-04 -1.19919875e-03
 -1.87142930e-04  2.43776455e-03 -4.92902409e-03  9.37979643e-04
  4.15347416e-03 -2.46163271e-03  1.43778548e-04  7.69728302e-04
 -8.12361141e-03 -1.41330998e-03  7.41520023e-03  9.19257932e-03
 -8.09610602e-03  8.17429270e-03  9.37987841e-03  8.44126018e-04
 -7.58352799e-03 -8.57599859e-04 -8.61155664e-05  5.80495951e-04
 -7.03890094e-03  3.20932318e-03 -2.00462461e-03 -3.23973136e-04
 -7.34950108e-04  1.87925488e-03 -2.54306596e-04  2.53555413e-03
 -4.72568011e-03  3.63111468e-03 -4.26358202e-05 -1.53904706e-04
  3.06960518e-03  3.38319398e-04 -5.32294791e-03  3.16864935e-03
 -4.53148791e-03  7.62627686e-03 -7.99728574e-03 -4.45730191e-04
  2.80952722e-03 -3.42272378e-03  2.81704321e-04 -6.56117611e-03
  1.20186692e-03  9.92052262e-03 -1.45947836e-03 -2.48045010e-03
 -8.53552320e-03  3.04253022e-04 -3.44475492e-03  2.27472863e-04
 -8.17101362e-03  3.24958700e-03 -6.17374831e-05  8.14364731e-04
 -4.60496534e-04 -9.33466562e-04  3.24584188e-04 -4.32191888e-04
  4.78471045e-03  9.17886381e-03  5.36996366e-03 -4.28687475e-04]
[ 4.84379324e-03 -5.20296358e-04 -2.38659076e-04 -9.38775283e-04
  5.26618011e-03 -2.95152016e-04  3.51016305e-04 -2.60982327e-03
 -9.93462968e-03  1.31460115e-03  4.20790440e-05 -1.96563551e-03
  6.11770923e-05 -3.12757740e-03  4.13036646e-03  4.08126237e-03
  6.50623456e-04 -1.97749304e-03 -2.54086953e-04  1.85337721e-03
 -7.70002470e-04 -1.69504801e-04 -7.06579329e-03 -5.06343859e-03
  4.11529830e-03 -4.77590510e-04  8.89779926e-05 -7.41888694e-03
 -1.47862675e-03 -3.51988702e-03 -5.81560855e-03  3.60352895e-04
  1.50685108e-04  1.02420723e-02 -4.95229078e-03  1.06505692e-03
 -9.74495962e-05 -1.96918350e-03  2.65149868e-04  4.82555090e-03
  3.64403634e-03  8.29599375e-03 -8.79889862e-03  1.50291221e-04
  1.00798249e-02 -7.04502891e-03  1.14489474e-03 -3.94070968e-03
 -1.49316960e-03  1.02746915e-02  3.71923299e-03 -5.96403277e-03
  9.91279066e-03 -2.87836404e-03  3.32155537e-03 -1.14894294e-03
 -1.06680260e-04 -4.37881620e-05 -2.05885176e-03  3.56765122e-04
  7.12314136e-03 -1.57064216e-03 -2.17472415e-03  1.60416221e-05
  3.05155733e-04 -2.93096696e-04 -2.45656415e-03 -2.44584222e-03
 -1.36153183e-04 -1.93733549e-03 -1.72891379e-04 -4.79635112e-03
  7.51105709e-06 -4.62172507e-03  4.71684960e-05 -4.17853320e-03
 -1.88098780e-03  7.56403926e-03  9.72968434e-03 -1.99959649e-03
  1.07617323e-03 -7.51729552e-04  3.30083704e-04  4.92717977e-03
 -5.72599751e-03  1.53281466e-03  8.58150123e-05 -3.68605275e-03
  3.48160654e-03  5.22833899e-04 -5.15327835e-03  2.83872591e-04
  7.99464240e-03  4.79038948e-03 -8.57273098e-03  7.38493301e-03
  4.91493620e-04 -7.92756112e-03  4.32216452e-03 -3.50096657e-04
  3.40377047e-03  5.06200772e-04 -8.74116463e-04  6.25331668e-03
 -1.34091184e-03  4.59812306e-03  9.91062275e-03 -2.70111168e-04
 -2.52902271e-03 -1.51203364e-04  1.18287760e-03 -5.95439574e-03
 -5.10571521e-03 -8.49638293e-03 -3.90552118e-04 -7.14354526e-03
 -5.45543188e-03  5.00550830e-03 -7.61546177e-03  3.54359916e-03
 -7.86670285e-03 -8.49595933e-05  6.54770396e-03 -1.79773272e-03
  2.80419848e-03  2.36616706e-05 -1.73272635e-03 -1.50223563e-03
  7.84147033e-03 -5.55376407e-03 -1.77083713e-03  2.47166286e-03
 -3.02066799e-04  1.71627845e-03  6.17969352e-03  9.06340938e-04
  4.11855249e-04  2.09741446e-03 -1.01024469e-03  6.46083397e-03
 -1.86273499e-04 -5.76363048e-03 -2.93280242e-04  6.48035242e-03
 -5.72974451e-04  3.09403138e-03 -9.60886438e-03  9.28737677e-03
  4.09866057e-03 -6.07171888e-03  3.12981674e-03  7.86405054e-03
  8.23171260e-03  8.69431230e-05 -5.04535825e-05  2.42237723e-03
 -3.12736710e-03 -2.35355715e-03 -2.90785142e-04 -1.15709331e-03
  6.89122155e-04 -3.76271907e-03  8.29561775e-05 -6.16852314e-05
 -6.66834385e-03  1.75974318e-03  1.54090873e-03  1.17612658e-04
  4.50126422e-03 -7.25468530e-04 -7.75978933e-03  3.53893681e-04
  4.74770726e-04 -3.69816368e-03  5.40036552e-05 -2.23511823e-03
  6.83364592e-04 -3.32331925e-04 -4.13092156e-05 -6.11396100e-03
  5.56018242e-03 -9.72766307e-05 -8.85619659e-03 -1.28941741e-03
 -1.53245482e-04 -9.24185923e-05  1.12192119e-03  1.17429385e-04
 -9.67115821e-04  5.13229709e-04  1.54204315e-04  4.67170958e-03
  2.26619092e-04  8.14684276e-03  9.33246260e-03 -8.12509536e-04
  9.95559155e-03 -4.53652083e-03 -6.95838126e-04  8.34093126e-04
 -6.30864729e-04  2.24801319e-03 -2.03546478e-03 -1.29162014e-03
 -8.77739468e-03  9.49517341e-04  2.75850078e-03 -2.40966798e-03
  4.61797323e-03 -5.70740326e-03 -4.83878992e-04 -5.56115165e-03
 -4.82405770e-04  4.10018740e-03  7.74811067e-03  2.37618719e-03
 -1.84140312e-03 -7.65604192e-03 -3.39432082e-03  7.11739976e-04
  6.94604879e-03  1.64609073e-04 -6.26993613e-03  5.85978462e-03
 -5.55253760e-04 -6.82927912e-03  9.20577171e-04  2.62823044e-04
  3.35785951e-04 -1.43474616e-03 -4.49399206e-03  5.20979230e-03
 -8.57492429e-03  2.41108794e-03  2.82138216e-03  8.96110680e-04
  1.41649963e-03 -8.22520141e-03  1.40592536e-03  3.96991404e-03
  2.50296124e-04  4.32809006e-03 -8.66493059e-03  7.32606199e-04
 -9.07881179e-03 -2.30455405e-03 -3.41407199e-03  1.79908706e-05
  3.47958108e-03 -2.69917025e-03 -9.58842817e-03  8.80435362e-03
  5.03997296e-04 -1.02971084e-02 -3.09808746e-04 -4.77227780e-04]
[-8.58399888e-03 -5.53290839e-04 -1.82267269e-03  1.72461998e-04
