(60000, 784)
[-3.21226754e-05 -9.52958893e-05 -3.57669084e-04 -6.03332462e-05
 -1.71119115e-05  1.92971026e-04  3.21462861e-04 -9.75194104e-05
  4.28527260e-04 -6.13555894e-04  8.55171118e-05 -2.84576842e-04
 -3.38010568e-05  6.45097880e-04 -7.64918207e-04 -2.94741952e-05
 -8.88238047e-04  1.68959094e-05  5.90506247e-04  1.44985480e-05
  5.07938505e-05 -2.91374263e-05  4.18766059e-04  5.49617479e-05
  4.19224708e-04 -6.03063325e-05 -4.41439883e-04 -1.11738667e-03
 -3.63272015e-05  3.41487868e-04 -3.64221722e-05 -4.82275059e-06
  2.75945137e-05 -2.81831260e-04  1.41870885e-07  1.23024111e-04
  7.11393520e-04  7.27533067e-05 -9.55265196e-04  8.20794579e-04
  6.42458889e-05  2.32764110e-04 -4.15358424e-05 -2.40809374e-04
 -1.62777825e-04 -9.53828169e-05 -1.07129662e-03 -1.67079985e-04
 -2.75107426e-04  3.15721991e-04  1.97551177e-04 -7.80452899e-04
  1.69847912e-04 -3.43026494e-05 -6.86772179e-06 -1.10365016e-04
  6.67234769e-04  1.00968910e-03 -1.73233948e-05  1.05341836e-03
  1.37946330e-05  1.16857875e-04 -3.17167432e-06  6.90389573e-04
  1.96770657e-05 -1.04278800e-03  2.95069580e-05 -1.07759899e-04
  1.16869387e-04 -6.71145879e-04 -3.00605098e-04  3.27361474e-04
 -5.33914194e-05 -3.81414923e-06  1.45260198e-04 -8.96383436e-08
  2.24466348e-05  5.72635782e-04  8.59137278e-05  5.81377622e-05
  3.32795465e-04  1.08125226e-03 -6.60022696e-06  8.94210281e-04
 -5.13489283e-04  1.15957533e-04 -6.99335417e-04 -1.27025845e-04
  1.06860075e-04  8.48185935e-04  8.95947642e-04 -6.49242509e-04
 -9.11101062e-05 -2.80238273e-04 -1.04646396e-05  4.86207451e-04
 -7.83805718e-04  2.74419669e-05  7.78887759e-04 -9.41413877e-04
  1.42955287e-04  2.65663379e-04  4.67739728e-06 -4.88797259e-04
 -8.09016596e-04  2.07242541e-04  6.79541520e-04 -8.24079352e-04
 -1.11120383e-04 -1.89863424e-04  8.16673946e-04  9.63872504e-04
  1.67340761e-04  5.98145582e-06  1.25198586e-04 -1.33542463e-05
  8.08746546e-05  2.10271924e-04  9.96734766e-05 -2.79700124e-06
 -1.09527665e-03  2.62557380e-04 -2.30612980e-04  1.65097905e-05
 -6.83555875e-06 -3.00700019e-04 -7.50444740e-06 -4.73391989e-05
 -5.80686139e-05 -1.56225362e-05  2.27932824e-04  3.80255342e-04
 -1.40332501e-04  1.04520547e-03  1.43294989e-04  1.38859879e-04
 -1.42643459e-04  3.81990278e-04  1.13551735e-04 -4.12437880e-04
 -1.25992670e-05 -1.87075886e-05  2.08544869e-04  1.24319603e-04
 -3.42795064e-04 -8.16573057e-04  5.05553712e-04  1.99900993e-05
  2.54918029e-05  1.10121346e-04 -2.92806555e-04  1.01467905e-03
  5.65144596e-04 -3.00902214e-04  6.43254422e-04  1.07221494e-05
  4.04868030e-04 -3.32622284e-04 -1.67794002e-04 -1.40848331e-04
  6.35870819e-04 -3.41188386e-05 -1.87258593e-04 -3.23459195e-05
  1.65544935e-06  6.74414477e-04  6.45972527e-04 -3.33437728e-05
  3.52132468e-04 -8.69316927e-04  9.50996455e-04  5.08891352e-06
 -2.01072841e-06  2.97266149e-06 -6.88026850e-05  7.07746083e-06
  1.02816038e-04  3.24900408e-04 -3.64991840e-04 -6.90224116e-05
  5.39687430e-04 -6.16618376e-06  6.41800807e-04  3.67790062e-04
 -4.76280395e-04 -6.90189943e-04 -7.14044058e-06  6.41144293e-05
 -8.17134865e-04  6.87486197e-05 -2.84836831e-07  9.26427807e-05
  3.45658094e-05  3.12122597e-04  6.80227693e-05  1.15948344e-04
 -8.25717790e-04  1.99436026e-04 -1.60773253e-05 -2.42826470e-04
 -2.46195129e-05  1.73508905e-04 -3.34054656e-05  1.77197338e-07
  4.71127139e-04  6.07363222e-04 -6.09045049e-05 -4.90093703e-04
 -1.08040588e-04  5.26760736e-05  1.08264834e-03 -5.53594645e-05
  1.03513985e-04  4.31769271e-05  3.98150773e-04 -1.29468065e-04
  2.12205625e-05  1.44217943e-05 -7.72366292e-04 -3.18746139e-05
 -9.75397292e-04  1.59205761e-04  1.94557993e-05 -5.19903376e-04
  8.65733578e-04  3.37045516e-05 -8.36202694e-05  5.77394344e-06
  2.61445277e-04 -4.17089675e-05  9.71369607e-04  1.04024351e-03
 -1.12510194e-05  9.55553549e-05 -2.98873479e-04  1.23256719e-06
 -8.58041215e-04  1.79078550e-04  3.90905790e-04  2.34086475e-05
 -4.48413268e-04 -1.95660610e-04  5.55344430e-04 -8.31568204e-04
 -1.30499607e-05  2.04321089e-04 -3.48952432e-04  9.74833273e-04
  3.95562076e-05 -1.75171736e-05  7.31219894e-05 -8.60841326e-04
 -9.44595292e-04 -7.24322593e-06 -2.49796366e-04 -5.35960475e-05]
[-6.77575983e-04  8.44722727e-04  3.77373523e-05 -1.21519071e-05
  2.64330956e-04 -2.44548118e-04 -2.67293639e-04 -1.11910247e-04
  1.42226869e-04  7.46558073e-04 -8.54134675e-05 -2.36545371e-05
 -9.75760529e-05 -3.52525045e-04  3.99329306e-05  1.05377492e-04
 -2.48208524e-04  6.69835623e-04  8.69764309e-04  4.24727553e-05
 -1.48072460e-04  5.67523008e-04  2.30126263e-04 -3.44600052e-04
  2.38042450e-04 -7.04620311e-04  1.69912764e-04 -4.98609164e-04
  1.16126228e-04  4.86178287e-05  1.07295478e-03  4.75955053e-05
 -1.81709597e-05  5.68807818e-05 -1.05746570e-03 -8.65449439e-04
  1.01094349e-03 -3.93025612e-05  3.98073747e-05  5.55509704e-04
 -7.99457439e-07  7.65778480e-04 -7.02378503e-05  3.55405411e-05
 -9.86130221e-04  8.83219884e-05  8.37410885e-05 -7.21769586e-04
 -1.57206227e-04 -1.25435707e-04  4.42672300e-05 -1.88973142e-04
 -1.03706068e-03  1.24335915e-04  1.10430727e-05  4.94916366e-05
 -2.08220059e-06 -4.93966908e-05 -4.01566448e-05 -1.01858855e-05
 -2.74608552e-05  1.35552234e-04 -8.38614965e-05 -3.51689508e-04
 -1.65798928e-05 -3.84261876e-04 -2.75216859e-04 -2.16612842e-04
  2.26451804e-04 -4.57683624e-04  3.90022564e-05  2.65772317e-04
 -1.06156271e-03  5.80681774e-04 -3.03855452e-04  3.46757444e-07
  1.89835002e-04 -3.69442852e-04 -4.03805038e-04 -8.98971969e-05
  3.90860076e-04  4.23259003e-04  1.93632240e-04  9.92842574e-04
 -1.47233855e-05  7.08438921e-04 -1.76059721e-04 -1.33661099e-06
  1.04075938e-04 -1.96772150e-05 -3.64583115e-06 -1.65179707e-04
 -1.04071711e-03  2.54800434e-05 -1.84206609e-04  1.98629759e-04
 -2.00897798e-04  4.59096193e-04 -2.02737137e-04 -2.00885335e-05
 -6.47194005e-05 -4.44538245e-04  4.85787306e-04 -8.14334268e-04
  9.08359275e-04  4.02666803e-04 -3.67717734e-04  4.11109890e-04
 -7.42588682e-04 -7.14933135e-04  1.27059027e-04  7.29027157e-04
 -2.94424235e-04 -2.37871808e-04  4.69980716e-04 -2.55972677e-04
 -6.62264949e-04  7.22264156e-04 -6.19616186e-06 -2.28154265e-04
  1.39864392e-04  5.62970393e-04 -3.85250087e-04 -8.59637500e-04
 -3.75523537e-05  5.86323734e-04 -2.47352337e-04 -5.59071308e-04
  5.96060324e-05  1.11418452e-04  2.60709173e-04  3.73083216e-04
  9.76599111e-05  9.55921143e-04  4.57956328e-04  1.58495087e-05
 -9.11664355e-04  3.33893397e-05  4.74825825e-06  9.22969817e-04
  9.44119557e-05 -1.10672342e-03  1.34726748e-04 -5.93534401e-05
 -3.32782820e-05  7.11730946e-04  7.86076361e-06 -2.30320713e-06
  3.92988372e-04  1.13499904e-04  5.32303949e-05  1.07650263e-04
 -5.07166884e-04 -1.32092979e-05  9.08719947e-06  5.46013906e-06
 -1.18449230e-04 -1.69367159e-04  9.09423132e-05  8.11749452e-06
  7.40279098e-06 -2.21482359e-04  6.28461289e-06 -8.35773647e-04
  3.68609201e-05 -2.14016022e-04 -9.73481946e-05 -5.11520816e-04
 -3.48913699e-04 -3.04051087e-04  7.44427349e-05  3.90547456e-05
  1.12202956e-03 -1.01599538e-03  1.75798906e-05 -2.56695284e-04
  8.32639661e-04  1.68296405e-04  1.12653325e-05  7.75266759e-04
  1.11011465e-04 -9.55929159e-06  1.39844528e-05  8.19405368e-05
 -1.06197685e-03 -1.62954432e-04 -9.46391108e-06  6.46375367e-04
 -3.98550836e-05 -2.24017537e-04  1.22545556e-05 -2.32288741e-05
  1.13072472e-04  4.35063579e-05 -2.20352467e-04 -3.48975798e-05
  6.67339164e-04 -1.62548627e-04 -1.53982282e-04  1.20043958e-05
 -9.15809413e-04 -8.10609554e-04  3.29203226e-04 -5.08785380e-05
 -3.52954777e-04 -5.80855733e-06 -4.98786646e-05  1.08540102e-03
 -2.56970401e-05 -3.47359917e-05 -3.89634498e-06  1.09442370e-03
  1.21076249e-04 -7.45238804e-04  1.67326836e-05 -2.17305204e-04
 -6.37849826e-04  1.67571094e-04  1.82113149e-04 -8.88307786e-06
 -5.13929324e-04 -2.94694156e-05 -8.55703257e-04 -5.27401452e-04
 -6.68520896e-05 -1.09366461e-03  2.58434584e-04 -2.26288634e-04
 -7.08622063e-04  1.07653951e-03 -8.70953872e-04  3.38737289e-04
 -7.21750586e-06  1.76139624e-04 -1.07566670e-03  1.91931289e-04
 -3.76410414e-04 -1.19542953e-04  3.86476030e-06 -5.20058050e-04
  1.23369015e-04 -9.64850043e-06  3.75203681e-05 -1.13346230e-05
  9.71070236e-05  1.00419130e-03 -7.00087417e-04 -2.18679721e-06
  9.23558811e-05  4.19926622e-04 -1.49811900e-04  7.49542867e-06
  3.21516927e-05  1.83966409e-04  3.55436899e-05 -7.44105454e-04]
[ 4.36760025e-04 -1.40851170e-04 -2.77442241e-05 -3.58689916e-04
 -1.60656329e-04  1.00854033e-03  5.77755967e-04 -9.06564806e-04
  6.49486875e-05  2.33404158e-06 -1.39856767e-04  3.92417684e-05
  1.58271980e-05  4.40742948e-04  5.03797347e-05 -3.78406086e-06
  3.19106151e-04 -9.12353898e-04  6.92023826e-04  8.70306567e-06
 -6.47992738e-06  1.20072325e-04  4.87327159e-05 -8.81983185e-04
 -7.38920881e-04  9.30835025e-04  7.82647249e-04 -1.38102658e-05
  3.84056680e-04 -5.34704319e-04  1.92943742e-04 -4.47386354e-04
 -1.46382098e-05 -3.59510007e-06 -7.06446116e-04 -1.60804606e-04
 -2.29252154e-04 -1.93054003e-05 -6.67617688e-04 -2.75427892e-04
  2.37871808e-04  4.55777591e-05 -2.65914415e-04 -6.46484846e-06
  1.34443738e-05  2.19591392e-05 -1.08605042e-03 -7.23621474e-04
  2.41321509e-05  8.96139459e-06  1.71208119e-05 -3.24699166e-04
  5.16743165e-04 -4.76309178e-04 -3.59230673e-04 -4.38659529e-04
 -4.65072236e-05 -1.92652539e-04 -1.92073574e-05  9.78732611e-04
  6.86692249e-04 -4.64509203e-06  4.41575058e-07  2.67810825e-04
 -6.67414804e-05  5.06771342e-04  2.69464414e-04  6.25175674e-04
 -5.90408750e-05  2.66121158e-04  5.33247173e-05  2.43673983e-05
 -5.88998822e-04 -6.62541676e-04  1.05531793e-03  6.67358144e-04
  9.48760269e-04 -3.01411482e-04 -8.65844455e-04  1.21436941e-04
  9.32599133e-06  6.15562314e-04  9.39680008e-04  6.61271239e-04
  6.95740638e-04 -4.90322732e-05 -4.15967243e-04  3.01715609e-05
 -1.49320392e-04  7.29157683e-05  8.26876197e-05 -1.57532499e-04
 -1.31712303e-05 -5.21812799e-04 -9.73508393e-08 -1.96213290e-04
 -8.80041373e-05  8.32718256e-04 -1.01632337e-05  4.64866109e-04
 -1.55319696e-06 -2.19446472e-04 -3.80352013e-05 -9.93075801e-04
 -1.96139365e-05  2.62492813e-04 -3.80630861e-06  9.94599127e-06
  1.22272454e-04 -1.81417273e-05  9.50825458e-06 -2.72170898e-05
 -3.27358559e-05  4.12395290e-04  2.04340845e-05  3.25897529e-04
  6.70020355e-04  6.12570126e-04  9.62444011e-04 -5.91408769e-04
 -1.70968451e-06  1.50897950e-05 -1.63159515e-04  4.50344728e-04
  4.86164578e-05  9.09010127e-04  1.05591906e-04 -1.09248493e-03
 -9.80145414e-05  3.92986889e-04 -6.21515016e-05 -1.61033657e-04
  4.70039982e-04  1.80123794e-05  4.00192596e-04  5.79002979e-04
  7.67067086e-06  4.38336692e-04  6.12642645e-04  6.69749558e-04
  1.08394140e-04 -6.78520835e-04 -3.64837876e-06 -5.40093623e-04
 -2.49026852e-04 -1.12229610e-04 -9.84731349e-05 -1.05490012e-03
  4.07724164e-04  1.09464922e-04 -9.59748497e-05  7.09811082e-05
 -4.45339043e-05  4.32722861e-05 -1.20286254e-05  7.45202338e-04
 -3.73816499e-05 -2.16651281e-04 -1.01302128e-04 -9.27560282e-04
  1.59810710e-06  6.51110907e-04  1.37994516e-04  1.19380562e-04
 -6.59414644e-05 -2.15868273e-04 -9.45546033e-04 -1.37038901e-05
 -3.75025030e-05  7.52494535e-06  5.34541149e-05 -2.48968013e-05
  2.70333565e-05  3.25126984e-04  6.83753903e-07  1.34300905e-05
  6.12990097e-04  9.49406719e-04 -6.91970680e-04  8.36175038e-04
  5.45717765e-04 -4.58517745e-05  8.05012283e-04  3.72427777e-05
  9.22567913e-04 -3.75308610e-06  1.76265618e-04  3.77048735e-05
 -3.10123862e-05  5.15151894e-04 -5.76858270e-04  2.25177370e-04
  1.16223056e-04  1.60994920e-04 -2.17976029e-04 -1.36820680e-04
 -4.72498308e-04  1.71100249e-05  7.76533208e-05 -4.39778680e-04
  2.63186571e-06 -3.29049278e-04  2.14605574e-04  3.33219340e-04
 -4.90820970e-06 -2.20756754e-04 -1.04650553e-03 -5.63858133e-04
 -2.06528781e-04  1.50543963e-04  1.03686697e-05 -2.48401277e-05
  2.42753591e-04 -2.57459425e-04 -1.11194551e-05 -3.29820666e-04
 -4.09946859e-04  5.54170633e-07  5.39215444e-06 -2.92532266e-05
 -1.18271680e-04  5.28127342e-05 -5.03350066e-04 -4.19053603e-04
 -7.52354659e-05  7.59153544e-05 -1.42286042e-04 -1.38992242e-04
 -1.30719520e-04  3.60194064e-04 -1.07945653e-03 -4.94022792e-05
 -6.02522116e-05  1.94660621e-05  5.74437847e-04 -3.86608303e-04
 -2.18763943e-04  8.12715781e-05  2.06141039e-04 -8.98774557e-04
  8.02962480e-05 -1.76134876e-04 -6.46219677e-04  1.24510273e-05
  8.91424683e-05 -2.68598895e-04 -1.99098787e-05  1.27987026e-04
  4.45294954e-04  3.77533489e-06  2.07034483e-05 -2.71893122e-06
  3.78671093e-05  7.06287739e-05  5.53284685e-05 -8.74195423e-04]
[-2.10807829e-04 -6.19597268e-05  1.11600833e-03  6.76972706e-05
 -5.00039761e-04 -2.88647821e-04  2.37866464e-05 -2.91056702e-04
  8.65924101e-04 -1.93625837e-04 -3.60948235e-04  7.05966773e-04
  1.04494049e-04  8.88002250e-04  1.04128249e-05 -3.73493758e-04
 -3.57465577e-05  1.02798401e-06 -5.99920211e-05 -4.06141789e-04
  4.33194088e-04 -3.92701414e-04  2.29145098e-04 -4.01740533e-06
 -3.26889143e-04  2.19290762e-04  5.80331922e-04 -5.49334302e-05
  5.39808800e-04 -1.83961834e-04 -7.31746951e-04 -3.27426852e-05
 -8.98637099e-04  4.74528732e-04  8.11553466e-04  7.97637528e-04
  9.65321069e-05 -7.12116383e-05  1.97910271e-05  7.23834000e-05
 -5.75435533e-05 -1.83582906e-04 -9.92534886e-05  1.68412718e-05
  3.07269598e-04 -1.37513301e-05 -9.63371375e-06  4.02910291e-04
  1.62279793e-05  6.65709464e-06 -4.24928461e-05  7.91200436e-04
  4.15987792e-06 -9.97995587e-05  5.64060767e-04 -8.45117327e-05
  1.10759561e-03 -5.52541476e-05  7.00172809e-05  1.13223110e-05
  2.90518641e-05  6.49208620e-04  7.67778060e-04 -3.15974908e-04
  4.34152218e-04  4.16592853e-05 -5.45761350e-05 -3.54146690e-05
  3.85699489e-04 -7.45807207e-05  3.34283080e-04 -1.18287936e-04
 -1.04789599e-05  7.62824105e-05 -1.67290958e-05 -1.63882537e-05
  2.67254073e-04 -2.60418529e-06 -2.64605085e-04  7.53497854e-04
  7.39405396e-04 -5.66137543e-06  4.95198098e-04 -1.00667710e-03
 -9.54719012e-04 -1.18628519e-06  3.56921519e-04  3.87952415e-04
 -9.74855457e-06  1.02359441e-03 -2.97939905e-04  8.43396603e-04
  9.18821502e-05  8.25830841e-05 -9.70453903e-05 -1.18482652e-04
 -4.77905120e-04  7.62670973e-04  7.50625099e-05 -3.75069963e-06
  1.51943016e-05 -2.96123476e-04  3.57955299e-04  9.89110024e-04
 -4.22516608e-04 -3.51563597e-04 -1.12850316e-04  1.86883915e-04
  1.04549700e-03 -3.98128434e-04 -3.98531460e-04 -1.33910622e-04
 -1.30402466e-04  5.21002427e-04  6.39710276e-04  2.43561757e-05
 -8.20495954e-04  7.25824833e-05 -3.23599718e-04 -2.89046241e-04
 -9.35417105e-07  7.62722343e-04 -3.11648756e-04  7.48137436e-04
  9.67212929e-04 -1.88158013e-05  6.91734474e-04 -9.83377860e-04
 -1.12180759e-03 -1.11551193e-03 -2.02798421e-05  1.37026538e-05
 -1.37441104e-05 -5.89448027e-05 -1.39576290e-04 -2.64135070e-04
 -9.90394938e-04 -4.92762484e-04 -5.26090466e-06 -4.94778577e-05
  2.37432768e-04  3.10312787e-04  5.31877138e-04 -2.98960963e-04
  3.58896285e-05 -5.77317835e-04 -3.35116450e-05 -5.35971630e-05
  7.00625608e-04 -1.80147577e-05  2.25867876e-05 -7.06795345e-04
 -4.37231376e-05 -2.22512218e-04  8.91287455e-05 -4.03558882e-04
  1.05913689e-03 -2.32490064e-04 -1.64306873e-04  9.84349634e-04
  3.85019806e-05 -9.80251505e-05  1.17785400e-04  1.98028034e-04
 -1.07136828e-03 -6.43535145e-04  7.64548602e-06  1.56276697e-04
 -4.55695805e-05 -1.54743215e-04  2.35468197e-05  2.12577890e-04
  2.42761488e-04  4.74466467e-04 -2.85198906e-05 -6.16600165e-05
  2.66958753e-05  3.65505106e-04 -9.50756969e-05 -3.21427987e-04
 -8.04481807e-04 -1.37291573e-04 -1.67178697e-04  5.89803430e-04
 -4.47519246e-05 -1.80109985e-04  1.65267229e-04 -2.14629257e-06
  8.57340584e-04 -3.44046331e-04 -7.77705527e-04 -2.19600866e-04
  5.79722989e-04 -7.78950116e-05 -3.95111979e-05 -1.02951849e-03
 -7.46953290e-04 -1.04618853e-04  9.48878823e-04  1.14636128e-04
 -5.64457135e-04  6.74447878e-06  1.02709384e-03  3.45408464e-04
  1.43668753e-05  4.87648988e-04  1.72280263e-04 -1.32062048e-06
 -6.26259410e-04  1.04028769e-03  6.06011683e-04 -4.12176658e-04
 -6.22233953e-04 -9.64729255e-04 -1.30908019e-05  1.03804866e-03
  6.09334647e-05 -3.41268023e-05  1.36743088e-04  3.56945801e-05
 -1.04588099e-04  6.29352862e-06 -4.12401137e-05  7.95940808e-04
  3.58600039e-05 -3.97747317e-05  2.31259240e-04  1.43688999e-04
 -9.51402130e-04  1.04796512e-05 -4.02039683e-05  1.66411656e-04
 -1.62612241e-04 -1.53967217e-04 -7.63497670e-06  5.14056302e-04
  5.67474385e-04 -9.78962672e-04  1.24807148e-04  3.90472999e-04
 -5.93687479e-06 -3.39075504e-04  5.51321377e-04  1.24899718e-04
 -2.79084882e-05 -1.10097963e-03  1.07913743e-03  1.77209098e-04
  2.46423555e-04  4.32474167e-05  1.44218911e-05 -5.32288273e-04
  3.45616001e-04  3.98829816e-05 -3.65603432e-04 -4.93350617e-05]
[ 1.73696426e-04  1.23406344e-05 -5.34826956e-04  4.61620819e-04
  2.06175060e-06 -9.25905087e-06 -9.83455925e-04 -9.12729628e-04
  1.65534443e-06 -5.18621227e-05 -4.35821546e-04  2.06072418e-04
  4.28618086e-04 -5.00089842e-07 -9.30641253e-04 -1.12768232e-05
 -1.60232513e-04  5.67697565e-06 -7.65931789e-05 -2.73003577e-04
  3.29582219e-04  1.64355085e-05  3.49813822e-06  1.20469924e-04
  2.35669769e-04 -7.92977651e-04 -4.94795736e-04  6.03889319e-04
 -9.22869799e-06  1.08493420e-03 -7.87333866e-04 -3.81196200e-04
  2.19605589e-04 -1.33205561e-04  6.69406218e-05  2.25832930e-05
 -8.58756716e-04 -1.49123998e-05 -4.62510924e-05 -7.60224562e-04
  1.85341190e-04  6.23210087e-06  4.89764967e-06 -5.33529118e-04
 -3.90843319e-05  6.50862261e-05  1.22501974e-04  6.98537595e-04
  1.07304970e-03 -6.63506293e-05  1.11533615e-05  5.55957570e-05
  7.55953110e-05 -4.77301077e-04 -6.48170192e-05 -7.26938648e-05
  5.61366077e-04  1.14930229e-05  1.84258355e-04 -8.39398910e-04
 -2.63215372e-04  1.01737510e-03  1.11973582e-03 -7.48150622e-07
 -4.31058970e-04  9.13122583e-06 -8.71970519e-04  5.55460368e-04
  6.34073039e-04 -5.04590599e-04  6.20769851e-05 -5.64858676e-07
 -1.33426747e-04 -2.78566449e-04 -1.44126122e-04  1.25684169e-04
  9.91862885e-05 -7.80194642e-04 -6.42774657e-05 -2.33278436e-05
 -1.70206585e-05  1.62392370e-04  1.49573707e-05  5.97063980e-07
 -2.91445858e-05  4.81691742e-05 -9.01179297e-05  7.76094890e-05
  5.85669586e-04  8.63467358e-05  1.22410966e-05 -1.25547174e-04
  2.41319757e-05  1.07694563e-03 -5.02835672e-04  8.04534631e-05
  6.27889895e-04  2.33209153e-05 -2.03274455e-05 -1.34263933e-04
 -1.99787316e-04 -3.91631112e-04 -5.87175271e-06  9.25273193e-06
  2.90646547e-05 -3.45244227e-04 -4.66867867e-04 -2.44010166e-04
  1.36442980e-04 -3.33143254e-06  5.92828238e-06  5.58371142e-06
 -1.21474717e-05 -3.80376530e-04  4.80710991e-04  3.31776041e-04
 -7.60505947e-04  3.45772281e-04  4.26916223e-04  9.48474601e-05
 -7.95355083e-04 -5.65159072e-04 -7.45561054e-05 -1.55607394e-04
  3.24873509e-04  3.01872648e-04 -2.91964607e-04  2.73362846e-05
 -9.31780413e-04 -4.23846225e-05 -5.29389296e-04 -5.39980646e-05
  1.24754073e-05 -1.86364557e-04  6.80851801e-04  7.10684393e-07
  6.13170357e-05  1.00122474e-04 -2.15146493e-04 -3.36238043e-04
  5.91963894e-04 -1.01156438e-03 -4.90006589e-04 -9.44504218e-04
  1.10038598e-03 -5.14341155e-05 -2.13932759e-04  4.78678197e-04
 -1.87078183e-05  9.71488754e-04  6.42665961e-04 -3.88560012e-05
 -5.76400040e-04  3.71190157e-05  7.51273193e-04  5.89273404e-04
  1.08255741e-03  1.05136435e-03  2.55047599e-04  8.01878475e-04
  1.29510072e-04  8.19898584e-05 -1.14421302e-04  1.79329825e-04
  1.49927901e-05 -5.67486843e-04  8.64088937e-08 -7.30309802e-04
 -4.99634754e-06  2.72423604e-04  9.91685974e-05  2.54168649e-04
  3.77292672e-04  3.61729473e-04  2.95514260e-04 -2.93372009e-05
 -4.43219431e-05 -4.42161652e-04 -3.14946295e-06  1.69995135e-04
 -4.22737505e-05 -4.91020885e-05 -1.04991440e-03 -9.46014508e-04
  3.87338505e-05  1.18948558e-05 -1.68730116e-04  4.41656303e-05
  6.06272682e-04 -2.11157422e-05 -2.08961914e-05  4.12038347e-05
 -9.16150465e-04  5.64541030e-04 -5.52603842e-04  5.88084034e-06
  2.17938544e-05  4.53730401e-04  1.30753409e-06 -3.94308727e-05
 -4.14634520e-04 -2.30052840e-04  7.12756526e-04 -9.87048920e-05
  1.11774682e-03  2.63277167e-05 -2.70018950e-04  3.88715849e-04
  6.13507427e-07 -1.45974828e-05 -8.53637269e-06 -3.26413695e-04
 -1.85111282e-04 -1.30879188e-05  4.54156946e-04  4.62089062e-05
 -1.72346353e-05  3.68501314e-04  3.03735876e-05  4.72990367e-05
 -1.94204020e-04  5.53284100e-04 -5.20297279e-05 -9.61010189e-04
 -5.87983662e-05 -3.53383288e-04  3.37166428e-05 -7.56025876e-05
  8.23786792e-05 -9.18654573e-05  3.58581490e-04  8.73813667e-04
 -9.52166085e-04  1.08191172e-03  2.64908633e-04  6.02985727e-05
 -2.66295191e-04 -3.04874953e-04  8.64213459e-06 -2.91336640e-04
 -5.41989441e-05 -1.23905723e-04  4.45971672e-04  9.03855892e-04
  3.34879446e-04  8.46201379e-04 -7.72440913e-05  2.35553108e-04
 -8.51887292e-05  1.98478231e-04  2.15888777e-04  6.66546079e-04
 -9.83842532e-05 -2.71902680e-05  3.52911447e-04 -7.35529317e-05]
[ 1.78916595e-04 -4.84245168e-05  3.66133136e-05 -3.37222442e-04
 -3.21884537e-05 -3.01231220e-05  8.18370336e-06  4.70846234e-04
 -5.34071840e-05 -3.25268352e-06  2.32466676e-06 -5.73309422e-04
 -1.00571816e-03  2.13579106e-04 -2.11905031e-04 -1.71953699e-04
  5.24796177e-04 -6.01997143e-05  9.53175733e-05  1.22987873e-04
 -9.87855121e-04 -1.90064664e-04  2.63393346e-06  2.26176032e-04
  6.17845896e-04 -2.64322799e-04  1.10657491e-03  1.51630407e-04
 -7.01222078e-06 -2.38399344e-04 -9.05517843e-05 -6.73534639e-05
 -7.31042208e-04  1.23698848e-04 -1.82981414e-04  8.19845631e-04
 -1.08146105e-03 -1.32029490e-04 -9.05598023e-04  2.64763820e-04
  2.26633611e-05  1.35242640e-06 -9.80725760e-06  1.52340029e-04
  3.80165394e-04 -6.96131873e-04  3.60410016e-04  1.11480358e-03
 -1.26620763e-05  5.36775947e-07 -6.10965114e-05  1.02435098e-03
 -8.64296349e-04 -1.64722871e-04  3.49223090e-04  7.67710442e-04
  1.30345565e-05  1.06898081e-05  4.48472404e-04 -3.16813574e-05
 -8.76134674e-04  3.01423615e-04  3.44728600e-05  8.84978190e-04
 -6.76680136e-04  4.82488866e-04  6.04706938e-04  9.53611726e-04
  3.29520069e-04 -4.01618343e-06 -6.26443795e-04 -1.03103729e-05
  9.46465749e-04  7.13541755e-04 -1.60576878e-04  4.40296649e-05
  8.53147695e-05 -1.03369908e-05  5.54945632e-06  2.67995160e-04
  6.18323942e-04  1.69481500e-04  1.24096425e-04 -2.35363860e-04
 -3.09963841e-04 -1.08321303e-03  6.76007988e-04  2.32143564e-05
  6.22420347e-05  5.62892116e-05  1.24763218e-05  3.45253464e-05
  2.14347291e-05  1.26320418e-04  4.62135543e-04  3.32199827e-04
  1.07702858e-03 -5.29687707e-04 -1.00591917e-03 -4.83240499e-06
 -7.69094212e-04  7.11681093e-05  8.84041015e-04  3.67555649e-04
 -4.46451520e-05  8.42297599e-05 -5.01313649e-05 -1.28612165e-04
  4.54648653e-04 -6.51898591e-04 -1.38640124e-04  7.38954100e-06
  1.53319697e-04 -8.96802088e-04  5.16750714e-05 -6.22605561e-05
 -9.73504543e-04 -2.95240445e-04  1.36853462e-04  2.85924035e-05
 -9.51852880e-05  3.85238471e-04  5.61627106e-04 -7.00102907e-04
 -4.16458880e-04  7.95245389e-04  7.72249815e-04  2.05197386e-04
  1.15291862e-05 -5.52789926e-04  1.75763113e-04  5.58267533e-04
  2.63246479e-04  3.83518998e-04  1.00645745e-04 -2.25555153e-05
  6.22143247e-05 -7.50554410e-05  6.94176981e-04  5.58417558e-05
  4.05223142e-04 -3.91756147e-06  6.28440267e-05 -7.07875308e-07
 -1.12354575e-04  9.60261775e-05 -4.26086950e-05  1.58860813e-04
 -1.05855941e-05  7.13310117e-04 -3.71495933e-05  3.98266943e-04
 -1.73575009e-04  9.39676187e-04  3.68169643e-04  1.51000097e-04
 -7.06258758e-05  4.12471095e-04  1.83622215e-05 -2.18547709e-04
 -1.28103144e-04 -6.31372195e-04 -7.41492909e-04 -4.13488480e-04
 -1.01202334e-03 -6.55312245e-05  6.24125955e-05  1.01350304e-04
 -1.19100412e-04  5.87053183e-06 -1.02177799e-03  5.63528351e-04
  2.48830685e-04 -9.08005718e-04 -1.10269887e-05 -3.37265833e-05
 -4.51256759e-06  1.01460453e-06 -3.63830057e-06 -5.53643759e-05
 -1.57585478e-04  7.65400127e-05  4.39387167e-06 -4.97695922e-04
  2.73993683e-04 -8.08893731e-04 -2.88065334e-05 -4.54471540e-04
 -3.45159554e-05 -2.64542727e-05 -5.47479547e-05  5.57598280e-04
  1.32789487e-04  3.25860439e-04 -6.47973567e-04  5.88900894e-04
  1.86131377e-04  3.43292287e-04  3.28052170e-05 -7.26556218e-05
 -1.08763406e-03 -8.77803365e-04 -1.53170565e-05 -1.77739489e-04
  1.05953332e-05  8.59203571e-06  2.09393214e-04 -2.40152571e-04
  8.08936863e-04 -2.38250713e-04 -2.00599970e-05 -1.08479014e-04
 -6.86965156e-05 -3.64099801e-04 -8.73483351e-05 -6.77578045e-04
 -7.25842462e-05  2.94078386e-05  1.62688571e-04 -2.29499184e-04
 -4.36470334e-05  7.18620881e-04  3.59917120e-05 -3.88330355e-04
 -3.61863355e-04  4.82445243e-04 -1.02627613e-03  5.67124584e-04
 -1.14500769e-04  8.68972716e-04 -5.14515039e-04 -5.08073871e-04
 -1.20315829e-04 -4.56111322e-05 -1.42236101e-04 -5.03020746e-06
 -4.13437063e-04  1.00108068e-05 -6.99338907e-04 -2.15587935e-04
  9.60336632e-04  2.01317367e-05 -4.82320294e-05  1.68989317e-05
  1.36702495e-04  5.91903255e-04  2.53573254e-04  1.31191802e-05
 -3.12884339e-04 -6.66144382e-04 -5.31318473e-05 -2.22325031e-05
 -7.21997691e-05  2.35519495e-04  8.80450887e-05 -5.85394516e-04]
[-3.79980056e-04 -8.23341728e-04 -8.65559806e-04 -1.82288972e-04
 -4.62816789e-04  5.83368902e-04  5.69426315e-04 -8.38643554e-04
  4.41489800e-05  9.29018271e-04  5.34651434e-04  1.28433368e-05
 -1.10797439e-03  4.87642817e-04  1.82455361e-04 -7.13188261e-05
  2.85746436e-04 -7.86705635e-04 -3.35985476e-04  2.33565028e-04
 -2.14075512e-04 -1.59092099e-05 -7.46778395e-04  7.15217395e-04
 -4.22681428e-06  1.03610315e-03  1.65968374e-05 -4.34083073e-05
  2.35594124e-04  2.19248860e-04  5.18738260e-04 -3.46683966e-04
 -4.17771286e-05  1.55870404e-05 -2.69398195e-06  7.29437679e-04
  1.01645467e-03  2.85551747e-05 -5.76487005e-04  4.75575125e-04
  8.91134628e-04 -9.81942087e-04  1.01892026e-03  8.78265721e-05
 -1.35906585e-04 -2.87048791e-04  7.41109516e-05 -6.57620555e-04
  1.10059965e-03 -2.42324803e-05  6.12618792e-05  2.93423407e-04
  5.51244701e-04 -1.06330989e-03  1.01649236e-03 -9.67182463e-06
  7.44016087e-04 -3.65947161e-04  4.30303842e-04  1.33603422e-05
 -4.47922178e-04  3.28089653e-04  1.85134916e-04  2.42285539e-04
  3.06421459e-04 -1.08742686e-04  2.70978696e-04 -8.48320328e-04
 -1.13804842e-04 -6.25902067e-04  4.35173397e-04 -9.22912122e-06
 -3.67759272e-04  2.13336075e-04 -1.95795075e-05  1.51845449e-04
 -4.27771905e-05 -3.60929856e-04 -2.24252364e-04  5.66862924e-04
 -1.07133381e-03 -7.61423454e-05 -9.24222725e-04  3.99952835e-04
  4.14551540e-05  4.78702832e-05 -6.25052301e-06 -7.83679179e-04
  1.11816689e-03 -1.52102611e-04  3.34526172e-04 -9.48224466e-06
  1.91259080e-04  1.02882522e-03 -7.76002132e-04 -3.56370096e-04
 -4.75653775e-05  6.89763658e-04 -6.81722730e-04 -1.00741951e-04
 -3.82434211e-06 -3.82538998e-04  2.40303215e-05 -9.22018800e-04
 -3.16012016e-04  8.29964740e-06  5.77049009e-04 -4.81459198e-04
  1.89449822e-04  2.34022297e-05  1.55046305e-04  7.95984120e-04
  6.66166156e-04  1.28073996e-06  6.67722304e-06  6.25320148e-04
 -5.31810367e-04 -6.72765955e-04 -3.01395408e-06 -7.91319436e-04
 -4.31484897e-04 -1.11387380e-04  2.57668776e-05  7.01356137e-04
  4.69271052e-04  1.58524790e-04  3.42860353e-05  2.51665929e-04
 -3.22624953e-04 -3.44597631e-04  5.64093763e-04  8.01282145e-04
 -5.27978245e-05  1.17963859e-05 -1.89520060e-06 -2.53629009e-04
  2.88988898e-04  1.11990857e-03  6.17713392e-04  6.04464934e-04
  2.59540711e-05 -9.64155518e-05  1.12103986e-04 -5.91617326e-04
  6.67203596e-04  5.13235345e-04 -1.64711859e-05 -7.84767483e-04
 -1.39901564e-05  5.60575665e-05 -5.06482574e-05  1.42332525e-06
 -1.70828129e-04 -6.10200235e-06 -5.55966434e-05  2.28331933e-04
 -1.16714104e-04  2.58889907e-04 -6.58208451e-04 -6.13765346e-04
  5.08824031e-05 -2.69482613e-05 -4.84886374e-04 -7.76022576e-04
  1.73389487e-06  8.29048699e-04 -8.98416165e-05 -3.11096335e-04
  1.72227046e-04  3.74498490e-04 -4.95521319e-05  1.03869693e-04
  2.24168845e-04  2.25784582e-04 -7.84245970e-04  2.37523231e-04
  7.88084669e-04 -1.15203799e-04 -3.21966349e-04  1.05850990e-04
  3.36185408e-05  8.13700293e-04 -1.74580036e-04 -1.63784701e-04
 -1.83797612e-04  5.03532867e-04 -1.30392962e-05 -5.49047143e-04
 -6.58507514e-04  8.73592893e-05  1.38801258e-04 -1.96416604e-04
  9.87667929e-06  5.61810812e-05 -2.35043614e-05  6.34967932e-04
  1.43482341e-05 -3.34733215e-05  2.44058155e-04 -9.46402261e-04
  1.29496492e-05  3.27906534e-04  1.27323480e-04  1.11336389e-04
  8.63857031e-06 -6.35434690e-05 -1.94045115e-04 -4.68135662e-05
  1.89664936e-04  1.04653547e-03  6.99953033e-04  7.46142922e-04
  3.82984332e-04  1.00128812e-03  7.76882709e-04  8.80732235e-04
  3.39603200e-04 -9.86881882e-04 -7.82970889e-05  5.89455806e-04
 -8.52865628e-04  4.67189503e-04  1.47985821e-04 -1.03091346e-06
  3.86887002e-05  4.82614707e-07  6.19228132e-04 -2.35500313e-05
 -6.05654346e-07  3.13024778e-04  3.52005339e-07 -5.86579666e-04
  3.43732781e-04  3.80582043e-04  1.58064948e-04  1.56543426e-05
 -4.76266909e-04 -1.03223483e-03 -3.62474859e-04 -7.01015748e-05
  3.86937739e-04  1.53290282e-04  2.71850991e-04  3.39376020e-04
  7.89025107e-04  4.73243083e-04 -8.06110643e-04  7.29372963e-04
  1.23528022e-04  6.82077408e-04  6.76491132e-04 -1.14161385e-04
  9.30227036e-04 -8.32740589e-04  1.17427927e-05 -4.59528769e-06]
[ 3.16833177e-04  1.17958144e-04  3.61145119e-05  3.26642841e-05
  1.09214091e-03 -6.38892957e-05 -1.37887322e-04 -5.45766786e-04
 -8.78746285e-04  9.90633689e-04  3.61223966e-04 -2.38187969e-04
 -7.43101134e-04  5.49464333e-05  2.33692711e-04 -5.57167269e-05
 -2.45851031e-04 -9.27730536e-04 -6.77863606e-05  2.86704595e-04
 -1.02154476e-03 -1.95473389e-05  4.78235971e-04 -1.06504138e-04
  4.28237712e-04  1.60900664e-05  1.14699012e-05 -1.01567093e-03
  3.79926265e-04 -3.91862939e-04  4.67909684e-05 -1.04021083e-03
 -5.23043813e-04 -2.18225340e-04  4.45884777e-04 -1.14017998e-04
 -2.65697194e-04  2.19965110e-05 -6.14291967e-04  2.04890523e-05
 -2.85994375e-04 -1.06726574e-03 -3.03976605e-04  4.25451413e-04
  4.44141772e-06 -1.07233634e-03 -6.24971978e-05 -3.78268148e-06
  8.46389104e-05  1.06331520e-03 -7.59370301e-05 -1.89384474e-04
 -3.40353445e-06  1.16202698e-05  4.61236105e-04  2.67987781e-05
  7.12960460e-07  2.16877319e-05  3.15889844e-04  2.06292383e-04
 -7.71010074e-04  3.90857140e-04 -3.62152953e-05 -6.59185550e-04
 -7.41662252e-05  7.21842080e-05 -8.74722198e-05 -7.89175407e-04
  5.73158211e-04  2.76541310e-04 -2.46655724e-04  5.17429192e-04
  3.00660477e-04  2.69931147e-04  1.12429742e-04  4.86474042e-04
  5.15663020e-06  3.30843300e-06 -1.96476721e-06  5.92692177e-05
 -4.13506919e-05 -5.13712183e-05  1.09552323e-03  8.62829062e-04
 -7.99756441e-05 -2.91314336e-04  6.65974583e-04  4.43831513e-06
 -1.33622751e-05  7.67078556e-04  1.31888723e-04  4.07882267e-04
  1.60740535e-05 -2.19495405e-04 -5.90347176e-04 -6.36779352e-05
  2.88501853e-04  5.48328343e-04  5.69777093e-07  5.85114730e-04
  3.69401005e-05 -1.08506329e-04 -1.45602000e-04 -6.94059095e-04
  4.03596003e-05  7.92680534e-04 -9.75204875e-05 -2.14968590e-04
  5.57430100e-04  4.70812572e-05 -1.17446458e-06  8.47401988e-04
  1.43544430e-04  2.85162877e-05 -1.04471086e-05 -2.94423786e-04
  9.39319758e-05 -5.92298844e-05 -4.05163023e-04  3.96185552e-05
 -1.36159785e-07 -4.58284294e-06  6.30976042e-04  5.38338716e-05
  9.30854612e-05  7.69360146e-04 -2.48257549e-04  2.08198762e-05
  6.88275340e-04  4.96412016e-05  3.30764266e-04  4.03065621e-05
  1.80643957e-06  1.07945266e-03  1.83633483e-04 -5.85758136e-05
 -2.10040684e-04 -2.06318712e-05 -1.20214633e-04  1.06596284e-04
  1.01410386e-04  6.30269247e-04  2.63374399e-04  2.14425432e-04
  5.79556254e-04  8.06319983e-04 -3.42159338e-04 -1.21750267e-05
  1.34208861e-05  8.70491477e-05  7.40519057e-04 -7.78145215e-05
 -8.77183114e-06  1.98120487e-04  4.90001357e-04  2.18104578e-05
  9.03302199e-05 -3.14393710e-04 -1.98471410e-06  9.54921216e-04
 -1.11513628e-03  6.44013549e-04 -1.30576588e-04 -2.52491567e-04
  6.77253331e-05 -1.64448759e-04  1.89791015e-05  4.03399921e-04
  7.24206690e-04 -3.47265544e-04  6.61145783e-04 -1.93824130e-05
 -7.85659988e-04  9.68446441e-05  1.00676194e-03  6.04681174e-05
  8.80097568e-04  2.97107699e-04 -1.67843100e-05 -8.03580116e-06
  3.00433900e-04  7.34270210e-04  2.17053803e-05 -4.47471446e-06
 -4.98027158e-04  2.13154799e-05  1.28687949e-04 -2.64264917e-04
 -1.18118149e-04 -6.78640959e-05 -1.54164105e-05  4.19549288e-04
  7.92686972e-05  5.48119192e-05 -2.10990605e-04  1.07895529e-03
  2.81819885e-04 -3.69964821e-05 -1.00406227e-03  2.29192936e-06
 -5.31748411e-04  7.95533825e-05  3.92035261e-05  5.00603860e-05
  2.18525517e-04 -5.87157062e-04  2.13933741e-04 -1.27758087e-04
  8.84653901e-05  3.64696492e-05  1.65146426e-04  9.57156696e-05
 -1.14620149e-04 -1.18115982e-05 -1.97664320e-06 -3.99696005e-04
 -8.29600308e-05  9.48779239e-04 -1.09055603e-03 -5.01641206e-05
  4.27114818e-05  1.01085820e-03  2.83407238e-06 -1.05705172e-03
  1.01318330e-03 -4.47920080e-06  1.17834645e-05  1.37472021e-04
  1.37745824e-04  4.29912152e-04 -3.87002718e-04  9.92835655e-05
  2.67695704e-05  6.32352790e-04  5.18453242e-04 -1.51429855e-04
  1.51158807e-04  1.89041436e-06 -9.87690398e-04 -9.46284291e-04
 -8.64746383e-05 -9.17560636e-04  2.29693804e-04  1.09620262e-04
  7.72299706e-05 -8.07032998e-05 -3.15543612e-04 -1.92421015e-05
  9.40948477e-04  1.46418298e-05  7.59029262e-04 -3.85696884e-04
  9.51782377e-04 -3.11549277e-05  7.05321542e-05  1.09997749e-03]
[-1.61879808e-04  1.06550704e-04  8.66173666e-05  6.34198328e-04
 -4.13748906e-05  4.51375771e-05  4.80131199e-04  5.53970614e-04
  8.58381784e-04 -6.77572393e-04  3.60601385e-04 -7.15207568e-04
  3.69101996e-04 -1.10847194e-03  5.15056400e-04  2.44274464e-07
  6.53124176e-04  1.49002193e-05 -4.78047936e-05 -1.14959051e-04
  1.77959845e-05 -9.54671237e-04 -8.70702418e-06  2.34459942e-04
  4.76510136e-04  7.42346801e-04 -1.17000211e-06  2.68490482e-04
 -6.80225998e-04 -5.59465473e-04 -1.76113248e-04  2.42708499e-04
  5.39315719e-06  2.11961711e-04  4.28347514e-04  5.66800661e-05
 -6.37329555e-04 -3.26973441e-06  3.24100814e-04  1.16602481e-04
 -7.66786289e-05  9.99458708e-04  8.73168285e-04 -1.09890753e-03
 -1.51134291e-04 -1.42177593e-04  3.68690957e-04 -1.31323753e-04
  1.30688951e-04  8.49364446e-04  3.64013516e-04  9.01784267e-04
 -5.39006950e-05 -4.06027321e-05 -7.41371387e-05 -5.33810693e-04
 -1.47204071e-06 -4.20474942e-04 -2.85282619e-05  7.92384669e-04
  4.20104864e-05  2.67538684e-04 -5.26110473e-04  1.01781894e-04
 -2.06195354e-04 -6.53248243e-04 -3.16838739e-05  1.29914590e-04
 -8.10701136e-04  1.06174463e-03 -5.75818730e-04  2.61855773e-04
  9.22308191e-05 -3.15149769e-04  7.38413936e-05 -1.85024960e-04
  1.16043306e-04  9.43265531e-04 -1.92342775e-06  1.66980477e-04
 -8.47512963e-06  4.28428385e-04  1.54932309e-04  2.40722484e-04
  1.50475428e-04 -1.36570526e-04 -2.51460617e-04 -6.69108441e-05
  1.84826128e-04  6.83656467e-04 -5.57186187e-04  5.74657765e-04
  1.06065185e-03 -9.86670540e-04 -6.59608877e-05  2.55210094e-04
 -7.48507860e-04 -4.34653503e-06  6.33614962e-06  3.90318307e-05
  1.84338936e-06 -1.23655018e-04  4.84755539e-04  2.70664129e-04
  4.92263796e-05 -5.61422311e-05 -9.28988222e-05  3.66451778e-04
 -9.22358626e-04  6.04648199e-04  1.65221680e-06 -5.84865203e-05
  9.90991836e-05  7.48588847e-04 -6.93267028e-04 -5.78645344e-05
  8.47515936e-04  1.44529057e-04 -8.28047751e-04 -2.15956742e-04
 -7.57985954e-04 -8.29743960e-05 -7.83486189e-04  4.16233740e-06
  2.96787803e-05 -2.78279943e-04  9.04604685e-04 -9.71876360e-04
  1.05941905e-03 -2.45566669e-04  4.72297489e-05 -1.79817628e-04
 -2.26414727e-04  1.01191882e-05  1.11538491e-05  3.80268865e-04
 -2.67314151e-04  1.09096764e-05 -1.04367698e-03  1.65927182e-04
 -6.93273281e-05  4.15258126e-06  8.20698994e-04  2.86898171e-05
 -2.41459746e-04  7.46350735e-05  3.33609916e-05  2.22192763e-04
  8.43642232e-05 -4.97994504e-04  2.17944329e-04 -4.45471773e-04
  6.26139008e-05 -1.37127868e-04 -7.01969075e-04  4.41412035e-04
 -1.12299466e-04 -3.32779173e-05 -6.80240544e-05  1.18574040e-04
  4.86746828e-04  1.42481891e-04  4.66267231e-04  1.04947626e-04
 -1.55477963e-04  8.62387675e-05 -1.18801502e-04  1.72265086e-04
 -5.46200231e-04  6.43553399e-04  7.70366593e-06  1.72865384e-04
  2.15681232e-04 -4.66426093e-04  5.41452260e-04  6.19466985e-04
  7.53113768e-04  1.89730195e-05 -7.49472440e-05  2.91488598e-04
  4.76275777e-05  2.20643805e-04 -1.74181224e-04 -4.08162605e-05
 -2.88291921e-04  4.16721993e-04  1.19244755e-04  6.96889051e-04
 -5.30591881e-06 -8.94649367e-05  4.11579305e-04  4.27705607e-04
 -3.13403057e-04  8.18512131e-04 -9.66218610e-05 -5.19361201e-04
 -1.38528199e-04  1.57170555e-07 -1.15906243e-05  7.47114665e-06
  9.87977753e-04 -9.24178519e-05  6.45028845e-06 -6.67281327e-05
  1.87383337e-05  1.99032838e-04  1.34806675e-05  7.64578066e-04
 -3.07958885e-05 -3.16834946e-05 -7.57054597e-05 -5.18099649e-06
 -5.01614300e-05  2.95769451e-04  9.35188568e-04  2.99330583e-05
  4.19469368e-04 -8.60214122e-04  3.44847915e-06 -2.09894431e-04
  1.65229570e-04 -2.60205799e-04  8.90799408e-05  5.32877747e-05
 -4.15314940e-04 -2.50256314e-06 -1.09081320e-03  1.91262315e-05
 -1.38519405e-05  2.05809868e-05 -2.72678881e-04  4.63054800e-04
  2.88013897e-04  1.16583108e-04  1.05386426e-04  9.34135561e-06
 -7.57024768e-05  1.52354787e-04 -2.81005667e-04 -5.70611924e-04
  2.70635007e-05  5.34025348e-04 -4.14352360e-04 -1.38697451e-05
 -3.17311165e-04 -3.41716087e-04  6.20177211e-05 -2.09383211e-06
 -8.57512138e-04 -3.37157833e-04 -9.41018418e-04 -5.61833583e-04
 -2.58103196e-05 -5.90572104e-04  9.13555138e-04 -3.62282641e-05]
[ 2.48655109e-05 -1.94834452e-05  2.63998050e-04  5.82703654e-04
 -5.98603098e-05 -4.67473162e-04  1.02347270e-04  3.71168970e-04
  9.25472405e-05  4.76894138e-04  8.46679835e-04  3.02584133e-06
  9.47802594e-04  1.30032276e-04 -5.93159336e-04  3.76633397e-06
 -3.83706975e-05  1.89861852e-04  2.01060493e-04  6.19005524e-04
  2.71857479e-05 -2.79532445e-04 -6.03255526e-05  8.44481153e-04
  1.06196931e-04 -1.18984071e-04  6.60094666e-04 -8.84849708e-04
  1.30976469e-04  5.52650571e-04 -1.05727640e-04  7.87716065e-04
 -2.95787679e-04  6.60064210e-04 -2.96411410e-05 -3.84300350e-04
  3.96615437e-04  6.22368201e-06 -5.02469529e-05  5.47077891e-04
 -4.55420811e-04 -1.05050959e-05 -3.30593614e-04 -2.79031104e-05
 -3.20588151e-05  1.48062453e-04  4.73266610e-04  2.19312701e-04
  4.99788550e-05  2.74303490e-04  2.83326088e-06 -1.43456619e-04
  1.74353593e-04  4.72475929e-05 -6.28865980e-04  2.40711866e-04
 -1.04797494e-03  2.43776319e-04 -2.83172424e-05  6.59359318e-05
  6.71456136e-04 -4.12524213e-04 -9.17581635e-04 -8.57200152e-05
 -3.06539042e-04 -3.16992440e-04  8.57566545e-06 -6.27521570e-04
 -8.69445460e-04 -2.06828909e-04 -4.13792598e-05 -4.04685584e-04
  2.58428578e-04 -7.84369749e-05 -1.44146790e-04  8.01759279e-04
  6.45118774e-04  7.25635616e-04  8.57785197e-05  1.43483607e-04
 -7.72225678e-04  4.40767609e-04  7.11390392e-07  1.41054443e-04
 -9.55527688e-04 -3.33555461e-04 -9.70479707e-04 -6.43751689e-04
  2.90772475e-05  2.42773062e-04 -2.07649709e-05 -1.67931683e-04
  3.21512620e-04  9.28353986e-06  6.11771371e-04  1.48917212e-05
 -3.54010175e-04 -1.06321562e-03 -6.11688654e-04 -1.20168247e-04
  1.33271795e-05  1.95170444e-04 -4.16884876e-04  3.81693635e-04
  7.95445230e-05 -1.73938655e-04 -9.00760338e-05 -2.82455791e-04
  6.15825529e-07  7.66204402e-04  6.66146775e-04 -1.35603372e-04
  1.14166531e-05 -1.32794935e-04  8.76795763e-06  1.32857237e-05
  4.99219225e-04  2.75951046e-04 -3.47803674e-06  4.30098339e-04
 -1.14853420e-05  1.63556505e-04  3.77562123e-04 -8.56815171e-04
 -1.53243756e-04  6.78562341e-04 -3.18188955e-06 -6.13792008e-05
  7.39783140e-04 -4.95727180e-05 -5.16518360e-05 -6.45421561e-04
  6.36210307e-04  1.95789965e-04  1.59369686e-05 -3.61324211e-04
 -1.88721584e-04 -9.08708893e-05  6.13966904e-04  1.44667333e-05
 -1.25013868e-05  9.89294727e-04 -3.13771054e-05  1.35409186e-04
  2.68073947e-04  9.33691231e-04  1.02150516e-03 -9.86666927e-04
 -3.73337877e-07  8.73347734e-05  5.62682041e-06 -9.09887523e-04
 -8.48601136e-06  6.83950165e-04  9.75733625e-05 -2.47094560e-04
  1.11883906e-04 -9.35099850e-04 -2.11225657e-04 -5.38147761e-05
  9.64606685e-05  3.43038439e-05 -1.02201158e-03 -4.82875941e-06
 -3.10356153e-04  1.22653098e-04  7.49075988e-04 -1.59647910e-04
  4.03270869e-05  1.84829774e-06  1.12989877e-04 -9.71456188e-05
 -6.67129015e-04 -3.14162231e-04 -7.90141763e-04 -1.03918725e-04
 -1.18167696e-04 -4.66907563e-04  5.07317818e-04  3.27326834e-04
 -3.29176764e-05 -2.35927068e-05 -1.26602069e-04 -1.75160159e-04
 -8.01581276e-05 -5.92069428e-05  6.57469261e-04  9.52246993e-06
  7.78088126e-04  4.20192419e-06 -3.30297539e-04  4.66180023e-05
  1.01077907e-04 -1.04028960e-03  7.52320849e-05 -8.67046768e-04
 -4.29137679e-06  3.52796774e-04  9.88534290e-05 -5.55642973e-04
  1.10169259e-03  1.59557779e-04  2.23678076e-06 -1.68110780e-05
 -2.06389797e-04 -3.15681104e-05  4.47224232e-04 -3.21024359e-04
 -2.04641846e-04  9.10343329e-04  8.08230411e-04 -8.30070511e-05
 -2.46293930e-05  6.21151594e-06  8.87001620e-05  5.12912151e-05
 -1.03462769e-03 -9.79687094e-04  1.49661211e-06 -2.64340129e-04
 -7.28210243e-04  2.42831315e-04 -1.09974400e-03 -3.45147554e-05
  3.23753970e-04  5.81351146e-04 -1.01382196e-03  5.86102054e-04
 -9.62316559e-04 -5.70208270e-04  2.79387315e-04  1.70700372e-04
  6.32845304e-04 -5.07688898e-05  8.95907376e-04 -5.94153194e-06
 -2.14523807e-04 -7.26299562e-06 -5.07498275e-05 -7.83294124e-04
  5.04106491e-05  6.84210953e-04 -7.53424705e-04 -8.83600224e-05
  1.70722758e-05 -9.61842939e-05 -1.75728254e-04  4.56965255e-04
  1.06031920e-03  2.63549289e-04  4.89823595e-05  1.10279935e-03
 -4.71259123e-04  3.12240392e-04  3.08711530e-05 -8.08496811e-04]
[-1.58842988e-04 -9.94904792e-05  3.06938120e-04  4.96914156e-06
  1.47258709e-04 -2.15393356e-04  4.66736927e-05 -3.68337675e-04
  6.91701902e-04 -3.05076741e-04 -4.74967143e-04 -2.97426629e-04
  5.71968175e-04  7.64548541e-04  2.92658793e-04  4.87764443e-05
  2.12703041e-06 -5.29222987e-04 -1.86010660e-05  6.57405368e-04
 -4.03848991e-04 -6.85400539e-04  5.66569475e-04  5.54746991e-05
  8.79869697e-04 -4.00607250e-05 -6.79480436e-04  5.80310169e-04
 -2.49312949e-05  3.09155545e-04 -5.49657935e-04  2.04593883e-05
 -1.07106870e-03 -1.09587356e-03 -3.14397726e-05 -1.00952461e-04
  3.60318146e-04 -7.95440456e-06 -3.90172154e-04 -4.27026325e-05
 -8.94935841e-04 -9.38028485e-04 -1.07088091e-04  5.33313266e-04
 -1.04005170e-04  7.74495004e-04  8.01368707e-04  2.63616401e-05
  2.09883520e-06 -2.23707600e-05  2.67928221e-05 -1.80781928e-05
 -5.29305652e-04  6.08550098e-04 -3.72669506e-04  3.48902945e-04
 -4.44254400e-05  1.84507208e-05  3.01528031e-04  7.69219142e-05
  4.56894684e-04 -2.68840068e-04  7.42869864e-04 -2.17235533e-04
  4.25690076e-04  2.59240725e-05  6.98016966e-05 -3.13268596e-05
 -3.61802033e-06 -1.35482191e-05 -6.45509533e-06 -5.72535600e-04
  3.89416826e-04  3.17422264e-04  1.11339325e-04 -4.62709220e-04
  3.31472185e-05 -1.70957419e-04  2.18048396e-05  5.95068544e-04
 -2.03507373e-04 -1.28721531e-04  5.76642258e-04 -6.99440156e-05
 -9.21697572e-04  1.69593918e-05 -1.34182958e-04 -2.14602036e-05
  6.15878496e-04 -3.07617682e-04  1.03284300e-06 -6.42104812e-04
 -3.35807474e-04  1.26906543e-05 -7.87777735e-06  1.28057241e-04
 -9.11451802e-04  6.79961922e-04 -1.00447274e-05  1.82461480e-04
 -1.45573264e-05  8.64127033e-05 -1.67082991e-04 -9.92578660e-05
  8.85309476e-05 -1.69290999e-06  8.60720533e-06 -3.30427967e-04
  1.48891210e-04  2.56284446e-04  9.76039926e-05 -1.03918825e-05
  6.69417270e-04 -6.99878997e-04  5.37605928e-04  9.65475480e-04
  5.00668156e-04  2.32363902e-04 -8.13757618e-05 -9.90978692e-06
  6.96046811e-04  8.48290210e-06  2.27396192e-04  1.22032585e-04
 -6.04544866e-04  6.70162605e-04 -2.76464927e-04  6.50217507e-04
 -4.07446103e-04 -1.00339433e-04  6.76411157e-04  4.11265285e-05
 -7.43899544e-05 -1.59257143e-05  7.82659198e-05  7.48205199e-04
 -5.97761587e-04  6.49596941e-04 -1.74426594e-04 -2.25734324e-05
  1.14991774e-04  9.92284630e-04  6.14048980e-04 -6.18804325e-05
 -3.92805033e-05  6.95249138e-04  5.52805141e-07 -4.09461857e-04
  3.50308237e-04  1.56744053e-04 -4.38267503e-04 -7.77849690e-04
 -7.89219430e-04  1.12437466e-04 -3.26822034e-04 -5.52556848e-04
 -4.11110520e-04  2.80776741e-04 -2.36628288e-05  2.17111717e-04
  9.71579745e-04 -7.55213005e-04  3.11780436e-04 -7.52015696e-07
  1.08438431e-03 -8.32119138e-04 -4.49032144e-07 -7.11950405e-06
 -1.05330743e-05  3.18531535e-04  7.05561023e-04  4.10681339e-04
 -4.55511600e-05  1.85438482e-04 -8.02156160e-05 -5.03278662e-05
  1.33926870e-04  2.09591044e-04  1.68387680e-04 -1.63283982e-04
 -7.38671684e-07  4.17536775e-05 -7.57371664e-04 -4.62669700e-05
  2.19673622e-05  4.01033014e-05 -5.68917878e-04 -7.72166327e-04
  8.61311485e-05  1.12166596e-03 -8.40672047e-04 -1.60713716e-04
  4.88254138e-06 -1.79770279e-04 -5.70136913e-06 -2.11482408e-06
 -8.57344083e-04 -5.19321402e-04  2.91086533e-05 -8.72137652e-04
  8.84075936e-04 -8.13476626e-04  1.04503704e-03  1.03447569e-03
  3.70435746e-04 -1.59270978e-04  5.14833515e-04 -9.59270077e-04
 -3.97304019e-04 -2.83664718e-06  3.41314398e-04  2.26297283e-04
 -2.76296512e-05 -2.67378842e-05 -3.91912162e-05 -2.63961791e-05
 -7.53998529e-05  7.03885685e-04  2.90678322e-04 -1.56584145e-05
 -1.47672940e-04  8.16664151e-04  1.11282977e-03  6.77465346e-06
 -6.72336411e-05  9.87742311e-05 -1.11452323e-04 -3.53208614e-04
 -2.79648661e-04  5.98414935e-06  6.69474707e-04  3.43923626e-06
 -1.61578532e-04  2.99019712e-04 -4.30691750e-04 -3.34131129e-04
  6.27970541e-04  1.64987369e-04  2.16030894e-05  4.33503886e-04
  7.99140226e-04 -6.73211720e-07 -1.04634683e-04 -9.25171424e-05
 -9.81685307e-04  5.32604990e-04  2.97451746e-05 -1.10764285e-03
 -2.91989537e-06  9.02365643e-04  5.28065742e-04 -3.78165853e-04
  2.06784218e-04 -2.55345856e-04 -2.49853849e-05  1.61465066e-04]
[-5.80578936e-06 -7.82706258e-04  5.69082341e-04  5.51903135e-05
  1.43885092e-04  3.68413062e-04 -5.94019882e-06  9.39757662e-04
  2.91661064e-04 -3.72203437e-04 -2.94340041e-04  4.93266108e-04
  6.39242530e-04 -2.55715122e-04  5.63127437e-04  2.14322825e-04
  6.85815862e-04 -2.15202624e-04 -3.42289053e-04 -6.65343844e-04
 -2.52445853e-04  1.66542338e-04 -2.58036489e-05  4.08850374e-05
  9.02147437e-04  3.15720041e-06  1.41642613e-04 -4.40921158e-04
 -3.38575772e-04  5.62305394e-05  6.99479154e-05  6.51306604e-05
  2.08318601e-04 -2.75980590e-05 -2.87380684e-04 -5.52123450e-04
  1.94431654e-04 -2.57794578e-04 -6.09437945e-04 -4.51261627e-05
 -9.01742457e-04  8.19035939e-04 -2.04145571e-04 -8.89033150e-04
  2.07711157e-04  2.09788482e-04  1.00410078e-03  4.48127005e-04
 -4.77231851e-04  4.56456885e-04 -2.26774841e-05  3.87024525e-05
  1.88851415e-05  3.27549140e-04 -7.02163692e-04  1.65980318e-04
 -2.49755576e-05  2.05548494e-04 -2.11746185e-04  8.10426853e-05
  6.54994607e-05 -4.29843553e-04 -1.07819724e-05 -3.81811663e-06
  1.02054979e-03  9.54484056e-05  1.64335962e-04  6.05332335e-05
  3.23405155e-04 -6.38346695e-04  1.38899696e-04  7.15029817e-04
 -1.31155358e-04  1.04172069e-04  7.14310148e-04  4.25687098e-04
  8.52856768e-05 -5.27659425e-05 -4.23597036e-04 -9.26179015e-04
 -6.30619125e-06 -2.36671085e-05 -2.01557523e-04 -1.69289553e-04
  3.70114445e-05 -1.22167143e-04  6.96784424e-06  3.39507561e-04
 -6.78897533e-05  9.52059901e-06  5.19447337e-05  6.87601911e-04
  7.96936369e-04 -1.28925318e-05  2.11986090e-05  6.20525187e-06
 -2.32091339e-04 -6.88520332e-04 -9.68956134e-05  6.39383935e-04
  1.34401524e-04  2.16872908e-04 -9.85130060e-06  7.80200454e-04
  1.50253317e-05  1.16932640e-04  3.77863327e-05  8.68595256e-05
  2.75857417e-05  4.56692910e-06 -1.01387924e-05  1.04982195e-05
 -6.12192736e-05  5.07061505e-04  3.81901511e-04 -2.62366658e-05
  7.28296346e-04  4.25155799e-05  6.41101340e-04  1.76889803e-05
 -7.87418802e-05  6.77656349e-05 -1.53751203e-04 -1.77656739e-05
  2.07501988e-04 -9.37375705e-05  4.05539323e-05  4.13244025e-04
  1.01624875e-04  4.02459795e-05  5.39473591e-04 -1.58854531e-04
 -6.58768099e-05  1.39279186e-05  4.26901563e-05 -5.24514694e-05
 -8.74248671e-04  6.54058933e-05  9.92018512e-06 -8.49908406e-04
 -2.03940397e-05  5.94828288e-05 -1.01581762e-03  2.57462617e-04
 -3.15837333e-04  3.04279856e-04 -1.66372448e-06  7.75364724e-05
  5.24237618e-04  1.23138159e-04 -1.08012068e-03 -8.82747654e-04
  5.37966155e-06 -8.44181539e-04  1.78759250e-04  6.35817349e-04
 -8.83082638e-04  2.40576083e-06 -9.04445092e-04  7.40440531e-06
 -3.55360982e-04 -1.93869932e-05 -5.34402544e-06  9.04124540e-05
  3.49934802e-06 -1.48885983e-04 -3.41295437e-05  2.88967973e-05
  9.99945346e-05  2.71481444e-04  1.10263203e-03 -3.71368121e-04
 -7.44815108e-05 -5.91255004e-04 -7.95942818e-05 -2.57388685e-04
 -2.74643073e-04  1.26197020e-04  6.84994247e-04 -9.24935837e-04
  7.92266906e-04  1.08092828e-04  2.49766243e-05  3.90229683e-04
  3.55306964e-04 -8.06166257e-05 -1.72140307e-04  1.75731005e-04
 -3.22650130e-04 -5.96321100e-04 -2.67122290e-04  8.81576162e-05
 -3.27178044e-05  1.11751956e-03  7.04056563e-04  8.52941491e-04
 -2.01978435e-06 -3.68158878e-04 -1.09033219e-03 -2.61322146e-05
 -6.47715495e-04  4.84709081e-05  7.53995426e-06  7.87748256e-04
  4.55284375e-04  9.36353521e-04 -8.52629823e-04 -2.42943065e-04
  6.37770327e-04 -3.40176355e-05 -9.19511424e-04  7.18555577e-04
  6.16483585e-06 -1.83691760e-04  3.51204029e-05  1.91105802e-04
  8.28887585e-04 -3.14641053e-04  1.89446407e-04  4.08230224e-04
  7.89526117e-05  5.84703115e-04 -8.89760288e-06  9.18633542e-06
 -1.28045149e-04 -5.86354999e-05 -9.48630032e-05  1.17988212e-04
  6.04131720e-04  1.01597915e-03  7.98360342e-04  9.94300193e-04
  3.95632125e-04  1.62563645e-04  4.21435145e-05 -3.94962711e-05
 -3.40665792e-05 -6.00610951e-05 -2.03904837e-04  2.32782208e-04
  2.59623370e-04  1.11886862e-05 -2.03671949e-04 -6.09697912e-05
  8.09276419e-04  2.71389776e-04 -6.55347482e-04 -3.76668308e-05
 -9.39873791e-05 -4.89409150e-04 -1.38225075e-04 -3.88765990e-04
 -1.87255754e-04  1.66594895e-04  7.14028727e-04  5.88592206e-04]
[ 2.35541186e-04 -8.24628885e-06 -6.37676036e-04 -5.38724308e-04
  1.18096257e-05 -6.10713859e-05  4.48624339e-04 -3.72950506e-04
  2.77531865e-04 -7.77954749e-06 -6.61691546e-06 -5.73695027e-05
 -6.47841157e-05 -3.97141950e-05  5.54774776e-04 -2.26106883e-04
 -6.28586118e-04 -5.20740924e-04 -7.25655464e-04 -4.70112258e-04
  1.08514607e-03 -6.17212194e-04 -2.10042293e-04  1.60261581e-04
  7.57293963e-04 -3.97139029e-04  2.30378485e-04  5.98673390e-05
 -2.22863910e-05 -4.39711316e-04  2.16040839e-04  1.50093374e-05
 -3.64037558e-05  8.16635374e-04  3.00003267e-04  1.82478378e-04
  1.55867041e-04  1.93110596e-04  9.75272778e-04  4.00363173e-05
 -4.30892303e-04 -3.32699721e-04 -1.07936887e-03 -1.73212189e-05
  6.36020078e-04  7.55132168e-05 -1.95522080e-04 -5.31407384e-04
  4.59275964e-05 -1.59516280e-04  8.87087072e-06 -4.94594570e-05
  6.01056798e-04 -8.55568781e-04 -5.95836268e-04 -1.84594485e-04
  4.49818235e-04 -2.57048795e-04 -3.34835395e-04 -9.58937184e-06
 -7.17436444e-04  6.78725028e-04  9.41538925e-05  4.38776605e-05
 -1.23777353e-04  4.63408894e-04  4.68296767e-05  2.48832142e-04
  9.16051234e-05  4.03857469e-05  4.63101907e-04 -2.27122878e-04
  6.80862053e-05 -4.26100416e-05 -1.50751612e-05 -3.28884264e-05
 -8.53038291e-04  1.88669224e-04 -4.66033533e-05  1.54711897e-04
 -2.79216629e-04 -4.22829018e-04  3.70236479e-04  4.70679353e-04
 -4.04122866e-06 -1.82266225e-05  3.28913890e-05 -1.41462545e-04
  7.35392375e-04 -1.89228821e-04  1.63691073e-04  2.89765019e-04
  4.09315013e-05 -2.53726398e-05  8.40722996e-04  6.63800865e-04
 -9.39073709e-05  1.08520270e-06  7.10269491e-04 -3.21489874e-04
  1.04575751e-04  5.49689577e-05 -2.06864222e-04  7.50330356e-05
  9.58032824e-06 -5.04136594e-06 -3.66628036e-05 -3.01822598e-04
 -5.06423787e-04  6.14802888e-06 -2.14047952e-04 -9.61102484e-04
  6.84518540e-05 -1.33011767e-04  1.00862948e-03 -1.21866860e-04
 -1.68484684e-04 -2.39720906e-04  1.24905851e-05  1.03035155e-03
 -9.49391509e-04  3.05105175e-05  2.02624176e-04  1.14527901e-05
 -8.72369922e-05  6.31959729e-05 -4.37001384e-04 -2.71419026e-06
  4.57628466e-06  1.18263270e-04 -1.23958688e-05 -8.34379410e-04
 -3.41008496e-04 -2.38243395e-05 -6.14352511e-04  1.22671198e-04
  2.34103269e-04 -7.63059589e-04  4.66916870e-05 -9.64995349e-04
  1.12958739e-04 -2.97698962e-04  6.19571775e-05 -1.55283382e-05
  2.36681792e-05 -8.04912182e-07 -2.38801751e-04 -8.11594368e-04
 -6.35335956e-04 -6.81594369e-04 -1.58971751e-05  8.37285222e-04
 -7.62488327e-05 -1.07349809e-04 -5.28930399e-04 -3.10349034e-04
 -4.98168891e-04 -9.09360232e-04 -9.57003093e-04 -4.45022974e-04
 -1.06563454e-05  9.73453963e-04  5.55222933e-04 -1.28010401e-06
  1.80866557e-04 -5.98211583e-04 -4.18618937e-04 -5.42085261e-06
  1.91721573e-04  9.06268304e-05  1.71773372e-05  1.04262398e-04
 -2.01458313e-05 -5.42372161e-04  1.08234883e-03  3.83998762e-05
  2.22527304e-04 -9.48788930e-06  2.13430140e-05 -3.35064680e-04
  2.87809229e-05  1.10626750e-03 -3.13551085e-04 -2.21849285e-04
  2.53115121e-05  2.12622266e-05 -2.47727876e-04  9.09933830e-05
  2.27713586e-05 -3.18643039e-05 -9.08915254e-04 -2.08006970e-05
 -3.63193077e-05 -1.11646006e-03 -2.09414014e-04  6.66426461e-05
 -1.07803178e-03 -4.50591625e-04 -3.19989460e-04 -1.16456816e-06
  3.27863469e-05  5.64134300e-04 -9.07236022e-06 -2.17543968e-04
 -3.30624289e-04  3.44544101e-04 -1.99270826e-04 -9.55648163e-04
 -2.06556939e-05 -1.70047238e-04 -5.89276746e-04 -2.57273983e-05
 -5.12874305e-04 -4.67961067e-04 -2.67558821e-06 -2.89596905e-06
 -6.07397842e-04 -1.87405518e-04  6.18725213e-04 -6.72505262e-04
 -6.14770324e-04  7.15384278e-06  1.60891072e-05 -6.90726343e-05
  7.82102393e-06  1.85165062e-04  2.27914199e-04  1.92257799e-05
  2.09893316e-04 -7.82332194e-05  4.12988941e-05  1.76812987e-04
  3.87228024e-04 -6.90281454e-05 -8.25457813e-06 -6.14584676e-04
 -1.27268682e-05  3.74160679e-05 -2.58002062e-06 -5.23487868e-04
  8.12959214e-04 -2.44443227e-04 -1.05903612e-03  4.80446832e-05
  4.22134483e-04 -2.37833846e-05 -4.71547681e-05 -6.94354769e-06
  6.41815833e-04  1.38632569e-04  2.84038257e-05 -8.27449271e-04
  6.16030350e-04  1.19349825e-04  9.91207260e-06 -8.63679955e-04]
[ 2.64782588e-05  3.89482386e-04  9.05350172e-04  3.64686847e-05
  6.08700586e-04  3.52789442e-04 -1.50776773e-05 -8.94275468e-05
 -1.09597006e-03  6.81034436e-04 -1.09314228e-03  3.71803762e-04
  1.27215320e-04 -3.89911678e-04 -5.29701872e-05  3.45913903e-04
  1.87993149e-04  1.42460922e-05  8.05341806e-05 -8.76345374e-06
  8.38267971e-06 -1.90213455e-05  5.42851970e-05  8.87448864e-04
 -8.25084794e-05 -1.15293460e-04 -5.04236190e-05  3.50304192e-06
 -1.95221530e-05 -6.80656042e-04  1.02707285e-03  3.10138794e-05
 -5.01251157e-04 -9.95553475e-04 -8.47417295e-04 -5.04185680e-04
  2.08276626e-04  2.94057525e-06  5.34862647e-08  3.57254272e-04
  3.85755144e-05 -4.86453899e-06 -6.52569065e-05  6.85936741e-06
 -1.86640564e-04  4.50063578e-05  4.67009257e-05 -3.51513281e-04
 -2.67874920e-04 -2.82692447e-06 -1.92073760e-04 -9.59368034e-06
 -4.87549516e-05  3.39696517e-04 -5.55181944e-04  1.50790080e-05
 -1.12259580e-03  7.35197586e-04 -1.07500570e-03 -9.15005006e-04
  4.81488906e-04  8.52817608e-04  2.38769605e-04 -8.49604688e-05
  4.14370332e-06 -2.57845084e-04  2.36843469e-04 -4.24882474e-04
 -6.56701257e-04 -2.28179902e-04 -8.24714411e-04  3.78321901e-05
 -4.94948242e-05  1.90201393e-04 -1.45816220e-04  2.40990787e-04
  4.72851968e-05 -5.79344223e-04 -2.52360735e-04 -3.33517535e-04
 -4.76865913e-04 -1.05565553e-04  2.85039581e-04  6.11689042e-04
  8.35612363e-04  2.29456974e-04 -3.82786596e-04 -3.52187190e-04
  1.52657388e-05 -7.31997020e-05 -7.71787518e-05  4.05660997e-06
 -2.67864766e-04 -6.06904799e-04 -2.01527092e-04  1.07935662e-05
  9.73617935e-07 -8.36834883e-04 -7.86021908e-04  5.15278113e-05
  4.37056122e-05 -3.40395475e-04 -5.64445567e-05  2.62182105e-04
  1.17068986e-05  3.53960980e-04  6.20778733e-04  5.87588923e-05
  8.90634484e-06  9.88656228e-04  2.12349837e-04 -3.38808753e-05
 -4.87759982e-06  7.74104618e-04 -6.53126483e-04  7.16985445e-05
  2.76394769e-05  4.01103174e-05 -5.29376047e-04 -1.04335955e-03
 -8.93792619e-04  2.87749576e-05  9.54620671e-05  2.05365885e-04
 -3.83770507e-04 -8.94222164e-04 -1.11160980e-04 -3.97920798e-04
 -5.04036459e-06  2.39312329e-04 -1.93065204e-05 -1.11460576e-03
  7.17240528e-04  1.40274808e-04 -2.37313221e-05  6.83853674e-04
  5.92918147e-05  9.34978718e-04  2.68681058e-05  6.00150862e-05
  1.83426015e-04 -3.82167748e-04  7.50026166e-04  4.42091839e-04
 -8.43766702e-07 -1.19157009e-04 -2.24112334e-04 -5.41870595e-05
 -3.12757954e-04  4.13701829e-05 -2.63635139e-06  1.24928337e-04
 -4.35107607e-04  1.77063363e-04  6.86936827e-04 -2.10178516e-04
  4.98781778e-05 -2.05521666e-05  3.92211063e-04 -3.89813058e-04
 -1.55927376e-04 -7.92948514e-04  4.83723406e-04 -7.08889100e-04
 -2.07073417e-04 -5.03762868e-05  4.29061663e-05 -2.85876567e-04
  1.43806007e-04 -6.76601946e-04  2.22644151e-05  5.13757563e-04
  1.76209738e-04  1.12108089e-04  5.01557808e-04  5.56891994e-04
 -7.69097077e-05 -8.23275995e-05 -6.30593207e-05 -2.40498381e-04
 -3.39523115e-05  8.56365510e-04 -4.13987194e-04 -7.01995082e-04
  5.49668731e-04  1.42367924e-05 -9.27626025e-04  1.29782246e-05
 -4.08284341e-05 -3.49708911e-07 -3.41463765e-04  9.47441369e-04
  7.17393709e-07 -3.67981525e-04  2.33263983e-04 -2.74309098e-04
  8.24173132e-04 -1.94390889e-04 -7.41767748e-05 -6.16668425e-06
 -8.58499772e-05  5.66207228e-06 -5.07989621e-05  3.60711073e-05
  2.93624905e-05 -1.01371754e-03  5.48732735e-05 -1.01244883e-03
  3.04156845e-04  3.19649804e-04 -1.68140511e-04  5.32653848e-04
 -4.43925448e-04  6.23634011e-06 -5.36320693e-05  1.05257911e-04
  6.38255903e-04 -2.03911727e-04 -6.10093687e-06 -3.21057105e-04
  3.42840417e-04 -4.75956101e-05  7.33896915e-04  8.35294641e-04
 -3.71869035e-04 -1.38212827e-05 -7.17981654e-04  7.46295525e-05
  3.71385691e-04  9.01698270e-04 -7.11813749e-04  3.00220938e-04
 -4.98067466e-04  3.89027266e-04  2.17096883e-05 -6.86316385e-04
  1.49455045e-04  3.33155898e-04  1.06630728e-03 -1.85732697e-04
  3.29525464e-05 -2.81088197e-04  3.05411889e-06  9.07774323e-04
 -3.61765315e-04  6.52245155e-05  8.17062436e-04  3.39251917e-04
 -3.71406379e-04 -6.09831053e-04  8.78756182e-05  2.34828613e-04
 -4.14726862e-04 -8.74853898e-04 -3.61740427e-05  2.57807500e-06]
[-8.06716463e-05  5.76690723e-04 -4.93458944e-05  4.82655185e-04
 -5.53015319e-04  3.13796119e-04  1.64098055e-04 -5.86048459e-05
  2.75490691e-04 -5.58769788e-06  2.43536206e-06 -6.33559104e-04
  8.86503160e-04  4.56465496e-04  1.08256797e-05  1.33082202e-04
 -1.04330178e-04 -1.07958305e-03 -5.18715149e-04  3.41970146e-06
  4.06669360e-04 -6.34116862e-04 -4.28566248e-04  8.25912120e-04
 -4.48391058e-04 -6.13306380e-04  9.45568695e-04  2.36564751e-05
 -7.52838273e-04 -1.64137317e-04  5.47341773e-04 -3.13300152e-05
  5.38604530e-04  4.43724608e-04 -9.65905907e-04  3.41997741e-04
  5.82869667e-05 -1.42882150e-04  8.03464663e-04 -1.31718237e-04
 -1.07541169e-04 -1.01727881e-03  4.10974482e-04 -2.72310895e-05
  8.49432070e-05 -5.50539826e-05 -9.97678307e-05  2.75337902e-05
  1.30450001e-05  3.58548489e-04 -1.27033323e-04 -1.13222373e-04
 -6.66322149e-05  9.73273021e-04 -3.97601704e-04 -3.16681563e-05
 -2.40888060e-04  9.23275466e-05 -3.60671227e-04  3.57288472e-04
 -5.57716146e-04 -3.90760367e-04  2.78669435e-05 -4.23516924e-05
  1.04377819e-03 -1.92636734e-05 -2.24615686e-04 -3.77743585e-04
 -1.51354537e-04 -4.00465872e-04  2.07372518e-04  2.28299064e-04
 -9.25458424e-04 -6.45976490e-04 -1.09626244e-03 -3.47322958e-04
  3.41361595e-05 -2.55560309e-04  1.43965931e-04  2.60396825e-04
 -4.57861116e-04  8.97510045e-05  2.70059238e-04 -4.16947081e-05
 -6.06270701e-04 -4.95938715e-05  2.21669791e-05  7.43043231e-04
 -2.66233630e-04  3.90590371e-04  5.59783614e-04  1.06232258e-03
  2.10044841e-04 -9.40758020e-05 -5.40587595e-04 -2.84663204e-04
 -2.99257400e-04  8.73292239e-04 -1.21946790e-04 -1.52059626e-04
 -2.02180941e-04 -2.49591464e-04 -5.23400221e-04 -1.06302456e-03
  4.97385273e-04 -1.04445821e-04 -2.23442613e-05 -3.11477839e-06
  3.42132788e-04 -3.14214929e-04 -1.91641584e-04  1.05480279e-03
  1.23895485e-04  5.02324893e-05 -4.73588250e-04 -2.31524279e-05
  7.73908892e-05  1.44364404e-04  1.69077554e-04  6.94320375e-04
  5.56777364e-06 -6.11222221e-04  9.56883426e-04  1.08734149e-03
  2.86085939e-05  5.87387982e-06 -8.39903137e-04 -1.31487546e-04
 -9.73793364e-04  2.17716311e-05 -7.11005444e-07  2.83218849e-05
  8.69388554e-04 -2.66106176e-05 -7.22198989e-05 -4.20030102e-04
  3.23638469e-05  3.62045817e-04 -9.09444893e-04  4.58194708e-05
 -6.56441894e-04 -1.43116645e-06 -6.55712496e-05 -7.91383260e-04
 -1.01658858e-03 -1.14189657e-05  1.31259965e-04 -3.54562432e-05
  7.23450793e-05  5.74059386e-06 -1.02842807e-03  2.34034634e-06
  1.01235344e-03 -2.62489629e-05  3.53878787e-05  5.86176763e-04
 -2.78349706e-05  1.70801005e-04 -7.13622465e-04  8.06719696e-05
 -7.06762950e-04 -3.91667463e-04 -1.54498573e-04 -2.04180895e-04
  8.33974915e-04 -8.09661034e-05  4.41561488e-05 -7.34824978e-04
 -9.88369496e-04 -4.30240796e-04  8.65461872e-04  4.48517228e-04
  9.47605240e-04  2.00176441e-04  3.66106436e-05 -1.25263780e-05
  2.80686078e-05 -5.07590607e-04  2.03254611e-07 -7.75399439e-05
 -1.16616866e-04 -3.00615432e-05  2.07124031e-05  9.22234380e-06
  2.21144272e-04 -2.05515993e-04  3.95193378e-08 -4.32273643e-04
  2.76142521e-04  7.98438544e-04  7.96048779e-04 -9.62336928e-05
 -7.52595112e-04  2.60205555e-06  3.86130417e-05 -7.11674009e-04
  3.86308957e-05 -6.31086415e-05  7.12377363e-04 -1.13641905e-04
 -2.02521039e-05 -5.41079641e-04 -4.10451740e-04 -2.31868933e-04
 -1.22480377e-04 -4.85313289e-04 -1.27820218e-05  2.19725505e-04
  2.06494598e-05  4.90577247e-06 -1.23284443e-04  3.79336595e-04
 -2.40843821e-05  2.06392111e-05 -1.50528784e-05  2.51474800e-05
  1.88222231e-04  1.65349016e-06  1.22117549e-04  1.99843132e-04
  1.14128480e-04 -2.23754975e-05 -1.53253976e-04 -4.68063864e-05
  3.44527054e-04  3.69893154e-04 -8.85235654e-05  2.10077952e-04
  5.75512167e-04  1.49427287e-04  3.36870591e-04 -2.29841513e-05
 -1.71551149e-04  3.98677929e-06 -1.10137634e-03  4.97234157e-04
 -8.61938894e-04 -2.73261810e-05 -1.08399504e-03 -3.02488114e-04
  2.00828181e-04 -3.92324439e-04 -9.60976952e-04 -1.58122664e-05
  1.12731642e-05  9.24169059e-04 -6.32282179e-06  3.62282925e-05
 -6.51122841e-04 -2.01168244e-04  3.04502732e-04  5.02652154e-04
 -7.30669908e-04 -9.45984556e-04  9.98501039e-05 -3.51284911e-05]
[-6.25069237e-04  2.29388663e-05 -5.88628456e-04 -1.59825504e-05
 -2.43322376e-04 -8.22062826e-04  4.50637104e-04 -8.76192417e-05
  7.26876199e-05 -4.84852325e-04  2.93310173e-04 -3.20968645e-04
  8.25834930e-05 -2.93558397e-04 -6.45001334e-04 -1.43529603e-04
 -1.36081570e-04 -7.41450179e-04  1.02174643e-03  8.33630599e-04
 -3.81525926e-04  1.10137700e-04  4.07562381e-05 -1.90315037e-04
  4.30083170e-04  8.73590512e-04 -8.76749176e-04  2.20713663e-04
  2.64757419e-04  9.95592064e-07 -7.34277110e-04  2.09299576e-04
  1.45742176e-04 -3.60239714e-04 -8.65614975e-04 -3.85684856e-04
  1.01465193e-04 -4.95868198e-05  9.61728303e-04  6.12950383e-04
  5.72931182e-04 -1.08323863e-04  3.58853221e-05  3.42625953e-06
  2.36321059e-05  1.79110267e-05  1.57083741e-04 -8.20487883e-06
  3.16550251e-04 -8.88376585e-04 -2.11556426e-04 -6.58806157e-04
  4.77584774e-04 -5.76931911e-04 -4.74296435e-04  6.43950839e-05
  3.95732381e-04  1.51568009e-05  5.13656495e-05  4.18564128e-04
  8.00716232e-04 -4.51817083e-04 -5.73983412e-04  5.29004456e-04
  4.35775446e-04 -1.25621699e-05  7.32917832e-06 -5.75885461e-04
  2.89674772e-05 -2.92952550e-04  1.18254526e-05 -2.39299770e-04
 -5.33909049e-04 -1.91251333e-05 -1.15075330e-04  6.59655839e-05
 -4.41578273e-05  1.68019568e-06  6.72468035e-05  8.21375251e-04
  3.22080419e-04  6.72619693e-04 -8.67766046e-04 -4.83973550e-04
  5.38889466e-04 -4.19428821e-06 -6.97285045e-04 -4.53789245e-05
  1.04128622e-03 -4.36932080e-04 -9.87356113e-04  7.18562811e-06
 -1.08503046e-04  6.39494855e-04 -2.34219646e-04  3.71741915e-04
  9.67622902e-04  1.26619274e-05  3.15242580e-05 -7.46475735e-05
 -1.61482436e-04  7.80251600e-04  5.87636974e-05 -5.29627976e-05
 -1.08886704e-03  8.56758178e-06 -8.79067300e-05 -1.80283026e-06
  4.19955685e-06  6.46622989e-04 -2.98334147e-05 -1.01308950e-03
 -5.39356470e-05  7.81700030e-04 -7.78931743e-04 -7.21124665e-05
  4.46525591e-05 -2.36346174e-04  2.69995539e-05  9.43517916e-05
  2.48400604e-05  8.47113746e-05  2.28887606e-05  1.13098724e-05
 -2.25924098e-05 -1.00465035e-03  2.78934194e-05 -1.00484520e-05
  8.32488050e-05  6.29482580e-05 -6.26034879e-04  1.70418218e-04
  3.85479531e-07  3.19224114e-04 -1.16657191e-04 -9.65781253e-06
 -2.73614023e-04 -4.95440834e-04 -4.38737130e-04 -7.30161984e-04
 -4.36333631e-04  5.60096984e-04 -7.16008974e-04 -2.64155918e-05
  1.31467013e-04 -7.05179369e-04  1.04030813e-03  5.30014878e-04
 -1.01104213e-03  3.46407107e-04  1.03827391e-03  5.21393806e-04
 -2.21310253e-04 -5.11590752e-04  2.49911026e-05  9.01445329e-04
 -6.38427100e-04 -2.96066986e-04  2.26398438e-04 -1.04502962e-04
  8.99810902e-04 -2.99307394e-05  1.88370589e-05 -1.23203325e-04
  3.50585769e-04  3.26389852e-04 -5.22313310e-04 -5.57188818e-05
 -6.83829682e-05  3.39261709e-07 -5.44963973e-05  5.18407676e-04
 -4.64864465e-04 -1.00348936e-03 -7.19307635e-05 -1.13405430e-04
 -3.66937487e-04 -4.54449713e-04  1.68671446e-04 -6.32262308e-04
 -2.05969994e-06  2.96123353e-04 -3.01303470e-04 -2.36487652e-04
 -9.82868521e-04 -7.94189477e-04  1.81519420e-05  6.74641907e-04
 -2.21654352e-05 -3.94466957e-04  6.00410094e-04 -5.23357533e-05
  1.11235102e-04  2.77611094e-06  7.06111033e-04  3.28369783e-05
  7.40753559e-05  6.90861996e-05 -4.56213265e-04 -6.64880262e-04
  4.04522061e-05  7.25935037e-04  2.72673727e-04  4.67224721e-06
  1.15603319e-04  5.88983256e-04  1.14707886e-04  1.07117656e-03
 -3.09924295e-05 -5.80857173e-04  6.73575573e-08 -7.36505015e-06
 -5.67839626e-04  4.11285119e-04 -9.54093831e-05  1.79224375e-04
  6.78615714e-05  8.93131248e-05 -5.45882599e-04 -3.15573380e-05
  2.99169194e-04  1.46830435e-04 -2.46376101e-04 -2.87083417e-06
 -4.60913948e-04  3.23623006e-04 -1.80808996e-04 -2.26893005e-04
  2.65543996e-04  1.86015598e-04  7.12323019e-04  9.99567786e-05
 -1.78084722e-04 -8.16094587e-04  5.29240235e-04  7.09365685e-04
 -9.83915808e-04 -8.34738776e-04 -6.92784896e-06  1.54582957e-04
  1.08372604e-03  1.44643402e-04 -8.41602615e-05  3.01025910e-04
 -2.84956977e-04  8.95311019e-04 -1.00905518e-03  3.15490821e-04
 -2.95369131e-05 -5.39227798e-04 -6.29634258e-05 -3.46553086e-04
  5.01711677e-04  5.26445530e-04  1.04963118e-04 -5.93995476e-05]
[-1.56432458e-04 -2.98575403e-04  3.88366278e-04  4.58402809e-05
 -2.32702473e-04  3.08460149e-04 -4.03209387e-04  6.04930094e-04
 -1.05838850e-05 -7.79351720e-04  3.49704125e-04  7.18157489e-04
  1.86970570e-04 -3.22922057e-05  1.08701018e-03  1.92427820e-04
  1.47739120e-04  3.80670546e-04 -1.30326413e-04 -2.99014237e-05
  8.85954595e-05 -1.54199320e-04  9.64653634e-04 -8.68062393e-07
  3.15631503e-04  7.03775281e-04  6.89863565e-04 -1.43177424e-04
 -9.13821554e-04  7.40547723e-06  9.21691740e-04  6.46337382e-04
 -7.10735692e-05  9.94020307e-04  9.81354899e-05 -2.61770428e-04
  8.04164482e-06 -1.97250770e-05 -6.29963792e-04  8.98624606e-04
 -6.63383843e-05  3.86809674e-04  1.09912042e-04 -4.75853544e-05
 -2.50068909e-04  1.36866720e-04 -3.11914914e-04  3.68201638e-05
  2.00260600e-04 -5.38645514e-05  5.92980512e-06 -4.19254564e-05
  6.70584127e-06 -3.86495981e-05 -8.53198324e-06  7.72405234e-04
 -6.39011751e-04 -8.39583925e-04 -5.90209228e-05  5.00920761e-04
  7.09957008e-04  5.09460045e-06  1.21011983e-05  3.39101117e-04
 -5.66504759e-04 -2.71347988e-04 -2.79804046e-04  8.69634648e-04
 -1.03602592e-03  1.83759592e-06 -4.38096505e-05  2.47428404e-04
 -8.24598632e-06 -5.44830213e-05 -4.76789492e-04  1.32637457e-05
  1.99817200e-05 -7.12133893e-06 -1.72979001e-05 -1.01276196e-06
 -3.53929863e-04 -1.51689067e-04 -1.02262102e-03  7.20450998e-05
 -2.73315182e-04  8.16692020e-05  2.76852744e-04 -4.32672889e-05
 -2.19637981e-04  6.39765313e-05 -5.45584459e-05 -1.80254281e-04
 -4.01496704e-04  2.04561338e-04  5.31072007e-04  4.07737931e-04
 -7.38506732e-04  1.94313218e-04  1.96805595e-04 -1.91030177e-04
 -5.35152157e-05 -8.22767319e-04 -7.66638365e-05 -3.47015223e-05
  1.07046135e-05 -7.15615939e-05  4.91493283e-04 -6.70198296e-04
 -5.20906849e-04  4.07683847e-04 -4.97679732e-05  4.36262759e-04
 -3.71604891e-04  1.58882065e-04  1.65571789e-04 -1.67668331e-04
 -6.29951943e-06 -1.70075136e-04 -5.05433611e-05  5.20062775e-06
  4.53512128e-05 -3.53650541e-05 -1.40724162e-04 -5.72264523e-05
 -7.29689452e-04  6.87116977e-05 -2.65248643e-05 -4.65891946e-06
 -9.93570509e-05 -4.21593752e-06  1.45732076e-05 -5.55010836e-05
 -6.74415540e-05 -7.54188383e-05  4.97697380e-05 -3.68612301e-05
  4.45006117e-04 -5.98499318e-05 -1.31058194e-05  3.24640346e-04
  6.70159763e-04  2.52505040e-04  3.77256514e-04  8.30327390e-06
 -3.09060734e-06 -3.37644728e-04  7.58134215e-05 -2.37046908e-04
  5.81308318e-05 -5.72736100e-05 -4.58315104e-04 -1.62877358e-04
 -3.16580501e-05 -1.69204854e-04  1.04524463e-04  9.59529382e-04
 -1.19264098e-04 -7.67109759e-04 -8.25349223e-07 -4.92840205e-04
 -4.46184539e-05  2.24234487e-04  3.24419789e-04 -1.38942730e-04
 -1.58948024e-04 -8.72412121e-05  5.50948435e-06 -2.22866504e-04
  1.96755668e-05  1.83478803e-06  7.02604951e-05 -1.72783414e-04
 -8.90941245e-05  8.27004108e-04  1.34990753e-04  2.08641711e-04
  3.77828503e-04  2.91001466e-04  1.36063124e-04  2.39864876e-04
 -1.90455167e-04 -4.85516421e-06  1.04168746e-03  2.59772963e-05
  1.34196623e-05 -8.65980956e-04 -6.27467600e-04 -1.98312680e-05
 -7.98653177e-05  3.54051672e-05  3.56149584e-05  1.11477291e-03
 -4.76166967e-04  4.65584282e-04  2.21587049e-04 -8.31374767e-04
  4.88374370e-04 -4.87658796e-05  2.46309565e-05  3.21718836e-04
  3.82530748e-04  6.67828728e-05  4.24614307e-05  1.34833956e-04
 -8.72664941e-04  3.13165806e-04  2.99527291e-05  2.22101909e-05
  3.83746647e-05  7.43722543e-06  4.44386308e-07  1.23525555e-05
 -7.17203562e-05  1.09218007e-03  2.69575657e-05  5.89479548e-05
 -2.72779377e-05 -4.75181260e-04  8.71404359e-04  8.07474259e-04
  8.86333592e-05 -1.02505342e-04 -3.34662205e-05  3.58428352e-04
  1.46629052e-04  8.76440193e-04  3.92020012e-05  1.16997518e-05
 -2.38533085e-04  3.54476280e-04 -1.02513962e-03  3.17145373e-04
 -7.25368104e-04 -8.29200592e-05  1.35612432e-04 -3.78193363e-04
 -6.06049445e-05  3.01225557e-05 -3.16293769e-04 -1.03823708e-04
  1.29248429e-04 -4.14537945e-04 -6.74162977e-04  9.70812472e-06
  4.81429346e-05 -1.64472360e-04 -6.17793099e-04 -2.09069169e-05
  8.00659115e-04 -1.12254582e-03 -6.08041355e-06 -1.56093455e-05
 -9.46282604e-05 -3.81295744e-04  5.49835189e-05  2.54653588e-05]
[ 9.06499512e-04  2.15761623e-04 -6.10180556e-04 -2.03508445e-04
 -8.52236123e-04  4.22159057e-04  4.02731973e-07 -2.98105369e-04
 -6.49669460e-05  7.02134887e-06 -5.30904597e-04  8.05773812e-05
  1.13811242e-04 -1.26512923e-05 -1.11090795e-04 -2.57479297e-05
  9.15618791e-04  2.29895202e-04 -1.53456474e-04  4.18754514e-05
  1.16809703e-05  8.32660254e-04  3.50276001e-04  3.15733431e-04
  1.65469208e-05 -7.25308325e-05 -7.49635927e-04 -3.82937497e-04
  8.65671392e-05 -4.24466596e-04  6.87268939e-04  6.86269881e-04
  3.48541524e-04 -3.11717235e-05 -6.01585543e-04  1.51509818e-04
 -2.89901510e-04 -4.60033239e-04 -1.37660942e-04 -8.65680199e-04
 -1.03327335e-04 -6.66773996e-04  8.17560153e-04 -1.88377581e-04
 -1.33641140e-04  1.60727973e-04 -3.33776561e-04  2.25977787e-06
 -6.72429532e-04 -3.12304660e-04  8.18575262e-05  1.95609007e-04
 -3.71932618e-05 -2.32436742e-04  3.65165726e-05 -8.66325671e-04
 -6.61564492e-05  3.09492179e-04  1.80710932e-04  4.90072438e-04
  6.38122220e-07  6.37663737e-04  2.38336092e-04  4.97549297e-04
 -6.82753665e-05  2.03471958e-04  8.51897719e-04 -3.49124601e-05
 -5.52572061e-05  1.10964360e-03 -5.98930238e-06  4.66325766e-04
 -2.02482702e-04 -6.32524585e-04 -1.05265183e-03  3.24830616e-05
 -1.61044351e-04 -9.68212827e-04 -2.94057353e-04 -1.49286122e-04
  3.22514924e-05 -1.22332119e-05  8.65336040e-04  1.96664944e-04
 -3.01822289e-05  3.73516354e-04 -3.06031839e-06 -3.14608768e-06
 -9.42329485e-04 -1.22414810e-05  3.73701894e-05  1.27977056e-04
  2.72377968e-04  8.66716169e-04 -7.84362608e-05 -3.93134073e-04
  8.94563977e-04  1.03786925e-04 -2.66815513e-04 -4.83791192e-04
  7.92725653e-04  1.21769467e-04  5.73281691e-05  6.79975056e-05
 -5.44378727e-05  2.37638474e-04  6.92183315e-06 -6.47971375e-04
  3.62689656e-04 -6.49921879e-05  3.07881990e-04  2.65009750e-04
  1.22700187e-05 -4.31600893e-04 -4.39777484e-04 -6.30839636e-05
 -5.58017126e-04 -6.58668886e-04  8.75043027e-06  1.11994748e-04
 -9.86664416e-05  9.96913537e-04 -8.60082901e-05  5.52021999e-05
  1.15087631e-04  1.65011985e-04 -2.66106468e-05 -5.33307895e-05
  5.83255999e-04  1.56027212e-04 -6.24542985e-05  1.00461601e-04
 -3.49417270e-04 -3.36257849e-04 -6.58907987e-05  6.43423951e-04
  6.30509698e-04 -7.68494212e-05  1.04075856e-05 -3.00244813e-04
 -9.46026704e-04  6.73273930e-04 -7.02287588e-04 -1.74631401e-04
 -3.89391569e-04  6.35700192e-05  1.03001407e-03  5.80961032e-04
 -8.37403511e-06  4.67689166e-04  6.50564981e-04 -2.47195810e-07
  2.69681316e-05 -4.49334267e-05  4.30373230e-04  1.27234325e-06
 -3.21015041e-04 -4.84245565e-04  1.33176424e-04  2.14270305e-04
 -8.52903495e-05 -7.39847932e-04  3.99225159e-04 -5.98877947e-05
  1.01171174e-04  1.46595626e-05 -8.64346798e-04 -4.68333728e-05
  6.24167842e-04 -5.98237016e-05  9.11944574e-04  3.76355189e-04
 -8.56142792e-04 -6.94982913e-06  7.64291628e-04  6.24336168e-06
  6.52696620e-04 -1.16864157e-04  3.03080844e-04 -2.21406206e-04
 -1.72694111e-04  8.49740425e-05  2.02257584e-04 -7.22169644e-05
 -9.05099836e-05  5.25134007e-05 -8.70150754e-04 -2.76289244e-04
 -1.18300923e-05 -3.20122357e-04 -3.20535214e-04  1.09271131e-03
  6.98204190e-05 -3.51352566e-05 -9.45841173e-04 -5.03515101e-04
 -1.53968883e-06  6.85959064e-04 -2.49757394e-05 -3.94968500e-04
  8.05176141e-04 -5.89707267e-04 -4.35461773e-04 -2.74136096e-04
 -1.16121987e-04  6.95610909e-05  9.07552924e-04 -4.96919647e-04
 -1.06840669e-04 -1.56786112e-05 -5.49964965e-04  2.40958993e-05
  9.49548391e-04  1.04077948e-03 -6.47917507e-04 -5.68269737e-05
 -2.06813126e-04  8.48271922e-05  8.16059487e-04 -9.59739287e-05
  7.67092413e-04  2.37621566e-04 -1.38739730e-05  2.08578553e-04
 -6.34794028e-04  1.48016178e-04 -4.66546715e-04 -7.52214562e-04
 -2.18194767e-04  1.59066237e-04  1.95708645e-05  3.32424098e-05
  1.04840063e-03 -2.97895976e-04  9.31139169e-05 -2.43075141e-04
 -4.09563837e-05  3.52836390e-04  8.52004817e-04  9.10156819e-05
 -3.94802405e-04  2.58906383e-04 -6.58223790e-04  8.97719435e-04
 -5.48176666e-05  8.22892669e-05  8.89111734e-06 -2.05461580e-04
  9.71029880e-05 -1.42103032e-04 -7.69736228e-04  3.41179739e-05
  6.14415071e-04 -1.14626501e-05 -8.99639822e-05 -5.64376097e-04]
[ 7.20832891e-04  1.21871289e-06  1.09276350e-04 -5.54767422e-05
 -2.64780696e-04  1.99638440e-04  2.75615616e-04 -9.45615503e-07
  2.22298053e-04  3.74733613e-05  1.25290818e-04 -2.16942455e-04
 -4.97718379e-05 -2.02433281e-04 -1.06966689e-03 -9.78997473e-04
 -5.53990071e-04 -1.86975493e-04 -1.45585941e-04 -4.21168719e-04
 -1.51837048e-04  2.48208513e-05 -8.52424951e-05 -7.00355340e-04
 -8.09867443e-04  1.31766699e-04  1.12944312e-05 -3.68586326e-04
 -8.44313865e-04  7.72076101e-06  1.71990723e-06  2.05649287e-04
  7.03704437e-04  3.36647837e-04  7.07830786e-06  2.62605278e-04
 -7.03666808e-04 -3.14367952e-05 -7.31200099e-05  3.69211112e-04
  1.86170550e-04  7.07414452e-05 -3.93508594e-04 -1.04924061e-03
 -9.81766732e-05 -9.77703302e-05 -8.34244954e-06  1.95497535e-05
  1.25144717e-05 -2.22270418e-04  1.49428036e-04 -2.33572208e-05
 -1.40943836e-05 -4.11821500e-04 -6.90871422e-04 -1.73297958e-05
 -1.37908298e-05  1.02076394e-03 -1.75359110e-04 -4.31585322e-05
  4.44080535e-04 -2.42139883e-04 -9.58585624e-06 -1.10171796e-03
 -3.65619842e-04 -2.13669565e-04 -1.00441235e-03 -9.53701143e-04
  4.43436640e-04 -8.28677516e-04 -7.68979023e-05  8.54184747e-04
  7.26446561e-04  2.91571968e-04  2.35953633e-05  2.36466779e-04
 -4.06870658e-04  2.55897014e-04  5.59685160e-07  4.22949550e-04
 -7.97293119e-05  3.35816564e-04  2.60508205e-05 -3.72946165e-04
  9.48892903e-04 -4.85451076e-04 -5.40538794e-05 -6.73852642e-04
  2.99855185e-04  1.09866471e-05 -9.55057822e-06 -1.24850754e-04
  2.02641874e-05 -3.65767017e-05 -5.07229313e-06 -9.11804498e-04
  8.46517546e-05  8.66323618e-05  5.22161985e-06 -5.86384711e-05
  7.40989804e-04  4.18503605e-04  7.06467071e-05 -7.55039672e-06
 -3.81165783e-05 -8.27750869e-04  7.48032202e-05 -2.78495457e-04
  9.71809496e-05  9.19077214e-05 -9.70826609e-07  6.14565999e-05
  5.33151211e-06 -7.43720218e-04  3.86454004e-05 -1.36791776e-04
 -5.66055348e-05 -6.94009061e-04 -6.18232339e-05  1.49496110e-04
  3.47669530e-04 -7.73906052e-04  5.62467243e-04  1.27201090e-05
  6.48293598e-05 -1.81582433e-05  1.07889693e-03  2.43326134e-04
  1.11082980e-03  4.09844184e-04 -7.21927966e-04  4.08903745e-05
 -3.50335303e-04  3.25224623e-05 -3.34563853e-05 -3.81304744e-04
  1.60302406e-04 -9.18491861e-05 -9.71126899e-05 -1.12017714e-04
 -2.25934470e-04  3.08112780e-04 -3.29125651e-05  1.79025497e-05
  7.31340549e-04  8.53412402e-04 -8.65017596e-06 -5.21391487e-05
  1.64131612e-04  1.09844729e-04 -8.91480487e-04 -1.05568026e-03
  3.73123612e-04  1.98040752e-04  3.47089438e-04  4.38415587e-06
 -1.00780079e-03 -7.14813491e-05  4.15161195e-04  1.65242575e-05
 -5.19483399e-04 -1.91700051e-04  2.34928717e-04  8.80261764e-04
 -2.04506665e-05  8.36950094e-04  2.97610757e-04 -2.78875147e-04
  5.53057116e-06  1.12021725e-03  1.38958056e-04 -1.17388521e-04
  2.97031046e-05  4.36251764e-05 -1.58778035e-05 -1.68601384e-04
 -3.38042671e-04 -1.75180471e-05 -9.63557375e-06  1.71917074e-05
  4.29528876e-04 -9.49334679e-04 -3.20131803e-05 -5.47570506e-05
  1.15267686e-05 -7.58596363e-04 -3.21791423e-05 -2.76648134e-04
 -3.39994144e-04  8.03402224e-04 -2.49517205e-04  3.87207326e-05
  1.19819857e-04 -2.53154236e-04  7.74931272e-05 -3.54867525e-05
  5.35307711e-04  9.31312917e-05  2.53891943e-05 -4.75308286e-04
  1.84837053e-04 -1.80987820e-04 -4.51382540e-04  1.62134561e-07
 -1.09093999e-03  1.91319197e-04  3.92611060e-04 -5.96317204e-05
  8.28028346e-06  3.71231376e-05  2.39980696e-04  6.01641917e-04
 -1.03708137e-03 -2.89538860e-05 -1.79068763e-04  3.61933558e-05
 -3.65528483e-04  7.80800251e-04  2.61991731e-06 -8.17221994e-04
  5.09296385e-05 -1.38814478e-05  5.06943825e-04  8.97366628e-04
  2.62383888e-05  1.54170346e-04 -3.39478583e-04  2.57895698e-04
 -2.75185369e-04 -2.53275612e-04 -3.03157323e-04 -7.15690039e-04
  9.63658760e-05 -1.64471762e-04  4.40266840e-04 -1.01789171e-03
  5.22001680e-04  1.71023318e-05  6.07185047e-04  8.81523189e-04
 -9.03694968e-06 -4.11745790e-04  4.19282882e-04  1.08893846e-03
 -9.28065111e-04 -3.17018980e-04  4.20398832e-04 -1.78432395e-04
 -2.46563011e-04 -2.40704827e-04 -8.52512669e-04 -3.89359008e-06
 -1.81294809e-04  6.33381240e-05 -1.71516225e-04  1.66516914e-04]
[ 9.30305943e-06 -4.84319691e-04  5.60217632e-04 -2.14848656e-04
 -2.88536696e-05  1.89674059e-04  1.09723382e-04  2.52709809e-04
 -2.52446860e-04  2.15828819e-05  8.11685475e-04  1.30262097e-04
  1.24504911e-05  4.66893632e-05 -9.76338065e-04 -1.83370149e-04
  3.29912052e-04 -5.19028098e-04 -2.62550033e-04  5.27821899e-04
  1.30028400e-04  1.27627627e-04 -8.34878848e-04 -1.69130094e-04
  8.95573582e-05  3.94538763e-05  2.07893186e-04  3.07781428e-04
 -2.85163429e-04  1.50387611e-04  8.44997374e-04 -2.09227511e-05
  2.84527472e-05 -1.58032247e-04 -3.04617303e-05  2.55961540e-04
 -2.76850409e-05  7.98637705e-05  1.53602218e-04  1.71212763e-04
  3.03880199e-05 -6.57649225e-04 -6.27207749e-04  3.88349975e-04
  4.74100021e-04 -8.28076173e-04  5.12505456e-04  8.23500994e-07
 -8.08238246e-04 -6.38497651e-04  3.14306408e-05 -7.05403662e-04
 -1.91967355e-04  9.82449920e-04  2.15150848e-04  3.09973402e-04
  1.10607844e-04 -1.79692561e-04 -2.85792404e-04 -6.06271413e-04
 -6.26653042e-04 -8.13919584e-04 -1.07612533e-03 -1.40055142e-04
 -1.37013606e-04  3.15849354e-05 -4.52649749e-04 -1.09598842e-04
 -7.62758839e-05 -8.24609702e-04  1.04651305e-03 -4.41188037e-05
  7.89648223e-05 -6.17391052e-05 -3.24528751e-04  6.05848812e-04
 -2.14818636e-05  1.10590066e-03 -5.26643987e-04 -1.09042001e-04
 -1.05878921e-03 -8.12598967e-05  5.89775101e-04  4.16202999e-05
 -2.48557786e-04 -2.26256315e-04  3.01645812e-05 -1.96618448e-04
  6.23172993e-05  1.02923993e-03 -5.37229860e-05  1.08761878e-04
 -1.20618567e-04  3.04719310e-05 -1.48924973e-04 -4.03341218e-05
 -1.73468672e-05  7.66377100e-05  5.42853846e-04  9.51953554e-04
 -3.67129814e-04  5.02328453e-04 -8.71960136e-04 -4.70208877e-05
 -1.96965576e-04 -1.89013578e-04 -1.63824989e-04  4.29740768e-04
  3.34607064e-04  3.28165212e-06 -3.53566199e-05  2.96038003e-04
  7.10786097e-04  7.97835935e-04  5.73334953e-05  6.35304433e-04
  3.60297832e-04  4.19725263e-04 -7.19344154e-04  4.50009621e-04
  9.45739579e-04 -1.12923178e-06 -2.95725399e-05  4.40616328e-05
  7.32741567e-05  2.31263650e-04  7.02024171e-04 -2.25916321e-06
  6.03011135e-04 -9.46523529e-04  7.82743665e-05 -5.71635570e-04
  5.03747596e-06  1.01773316e-03  7.07228628e-04  8.31695640e-04
  5.23424294e-04  5.21982888e-04 -2.72615064e-04  4.99335987e-04
  2.51662566e-04  1.11426806e-03 -3.32065840e-05 -7.47694784e-05
  5.21546462e-05 -1.13017408e-04 -6.48607462e-04 -1.15486351e-04
 -2.20413484e-04  8.28447528e-07  4.22070075e-05 -8.92085235e-04
  1.75035844e-04 -4.10272986e-05 -5.21806410e-05 -3.40948100e-04
  2.22487537e-05  7.42915174e-04  1.02073993e-03 -4.47657296e-04
 -2.18861989e-04 -2.78348754e-04  2.27123490e-04 -4.43558082e-04
 -4.40679918e-06  2.08239374e-04 -7.53341712e-05 -2.16607896e-05
 -3.57673706e-06  4.71538360e-04  3.94302741e-06  3.75253734e-04
 -2.07028693e-04  1.73595005e-04 -2.14678195e-04 -8.63271147e-04
  1.51716665e-04  1.58564256e-04  1.07814232e-03 -4.98616827e-05
  7.18608937e-07  1.07278376e-03 -2.24752403e-04 -2.39622297e-04
 -1.08161747e-04 -3.83505699e-04  2.12602960e-05  1.00347283e-04
  3.04670021e-06  9.23136535e-04  9.21484815e-05 -2.84312245e-04
 -4.93408873e-04  9.07092212e-04 -7.25887431e-04 -2.34554610e-05
  1.77299158e-04  1.63066204e-04  7.73182966e-06  4.88057814e-05
 -3.50643261e-04  9.43802849e-04 -9.90960146e-05 -9.75515075e-04
  8.44044278e-04 -3.09251293e-05 -1.26171926e-04  2.55716645e-05
 -1.90385133e-04  8.48063368e-06 -9.08336590e-05 -1.83891986e-04
 -1.12174495e-04  1.04343331e-03 -6.11286318e-04 -3.69054600e-04
 -1.04067496e-04  6.68277748e-05  9.83341007e-04 -1.95343665e-04
  4.49171989e-05  5.96638120e-05 -4.33944239e-04 -8.29705459e-05
 -2.83332236e-04 -1.60220037e-04 -4.94155583e-05 -1.51651483e-04
  7.18519509e-07  2.26045276e-05  1.69571094e-04  1.60150357e-04
  6.96291201e-05 -7.58013697e-05  6.87029423e-04  3.22257898e-04
 -2.12770044e-04  1.00260510e-04 -1.23352048e-04  6.24260699e-04
 -2.53551662e-05  1.05949179e-04 -7.46422696e-04 -3.20136120e-05
 -4.79467371e-05  8.00258004e-04  4.51159077e-05 -2.67860490e-04
 -3.59600304e-05 -3.25430796e-04 -1.60897698e-04 -3.91157434e-06
  7.60410769e-04  1.96825684e-05 -3.01971733e-04 -1.59660074e-05]
[-3.18701172e-05  4.96501915e-07  4.27322305e-05 -2.83879129e-04
 -1.34803548e-04 -6.62866211e-04  1.25867216e-04  8.04681277e-05
  2.01166467e-04  3.64848481e-04  1.36278770e-04 -7.27661783e-04
  3.64438932e-04 -3.63870066e-05 -8.24217923e-04  6.58490509e-04
 -4.33025868e-04  3.47311246e-04  2.41623839e-04  2.95936257e-05
  3.44299428e-05 -5.70452693e-04  9.34111747e-04 -1.84165812e-05
  2.76600328e-04  8.04061995e-04 -1.01375284e-04 -2.62826471e-04
 -1.23355111e-04 -5.55490560e-05 -2.54992227e-06  7.21643178e-04
  1.97315620e-04  6.30785547e-04  1.02105107e-03 -8.43124822e-05
  9.51053030e-06  4.19533764e-04  2.69657962e-04  9.72757177e-05
 -6.41793258e-04  5.62746402e-04 -3.49456003e-04 -1.69183201e-04
  6.84815307e-05 -2.75615076e-04 -1.93455473e-04 -8.06722467e-04
 -5.13014339e-05  6.82238180e-06  1.69716050e-04  2.89247524e-05
  1.22727596e-04  7.20590234e-05 -4.24606603e-04  3.95895795e-04
  4.07752349e-05  1.41165859e-04  6.42411438e-04  3.59902931e-05
  2.66161391e-04 -5.07289567e-04 -1.50868928e-06 -4.65376903e-05
 -7.83176731e-04 -2.73073348e-04  1.09659501e-03  1.87858330e-05
  3.07735139e-04  3.89697882e-05 -2.41760292e-04 -1.08546833e-04
  1.40534167e-06  5.04984867e-04  2.08996170e-05  1.57295537e-04
  4.27479379e-05  4.25881915e-05 -6.07441529e-06 -3.23461691e-05
  7.92489795e-04  4.57951250e-04 -1.27028390e-04  4.86778637e-06
 -2.71564804e-05 -7.58109446e-04  5.92351740e-05 -7.31073729e-04
 -2.41252773e-04  1.22022247e-04 -5.92646196e-06 -1.94401359e-04
 -3.79092428e-04 -1.32087038e-05  9.15273159e-04 -1.84703072e-04
 -2.27125008e-04  3.36330794e-04  1.21833426e-06 -4.24564977e-04
  5.98311640e-06 -7.40070024e-04 -2.31619729e-04 -2.28215721e-05
  3.01598639e-06 -4.16513855e-05  2.74175793e-05 -2.70235881e-05
 -8.99637978e-04 -6.79909583e-05  8.63196947e-04  1.66389978e-04
 -5.80747806e-04  1.51786721e-04  5.20298856e-05 -8.66223818e-05
  2.03475166e-04  5.26409674e-04  5.52208836e-04 -2.06787086e-04
 -3.01241234e-04  4.75465163e-05 -4.57263045e-04  7.38968865e-04
  7.74302673e-04 -1.00613463e-06 -1.09732040e-03 -4.99017615e-04
 -8.78988768e-04 -9.29913885e-06 -9.69481168e-04 -1.62081204e-04
  5.16797748e-04  1.46570918e-06  1.37649009e-04 -4.65170753e-07
  6.94365506e-04 -5.28194569e-05 -7.99897997e-05  4.04573011e-04
  1.49143721e-04  6.45716221e-04  2.36815224e-04  1.08921026e-03
 -1.04659502e-03  5.09336750e-04  4.37661555e-05  1.76871961e-04
 -4.46869891e-04 -1.57473110e-05  6.01606685e-04 -2.39316224e-04
 -2.93567365e-04  2.75686197e-04  5.78290705e-05 -9.51141218e-04
 -2.69773121e-04 -7.90163355e-05  5.31292015e-04  1.25844162e-04
 -2.66890331e-05 -5.84220701e-06 -1.39808113e-04 -3.92944929e-06
  4.36099439e-05  1.03890959e-03 -7.84569823e-04 -9.69361808e-04
 -2.42391108e-04 -1.97012772e-04 -2.85649592e-04 -5.67135444e-06
 -4.36687092e-04  2.23318969e-04 -2.39353453e-05  4.55030533e-05
 -4.53873719e-04 -1.11605201e-03  2.21600644e-04 -1.44632032e-05
 -2.24340514e-04 -2.09388969e-04 -1.29055154e-04  2.34925189e-04
 -7.94965010e-05  1.49560491e-04  6.61226393e-04  1.08328888e-03
  5.55415107e-04  2.22936137e-04 -7.83578693e-05  3.53516153e-04
  4.22425237e-05  1.45908760e-04  2.66474690e-04  2.11510538e-06
  4.14086176e-04 -2.95176637e-04 -9.76705588e-04 -1.78904512e-05
  1.38060889e-04 -1.51013326e-05  1.23616664e-04 -9.70266730e-04
 -1.98496545e-05 -2.03484845e-05  6.10991714e-04 -7.76889334e-05
  1.74037941e-05 -1.70185547e-05 -3.70746551e-04 -4.30289723e-04
 -2.02621457e-05  4.75051728e-04 -7.33250537e-04 -1.08645158e-04
 -9.98407450e-05  1.92968958e-06 -1.67516185e-05  9.64580580e-04
 -9.93283387e-04  8.54984091e-04  7.53709427e-08  9.35371290e-04
 -6.45980325e-05  4.61067848e-04  1.58353599e-04 -1.86171967e-04
  6.40584570e-04 -3.59879501e-04 -2.58966922e-04  2.50904742e-04
  7.28963136e-04  6.24990176e-04 -7.69188166e-04 -6.55049699e-05
  9.72665324e-04  1.70198518e-04 -1.65900410e-05  1.10913998e-05
 -1.08212952e-05 -9.14944085e-05  4.59744037e-04  1.86668589e-05
 -1.14834834e-05 -2.65805026e-05 -5.35273999e-04 -1.05707022e-03
  1.65797064e-04  1.56791947e-04 -2.52972562e-04 -3.85164931e-05
  7.00323924e-05 -6.81113760e-04 -2.07121223e-04  3.66955344e-05]
[-5.75748949e-04  5.45582645e-05 -3.73893442e-06 -3.81647919e-04
  3.82744181e-04  3.01981283e-04 -1.17782880e-06 -7.45221406e-06
 -5.33454600e-05 -1.57096080e-04  9.73326076e-06  4.67293716e-05
 -2.46195519e-05 -3.94558385e-04  3.97678031e-06  1.79891649e-04
  2.72452754e-04  7.74837539e-05 -1.05786645e-04  8.68710164e-05
  9.57672957e-06 -4.23218676e-05 -7.21984957e-05 -1.10015683e-03
  1.14813300e-04 -1.54531736e-04  2.44540084e-04  1.37052187e-04
 -3.94605354e-06 -3.51385010e-04 -6.65073314e-05  2.48605877e-05
  1.82409417e-04  7.15307321e-04  5.32431151e-04  1.34483457e-05
 -2.88332906e-04  6.27766362e-05 -8.40580167e-04 -3.04462283e-04
 -1.07581783e-05 -1.58969184e-04  1.21617133e-05  4.67591905e-04
 -1.10362595e-05 -7.80465711e-06 -9.48146567e-04 -1.47241234e-04
  1.16251647e-04  1.19297150e-04 -8.03947559e-05 -6.53169013e-04
  1.87403070e-04 -2.15892577e-04  2.29116589e-04  6.73079214e-04
 -7.85035457e-04 -8.02045722e-05  2.31193556e-05  4.32878296e-04
  5.22648357e-06 -8.32059405e-05  6.44018989e-04  2.11672458e-04
 -1.90669931e-05 -6.20857565e-07  9.80409048e-04 -4.90276517e-04
 -1.99641444e-04 -7.74569668e-04 -6.16935273e-05 -2.27913753e-04
  6.36991324e-04  4.22723790e-04 -8.40615937e-05  4.22663832e-04
 -1.06010294e-04  5.81317595e-06 -5.10105444e-04  9.68786696e-04
  2.26292847e-05 -7.22238163e-04 -1.41418185e-04 -5.77569658e-04
 -6.81019364e-05 -2.88209070e-04  8.07821303e-05 -7.66156222e-04
  4.70727120e-04 -7.04333379e-04 -3.31945216e-05  4.32401837e-04
 -2.12598500e-04 -4.41804966e-04  1.07099185e-03 -4.28964531e-05
 -8.86780196e-07  7.30216902e-06 -1.03476229e-04 -3.98591343e-04
 -1.08962606e-04 -7.00993224e-04  5.51650476e-04 -1.27976904e-05
  1.74371267e-04  6.29562978e-06 -2.07268343e-04  1.07437661e-03
  4.87552125e-04 -6.50590619e-04 -1.08933467e-05  5.93861119e-04
 -5.66531096e-05  4.99690007e-05  5.34819353e-05  1.64644319e-04
  7.97178705e-04  9.55505701e-06 -9.03317588e-05  2.86057795e-04
 -3.75601367e-05 -1.07683515e-03 -1.26152129e-04  8.25148932e-05
  1.46817182e-04 -2.61074478e-04 -1.02670862e-03  8.02835052e-05
  4.29238395e-04 -8.97199315e-04 -7.70401211e-04 -4.28453831e-05
  1.00818588e-04 -1.70627466e-04  1.68597571e-04 -3.94267847e-04
 -1.55443579e-04  1.64129086e-06  1.55808349e-04  1.66175685e-04
 -4.69330218e-04  2.39964327e-06 -8.25563161e-04 -4.53909190e-04
  6.68712248e-04 -2.21539060e-04 -2.45046745e-04  1.08198892e-04
 -2.93793760e-04  1.71771049e-04  2.00896878e-05 -7.91403625e-06
  7.80364674e-04 -8.78236438e-05 -1.84808118e-04  7.73392929e-05
 -3.54938829e-04 -2.46104775e-04 -5.57830403e-05  9.13290807e-05
 -9.37662358e-05  1.35255063e-05 -4.59322560e-05  2.36210517e-06
 -2.36328302e-06  1.06967029e-05 -1.31930803e-04 -4.91301732e-04
  5.74227605e-04  9.92673774e-04  1.92238049e-05 -3.18049241e-04
  2.48096498e-04  9.13716056e-04 -6.08770245e-04  3.02710864e-04
 -3.03241746e-07 -1.92807264e-04 -9.41646637e-04  5.72092286e-04
 -6.81896184e-05 -6.41557286e-04 -1.41271475e-04  1.78735957e-04
 -6.03201236e-04 -1.15540920e-05 -3.26180342e-05 -2.11009431e-04
 -3.62997517e-04  8.82544997e-05 -1.02291013e-04  3.51124110e-04
  2.74666657e-04  3.00422765e-04  1.06119635e-03 -1.37778806e-05
  6.13115728e-05  6.68917897e-04  2.19508335e-04  3.68775499e-04
 -4.05594417e-04  8.10631929e-05  1.66320601e-05 -1.73697807e-04
  1.45229728e-04 -1.10118318e-03  2.88974080e-04  4.40970660e-04
 -1.90763360e-06 -8.13757679e-05  1.93870540e-04  1.02979120e-05
 -2.16545602e-06 -5.64733723e-05 -4.01242696e-05  3.76917825e-05
  1.82877418e-04  2.35903698e-04 -7.50572491e-04  2.68772629e-04
 -1.10819462e-05  1.15786119e-04  9.36922939e-05 -1.72342863e-04
  7.01873027e-04 -3.39315648e-04  1.18236650e-04  1.36309137e-04
  9.34590839e-04 -2.84470584e-04  1.06767371e-03  8.15494216e-04
  1.11987859e-04 -3.44397050e-05 -3.42534497e-05 -8.00827442e-05
 -7.93819399e-05 -9.06806818e-04  8.40883354e-05  2.73937982e-04
 -5.56889403e-05 -1.00243205e-03 -1.40451487e-05 -4.00983480e-05
  2.31063643e-04  6.22069293e-04  8.29171497e-04  1.14155423e-04
 -6.03454417e-05  5.14123768e-04  7.30765737e-04 -3.08591412e-04
  1.28129337e-04 -1.95588196e-04  7.07189550e-04  8.07735209e-04]
[-3.26384695e-04 -8.04693059e-05 -2.51624975e-04  9.92923376e-04
  3.85380150e-04  4.19835220e-04  4.99942407e-05 -5.08138920e-05
  1.11025862e-03  9.07651937e-04 -1.67915770e-06 -5.37857729e-04
  4.89852727e-04 -4.96262789e-04 -4.19564772e-04 -1.23596566e-04
 -6.08497345e-04 -3.86422531e-05  5.26786386e-05 -9.61225299e-05
  6.95116278e-04 -3.84014294e-04 -1.48203917e-05 -2.72258590e-04
 -2.64765693e-05  1.08000961e-03 -6.31610400e-04 -3.48015797e-05
 -2.74289162e-04 -4.27649118e-04 -4.45340001e-05  2.39544974e-05
 -5.92216996e-04 -1.25895096e-04  4.66964080e-04 -3.73563011e-05
 -2.41859412e-04 -2.23198322e-04  4.42809642e-04 -5.17129279e-05
 -8.64482678e-04  4.08899094e-05  4.35982592e-04 -1.00570082e-03
  1.06928231e-04 -4.80968565e-05 -1.06582621e-03  2.42145617e-04
 -5.35342838e-05 -1.00061149e-03 -9.73208908e-04 -1.25312147e-05
 -2.65454288e-04 -8.75638060e-04  9.78861944e-04  3.69993423e-06
  1.21178841e-04 -3.76289774e-04 -3.57686912e-05 -6.24765060e-04
  1.57674553e-05 -3.23934876e-04 -3.78946797e-04  2.27010990e-04
  6.29537479e-06 -6.33712817e-04  9.31872580e-06 -1.17881475e-04
 -3.04833167e-04 -4.01530540e-04  1.44422140e-06 -6.96683973e-05
  8.81054477e-04  8.53777899e-04  1.94528486e-04 -2.08830286e-04
 -7.44216327e-07 -1.30744913e-05 -2.47087573e-04  8.47622325e-05
 -2.18661138e-05 -3.64788920e-04 -4.19657565e-04 -5.62834742e-05
 -3.85530474e-05 -1.46735709e-04  1.79315385e-04  1.70892255e-04
  3.00737262e-04  6.34369166e-05 -2.49715723e-05 -3.79574849e-04
 -5.45624218e-04 -5.02170248e-05 -8.65697571e-04  5.02653735e-04
  6.35424340e-04  5.99973257e-04 -3.17960758e-04 -3.05636663e-04
 -8.22387466e-05  1.36889404e-04  9.54899660e-04  1.93146608e-04
  1.90804808e-05 -4.57041639e-04  3.31530880e-04 -1.46935974e-04
 -5.25788558e-04  3.71954852e-04  8.37854111e-04  6.16402173e-04
  1.64001154e-04 -5.96483571e-05  9.57887221e-04 -1.36146999e-05
  4.57978959e-04  2.95297898e-04 -2.71124669e-06  1.13198596e-05
 -4.97900364e-04  2.01273865e-04 -5.59168340e-04 -3.52898618e-04
  6.59017785e-05  1.29468649e-04 -2.54423364e-05 -1.04875291e-03
  8.91930091e-04  1.65250858e-04 -1.57385813e-04  8.39200975e-04
  1.09053547e-03 -7.90335314e-05  3.97246217e-04 -1.08130190e-04
  4.17414533e-04 -5.62141597e-04 -4.35706382e-04 -5.00628450e-04
 -4.14801992e-04  2.79665310e-05  8.68336339e-05  7.16607038e-04
  1.68523331e-05 -6.09486205e-04  3.71104656e-04  4.53007050e-04
 -8.77581420e-05  9.82895212e-04  1.57985017e-04  9.60361872e-05
 -4.67372645e-06  4.29190721e-04 -3.15203341e-04 -9.39711864e-05
  1.47883556e-05  8.86297561e-05  1.95823820e-04  3.11427605e-04
  2.33179892e-05  4.92836264e-06  2.74765120e-05 -9.41886048e-05
  2.40130216e-05  9.04352509e-05 -8.83429543e-05 -7.72450023e-04
 -6.78151581e-04 -9.82333700e-06 -1.79470612e-05 -8.89714053e-05
 -1.32684574e-04 -3.81022254e-05 -6.74168289e-04 -8.80926581e-05
  6.46334150e-04  3.49405603e-04 -2.48147748e-04 -4.93528949e-04
 -6.60444206e-04 -3.38772500e-04  3.06824274e-04 -9.82253848e-05
  6.94027776e-05  8.44549690e-05 -4.34426341e-05  9.90797603e-04
  5.06546021e-04  8.42202226e-04 -8.17906678e-05 -6.24684051e-04
  2.16534526e-05 -7.33782423e-04  4.69250311e-04  1.55639285e-06
 -2.90414520e-04  9.47195344e-04 -8.44032126e-05 -2.15881887e-05
  6.20199318e-04  8.62692494e-04 -1.06760760e-03  3.55337909e-04
 -1.07318518e-05 -8.14044975e-05  5.90423058e-04  6.04314022e-04
 -6.49915443e-04 -9.60303792e-04 -7.13228997e-04 -6.29658703e-05
  2.30820051e-04  8.37847804e-05  7.29355339e-04  5.79613044e-04
 -3.34508634e-04  8.36709952e-05 -1.11946144e-03  3.29082254e-05
  9.08396357e-05 -5.14572418e-04 -8.06887646e-04  1.22556095e-06
 -8.17940795e-04 -2.83929210e-04  3.97445386e-04  5.32479069e-04
 -1.81831593e-04 -4.19697386e-04  5.82336496e-04  1.49069712e-04
 -2.26583809e-04  1.07750956e-04 -7.81794884e-04  4.31737479e-04
 -9.86382056e-04  2.88561576e-04  4.83826577e-05  5.01433392e-05
  1.02999435e-05  2.12533238e-04  2.32546144e-04  2.42865779e-05
  1.27089694e-04 -1.12099867e-03 -2.34724530e-04  2.97519572e-04
 -1.19921551e-06  3.99781512e-04 -6.58656166e-04 -1.12279104e-03
 -3.87135140e-05  1.75975674e-05 -1.05744513e-03  5.32594712e-04]
[ 9.35937913e-06 -1.07510281e-03  5.70989679e-04  5.67486750e-05
 -3.18143677e-05  3.90932832e-04  2.23306801e-04 -6.21585380e-04
 -6.21135448e-05 -5.69011974e-05 -4.97386693e-04  3.73635973e-05
 -5.18860010e-05 -2.86175895e-04  7.33390164e-04 -5.21756368e-04
 -6.61637372e-06  6.63708237e-06  9.98062863e-04 -3.35539401e-04
  3.51356421e-05  9.65827843e-06 -1.10750611e-03 -1.46219087e-06
 -2.42253810e-06 -3.56344523e-04 -6.82083999e-05  1.04587369e-05
 -1.92543589e-06  7.30005416e-07  7.52472765e-04 -5.64555060e-04
 -4.04381128e-05  1.15522878e-04 -2.22539853e-04 -9.11326488e-04
  1.00825592e-03 -3.83435495e-05  5.57798983e-04  6.58507321e-06
  8.84745369e-04  6.72574891e-06  5.12678200e-04  3.46306453e-05
 -3.13120751e-04 -1.15312112e-05 -9.11875555e-04  8.56012555e-05
 -7.70332714e-05 -1.93192092e-05 -1.91116890e-04  7.35683542e-04
 -7.72649728e-04 -1.76112887e-06  2.44004077e-04  1.15451104e-04
  1.25476846e-04 -1.08386871e-03  8.12676665e-05 -2.35686496e-04
  4.43390614e-04  2.32964608e-05 -3.89757750e-05  3.92892758e-05
 -9.50453012e-04  4.18853617e-04  3.24941319e-04  2.97156312e-05
 -9.69457512e-04  2.39933362e-05  7.75743046e-04 -6.38053623e-04
  7.08302232e-04  6.51559264e-05 -5.51675407e-05  4.38018091e-04
 -1.26477669e-05 -1.73128603e-04 -1.84717641e-05  1.20679535e-04
 -1.58031294e-04  6.34274558e-05 -8.02534061e-05  1.27204587e-04
  2.15066958e-05  5.12980526e-04 -3.45921220e-05  2.01570511e-04
  6.78250493e-06  9.78933906e-05  3.45685399e-05  1.68222200e-04
 -8.70318358e-05 -1.15725212e-05  1.27461168e-06 -8.87086562e-04
  1.77797887e-06 -3.62666713e-04  1.63130862e-05  3.20577112e-05
  2.22181594e-04 -5.42691655e-04  2.38459308e-04 -3.59342058e-04
  1.29895836e-04  1.03886221e-04  1.08514084e-03  1.05351763e-05
 -1.25510653e-05  8.94157028e-04 -4.40448716e-04  1.28098007e-04
  6.81237924e-06  4.97479010e-04 -2.80205875e-04 -1.68881683e-04
 -1.07408590e-04  2.66023356e-04  9.65738542e-04  3.95241048e-04
 -2.76880933e-04 -4.60273562e-05 -9.45442951e-06 -5.03029954e-05
  4.09857960e-05 -1.25923552e-04  2.32787787e-04 -5.98916710e-06
 -4.86124974e-05  8.13391946e-04 -2.01675469e-04  1.02754336e-06
  9.29793090e-04 -4.38902146e-04 -1.04434585e-03  1.01614516e-03
  2.04873982e-04  3.86296513e-05  6.52364609e-05 -6.50439313e-04
 -4.75449951e-04 -3.62008019e-06  3.92462439e-04  1.20722153e-04
  2.65602529e-04  5.32229728e-04  1.11404693e-03  1.63667793e-04
 -1.19875786e-06  6.08479142e-04 -4.20321542e-07 -5.36731855e-06
  5.04452552e-04 -1.17970666e-05  4.45223472e-05 -1.07259084e-03
  9.04355302e-04 -3.04830402e-04 -1.73077151e-04  3.56858637e-04
 -9.38249336e-04  9.54824450e-04 -1.84145525e-05 -2.28566342e-04
 -4.54759635e-04  4.25026669e-04 -6.65714030e-05 -1.69925644e-04
  1.13760601e-04 -6.27393748e-04  1.69775999e-04 -1.40757546e-04
 -4.69448981e-06 -6.11277563e-06 -7.29599396e-05 -1.84244213e-05
 -7.79263012e-04  5.11403349e-04 -4.35824982e-06  9.93543379e-04
 -3.28202706e-04 -4.65379480e-05 -2.48389389e-04 -3.61729766e-04
 -7.17266715e-06 -2.37574563e-04 -6.84991235e-05 -1.82776173e-05
  4.40859237e-05  7.64578768e-04 -1.02773367e-03 -4.57547997e-04
 -2.28104397e-05  8.38054429e-04 -2.59597376e-05 -2.49890200e-04
  3.10216851e-04 -1.09283088e-04  1.88598951e-04 -1.15364918e-05
 -9.83335005e-04  3.45691797e-05  2.16409643e-04 -7.09873809e-04
  6.02132930e-04 -5.85094876e-04  9.74159862e-05  2.50844218e-05
 -2.57152196e-04  7.87189785e-04 -1.47549503e-05  9.02867939e-04
  2.36517174e-05  1.01555245e-03  9.47523818e-04  6.58119929e-04
 -1.60326588e-04 -4.70793345e-04  2.93722352e-05  7.31105555e-04
 -6.02153795e-04 -7.05177578e-05 -5.49702158e-05 -5.91718871e-04
  7.34725932e-06  1.14461493e-06  5.75028567e-04  2.33109069e-04
 -4.49617364e-04  8.68285444e-04 -9.09192043e-04  1.53067705e-04
 -1.08255538e-04  3.29994533e-04 -4.26912724e-05 -2.47235159e-04
  1.02007198e-03 -5.90899160e-04  9.79671414e-04  1.64543523e-04
  7.22679740e-04 -9.64388660e-04 -2.44250066e-05  6.56769046e-04
  9.45313895e-06  4.08235448e-06 -2.28160575e-05  1.13417808e-04
  4.55731854e-05  6.96837902e-07  2.69712528e-04 -6.79712022e-04
 -7.78426071e-04  2.94163434e-05  3.54360588e-04 -1.16511083e-04]
[-2.86948141e-04  7.95456318e-04  1.78928402e-04 -8.22064125e-04
