(60000, 784)
[ 3.15655165e-04 -8.62167422e-04  7.69700566e-05 -4.44901523e-05
  9.42820684e-04  1.10529557e-03 -1.31140158e-03 -2.64951139e-03
 -4.04081268e-04  2.35045817e-05  3.08465291e-05 -3.32632605e-04
 -1.70823800e-03 -2.25404290e-04  2.57522174e-05  1.03112304e-03
  2.72886533e-03 -4.46119397e-03  5.03490583e-03  2.22625826e-05
 -1.45515922e-03  3.08152536e-04  1.04311221e-03 -5.05538640e-03
 -2.87551444e-04  3.90202871e-03 -5.78237858e-04  1.81879733e-03
 -6.66221999e-04 -1.33632300e-04 -4.49708875e-03  7.01086650e-06
 -1.89699306e-03  7.99795077e-04  2.47834411e-03 -3.60738677e-04
  2.11732180e-04 -1.48274522e-04  1.31588706e-03 -1.45907264e-04
 -7.14982605e-04  1.38368655e-03  1.73236678e-06  6.16876653e-05
 -2.19543656e-04  9.08250834e-04  1.03006181e-03 -2.13420510e-05
 -2.36796888e-03 -1.21714901e-03  2.55563527e-04 -1.40762190e-03
  1.34216255e-03 -1.28515410e-03  3.29697284e-03 -1.16062713e-03
  3.46511107e-03  3.85504667e-04  2.22766045e-03  1.54208696e-05
  1.58343923e-03 -5.81671755e-04 -4.56167440e-03 -1.45459032e-06
 -1.61633811e-03 -2.47840838e-03  3.55729274e-03 -1.99720929e-03
 -4.19314638e-04  8.13360994e-04 -5.56461674e-04  7.02010586e-05
 -9.25958421e-04 -3.79366948e-04 -7.80167421e-04  2.27136793e-03
  1.23197388e-03  4.54101888e-03  7.44841821e-05  4.40367270e-04
  6.23411445e-05 -5.66687385e-04  2.98822061e-03  3.05342514e-03
  5.42045911e-05  7.77605319e-04  1.99884764e-03 -5.56766502e-04
  3.89632154e-03  5.14514823e-04 -2.46449803e-04  1.11102206e-04
  2.59681684e-03  1.46784167e-03  9.22720075e-05  3.82355986e-03
  1.41591828e-03 -2.57478278e-03 -6.45535065e-05 -4.07044436e-03
  4.61291317e-04 -2.46185201e-03 -1.67154135e-03 -7.95916420e-05
 -6.88632013e-04  3.39713786e-03 -1.16117238e-03 -2.47994901e-03
 -2.05799345e-03 -3.95599026e-05 -3.44374817e-03  5.76203703e-04
 -2.87873335e-03 -3.35127723e-03  1.21797879e-03 -3.55488322e-03
 -2.80605192e-05 -1.41066309e-04 -9.05615930e-04  3.46901852e-03
  5.73198624e-04 -1.67383306e-03  4.89309968e-03 -6.07445444e-04
 -7.90866570e-06 -1.89933202e-03  4.63344431e-03 -2.12933165e-04
 -1.50871479e-03 -3.99480531e-03  3.05948621e-04  2.53791863e-04
 -4.17002792e-04  5.41770204e-05 -4.71547168e-03 -1.71832794e-03
 -1.41227341e-04  2.42406041e-05 -2.57998346e-03 -4.95818390e-04
  7.82034792e-05 -3.70091496e-03  1.28609173e-04  1.23023282e-03
 -6.10707951e-04 -3.69147789e-03 -4.03163107e-04  5.77946300e-04
  9.81126130e-04  3.67963129e-04  1.93137033e-03 -9.57790330e-04
  4.06246760e-03  1.08825596e-03  6.05253431e-05  1.07325369e-05
  1.95536942e-03  2.98007865e-04 -1.30237431e-03  1.03768573e-04
  4.89315867e-06 -1.51185527e-03 -8.13316838e-04 -1.35739852e-03
  1.06857283e-03 -1.25307438e-03  5.39353109e-05  3.63784415e-03
 -1.03941597e-03  2.70635873e-05 -1.43889319e-03 -1.24736579e-03
  1.86668212e-03  3.68823914e-04  4.39838001e-03 -4.97605371e-03
 -3.31838228e-03  8.93881122e-04  5.14257569e-05  2.49033643e-03
  5.70578199e-05 -3.81690576e-04  1.76333175e-03  1.48281455e-04
  2.59233772e-05  3.15142875e-04  2.26314423e-03 -5.97439583e-04
  3.94297635e-04  2.47112115e-04 -4.09466060e-03  6.66628276e-04
 -1.21758205e-05  4.96229833e-03  3.12022001e-05  1.47234118e-04
 -1.82666229e-03  3.46108644e-03 -3.88751270e-03 -3.30020580e-04
 -4.21514022e-03 -2.54605521e-03  5.05686332e-03  2.75312394e-04
  4.28118699e-03 -1.14766171e-04 -3.10553973e-03 -5.98933107e-04
 -4.12039247e-03  2.65517283e-05  1.17059390e-04  8.84148524e-04
 -9.62243092e-05  5.02632554e-05 -1.88734442e-03 -5.06273386e-04
  4.29189658e-03 -2.39265773e-05 -4.22299983e-03  2.15498767e-06
  6.28926059e-04  2.87553756e-03 -3.32860890e-04  2.19078945e-05
 -5.25829009e-04 -4.43149629e-05  3.00077592e-03  5.46493338e-05
 -6.68172563e-05  4.51171955e-03  1.29332585e-05  2.76600887e-03
 -3.86622209e-04 -1.20834492e-06  4.18208441e-04 -4.15473207e-03
  4.02952217e-03  4.49576285e-04  1.17810364e-03 -2.20355110e-03
 -2.15459320e-03 -1.32812745e-03  2.03069097e-03 -2.00965477e-04
  2.00836555e-03 -3.01202830e-03  1.46880194e-06  1.83093199e-03
 -5.83787292e-04 -4.55374148e-03 -5.36455266e-04  3.66504486e-04
  1.00514128e-03 -1.35506682e-05  3.48525648e-03  1.01127235e-03]
[-1.27918196e-04 -1.56673623e-05 -2.78369708e-05  3.43284481e-04
 -4.77091890e-03  4.00464620e-04  6.03518199e-05  9.42760171e-04
 -8.24314279e-04 -9.46466290e-05 -1.85081526e-03 -4.28195439e-07
 -6.68555685e-04 -2.75465276e-03 -1.32552099e-04  7.20106555e-04
 -1.06538884e-03 -4.58822099e-03  9.65264118e-05  4.28500647e-04
 -1.34882059e-03  1.11384456e-04  2.99339876e-03 -1.05959982e-03
  2.62466207e-03 -6.30447978e-06 -2.93327949e-03 -3.72981134e-04
 -3.60355284e-03  4.55631855e-05 -1.49742475e-03  4.40711301e-03
  2.15053607e-03 -5.85676361e-06 -4.32312499e-05 -4.25750952e-03
  2.88083195e-03 -3.90728722e-05  1.20881381e-06 -9.63734281e-04
  7.52683809e-04  6.60754594e-04  1.99111365e-03  2.86199151e-03
  1.77185448e-03  1.63820604e-03 -8.64671771e-04 -1.86372052e-05
 -1.41279077e-04 -2.46785812e-03 -3.47236142e-04  4.49983844e-04
  2.69905134e-03  9.70000216e-04 -1.39245640e-03  2.17706146e-03
 -4.15817975e-04 -2.35095766e-03 -2.27297990e-03 -2.17416007e-03
 -5.33928809e-04 -2.54506603e-03 -3.05982300e-03  2.51490072e-04
  1.58903609e-04 -1.61961896e-03  5.74538131e-04 -8.32545293e-05
  3.09342886e-05  6.90550811e-04 -2.11668359e-03  3.85623051e-05
  2.90272923e-03  1.73519795e-03  6.14623363e-04 -6.32151481e-04
 -1.32077821e-03 -2.85318057e-03  2.51158990e-04  1.72947263e-03
  7.58487832e-05 -6.51783095e-05 -2.71421220e-04  2.30365250e-03
 -1.59694443e-04  5.98743765e-05  3.27480208e-03 -2.87321668e-03
  9.40844879e-04  5.70165136e-04  3.92976869e-03 -1.03238298e-03
  5.37007242e-05 -7.44195256e-05 -3.17462265e-03 -3.70836063e-03
 -3.40692010e-03 -5.59834127e-04  2.13309247e-05  1.30389702e-03
  3.58287773e-03 -3.71410437e-03 -3.37166210e-03  6.69997403e-06
 -2.96346538e-03 -4.56129137e-03 -3.84229263e-04 -1.64998391e-05
 -7.89602009e-04  6.26436923e-04 -1.68698474e-03  1.15456244e-03
  4.34580462e-04  2.15327388e-05 -3.98274930e-03  6.90587776e-04
  8.35749033e-04 -1.72282335e-04  1.38131988e-03 -3.17025959e-03
  5.91190056e-04  5.17248879e-04  3.87081823e-03  2.53030293e-05
 -5.25352339e-05 -4.02928324e-04 -5.87234037e-05 -1.54021092e-04
 -1.63560455e-04 -2.16429184e-03 -5.69729889e-05  5.45787088e-04
 -4.87021229e-04 -3.88007598e-03 -3.55186120e-05  3.36075890e-03
  1.26528012e-03  1.37032785e-04  2.05679886e-05  4.33585626e-04
 -5.12905239e-05  6.79786591e-04  4.72489367e-03  6.07672831e-07
  2.10247921e-04  2.82943843e-03  4.99303185e-03  8.37591180e-05
  2.70925243e-03  7.12024664e-05  3.39369518e-03 -4.36275523e-03
  2.86851862e-03  1.25889115e-04  2.57037654e-04 -2.97261626e-04
  5.85351287e-04  2.59469679e-04  1.13573783e-05 -8.13015113e-04
 -3.14553375e-03  3.83480628e-05  1.93836429e-04  8.69362557e-04
 -4.98944351e-07  7.85864870e-04  6.55052592e-04 -1.00014259e-04
  3.81752935e-04 -1.31451539e-03  1.38531098e-04  5.87449503e-04
 -1.59349032e-03 -4.28909648e-03 -9.18911676e-04 -3.33614229e-05
 -1.97281456e-03  1.61702219e-03  5.37033912e-05  3.44240024e-03
  1.18486903e-04  6.41692902e-05  6.66154186e-04  1.96525829e-05
  1.80805762e-03  3.00583904e-04 -1.21864887e-04 -3.84781112e-04
 -8.79010837e-04  2.36701278e-03  4.45960191e-04  1.08732740e-04
  1.66490866e-04 -3.53747043e-04  2.57734207e-03 -3.69628087e-06
 -3.22058396e-05 -2.08758200e-03 -2.95311012e-03 -2.03739602e-03
 -3.68260647e-03 -1.74013024e-04  7.50495466e-04  1.04314735e-03
  8.77110197e-04  7.83563394e-04 -4.58181092e-05 -4.16464264e-03
 -1.56701077e-05  5.39403944e-04  7.31309676e-04 -2.62845875e-04
  1.80934797e-03  4.93202247e-03 -1.53296134e-03  3.33161420e-03
 -4.04908862e-04 -4.08271883e-04  1.53862878e-03 -1.98214274e-03
  3.56165732e-04  2.35731976e-03 -6.33243788e-04 -1.63562460e-05
  2.25766173e-03  4.48502034e-03  4.19755770e-03  4.61766951e-04
 -7.44527887e-04  3.75115477e-03 -2.05489529e-04  3.72613251e-05
 -5.20575937e-04 -2.89417316e-03 -3.56211977e-03  4.86214515e-03
 -1.20007468e-03  3.61934822e-04 -4.29639180e-03 -1.25476357e-03
  2.07499684e-04  1.27229427e-04 -3.56285838e-05  4.19498801e-03
  6.85732472e-04  3.81869467e-03  2.15698082e-05 -4.26818868e-03
 -2.08306073e-03 -4.46075800e-03  1.26399075e-03 -4.67262100e-04
 -2.59879662e-03  2.12905487e-04 -1.87441412e-03 -2.56514811e-04]
[ 1.09192413e-03 -1.79775986e-05 -7.28154623e-04 -5.46822239e-04
 -3.68092558e-03 -5.00714303e-03 -2.71930636e-03  1.09797409e-05
 -7.92640593e-04  3.23868977e-03  1.28777473e-03  2.77528448e-03
 -3.88642686e-04  1.27738246e-03  2.48978727e-03  4.42168272e-03
  1.95119868e-03  2.34538697e-04  2.59959522e-03  2.20164128e-03
  1.05660546e-03  7.95848149e-04  4.10266953e-04  3.87546487e-04
  2.60697709e-05 -1.93130216e-03  2.56816933e-03 -3.91001155e-03
 -3.93375415e-03 -5.52560321e-04 -9.05407175e-05  3.99719577e-04
 -1.65567020e-03  8.06134696e-04 -2.01510531e-05  4.00842711e-04
  5.28410974e-05 -1.37179125e-03  5.99648252e-04  2.00930639e-03
  3.61353417e-03 -1.11964483e-03 -1.62392582e-03  3.97581256e-03
 -2.02102696e-03 -1.43906299e-03  1.76926259e-03 -1.62875932e-06
 -1.09104787e-03 -3.07674089e-03  1.26019763e-03  2.01945861e-03
 -2.31668447e-03  3.24229713e-03  1.46757427e-03 -2.99798148e-03
  5.20667190e-04  4.56128247e-05 -1.03825326e-03  3.63531270e-04
  3.90243608e-03  3.96081180e-04 -1.77841044e-03 -6.76360988e-04
 -1.09752421e-03 -9.86148412e-04 -3.29193117e-04 -4.17327115e-03
 -1.69578830e-03  4.60378512e-03 -3.52691843e-04 -4.37985587e-03
 -2.04154159e-03  7.70554133e-04  3.04347831e-03  1.53696997e-03
  8.29935917e-06  5.64906863e-04 -4.95135222e-04 -3.36287151e-03
 -1.39644902e-06 -1.83802763e-03  3.80047275e-03  3.10545424e-03
  6.02780273e-04 -4.21578587e-05 -2.25262496e-03 -2.61841775e-03
 -2.65976162e-03 -3.41806965e-05 -3.74688539e-03 -1.72313671e-03
 -5.87936352e-04  2.90429031e-03  2.90011605e-05  2.26313202e-04
 -4.40231592e-03 -4.48188256e-03 -3.16599639e-05 -7.09499548e-04
 -2.37303051e-03 -2.15384219e-03 -1.01546315e-05 -5.64675093e-05
 -2.59133399e-03 -9.35151042e-04 -2.64205450e-03 -1.89782007e-04
  1.53186997e-03  5.62971092e-04 -5.06495586e-04  9.18948311e-05
 -3.50325609e-03 -1.55434540e-03  2.13842681e-04  1.54686184e-05
  3.14894971e-04  1.51229158e-03  4.66917307e-03  1.09898301e-03
  1.99906512e-04 -3.90356830e-03 -2.40502216e-03  3.73985964e-05
  1.78271683e-03  2.63158098e-03  9.73653011e-05  2.25610224e-04
  1.91448683e-05  8.50240797e-04  1.28649835e-04 -1.82536990e-03
  1.68533070e-03  5.04782290e-04 -2.06470335e-03  3.36641932e-03
 -9.57310616e-07  2.14916612e-03  6.62904653e-04  5.41400039e-04
  2.72792048e-03  1.19528537e-03  2.21871709e-03 -1.10837344e-03
  1.01888626e-03 -1.13094972e-03  1.77922930e-03 -1.85138809e-05
  1.73056900e-03  2.38063594e-03  1.13890865e-03 -2.04770690e-06
 -3.35594094e-04 -1.46311716e-03  9.26761954e-05 -2.31257375e-03
  6.91325981e-04  3.91482664e-04  7.93025959e-04 -1.34148179e-04
  9.77757689e-05  1.22873165e-04 -1.13582559e-03  2.48270323e-04
 -3.86350723e-04 -1.80875186e-03 -6.31344174e-06  6.24087559e-04
 -3.65412245e-03 -5.20465305e-04  1.85972562e-04 -2.16678573e-03
 -5.89886204e-06  7.33688278e-06  2.30716638e-05 -5.03661214e-03
 -7.05998161e-05 -1.58537969e-04  3.99771666e-05 -4.00732988e-04
  3.90340249e-03 -1.34253393e-03 -2.60082861e-03 -2.25449886e-03
  3.39134856e-04 -1.77134858e-05  3.75549300e-04 -1.69196231e-03
  1.22564909e-03 -8.38702061e-04  1.34600309e-03 -2.32482048e-03
  1.26462210e-04  7.00372728e-06  9.11572876e-04 -2.02106710e-04
 -3.73804068e-04 -3.23452063e-06 -3.74715898e-04 -2.11528531e-03
  6.00478433e-04  5.29853429e-05 -4.19486688e-03 -4.86566095e-03
 -8.44565794e-06  6.46793158e-04  8.99717602e-04  3.24619618e-03
  3.02840449e-03  3.39534466e-04  3.93749760e-03 -5.03548232e-04
  5.56696095e-04 -5.38476731e-04  3.73355737e-04  5.43453781e-04
 -6.11732558e-05 -2.08369308e-03  1.98140802e-04  9.22642001e-04
  4.52029440e-03  3.64329644e-05 -1.03947379e-03 -1.32171650e-04
 -6.46146033e-04  4.99774051e-03  2.68596376e-03  3.34070863e-03
  4.92374468e-04  2.18498665e-03 -4.76283637e-04  5.03040127e-04
 -6.44911081e-04 -3.45973019e-05 -1.73841047e-04 -1.92706884e-04
 -1.04500322e-04 -1.53162302e-03 -1.94870691e-03 -1.86438812e-03
  2.99389976e-03 -3.56821485e-03  8.91686076e-04  2.88566550e-03
 -2.19132883e-03  8.45182826e-04  3.03107172e-04  1.31986679e-05
 -1.04777094e-03 -1.76090535e-06  6.49473304e-05  1.06140936e-03
  4.42018105e-03 -2.39324451e-03  2.98075959e-04 -1.46823795e-03]
[ 4.57468290e-04 -4.44921155e-03  1.10904392e-03  7.55272587e-04
 -1.96884365e-06  1.53501397e-04 -2.41825398e-03  1.57541893e-04
 -2.81350445e-03 -5.13475751e-04  2.06243372e-03 -3.81246967e-04
  6.03800247e-05 -1.04786196e-04  2.01381836e-04 -2.78931659e-03
 -2.00099957e-05 -4.05830578e-04  8.00783014e-05 -2.53540888e-05
  2.11122612e-05 -1.12087051e-03 -4.69499227e-03 -9.87603041e-04
  1.69607952e-03 -7.54985860e-04  2.51592202e-03 -2.79809946e-03
  7.41187766e-05  2.41362733e-03 -5.51834082e-04  1.10165610e-04
  3.33441127e-05 -1.41443721e-03 -2.08131022e-04 -2.15397150e-03
  3.37762612e-04  1.63187307e-04 -9.79081180e-04 -1.04113651e-03
 -1.85383030e-04  3.91031494e-03  1.13460598e-06 -1.25110046e-03
  9.70364556e-05  2.85348043e-04 -2.45560507e-04 -3.32397107e-03
  6.81558305e-04  2.51929547e-03 -2.15461582e-03 -5.15551979e-04
 -1.80972146e-04 -3.94850278e-03  3.55831273e-04 -2.16527802e-05
 -4.85064830e-03  1.72544012e-03  2.51427307e-04  2.95055194e-03
  2.66305687e-04 -3.28219056e-03 -3.56902530e-03 -1.40865505e-04
 -3.76891102e-06 -2.18344813e-03  8.34877116e-04 -4.09925419e-03
  2.01736499e-03  2.41496326e-03 -4.47074078e-03  8.56545023e-04
  2.56261777e-05 -3.56151993e-05 -8.41603752e-04  2.77300678e-05
  2.30458613e-03 -1.71113772e-04 -4.95355040e-03 -3.72250959e-04
  2.28489829e-04  1.59512937e-03 -1.56483308e-04  2.43943786e-03
 -8.16893601e-06 -7.24859826e-04  3.38846731e-05 -1.41548726e-03
  1.78354311e-03 -1.99628247e-03 -3.93883850e-04  8.30832276e-04
  2.75642795e-03  4.79549509e-03  3.51727350e-03  1.49197803e-05
  6.25388361e-05  8.57799796e-05 -5.83210135e-05 -3.11863195e-03
 -4.54723839e-03  4.59991510e-03  2.37156934e-03 -2.93605308e-03
  8.09231353e-04  5.97541946e-04 -9.63902447e-04 -3.34155018e-04
  2.42987838e-03  8.42401373e-04 -1.80897350e-05  3.76208215e-05
 -1.98292383e-05  2.25669558e-03  1.96133891e-04 -4.23890300e-03
  9.24622035e-04  1.13886956e-03  2.09855338e-03  3.10042012e-04
  4.99509988e-03  1.72631201e-05  6.02461759e-04 -2.42935183e-03
  6.34560228e-07 -4.37230915e-03  3.27997653e-03 -1.87232475e-03
  1.71768629e-03  3.00721107e-03 -4.96130720e-04 -2.97360284e-03
 -4.76991799e-04  2.06975344e-03 -1.76105334e-03 -1.75443867e-03
 -2.47780015e-03  1.46555292e-03 -1.45271674e-03 -3.49885496e-04
  5.08798012e-04  2.58555914e-03 -2.38208995e-04 -1.21776376e-04
  1.20519802e-03 -8.64584417e-05  2.58890246e-05 -7.44643961e-05
 -1.06232967e-04  9.14584774e-04 -1.93182072e-06  3.28665261e-05
 -3.32946276e-03 -4.39778453e-03 -7.50287523e-04 -4.81296993e-03
  1.51481355e-04 -7.95136791e-06  2.39665925e-04 -1.72936765e-03
  4.51050022e-03  4.64475213e-04 -1.10280336e-03 -4.87405975e-05
  9.83672138e-05 -1.22676666e-03 -2.36245698e-04  1.31869892e-03
  4.20268348e-04 -1.24670589e-04  3.32883521e-03  3.98381650e-04
 -1.39061485e-05 -3.23534119e-04 -7.41703127e-04  4.77977545e-03
  8.51741332e-05  6.62420801e-04  3.72574022e-03  2.45157178e-03
  4.14275941e-03 -8.87906072e-06  4.03267317e-05 -1.30172189e-03
  7.11830752e-04  3.08360191e-04 -1.57527618e-05  7.06427308e-04
  4.81093811e-03 -2.40599673e-04  2.25348151e-05  2.09658419e-03
 -1.90698609e-04 -4.55663809e-03  4.60623156e-03  3.41709344e-04
  6.61362147e-05  3.94377856e-04 -2.48395323e-05 -5.01535633e-03
 -1.35843414e-04 -3.53990083e-03 -2.17798325e-03 -9.15955252e-04
 -2.15637810e-03 -3.70803235e-03  3.52514149e-03  8.36356449e-05
 -8.80795808e-04 -3.91146204e-04  2.05614234e-03  1.88788001e-03
 -1.85897917e-04  8.32585589e-05  4.13208917e-06 -5.68658484e-04
 -4.51177819e-03  1.78076001e-03 -2.56117993e-03  3.75192044e-04
 -1.04502825e-03 -3.00134228e-04  6.21893851e-05 -2.08695391e-03
 -4.68630842e-04 -7.50267422e-04 -1.33963338e-04 -2.04831320e-04
 -4.03580490e-04 -2.34724534e-03  4.43318600e-04  4.90931429e-03
  2.55790222e-03  2.57428250e-03 -4.86491622e-04  1.67198076e-03
 -4.93174901e-04  2.91497977e-05  6.62111646e-04 -1.85859361e-03
  2.18877648e-03 -2.77404010e-05  9.61574946e-04 -1.63345379e-05
  1.40164520e-03 -5.11685189e-05 -4.44910126e-03 -1.14658286e-03
  5.23421122e-04  3.02754257e-04  1.02535544e-05 -1.37679166e-04
  2.73599529e-05 -2.37420821e-03 -6.32192515e-04 -1.21550745e-03]
[ 5.21300310e-04  3.23540769e-03  3.55532962e-05 -4.91528078e-06
  2.91163268e-03 -1.55908077e-05  5.83474237e-06 -1.23490861e-03
 -2.04068323e-03 -1.42367126e-03 -5.19790600e-04  5.89553530e-05
  3.89521565e-04  1.84845978e-03 -2.00428069e-03 -7.76782739e-06
 -1.70499601e-03 -8.52403691e-05 -2.92002584e-03  2.13287256e-05
 -2.16207992e-03 -2.41153888e-04  1.97161728e-03  4.07354418e-03
  7.73535838e-06 -6.29168886e-04  3.75958927e-04  6.49548888e-06
 -6.63951380e-04 -3.61253667e-03 -4.82926217e-03 -4.61596346e-05
  4.37407012e-04  1.83137087e-03  3.21116693e-03 -4.99146687e-03
  3.35977435e-03 -2.85874082e-03  5.64757043e-04  8.12139545e-06
  4.09748464e-04  2.54143985e-03  1.10457089e-03  4.72773527e-04
 -1.02495374e-05  3.94606940e-04  4.13725218e-05 -1.60620513e-03
  1.39958857e-03 -5.22164536e-04 -4.38856833e-03 -2.97478713e-03
  9.22960397e-04  3.22685650e-04  1.60688637e-04 -4.37171525e-03
 -2.71990585e-03 -9.29736475e-05 -5.63503441e-04  6.94185983e-05
  2.87715206e-04  6.45894335e-04  3.94634420e-03 -4.93841434e-06
 -9.80950845e-05  2.04881684e-03 -2.57382142e-04  6.44196021e-07
  5.63727424e-05 -2.21388411e-03  4.18450262e-05  1.32517601e-03
  1.88993498e-04 -2.28648902e-05 -2.43949578e-03  2.56480877e-06
 -2.26144863e-03 -2.03260613e-03 -1.10135595e-03 -4.23595214e-03
  4.35349492e-03  6.08664295e-05 -9.83201801e-04 -2.01679895e-03
  2.14889692e-03  1.20345385e-04 -4.12358585e-04  2.64311031e-03
  2.51735206e-06  1.37758863e-05 -8.55103329e-04 -2.30726092e-03
  6.29874889e-04  2.11522280e-03  5.77779315e-04  3.47844334e-03
  2.15467722e-03 -2.34155397e-04  1.38178337e-03 -9.91556595e-04
  3.63512584e-06 -1.68053996e-04  4.04526181e-04 -2.87184439e-03
  2.02121691e-03 -3.35787860e-05  1.54015312e-04 -3.07530112e-03
  3.71990112e-04 -2.22310744e-03 -6.75623987e-05  4.41902626e-04
  9.94154238e-04  3.00165191e-03 -4.82771039e-04 -4.88569433e-03
 -1.41743234e-03 -3.02138042e-05  4.74279616e-04 -6.58881175e-05
  1.71439524e-03  2.11924175e-03 -3.34259426e-03  3.09697897e-04
 -4.11470767e-05 -7.16037644e-05 -9.80465941e-04  9.30861046e-04
 -2.56499876e-04  3.12627334e-03  1.96444780e-03 -9.87291466e-05
 -1.14000423e-03 -2.90759914e-03  7.41026129e-05 -3.51322525e-03
  1.10417730e-03  4.95643504e-03  2.84835015e-03 -6.59605615e-04
 -1.26584634e-03  3.30386205e-03 -3.85407119e-03  1.55820642e-03
 -4.71652016e-03  2.43675199e-04 -3.23068569e-04 -2.96351627e-04
  4.12683549e-05 -1.97638230e-04 -8.28335465e-04 -2.09548793e-03
  4.14499715e-05 -5.38685872e-05 -4.02517052e-04  4.87677133e-04
  1.06891771e-04  3.82082045e-03  1.80917425e-03  1.14067123e-03
  5.23852626e-04  4.26129255e-03 -4.89530002e-03 -4.73077611e-05
  3.69913831e-03 -6.35707502e-04  2.66348385e-04  3.53073132e-03
  3.88441274e-04  6.60449059e-05  4.09924303e-04 -3.16096372e-04
 -2.26765093e-03  6.42567324e-04  1.25639132e-03 -1.09465337e-03
  1.11378672e-03 -4.02228883e-03 -2.48712644e-04  2.56795819e-04
 -2.47694820e-04 -2.49849174e-04  5.32514411e-05  1.59414220e-03
 -1.81273048e-04 -8.89383949e-04 -4.18089409e-04  2.59204743e-04
 -3.71488202e-05  3.86593075e-03 -1.01035607e-03 -3.47010888e-03
 -1.07032098e-03 -2.56369290e-03 -3.49513832e-03  5.76415300e-04
  1.23645867e-03  5.01587839e-03 -3.85809500e-03 -2.30512912e-03
 -8.56494889e-04 -3.10838914e-03 -2.22932011e-03  1.74132434e-03
 -6.48170854e-06 -1.91717870e-03  8.63843368e-06 -5.63902194e-04
 -6.50733007e-05  5.42516077e-05 -2.62813978e-03 -8.11964755e-05
 -3.43007979e-03 -2.21064413e-04  1.50820907e-04 -4.27265315e-03
  2.37439730e-04 -2.25385857e-03 -1.17768906e-05 -1.11494704e-03
 -3.46450859e-04  1.02885718e-04  4.85831520e-03 -1.00407640e-04
  5.61268753e-05  3.98919851e-03  2.74168193e-03 -2.93904402e-03
 -1.49829546e-03  3.51974555e-03  4.47714343e-06  1.69884419e-03
  4.55686104e-04  1.90504170e-03 -3.61506213e-04 -4.03153754e-03
  4.10821022e-03  6.39714919e-05  1.09932492e-03  4.35539338e-03
 -1.01202460e-04 -3.28892111e-03 -8.27331478e-04 -2.54788318e-06
  3.36411202e-03  4.07374745e-04 -1.50926659e-03  1.07047462e-03
 -4.55765443e-03 -3.95993992e-03  7.48397701e-04 -1.05180591e-04
  1.27259126e-04 -2.22904585e-04 -2.62461502e-03 -7.97592939e-05]
[-2.05533134e-04 -8.18733108e-04  1.61883883e-03  3.10077085e-03
  2.28979558e-03 -3.73561400e-03 -7.80923118e-05 -1.94324973e-03
 -6.24686458e-04 -2.18535948e-06 -1.59337298e-04  9.23485624e-04
 -1.53653858e-04 -1.45500725e-03  1.99819140e-03  1.46794937e-03
 -4.31878975e-03 -2.86766384e-03 -1.76340142e-03 -1.67446129e-04
  3.68224964e-03  5.59098221e-06  4.49368538e-05 -2.05214944e-04
  1.43261488e-04  9.07018822e-04  8.07266772e-04  2.10220867e-04
 -4.50974712e-05  2.97775830e-06 -5.93468308e-06 -2.77209985e-03
 -2.96433921e-03  4.00212614e-06  8.18999865e-04  2.22786536e-03
  2.11409514e-03  2.32142527e-03  2.67813038e-04  8.92319866e-05
 -3.78129693e-03 -8.20204627e-04 -2.04550142e-05 -1.14765797e-04
 -3.75486824e-04 -3.25138092e-04  1.67863221e-03 -2.81063907e-03
 -4.59422802e-03  9.73540818e-05  3.50922518e-05  2.01126790e-03
  3.47423717e-03  4.73195240e-03 -8.91572974e-04 -2.63996210e-03
  9.72803689e-04 -5.29743150e-04 -6.79202617e-04 -2.34373321e-04
  3.35373693e-04 -3.04827376e-05  1.99072136e-03  1.20487331e-04
  1.48407919e-03 -2.81089828e-04 -1.54022300e-03  4.30163506e-03
  3.20253441e-03  2.81751504e-04  3.46292949e-03  5.92788375e-04
 -2.40890252e-03  1.29532337e-05 -3.90850678e-03 -1.10040684e-04
 -5.72447090e-04  7.97520724e-04  2.49107150e-06 -2.37367692e-03
 -1.06741546e-03 -4.83416127e-04 -1.24718431e-06  3.73854871e-05
 -3.34071878e-05  2.72313762e-03  4.66922765e-03  1.18936252e-03
  3.21382628e-03 -1.51478083e-04 -2.89800434e-04 -3.01668263e-03
 -6.50960404e-04 -2.25976869e-03 -1.18099669e-03 -2.15450220e-05
 -3.03835873e-06 -2.81035653e-04 -8.79695588e-04  3.31367410e-03
  3.40570989e-03  6.97006767e-04 -3.28532410e-03  4.31831339e-03
 -8.87582825e-05  2.32358612e-03  3.68413357e-04 -4.51803470e-03
 -5.70199751e-04 -1.72982870e-04  3.27471592e-04  5.09213896e-03
 -3.78275033e-03 -2.08392545e-04 -3.61685711e-03 -3.97506916e-03
 -3.79569318e-03 -6.71298089e-07  2.18983362e-03 -1.23066436e-03
 -1.70964732e-05  1.12460835e-03  4.82844676e-03  3.86548382e-03
 -8.07132906e-04 -1.36773031e-04  2.47801688e-05 -3.69998777e-03
  4.36426510e-05 -1.35602432e-04  2.36524258e-03  5.38888997e-04
 -1.25182487e-03  3.07194527e-04 -5.88971912e-04  1.24641149e-03
  4.75139425e-03 -3.02814899e-04  2.16497214e-04  5.92911574e-04
  5.17862327e-04 -9.01418411e-05  1.24928996e-04 -4.34730889e-04
 -3.15378462e-04 -2.79238608e-03 -2.98029231e-03  2.01897607e-03
  4.27224787e-04  4.13697697e-03  1.51208451e-03  7.46204108e-05
  1.08963498e-06 -1.59725680e-03  1.52336458e-05 -1.88692323e-03
 -8.53412347e-04 -1.39152077e-03 -1.43955886e-03  6.10552894e-06
  1.24079889e-03 -2.08838256e-04 -5.01984065e-03  2.07694259e-05
  1.09870396e-03  3.77694461e-05  2.00495394e-04 -6.89315009e-04
 -8.85242801e-04  8.04809413e-04  7.10722234e-04 -8.76753754e-05
 -3.43153967e-03 -9.02656835e-04 -4.67941074e-04  2.42184241e-03
  1.33328920e-03  6.54950617e-04 -2.61489613e-04  3.80686036e-03
 -1.04322798e-04 -3.13860689e-03  1.92475514e-03 -2.59780781e-03
 -2.31565717e-05  1.54930726e-03 -7.26776714e-05  1.30341046e-03
 -3.29475048e-03 -6.78446337e-04  4.76562750e-03  1.35935435e-04
  1.05477460e-03  5.87005472e-07 -1.15753680e-04  9.92569075e-04
  2.35720066e-03  1.83915595e-04 -4.50027785e-07 -1.40024235e-03
 -3.21762295e-05 -8.21999792e-05  1.75689776e-04 -1.36194905e-04
  5.98114497e-04 -2.44057602e-04  2.02566903e-03 -9.37962658e-04
  1.93386318e-03  5.39099897e-06 -6.14373827e-05  5.02991178e-03
 -1.27837231e-05  4.39750821e-04 -4.60784146e-03 -2.44701443e-03
  6.20725816e-04 -3.75676886e-03  2.40085084e-03  2.33259196e-06
  1.37413156e-03 -7.03786254e-06  6.66488065e-04  1.17067046e-03
 -3.38998739e-06  4.00458336e-04 -2.85559877e-04  1.28273893e-04
  2.08449556e-05 -5.55064816e-05  1.87148398e-04  2.23565907e-03
 -3.55772761e-03 -6.04877638e-04 -3.58300286e-04 -6.22172617e-04
 -1.65246475e-05 -8.04529533e-08 -6.48061318e-05  1.19693623e-04
 -2.31366878e-03 -8.22249748e-04  2.12847374e-04  4.59423156e-03
 -6.09266096e-05 -1.83433299e-03 -4.38815000e-03 -1.20940837e-03
 -1.49495995e-03  7.04114647e-04  1.39641729e-04  3.33894962e-04
  4.04056255e-03  5.43059518e-04  4.84778936e-03 -2.26651084e-05]
[ 1.69264391e-03 -6.52237479e-06  3.36477510e-05  4.81049554e-04
 -1.21665087e-03  3.26217648e-03 -6.48111829e-04  1.68143986e-03
  6.40539350e-04 -1.93837897e-03 -4.67436589e-03  4.74281083e-04
 -8.76350411e-05  3.16923906e-03 -2.39424681e-03  3.25251447e-03
 -4.49102391e-03 -1.30094700e-04  1.05089174e-04 -5.08471296e-03
  1.84437641e-05  2.89933371e-03  1.84265135e-04  4.87807996e-05
  1.47807971e-03  1.90793971e-04 -2.13293852e-03 -4.17323748e-05
 -2.29976764e-05  2.71654048e-03 -5.27294084e-05  3.67700971e-04
  2.52383981e-05  1.13882733e-03  4.42138199e-03  3.02813946e-03
  2.50135134e-03  7.60525583e-05 -3.47899823e-05 -4.62447201e-08
 -5.64190642e-04  4.42739702e-03  1.40746459e-03  5.48043784e-04
 -4.04643818e-05 -1.48065876e-03  2.16516613e-04  2.53379772e-03
  2.42552298e-05 -1.59244284e-03 -1.46600635e-04 -3.10620432e-04
 -4.78177348e-03  7.53265004e-04  1.70436939e-05  1.72099045e-03
  2.34540519e-04  9.94417756e-04  9.38075546e-04  1.20079377e-04
  2.48748267e-03  1.31016915e-03 -5.89010602e-05  3.77282008e-03
 -3.97724735e-03 -1.24199022e-04 -1.15625377e-05 -4.01674179e-03
 -3.30860595e-03 -3.68134709e-03  6.83109601e-05  2.01767899e-04
 -4.99918194e-04 -1.51177500e-03  2.79332887e-03  1.41203663e-03
  1.00702597e-03 -2.05749619e-03 -4.20801353e-03 -2.12180904e-04
  4.50292993e-03  1.85011866e-03 -2.96975765e-03  9.83911651e-04
  7.77968620e-04 -2.52978913e-03 -6.40497144e-06 -5.70692888e-04
  4.81669806e-03 -5.01661283e-03  4.00371102e-04 -7.89944525e-04
  1.31261426e-03  1.71082058e-03  1.88988858e-03  4.80593418e-03
 -4.67861744e-05 -4.84509732e-04  1.25134567e-04 -1.03833377e-04
  1.07620257e-03  4.24569956e-03  1.49582331e-05  1.04359324e-03
 -3.10504495e-04  1.48404488e-03  9.83604913e-05 -6.55427728e-05
 -7.73483674e-04 -4.54776552e-04  4.63568352e-03 -1.17009044e-04
 -7.10095153e-05  1.30635894e-04 -1.18751510e-03  8.24609042e-05
 -1.71245574e-03  3.72373515e-03  4.21274699e-04 -1.09044523e-03
  2.54429137e-04 -7.19785901e-04 -4.18853124e-03  1.07642528e-03
  8.41313280e-06  4.22560474e-03 -2.33828674e-04 -2.16833722e-04
  4.15895311e-03 -4.81350943e-04  8.38619419e-05 -2.01037229e-03
 -7.01747606e-04  4.12175372e-04  3.16993501e-04 -1.52450143e-03
 -2.41856237e-06  4.21564465e-05  1.66011872e-04  5.58965840e-05
 -6.74784830e-05  1.09103237e-04  3.57386584e-04  2.25717214e-03
 -1.12814461e-03  3.28708083e-03 -7.46022623e-06  6.37876985e-05
  1.39266894e-04 -7.07238244e-05  3.12370742e-03 -2.70089393e-09
 -3.05721296e-04 -3.94331205e-04  4.99770849e-04  4.96277938e-03
  3.88941880e-04  8.38081232e-06 -3.55527450e-03 -2.30735057e-03
  1.42008792e-04 -2.51483192e-03 -9.22511162e-05 -5.45019537e-06
 -2.46554019e-03  2.64549110e-04  1.91015168e-04  3.76867491e-03
  2.04723044e-04 -1.47297645e-03  5.27287374e-04  3.08686551e-04
  8.62572172e-04 -4.34886892e-04  2.90263539e-04 -3.11817388e-03
  2.35223615e-03  3.06305943e-03  1.47061069e-04 -1.04651581e-03
  4.84323243e-03  3.23660868e-03 -2.20804229e-04 -1.94566141e-03
  3.52313152e-03 -3.80889500e-03  1.90086678e-03 -3.05239373e-03
 -4.69838874e-03  2.09960964e-03  5.50066852e-05 -2.33534221e-04
 -4.88055628e-03  1.22997247e-03 -1.10869439e-04 -2.72015705e-04
  1.83608725e-03  4.28071834e-03  7.66134634e-05 -1.23938530e-05
  6.32332874e-04 -8.62794868e-05  1.29243679e-05  8.49589044e-05
 -5.46960567e-04  1.99403408e-04  3.19880882e-05 -2.47415551e-05
 -1.61687495e-03  4.30932532e-05 -1.17370581e-03 -3.58041091e-03
 -6.27242409e-05 -1.01484558e-04 -8.18315665e-04  1.59647157e-03
 -2.43076976e-04  6.01882918e-04 -4.45644197e-03 -2.38718632e-03
  2.93922590e-03 -3.49955284e-04 -5.39350376e-04  1.30880607e-03
  1.42692913e-03  4.25553556e-03 -8.56742097e-04  1.81058635e-05
  3.03710678e-03  3.65762740e-03 -1.54357933e-04  4.30138536e-05
  1.08804898e-03  2.85898385e-03  3.11297768e-03 -2.12866775e-04
  1.73797285e-03 -4.95777221e-03 -1.14059920e-03  3.60373397e-04
  1.94413540e-04  3.65257413e-04  5.08447859e-06 -1.13448085e-03
  7.84070485e-04 -2.44001748e-04  1.02630643e-06 -6.00152193e-04
 -3.88415746e-03 -4.15883393e-03  1.05950677e-04  3.00070183e-03
  3.46992235e-04  8.92407441e-04  1.21912807e-04 -3.20519032e-03]
[ 2.26432894e-04 -1.07602853e-04  1.22645509e-04  4.54599619e-04
 -1.86049296e-04 -1.78107520e-04  1.56701541e-03  1.30118817e-03
 -1.91216783e-03 -1.76407062e-04 -2.90535684e-04  4.42407706e-03
  1.27264431e-03 -3.68720184e-05 -5.00271731e-06 -2.49640974e-03
 -1.14168326e-03 -6.46413694e-04 -9.92851223e-04 -8.10365892e-04
 -1.92617155e-04  9.14380271e-04 -4.28013377e-04  1.04772815e-04
  3.70696031e-04 -8.66966961e-04  3.33126507e-04  3.30405054e-03
 -5.39962125e-06  3.48313649e-03  5.93831552e-06  2.47578590e-04
  1.14588358e-03 -2.71623977e-05  1.47109912e-03 -3.76487282e-04
 -1.73722354e-04  9.10011638e-05 -2.76783080e-03  2.85239687e-04
  3.59760645e-03 -3.61842212e-04 -5.16451503e-04 -1.32419213e-04
 -4.43065938e-03 -7.03365406e-04 -4.86918983e-05  3.57244804e-03
  2.52664062e-05 -2.01397036e-04 -9.86452138e-04  4.17312043e-04
 -1.01726331e-03 -7.76111165e-04  9.24008437e-04 -4.05987063e-03
  4.47081373e-03 -4.12395841e-06  5.48141718e-04 -9.46823409e-04
  1.15637097e-04 -8.85833041e-07  2.88849662e-03  1.73011299e-04
  2.46493636e-03  3.08751906e-03 -3.01117025e-03 -3.16541513e-03
  1.07846542e-03  3.62327480e-03  8.65454552e-04  1.50974256e-04
  2.65630513e-03 -1.12011947e-03 -9.60819679e-04 -9.41413446e-04
 -5.50661506e-06  3.01858806e-03  1.91003571e-03 -2.63704475e-04
  1.70330642e-03  3.79480379e-04  2.47593734e-03 -3.37047719e-04
 -1.21226809e-03  1.70152835e-04  2.90428881e-03 -2.35177912e-05
 -1.44991439e-03 -3.20080616e-03 -9.71499277e-04 -5.95278839e-04
  9.10071344e-04  5.00471347e-03  4.40878855e-03 -2.98300351e-03
  1.11465951e-03  1.31640238e-04  2.84946601e-04  3.75115901e-03
 -4.91109480e-05 -6.30896415e-05 -4.78928151e-03  4.86432891e-04
  4.06531883e-03 -1.42187743e-06 -1.65886693e-04 -1.97377347e-03
 -4.30066572e-04  5.55648902e-04  1.93661947e-03  4.14275892e-04
  1.83292951e-04  9.08682307e-04  3.60930364e-03  4.93007712e-03
  3.81012191e-05  1.52760730e-04 -4.12833807e-05  9.86737776e-05
  7.38813503e-04 -3.34158301e-03  2.66554978e-03 -1.78743932e-03
  1.16750599e-03  2.10105603e-04  2.22142223e-03 -4.11088835e-03
  1.92286469e-04 -2.25936590e-04 -1.37004201e-03  4.10789836e-04
 -2.40040530e-03 -1.49623008e-04 -5.44222366e-04  4.81387831e-04
  8.49892122e-05 -3.48646400e-05 -1.92608674e-04 -3.25612936e-05
 -1.29187985e-03  4.13054034e-03  5.01588137e-03  2.26829476e-03
 -2.07527170e-03 -5.39194874e-05  6.34228101e-04 -4.29400024e-03
  7.27455963e-04  7.45791299e-04  1.68468249e-05 -2.86402416e-03
  6.86563765e-06  2.14710220e-03 -5.57801923e-05 -1.40013765e-03
 -6.49503085e-04  5.53847142e-04 -3.33550720e-04  5.73497651e-05
 -3.20853813e-03 -2.62020747e-06 -3.02990533e-03 -4.97894479e-03
  1.98842814e-03 -1.97038479e-03  1.73248038e-03  2.19177250e-04
  7.60936954e-04 -2.72657944e-03  3.79619857e-03  6.44706394e-05
  2.58483420e-03  4.14550283e-03  1.99523262e-03  2.13557885e-03
  1.93909497e-03 -4.33753009e-05  2.95736260e-03 -1.57429725e-03
  1.02120079e-03  3.05589700e-05  2.36790936e-03  4.19357402e-08
 -9.58074439e-05  1.02983629e-03 -3.47966722e-03 -6.43503695e-06
 -3.94780694e-03 -1.89935077e-05 -7.10848623e-04 -3.79820777e-03
 -2.74264066e-04  9.19225001e-04  3.33611087e-04  2.21345427e-05
  6.25701989e-04  3.61831983e-05 -1.27854334e-03  2.49005034e-03
  7.91711710e-05 -2.04815445e-03  1.89382444e-03 -2.87424768e-03
 -4.14905683e-03 -1.32342330e-03  1.99089248e-03 -3.48879323e-04
  4.48683459e-03 -5.48945977e-04 -2.14832709e-03  6.00597121e-04
 -3.22331825e-03 -9.64223007e-05 -1.26035849e-04 -5.42766366e-05
 -9.46496668e-04  1.38963042e-03  2.65789356e-06 -6.39010337e-06
 -1.12239045e-05  2.20429149e-03  1.75212682e-04  1.17215462e-04
 -4.27577624e-03  3.73466476e-03 -2.87799572e-03  8.90633264e-04
  1.73676947e-05 -2.52990625e-04 -3.01918922e-05  2.53254107e-03
 -7.00226530e-05 -3.20300906e-03 -1.62478147e-03 -2.97356259e-03
 -5.92433082e-06  1.72451846e-03 -3.39981537e-03 -3.39066963e-03
  1.27759728e-04 -2.25547778e-03 -3.44313518e-03  1.25011392e-03
 -5.45585135e-04 -4.34829815e-03 -5.24298589e-04 -7.80474795e-04
  4.45310708e-06 -3.30322978e-03  1.33327640e-04 -4.03203955e-04
 -7.97910034e-04  2.04084938e-05 -8.44451205e-06  3.46360089e-03]
[ 4.70367745e-03  4.81947076e-03  3.63852792e-06  2.99779184e-03
 -2.82598205e-03 -1.25169884e-05  4.49978589e-03 -1.37100849e-03
 -4.63895472e-04 -2.14488457e-03 -4.40803464e-03  2.96956546e-05
  1.10435756e-03 -2.07348318e-03  2.42385268e-03  2.15832553e-03
 -1.76822171e-04  2.51269830e-03 -3.05437052e-03 -6.89519629e-04
  2.23893982e-04  7.85177441e-04  1.03860476e-03 -4.63048900e-05
 -2.60117002e-03  2.33002962e-04 -1.76071408e-03 -1.15701255e-04
 -1.81648449e-05 -1.04952643e-03 -1.74107797e-04  6.88677626e-05
 -1.51190696e-04  8.91832644e-05  4.08734682e-03 -2.39250855e-04
 -1.33166460e-04  4.61779045e-03  1.62598455e-03  2.20594178e-03
 -1.34670327e-03  7.19704799e-05 -2.69760066e-03 -1.80115876e-04
  2.99302037e-03 -4.39293763e-03  2.38245762e-03  3.35891290e-04
 -1.02368409e-04 -2.99124977e-04 -1.10482895e-04 -1.79672677e-04
 -3.93344808e-05 -6.56791531e-04  1.01204665e-05 -5.49576228e-04
  5.59758041e-06  1.58265337e-03 -2.45488573e-03  8.99951787e-05
 -1.86558183e-03 -4.66173561e-03  1.35303222e-05  3.00748111e-03
  4.63676057e-03  1.59903385e-03 -2.30410907e-03 -4.62586428e-06
  4.15841724e-03 -2.48969753e-03 -5.85498376e-04  6.26288362e-05
  3.90842131e-04  1.52564629e-03  2.95806227e-03 -3.46746547e-04
  9.29474143e-04 -6.38670134e-06 -6.11037281e-04  4.64423806e-03
  1.87521301e-03  2.96310440e-03 -2.50243410e-04 -1.48533277e-04
  1.59622082e-03  7.57401691e-04  3.02134515e-03  1.76698307e-04
  7.32745190e-04  1.09545902e-03  3.83544468e-06 -9.64899647e-05
 -2.13009291e-05 -6.04332078e-05 -1.29425495e-04 -4.58253560e-03
  3.53338432e-03 -1.60387606e-03 -1.56199063e-03 -3.26526261e-03
  2.44725021e-04 -1.01599931e-04 -2.53488034e-04 -1.12507360e-04
  1.95826309e-03 -1.92828488e-03  3.17364574e-03  1.31867963e-03
  3.68478605e-03  7.93221063e-04  4.59716500e-05 -3.35782968e-04
  7.83093247e-04 -5.11708736e-07 -1.34488432e-03 -2.62558971e-04
  1.61997729e-03  1.00709610e-03 -3.99353414e-03  1.34873520e-03
  3.53644628e-03 -1.40806507e-03  1.88800778e-03 -2.49058828e-03
 -1.94251365e-03 -1.62819443e-03 -3.47888565e-05 -6.88398611e-07
  3.00678403e-04  8.72823754e-06  2.52975282e-04 -8.97538992e-04
  1.61886537e-03  8.10489288e-04 -1.67908387e-08  4.52462901e-04
  3.17391126e-05 -3.16911860e-03 -3.71405535e-03  2.31525159e-03
  5.91610309e-04 -1.07273426e-04 -2.18191846e-03 -5.61998483e-04
 -1.55067306e-03 -1.13491308e-04  1.66754860e-03 -1.65942665e-03
  4.77189170e-04 -6.40482284e-04  2.33252163e-03 -1.30042688e-05
  3.79698831e-03  3.81012265e-03  1.58453398e-03  3.40290512e-03
  8.67883972e-04 -4.50348467e-04 -1.22071042e-03 -1.30649437e-04
 -3.32182410e-04  8.73109093e-04 -2.03743698e-05  5.82724972e-05
  1.16380885e-04 -5.02446442e-04  2.05098662e-04  6.13836181e-04
  1.71636988e-03 -1.58936837e-03 -3.70454586e-05 -4.41009559e-04
  1.03976024e-03 -4.38590110e-05 -1.17061222e-04 -1.76254515e-03
  1.04340664e-03  8.81805442e-04 -5.40897430e-05 -4.45109048e-03
  4.94739824e-05 -4.48109285e-05 -4.01863895e-03 -3.85902445e-05
  2.63740801e-03 -2.95182641e-03 -1.08563405e-03 -4.61757082e-04
 -1.98986706e-04 -1.00348369e-03  4.25470393e-03 -9.99445912e-05
  3.16802330e-06  2.80678613e-03  3.30969637e-05  2.65125017e-03
  1.44402807e-03 -1.40397799e-03  4.58034499e-04 -3.41268734e-03
  2.93354506e-03 -2.11841131e-04  1.84990323e-05 -5.47712933e-05
  1.84350549e-05  1.19887784e-03 -6.04798189e-05 -2.27834150e-03
 -2.33938518e-03  2.76582249e-03  2.86097410e-05 -1.30676286e-03
  1.40646611e-05  1.34106573e-03  7.88507679e-04 -7.02600749e-04
  1.12369718e-03 -1.87934485e-06  2.29749772e-03 -3.57095423e-03
 -2.24941587e-05 -8.67625631e-05  1.20240284e-04 -2.82130790e-04
  1.96759109e-05 -2.00447940e-03  8.24843125e-04 -2.03770858e-05
  2.81862615e-03  2.67336066e-03 -5.55959161e-04 -1.85382218e-03
 -1.10287993e-04  3.84195221e-04  9.02208414e-04  8.05000714e-04
  6.18083395e-05 -1.76571982e-03  5.54296620e-04  1.00167269e-03
  3.57388760e-03 -1.25063270e-03 -5.04238513e-03  4.18430138e-05
  6.40010513e-04 -2.29002384e-04  1.71723561e-03  4.67243177e-03
 -3.90374003e-05  8.90863002e-06 -2.21500023e-03  4.34307381e-03
 -1.13029975e-03  3.85980986e-03 -3.45860312e-04  1.97395180e-03]
[ 2.00502985e-03 -6.45259397e-05  1.17523799e-05 -9.65358156e-04
 -1.36237375e-06  2.34975595e-04 -1.15853299e-03  6.23094562e-04
  4.42606664e-05  8.76677791e-04 -5.55287917e-04 -3.95027997e-03
  3.32397456e-03 -1.08848933e-03  7.87219659e-04  5.26747286e-04
 -2.85501799e-05 -1.43670468e-03  2.28974132e-04 -2.85800035e-04
 -3.99250899e-04  4.17314285e-03 -2.27633871e-03  2.08303138e-03
  5.48572790e-04  4.23511164e-04 -1.00586100e-04 -1.10768093e-03
 -4.77457048e-03 -2.67881039e-03  3.28766027e-03 -2.48521918e-05
 -3.15490812e-05  1.34151824e-04 -3.03461990e-05 -7.16424399e-04
 -8.01729436e-06 -8.00699999e-06  9.35672548e-04 -6.39734219e-04
  2.24828856e-04 -5.92239107e-04 -8.50404945e-04  3.58933027e-03
 -8.53701457e-04 -2.10477954e-04 -2.20718175e-03 -1.36731526e-04
  3.91042953e-04  2.45265193e-04 -3.73312015e-04  7.82687776e-05
  1.67542655e-03  4.33279612e-03  6.94224312e-05  4.32481131e-06
 -4.65244860e-06 -4.47913270e-05 -2.21545550e-05  1.61613274e-04
  8.75208680e-04  1.36848812e-04 -2.47160029e-04 -1.76051808e-03
 -5.18285984e-05  3.63228977e-04  6.77182314e-04 -2.56816404e-03
  4.80787582e-05 -1.78838736e-04  5.04453792e-03  6.51305359e-05
 -3.47934563e-03 -1.37848444e-03 -1.59520638e-03  3.00166208e-03
 -1.69841718e-03 -1.67136250e-03 -7.91492520e-05  2.06617274e-03
  1.44071764e-03 -1.55388304e-03  2.08521783e-04 -4.42314038e-03
 -1.49766528e-03 -9.67821891e-04  1.12750994e-05 -1.52997216e-04
  2.56765147e-04  2.59800569e-03  2.09678713e-03 -7.75990620e-05
  8.84100076e-04 -4.84594214e-03 -2.40006545e-03  4.01043949e-04
 -8.33809268e-06 -3.10993597e-03 -1.48703534e-03  4.25656702e-03
  1.98207635e-03 -3.01761548e-04 -1.31341964e-03  4.92545654e-03
 -7.70059013e-05 -1.40101743e-04 -2.16962075e-03 -2.23714790e-03
 -6.24297330e-06 -3.88903843e-06  4.34981508e-03 -2.86397455e-04
 -4.21182326e-03 -1.51105299e-03 -3.47224874e-03 -1.38136063e-03
  4.51079000e-04  1.82539364e-03 -3.86859867e-03 -3.96556969e-04
 -8.46885704e-04 -3.52423629e-06 -6.88288110e-04 -4.54830912e-04
  2.15326295e-03 -7.52919091e-04 -3.05294253e-03 -8.91388638e-05
  4.83793101e-03  2.11592495e-03  7.09364238e-04 -1.70777050e-03
  1.39767001e-04  6.55961997e-04 -1.27952995e-03 -6.83040532e-04
 -9.28233546e-04 -2.61829100e-03  1.34886592e-03  9.09375592e-04
 -1.31368211e-04  3.82115096e-03  2.83023093e-03 -3.20509343e-03
 -3.59546107e-05 -8.57282589e-05 -3.78393905e-04 -1.08936808e-04
  4.90893844e-03  1.45393924e-03  3.07830962e-05  1.24050526e-05
 -3.01962539e-03  5.07213466e-03  1.56196787e-03  9.51225633e-04
  8.63334048e-04  4.95449496e-04 -1.75282718e-03  9.10156991e-05
  8.42802727e-05 -6.71106673e-04  2.07388098e-04  1.20885573e-03
 -2.55261920e-03  6.42693298e-04  1.69366665e-05 -6.35736474e-04
 -1.07541990e-03  1.27726295e-04 -4.96588146e-04 -7.39927406e-05
 -2.41583542e-03 -3.12626911e-03  3.56576368e-03 -3.83284274e-03
  3.31879844e-04 -2.80243572e-05 -1.02815631e-04 -1.57764897e-03
  3.59753952e-04  3.34146991e-03 -1.55489519e-03  7.13452443e-06
 -3.62766006e-04 -9.53672712e-04  1.14541734e-03  1.40077147e-04
  2.47618595e-03 -8.10658132e-04 -2.55024982e-06 -1.51932591e-04
  6.90578519e-06  3.18989974e-06 -3.29632126e-05  2.36296930e-03
 -1.16932813e-03  4.49518974e-03  6.54418829e-05  8.86411069e-04
  1.11908494e-03 -4.06011559e-03  1.09707142e-04  1.23515853e-03
 -1.36249985e-04 -5.06166473e-03 -3.68856310e-03 -2.86285325e-04
  2.55401333e-03 -3.96994577e-03  6.35023124e-05 -1.42613617e-03
  5.43090837e-04  2.52670617e-03 -1.45785839e-03 -3.07197014e-04
  1.54181335e-05 -3.82421816e-03 -1.07677815e-04 -4.37440567e-03
 -1.21120624e-03  1.23626910e-03 -1.06579236e-04 -4.75854633e-04
  6.29672320e-04  1.34919184e-04  3.86594329e-04  5.32857999e-04
  1.18436555e-04 -8.98957417e-05 -1.10747326e-04  2.74456165e-05
 -1.01246151e-06  1.35483948e-03  1.64418557e-03 -1.94419960e-05
 -1.42996508e-03  6.09821372e-04  6.50238357e-04  1.35676295e-03
 -5.44919380e-04  3.59492630e-04  9.95019528e-05  2.52277420e-03
 -7.11854303e-04 -2.08965512e-04 -2.45327549e-03  1.13389554e-03
  3.33539858e-03  2.03057805e-04 -2.90450692e-03  9.13216260e-04
  1.59686534e-05 -3.28884758e-03 -2.07552762e-03 -6.41716904e-04]
[ 6.35818953e-04  2.20352932e-03 -3.77572238e-03 -5.47427731e-05
 -2.75652995e-03  9.91806607e-05 -4.75539463e-04 -1.22299683e-04
 -3.72381282e-03 -3.86353155e-03 -4.73170076e-03  1.59993076e-03
  8.51475564e-05  3.67051430e-05 -9.16003350e-04 -3.29541367e-03
  1.52556362e-04  2.93320163e-06 -2.31446002e-03  2.27786269e-03
  4.18691588e-05  1.13141933e-03 -2.53925880e-03  3.62881745e-04
 -1.04691360e-04 -3.68984640e-03  5.45406409e-06  5.07556003e-03
  2.99630202e-05 -4.97811893e-03 -5.94394669e-05  1.59050648e-03
 -1.45434763e-03 -1.22440491e-04 -4.55633149e-05 -6.41334542e-04
  1.64095556e-04  1.22444458e-05 -6.25540037e-04  3.82464294e-03
 -1.63641647e-03 -9.85941620e-04  1.08830808e-04 -1.01128412e-06
  1.29711998e-04  3.08288928e-04 -2.17343919e-04 -5.62230952e-05
  3.38467584e-03 -6.45996306e-04 -2.22361358e-03  4.11883684e-03
  2.69155572e-05 -1.29550593e-03  2.62858024e-03  1.19002096e-03
  6.36561370e-04 -4.35638802e-05  1.75895493e-05  3.45264686e-06
 -3.13073158e-05 -8.33080084e-06  3.40399947e-04  1.97534284e-03
 -4.91299440e-04 -2.19574802e-04 -1.66034125e-03  1.78786637e-03
  1.07568943e-03  3.08284044e-03 -3.79738441e-03 -5.00958854e-03
 -7.44737317e-04  1.48712266e-03  1.16614611e-04  4.42169965e-05
 -5.75172011e-04  7.24657238e-05  4.48334632e-05 -5.02959446e-03
 -9.17057888e-05  1.14958932e-03  4.43710351e-03 -1.31886479e-04
  4.34817523e-06 -3.93692976e-03  2.69279151e-03 -6.49626913e-04
  2.52694032e-03  5.58486237e-04  3.40859657e-04 -1.68764434e-04
 -3.52568662e-05  3.10479591e-06 -4.86004775e-05 -2.52686588e-03
  3.76311310e-04 -1.36098847e-03  4.87884399e-04 -1.17649151e-04
  1.11284384e-03  7.27808233e-05  6.70858060e-04 -1.26487511e-05
  8.93460356e-05  3.09275011e-05 -8.09685338e-04 -2.21648223e-03
  2.08771629e-04 -4.20562672e-05  6.67160167e-05  1.10287053e-03
  3.52121274e-04  2.48541511e-03  7.12779476e-04  6.55007573e-05
 -1.78764106e-04  3.00691984e-03  1.83550018e-04  1.90886117e-03
  4.41314080e-03  1.61131755e-03 -3.84175552e-03 -2.78966621e-05
 -3.79060990e-03  9.59853923e-06 -2.42839787e-05  1.18732731e-03
  1.81267514e-03 -6.28191977e-06  2.36088288e-03  4.93793068e-04
 -3.81121479e-03 -3.66466609e-04 -3.95969390e-04  2.47332050e-04
  4.29008726e-04 -4.49423716e-03 -1.39782485e-03  3.19100290e-04
 -1.66853721e-05 -5.46637605e-05 -2.11780565e-03 -2.80146993e-06
 -4.52703480e-04 -2.23206544e-04 -1.49676156e-03 -4.02221875e-03
 -4.07941837e-03 -1.85928576e-03 -6.33144678e-04  3.19856669e-03
  4.45014536e-05 -1.08081310e-03  7.84519350e-05  1.02635340e-03
  8.13941997e-04  2.50258535e-03 -9.40218917e-05  4.22448553e-03
 -1.82657123e-04  3.11796432e-03  9.99078674e-04  1.18254976e-03
  5.48743234e-04 -4.67701670e-03  3.55437037e-03  2.04740830e-03
 -9.81074883e-05  4.77894145e-04 -4.45553649e-03 -1.45563916e-03
 -7.01282667e-04  1.57578948e-03 -2.24514024e-04  1.10235296e-03
  1.36772635e-03  7.93044689e-04  4.19783737e-03  1.74466256e-04
 -8.15396404e-05 -6.78000279e-04  1.87549888e-03  3.54786385e-04
 -2.19446023e-03 -4.73921229e-03  5.00127095e-04 -1.24654366e-04
 -2.28102042e-03  3.16570200e-04  9.18650010e-04 -1.94216009e-03
  8.58688665e-04  6.80563654e-05  1.49829376e-04  5.04945679e-04
 -2.13744522e-03  4.09168860e-03  9.22995786e-05 -4.80896255e-03
  7.77624963e-04 -4.07096826e-03 -2.53785267e-04  5.10676154e-04
 -6.31044958e-05 -1.59851806e-04  7.18006101e-08  4.27291302e-06
 -2.13617725e-03  1.17064976e-03 -2.36225120e-04 -3.44790591e-03
 -2.74840792e-03  2.72943880e-04  1.94204701e-03  5.92389775e-05
 -4.67147794e-06 -1.50785061e-03  3.73991321e-04  2.37601165e-05
  2.27971756e-05 -1.16696520e-03  2.45339013e-05 -1.15373100e-03
 -1.34592703e-03 -1.85570322e-03 -2.79667118e-03  2.73067495e-03
 -5.02056376e-06  1.86276730e-03  2.55018674e-03  8.01963345e-04
  3.62278261e-03  9.55709717e-04 -4.44994163e-03  2.14432903e-03
  1.39995578e-03  1.23974595e-05  1.14560259e-04  9.57386999e-06
  2.09042879e-05 -3.16270276e-03 -3.48653984e-04 -2.73195104e-03
  1.83632164e-03  1.92759741e-04 -1.09159099e-03 -1.22740049e-03
  2.19066739e-05 -6.78706793e-04  3.61675196e-04  1.36365444e-04
 -1.99170068e-04  2.27961610e-05 -6.69945406e-04 -3.56842901e-03]
[-1.16413466e-03 -4.77813255e-04 -2.11377405e-04 -1.53597192e-05
 -3.42268863e-04  6.25968624e-04  2.08138971e-03  4.19763225e-03
 -5.72571299e-05 -1.13554176e-03  5.50411003e-06 -2.45323976e-04
 -5.01774354e-03 -5.03020335e-05 -1.84734485e-05 -2.83802010e-03
  5.27334147e-05  4.66601189e-04  4.15212768e-04  1.63321794e-03
 -9.48978985e-04  7.32278072e-04  3.61856715e-03 -2.11892500e-03
  2.36134015e-03  2.45213779e-04 -2.16706383e-03  3.01403170e-05
 -5.16909318e-04  3.39151677e-03  5.42851638e-04  1.70702416e-03
  4.56663313e-05  2.76639674e-05  5.95419359e-04  1.23496631e-04
  4.04656321e-03  4.81192393e-05  7.89239173e-04 -2.96619835e-05
  4.59993286e-04 -1.18613006e-04 -3.98086299e-03 -6.24557956e-04
  3.62561777e-04 -1.74822170e-03 -1.03486086e-03  1.63450776e-04
  2.30524555e-03  3.32848183e-05  3.44754357e-04 -3.05671067e-06
  3.05847473e-06 -4.86370048e-04 -9.36490578e-04 -4.49877940e-03
 -1.07577376e-03  2.01857520e-03 -3.42131637e-03  5.13211626e-04
  1.36336587e-03 -3.42261355e-04  1.80151018e-04 -3.14287944e-05
 -2.79204867e-03 -8.22366679e-04 -5.35237973e-05 -1.83027595e-03
 -1.37616116e-04 -1.14598274e-03 -1.99296573e-03  1.36521083e-03
  3.57243768e-03  4.60000972e-04  1.51501198e-05  1.65379230e-06
  5.41577116e-05  1.22504528e-03  2.41364078e-05  2.38475261e-05
 -2.01847031e-04  1.93679038e-04  1.96759510e-03  5.80581893e-05
  9.95823275e-04  2.85924031e-03 -1.81838084e-03  4.16204695e-03
 -8.48773841e-04 -8.70172259e-05  5.79053685e-05  1.30237751e-03
  2.51200579e-03  2.80295800e-03  5.66769901e-04 -1.75533765e-03
  1.45434053e-03  3.69422092e-04 -4.01956114e-06 -1.40227093e-03
  4.10339672e-04 -2.02230715e-04  1.70594468e-04 -3.34846168e-06
 -4.66692410e-03 -3.07202535e-04 -1.40065074e-03 -3.67306794e-03
 -8.20790086e-05  1.44986434e-03 -3.41858002e-03 -4.54646021e-03
  3.15787599e-03 -4.18526796e-03 -9.04676654e-06  3.71634884e-05
  8.20252107e-05  2.02478490e-03 -2.96724157e-06  7.25464375e-04
 -7.42463993e-04 -1.49402742e-03 -4.80913703e-03  1.77014291e-03
  2.96451592e-04  1.32046016e-03 -8.82891041e-05  3.42125436e-03
  1.09115829e-04  1.67325425e-04 -4.03044842e-03 -3.42264342e-04
 -1.24882792e-03  1.10745555e-05 -2.28699944e-03 -2.90895580e-03
  1.01514399e-03  3.59268409e-03  1.02776510e-03 -8.87258603e-04
 -1.10874760e-03 -4.55983475e-03 -3.25070532e-03  2.24897578e-03
 -3.78013949e-03  2.02240741e-05 -2.57302549e-03  1.03281890e-05
  1.93030475e-03 -9.23053398e-04  1.42430725e-04  1.67020711e-06
  2.26121006e-04  4.50076483e-04  4.19078367e-03 -4.85746252e-05
 -4.25984628e-03 -4.95896300e-04  2.14634290e-03 -3.67388121e-06
 -1.91494159e-03 -1.69788723e-05 -2.74818496e-03  4.69069489e-03
  1.82774691e-03 -2.02167026e-03 -1.57247950e-04  1.60162627e-05
  4.47177030e-03  2.60280175e-04  9.11329752e-05 -1.18448129e-03
  9.15215775e-04  1.36685831e-04 -3.44398636e-04  2.95438969e-05
 -2.62307405e-03 -6.34579086e-05  1.43153058e-04  5.42285003e-05
 -9.86037630e-06  3.35628615e-03 -4.73674379e-05  3.18206156e-04
  1.54330224e-04 -1.86525914e-03  7.13344214e-04  2.52762807e-03
 -1.04266756e-03 -4.85393770e-06  1.30974643e-05 -2.31516798e-03
  1.31272806e-04 -4.19604285e-03  5.08311177e-03 -2.89434471e-04
  5.61723486e-04  1.18765523e-03 -4.83305073e-03  4.22358549e-04
  3.48196290e-05  3.91396302e-05 -3.06155280e-04 -2.55794511e-04
 -7.75638313e-05 -1.63017125e-03 -1.56167281e-05  1.35295592e-03
 -4.67108068e-03  1.43804020e-04  1.06331711e-03 -2.37988391e-04
  4.00757717e-03 -3.35786252e-03  3.73255555e-03 -5.07267964e-04
 -9.83627773e-06  5.92629813e-04 -7.83676094e-04 -4.25560564e-03
 -1.08603856e-05 -1.57935289e-03 -2.60085443e-04 -3.53001078e-04
  8.82528304e-06  2.27194876e-03 -9.04085500e-04  8.57831917e-06
 -1.00459798e-03 -1.76803206e-03 -8.42414324e-04  1.07378786e-03
  2.57029442e-03 -1.56633039e-03  1.17328085e-03 -3.22720807e-03
  5.09930373e-03  3.65320959e-03  3.50472253e-03 -2.70778450e-03
 -4.04535437e-05 -1.71975033e-03  2.62194408e-03  2.67991992e-03
  1.20787913e-04  5.28935791e-04 -4.56293472e-05  7.95884179e-05
 -5.25096700e-04 -1.74345210e-04 -4.06929641e-03 -6.87549074e-04
  4.36499428e-05 -1.03145695e-03 -7.21291739e-05  3.35989207e-03]
[-2.87758779e-04  2.37243475e-03 -8.75238305e-04  3.51758182e-05
  5.79314148e-04 -4.92394290e-03 -9.66551221e-04 -2.35409229e-03
  6.95151619e-04  2.39013221e-05  1.47228955e-04  2.09486189e-03
 -1.71594846e-04 -1.42146591e-04  9.76939332e-04 -5.81557986e-04
 -1.13555570e-03 -1.25097075e-03  2.61718006e-05 -1.39486789e-04
  6.02060344e-04 -1.34370555e-03  5.33340115e-04  2.88421640e-03
 -1.80394928e-03 -3.38239402e-03  2.88612905e-03  4.33726716e-04
 -4.25057603e-04  2.42480254e-04  2.36225129e-03  3.37043361e-04
  1.81565373e-04  1.58667926e-03  3.51050036e-03 -1.51708722e-05
  2.01598783e-04  1.08215873e-03 -1.97189241e-03  2.46107007e-03
  2.67227887e-04 -8.26914717e-05  1.65193891e-06  1.44605901e-03
 -3.51968969e-03 -6.09635172e-04 -3.63660387e-04 -4.03770023e-05
  4.40671224e-04 -3.13956585e-03 -9.54515510e-04  2.53478861e-03
  2.10216420e-04 -1.48718031e-04  8.14830930e-04 -1.42311032e-04
 -2.33949959e-03 -2.98286711e-04 -1.11598766e-03  9.09559107e-06
  1.66144599e-03  1.28131534e-03  4.34841894e-03 -5.06309908e-06
  5.44591105e-04  2.93046292e-03 -8.84908617e-04 -5.89961687e-05
 -4.60911275e-03 -2.74081073e-03 -1.88931595e-03  7.49915351e-04
  3.07223498e-03 -4.91019882e-03  5.01194840e-03  9.18715430e-04
  7.86628660e-04  1.92447818e-03  4.28120495e-03 -5.16741271e-05
  6.45308962e-05  9.57171089e-05 -2.30793016e-04  5.79603162e-04
  3.02148642e-03  6.00091737e-06  4.05327072e-06  4.72096666e-04
  1.17075292e-03 -3.00572991e-04 -5.18816066e-04  4.91104532e-03
 -2.02085711e-04 -2.43449855e-03 -1.10345352e-03 -4.93112427e-03
 -1.93825090e-04 -3.86496004e-03  2.03296623e-03 -1.31822170e-04
 -1.46616541e-03  2.64794075e-03 -4.10564933e-04  3.54676181e-04
 -4.22778092e-03  6.77347520e-04 -3.20282748e-04  9.93251148e-05
 -1.28214038e-04 -3.77181236e-03  3.48048055e-03 -2.05403448e-04
 -3.51948447e-05  2.72370788e-04  2.10837973e-03 -1.29658210e-04
 -2.97804509e-04 -3.31249078e-03 -1.95578378e-04 -1.57454418e-03
  6.29103008e-04  2.44581821e-04 -2.13001966e-03 -1.52312665e-03
 -1.38844514e-04 -1.54833890e-04 -1.73455172e-03 -3.32963587e-05
 -2.43307322e-03 -8.10054134e-05 -7.83851108e-05 -2.63982288e-03
 -8.22106421e-04 -5.70689699e-06  8.60095322e-04 -1.94016471e-04
  1.20869813e-04  4.40073692e-04  4.26496176e-03 -2.12483995e-04
  1.14083824e-04  3.52669555e-04 -6.22614482e-05  1.00210988e-04
 -2.85308732e-05  1.84649077e-03  1.61212235e-03  1.91174211e-05
  1.21617261e-03  5.83771530e-04 -1.36915012e-03 -3.09312349e-04
  1.06668370e-03  9.58953645e-04  2.78434012e-03  1.11982237e-03
  4.37838972e-04 -4.82493054e-03 -6.05451093e-04 -2.78628951e-04
  1.00141868e-03 -1.30935990e-04  2.37788107e-03  3.56474162e-05
 -1.11067049e-04 -1.26595705e-03 -4.76633332e-04 -2.55132575e-03
 -2.98000805e-03 -8.14792245e-04 -2.06634673e-04 -5.88731929e-05
  6.61839565e-05 -5.65692185e-04  8.51983399e-05  2.58320040e-03
 -2.39063674e-03  3.77413898e-04  3.23371986e-03  3.39391068e-04
 -1.40301701e-03 -1.51315231e-03  1.53734769e-03  1.80418793e-03
 -2.59103889e-03  1.32386508e-04  4.83448022e-03  6.61748663e-04
 -1.18630204e-03 -1.61516181e-03  4.13717327e-04  1.98733332e-04
  1.90463407e-06 -4.05905767e-04 -7.93286281e-05 -1.97375883e-05
 -2.18042794e-04  6.16812283e-04  9.75703340e-04 -1.38102839e-03
 -2.76622524e-04 -1.89399405e-03 -1.40313817e-04 -7.48280444e-04
 -2.47065754e-03 -2.33839772e-03  3.56047680e-04 -7.54795792e-04
 -3.96855692e-04 -4.29664992e-03  2.39193647e-04  3.38633371e-03
 -1.46703675e-03  1.97825868e-03 -2.33469601e-05 -3.34789485e-04
 -3.94226612e-04 -2.33485999e-04  4.30095050e-05  2.09481132e-03
 -2.81929711e-03  1.85566758e-03 -7.19732294e-04  2.94510429e-04
  7.95096068e-04 -1.34952855e-03  4.00942274e-03  1.45523548e-04
 -2.35216108e-03 -2.19768618e-04 -7.93864079e-05 -3.88172375e-03
  3.01096988e-04  1.42369579e-03 -4.05610151e-03 -1.25229040e-03
  1.20547214e-06  1.84343080e-04 -4.83364714e-04 -6.01928570e-05
  7.59057982e-04 -2.65389659e-04  3.96875261e-04  2.27982318e-03
  8.58361754e-04 -1.54217437e-03  2.46025537e-05 -2.10152140e-03
 -2.81691719e-03  3.21162382e-03 -7.00095580e-04  2.46489053e-03
  7.57977152e-04 -3.21117882e-03 -1.04656131e-03 -1.81243465e-03]
[-1.06657843e-03 -9.74006837e-06 -3.35975482e-03 -6.86535319e-04
 -2.27633135e-03  3.02515429e-03  1.13946308e-03 -3.66465228e-04
 -5.48895074e-06  8.76935198e-04 -3.80861872e-05  6.86800798e-04
  2.47797924e-03 -5.23638621e-05  2.90887166e-04 -3.88558773e-06
  7.32922715e-04 -2.95204596e-03 -1.34450726e-03 -1.54260486e-03
  1.08822449e-05  1.69015501e-03  2.25292981e-03  1.17616276e-03
  1.21893869e-03  3.60382629e-05 -7.09967419e-04 -4.15641051e-03
  2.45652007e-03  3.02419486e-03  6.12553535e-05 -1.07377392e-04
  4.58208622e-04 -4.97372896e-04  4.48870803e-03  8.85006564e-05
 -2.46474589e-03 -2.51734550e-03  3.48338669e-04 -6.07109140e-04
 -5.29417787e-06 -7.74849935e-04  4.59976678e-03 -3.01362599e-05
 -8.54532482e-04 -1.88834153e-03 -2.95943653e-04  1.60500570e-05
 -6.47071202e-04  1.50941270e-04 -3.02040545e-03  2.38435293e-03
 -2.34948355e-05  2.40659575e-03 -2.49875045e-06  4.65522675e-03
  2.61923612e-03  3.29760132e-04  5.43920360e-05  3.18403292e-03
  2.80208167e-03  2.16154686e-03  1.79617824e-03 -1.92291650e-04
  9.91136683e-05  5.97072653e-06 -4.63913351e-03 -4.07113646e-03
  1.06778248e-03  3.39377537e-04  1.02345881e-03  4.14745881e-03
 -4.04996262e-03 -4.01638223e-04 -4.82566781e-03 -5.69543917e-05
 -1.48209247e-04  2.42482508e-04  2.18539268e-03  8.80752258e-04
  4.37808854e-03  2.30935739e-04 -6.88036605e-05 -1.47985007e-04
 -1.91818722e-04 -2.15130298e-03 -2.84080251e-04 -1.41138384e-04
  1.62095266e-03 -4.83113710e-04  1.02193774e-04 -1.88429599e-06
 -7.37361763e-04  1.81747701e-04 -2.41135297e-05  1.99452856e-03
  7.16851302e-04 -6.45496634e-04 -1.05233686e-03 -9.46770701e-04
 -6.55860926e-04  1.13984428e-04 -4.95614260e-03 -2.40369439e-03
  1.33355271e-03 -3.21651451e-04  2.04963507e-05 -7.32201775e-04
  4.81548627e-04 -2.84078444e-05 -3.08913594e-03 -9.96759378e-05
 -3.69810238e-04  1.12150956e-03  7.81096975e-04 -4.15362809e-03
 -4.62278042e-03  1.17719774e-03 -4.00562235e-03  3.11770765e-03
 -1.75989516e-03  2.06163637e-03  3.39424706e-03 -3.06171947e-03
 -1.75877025e-04 -3.68471971e-03 -1.98288060e-03  4.42114398e-03
 -4.05555873e-03  1.64919877e-05  1.30236617e-03 -2.58300393e-03
 -1.39314444e-03  4.23063515e-03  2.21566516e-04 -7.20185566e-05
 -2.06957814e-03 -4.95311390e-04  4.25154329e-03  6.59011461e-05
  1.58902184e-03  1.66390822e-04 -1.71576584e-04  2.01460225e-03
 -3.13604806e-03  1.53511042e-03  3.54541888e-06  6.52724074e-04
  2.55161413e-04  6.60349317e-05 -7.84289102e-04 -1.22095441e-03
 -5.07396692e-03 -4.94688931e-03  4.47821418e-03 -5.66294996e-05
 -2.57779805e-03 -2.53628828e-05 -6.11679717e-04  1.84110259e-03
  1.48601163e-04 -4.37748668e-03  4.58600903e-03 -2.32484918e-03
  3.58703543e-03  1.87013323e-03  3.09333505e-03  4.28497533e-03
  5.52131610e-04 -1.25449992e-03 -2.91845989e-03  8.09382012e-05
  3.98376055e-03 -9.00737299e-04 -4.10964092e-03 -1.80356091e-05
 -3.42385352e-04 -1.09676552e-05  2.94642273e-03  1.44776854e-03
 -1.96013374e-03 -2.56182931e-04  2.77194963e-03 -3.73757057e-07
 -5.66191312e-04 -6.15230667e-05  2.15604653e-04 -4.55110975e-03
  1.56466995e-03 -2.17616517e-04 -1.30227105e-05 -6.26554707e-04
 -7.39184421e-04  2.33745189e-06 -9.04822190e-05  2.04373922e-03
 -6.16840895e-05  3.04041994e-03 -1.06828021e-03  1.32287503e-04
  7.84288574e-04 -5.02333639e-03 -9.33997087e-05 -3.32550018e-05
  1.66475204e-04  5.01375711e-03 -4.28161141e-03 -3.23489770e-04
 -4.91911847e-03 -7.27159697e-04  9.78786306e-04 -1.76913826e-03
 -3.36869839e-03 -2.69379226e-03 -2.50815616e-04  2.48222552e-03
 -1.09193837e-04  1.16492416e-03 -1.04445403e-04  1.82559777e-06
  8.88718929e-04  5.31944846e-06  1.52792278e-06  1.18268959e-03
  2.81153449e-03 -1.75403270e-03  9.48050482e-04 -1.07430769e-03
 -2.40643735e-04 -2.43576578e-04 -1.76911674e-03 -3.52631346e-04
  4.94410643e-03 -3.84907628e-03  8.62000579e-04 -2.48622915e-03
 -4.03653776e-03  1.83326036e-04 -3.35684711e-04 -1.37419988e-04
  2.66809870e-04 -5.10479093e-03 -3.73338675e-07  2.88262779e-03
  7.89406464e-04 -7.65372381e-05  1.19374492e-03 -1.29109858e-03
 -1.59921065e-03 -4.01280945e-04  1.14914004e-04 -1.42515387e-03
  4.73467270e-05  1.27442490e-03 -3.94268858e-03  3.13079010e-04]
[-2.73768843e-05  1.79310924e-03  2.07652502e-03  5.26536073e-04
  4.87406982e-04 -1.49616964e-04  5.09179246e-05 -1.41673773e-03
 -1.05972346e-03 -2.70870855e-05  8.16187749e-05 -4.71303372e-03
  1.40106336e-04  1.73222742e-04  3.35005602e-03 -2.99901791e-05
  4.80284276e-04 -3.04048765e-03  4.98473778e-03 -7.31081859e-04
  1.10451028e-03  1.18602021e-03  1.49085405e-04  3.01585069e-04
  7.37238282e-04  2.20140130e-03  1.31389246e-05 -4.99689511e-03
 -4.36140529e-03 -2.92641954e-05 -6.74940233e-04  2.66292220e-03
  2.54834414e-03  4.78097693e-03  2.08548438e-03 -5.71918589e-05
 -1.06556290e-03 -3.32174387e-03  5.10719621e-05  1.63719931e-03
  1.84425067e-03 -1.70996377e-06 -2.20138636e-06 -3.54869912e-03
 -5.02878720e-04  8.62798028e-05 -1.72185037e-05 -1.07289241e-03
  3.31926522e-05  2.94476658e-05  2.32219437e-04 -2.05546938e-04
 -1.17363151e-04 -1.57630502e-03 -4.00180087e-03 -1.66227921e-03
  4.86048722e-04 -8.79079956e-05  2.98959464e-04  3.24957901e-03
 -1.50881599e-06 -6.61174298e-06  7.98824286e-05  1.92742491e-06
 -2.67715569e-04 -2.98405840e-03  4.50621880e-06  3.17760219e-04
 -3.50401073e-03 -6.71496779e-04 -8.85374948e-05  3.50862955e-03
 -2.70836106e-04  2.81569196e-04 -3.01219665e-04 -1.60246922e-03
 -5.04434028e-03  4.76949052e-03 -2.34586982e-03 -9.14548865e-05
 -2.38938708e-03 -2.17559730e-03 -1.23557072e-03 -2.26490745e-03
  3.59222098e-03 -2.03972612e-04 -2.35782201e-03  3.74268045e-04
 -2.57212312e-03 -1.30469582e-06  1.50148075e-03 -2.59934298e-05
 -2.97697032e-04  5.40913879e-04 -2.63223649e-03  4.60624821e-04
  2.10839300e-03  1.39639724e-03 -8.82176090e-04 -1.82931213e-03
 -4.86402778e-05  1.26355416e-03  1.31168563e-03 -1.47986222e-03
  1.54372526e-03 -2.99441131e-07  1.24524643e-03  1.05420833e-04
  5.72227916e-04 -1.44205148e-05 -7.25942640e-04  3.76950336e-04
 -8.06683137e-04  2.30118671e-04  1.22465365e-03  4.19248013e-03
  3.83083424e-03  5.61460555e-05 -2.85198319e-04 -3.39805098e-03
 -1.31350874e-03 -1.26516022e-03 -4.60851522e-04 -2.39054483e-04
 -3.80325634e-04 -1.97946373e-03  2.21549718e-04  1.49456290e-03
 -9.87477697e-04  4.28544882e-04  2.70970158e-03 -6.71385259e-04
  1.05804123e-03  1.28781400e-03  1.23511367e-03 -2.29707468e-03
  1.16101856e-04  2.52044537e-04  3.31503837e-04  1.30719677e-03
  1.64950970e-04 -1.35796655e-04  1.58645068e-03  8.70785400e-05
  1.63980199e-05  4.27968423e-03  1.27325472e-03 -3.91901434e-04
 -1.90948370e-04 -4.47164349e-03 -1.64989228e-05  1.91058268e-03
  4.07283511e-05  3.33790562e-03 -4.64502118e-04  4.00829048e-03
 -1.30497274e-03  1.31032220e-04  1.92365453e-03 -4.94003146e-03
 -1.12534445e-03 -4.26982983e-05  5.86573867e-06  1.80105319e-04
 -1.61228908e-04  3.93360089e-03 -1.32232325e-04 -7.01654993e-04
 -4.54881584e-05  1.96065994e-04 -3.38872657e-03  1.32368518e-04
  4.16986032e-03 -1.82493915e-04  3.18713764e-03 -4.34043420e-04
 -6.08837892e-04  3.09817455e-05  3.89855147e-04  1.17963839e-03
  6.64944545e-06 -2.43692066e-03  3.33574090e-03 -6.78442945e-04
  1.40603919e-03  1.82824833e-05  2.85998431e-03 -4.68896334e-03
 -4.62677231e-03  1.12116056e-03  1.25999846e-03  1.46342015e-03
  1.84875875e-03  3.89453910e-04  4.24549593e-03 -1.27983207e-04
  1.08148654e-04  1.52384237e-03  8.87925794e-05  4.77585838e-03
 -1.17452107e-03 -3.20739433e-03 -3.09300272e-03  6.65731829e-04
 -2.34096418e-04  8.02834897e-04  1.95385827e-04  5.83365373e-04
 -1.43285113e-03  1.30429372e-04 -5.18967677e-04  1.43767546e-04
 -1.29065550e-03 -8.03944327e-04 -2.69860772e-04 -5.70256196e-04
  2.90608648e-03  4.33821357e-04 -1.34111300e-03  3.73233910e-05
  2.33183199e-03 -3.00498848e-04  3.59740520e-04  1.44488615e-03
 -4.19804102e-03  1.15555034e-04  9.73011022e-04 -1.29277817e-03
  4.84952227e-04  4.81204259e-03 -8.28884836e-04 -9.89746686e-04
  1.28353464e-04  1.01150037e-03 -1.08920417e-03  1.99510407e-04
  2.87519979e-03 -2.07512231e-03 -3.78038557e-03 -1.46612148e-03
  8.53320842e-04 -7.51158483e-04  1.25956073e-04 -5.61617627e-06
 -1.57682700e-04 -2.76082964e-05 -1.26287142e-04 -1.43470082e-03
 -3.36336701e-03 -2.43165385e-03  3.45735177e-05 -3.53917388e-04
  4.76639063e-04 -3.64188056e-04  2.50323377e-04 -4.82168330e-04]
[-4.43733218e-03  3.03314290e-04 -3.36646088e-04  2.78418424e-05
  3.99186620e-03  1.27553215e-03  8.08383839e-04 -2.89756989e-03
 -1.90292885e-04  4.50935123e-03 -6.71256067e-06  1.77535398e-03
 -2.31985373e-04 -9.54375847e-04  1.26360362e-03 -2.34449691e-03
  1.44807736e-03  1.61912625e-03  8.62489001e-04  8.92877557e-04
 -5.51321280e-04 -4.27136377e-03 -5.11009652e-04 -2.59354819e-03
 -1.51315801e-04 -7.94833200e-06  2.64002032e-03 -3.50321081e-03
  2.81299387e-03  6.87188069e-07 -2.96293216e-05  5.73251153e-04
 -1.93124348e-04  3.32253185e-04  4.73110672e-05 -2.25123522e-03
 -5.25238312e-04 -1.44705376e-03  5.50591039e-04  6.25010663e-04
 -1.10878255e-04  8.67157767e-05 -2.73451777e-06  8.92023515e-04
 -4.94501622e-03  4.02770919e-03 -3.25505884e-03 -6.53581672e-04
 -1.99383731e-03 -6.81182326e-04  3.16138042e-04  3.38153109e-05
 -1.79348171e-03  1.19707494e-03  8.69994104e-05 -1.15356423e-03
 -1.05528592e-04 -4.77257824e-03 -1.22485470e-03 -4.14160296e-04
 -3.10640794e-03 -1.15138359e-03  8.38575678e-06  4.11548999e-03
 -3.39863926e-03  4.98530164e-04  2.26873038e-04 -1.27033000e-05
  1.24000107e-03 -2.13104858e-03  2.92496379e-03 -6.48788951e-06
  5.46795330e-05 -4.97501098e-03 -1.73952078e-03 -9.06536998e-04
 -1.77409313e-03  1.35755482e-03 -1.86837527e-05 -4.33407037e-04
  2.87011011e-04  2.56363467e-03  2.51482952e-03 -6.45964923e-04
 -1.63731975e-04 -1.99599068e-03 -2.72735517e-04  1.67659911e-04
 -1.17175439e-04  1.33802605e-04  9.23075685e-04 -2.46619843e-04
 -4.54234630e-04 -2.47911536e-03 -4.51093266e-04  4.82292538e-03
  4.43078711e-03  1.62768413e-05 -2.19493047e-03 -4.61634568e-04
 -4.74329411e-03 -3.08796395e-04 -2.13722479e-07  2.96757715e-04
 -6.86298098e-04  7.00960568e-04 -3.27146832e-03 -2.33170758e-03
 -2.44218632e-03 -4.26628697e-03 -1.44079138e-04 -1.52802906e-04
 -2.75777968e-03 -6.34877557e-05 -1.96936067e-04 -9.11326850e-04
  8.42332594e-05 -1.69117504e-04 -1.85098873e-03  7.81749792e-04
 -1.80394225e-04  4.63852141e-04 -1.15024069e-04 -4.85279951e-03
 -1.44915006e-05  1.09134679e-04  7.62734562e-04 -1.14797216e-03
  2.28373800e-03  4.61336270e-04 -2.80282150e-03 -6.52091083e-04
 -2.71984288e-03 -1.26377641e-03 -1.35238065e-04  2.65259786e-04
 -1.42758251e-03 -2.78702703e-05 -2.14262931e-04  7.07693838e-05
  5.77822424e-04 -3.99971984e-03  6.07725767e-05  6.26530653e-05
  1.17068436e-04 -9.10140128e-04  1.67100026e-04 -4.99310328e-03
  9.87961890e-04  1.78691415e-03 -2.02178238e-03  2.40546976e-05
  1.92602030e-03 -1.74038471e-03  5.30915602e-05 -1.43271199e-03
  8.00917244e-04 -4.04633957e-03  1.47242435e-03  2.02440608e-05
  3.06572483e-04 -4.22450115e-03  4.92320710e-03  2.87249915e-05
  1.81079822e-04  3.41465454e-03 -1.15781356e-04  1.79090977e-03
  4.11122206e-03 -1.10715397e-03 -3.45146268e-03 -4.38852028e-04
  9.17567102e-04  2.38836277e-04 -8.37947950e-04 -4.24093276e-04
  2.40289556e-04  1.24481372e-04  8.87400751e-05  2.90112378e-04
 -1.42548346e-04  8.89646969e-04  1.46278858e-03 -1.20335324e-03
 -3.64043655e-06  3.22148122e-04 -1.92814687e-03  1.92738021e-04
 -4.01515588e-04 -9.93121093e-04 -1.37839024e-04  9.82161694e-06
 -4.20146701e-03 -2.52041618e-04 -1.26619519e-04  1.33923595e-05
 -3.69798228e-03  1.90114393e-03 -1.15384432e-03  6.64822190e-04
  2.22053807e-03 -2.38114775e-03  6.04745376e-06 -5.14842728e-04
 -5.68381949e-04 -8.76094784e-06  2.10833948e-03  9.28478999e-05
  3.41198440e-03  6.32332576e-04  9.30989747e-05 -2.40120304e-03
 -3.74523556e-03 -1.36555649e-05  8.00772803e-04 -4.79331472e-03
 -3.95814387e-04  1.62871362e-03  3.16445972e-05  1.23363501e-04
  1.98142421e-03  1.18232509e-03  1.21329972e-03 -3.83515833e-03
  4.95573835e-05 -2.31315994e-03  1.04728652e-05  1.38046451e-04
  4.82097145e-03 -6.98631351e-04  2.57023032e-03  1.23902988e-04
  1.76727800e-03  9.91899888e-04 -2.22315715e-05 -2.00464098e-03
 -2.93938427e-03 -2.59112152e-04 -1.38704608e-05  3.21561308e-04
  1.12826276e-05 -1.29821747e-03 -2.01861839e-04  6.13494810e-04
 -4.61651970e-03  3.67334554e-04  3.16232984e-03  5.49700497e-04
 -9.57369062e-05 -3.56223177e-03 -9.29094684e-05 -4.15373074e-03
 -3.95541473e-04 -1.16252019e-03  3.64387494e-05 -8.01487249e-04]
[ 1.68651913e-04 -4.76923218e-03  1.48490979e-05  2.39035579e-03
 -2.25224568e-03 -2.24459879e-04  1.71339886e-03  6.60918264e-04
 -2.29792209e-03  1.06291280e-03 -1.22040718e-04  1.13233303e-03
 -9.79408807e-04 -2.23295915e-03 -1.23082165e-03  4.32676204e-03
  4.13019063e-03 -3.42816639e-04 -1.50046406e-04 -2.11061141e-05
  4.72044127e-04  1.14940861e-03  1.43525346e-03 -3.12657967e-03
 -2.03491021e-03  2.14480068e-07 -3.04862335e-03 -6.46326665e-04
 -2.50928095e-04 -3.84061652e-04 -5.65560593e-04  2.94493196e-03
 -1.35946553e-03  6.31407587e-06  3.26623381e-03 -1.10869938e-05
  4.08550743e-03 -2.19303922e-04  2.19077393e-04 -4.70149588e-04
  1.32826945e-03 -8.94357461e-05 -3.59726153e-05  3.28496937e-04
 -1.27917664e-03 -3.80404561e-03  1.47618875e-05 -3.45824829e-03
  3.53679174e-03 -1.40432542e-03  2.85507584e-03  2.02286757e-03
 -1.22149256e-03  2.96070652e-03 -2.07237790e-03  2.84708581e-04
  6.56925020e-04 -7.64028217e-05  2.14323698e-05  4.14451308e-03
 -1.57036333e-03  2.29040529e-03  2.79262368e-03 -2.56143603e-04
  2.81444455e-03  4.34954311e-03 -5.15390162e-05  7.60259079e-04
  1.04911135e-03  3.14991931e-05  4.08231836e-05  1.60622324e-03
 -4.53871035e-05  7.23187997e-05  3.22976353e-03  1.00854395e-03
 -3.25302902e-03 -3.57254892e-04  2.33944284e-06  2.85658534e-04
 -4.13831535e-03  1.38989419e-03  3.36881342e-03  4.16173326e-03
 -1.16719441e-03  8.43198517e-04 -2.38193437e-03  5.11474633e-05
  1.72904251e-03 -2.21100526e-03  1.91165958e-04  1.11392063e-03
 -7.68151764e-05 -5.17735351e-05 -3.61571690e-03  4.44997335e-03
 -2.17617677e-03  1.19396797e-03 -3.14549081e-03  8.45659134e-04
 -4.54262430e-03 -2.72497548e-03 -9.10400420e-04  8.47937483e-04
 -1.42524220e-03 -2.58742791e-06  5.27078842e-04  1.13943743e-03
  2.76620586e-04  2.61047071e-06 -4.67300217e-04 -1.40567550e-03
  3.08990075e-03 -4.20165555e-04 -4.51097088e-03 -2.15741325e-04
  1.44565603e-05  1.17303027e-03 -1.28837334e-05 -4.00999544e-03
  7.97830265e-05 -4.28849701e-03 -3.82982143e-04  5.61831293e-04
  2.55724481e-04  1.45424283e-03 -9.66710731e-04 -8.47433394e-04
 -2.08356340e-03  2.19508508e-03 -5.33021599e-05 -4.35082530e-03
  2.17351571e-03  1.68918354e-05  4.59598667e-03  9.50890286e-04
  8.70262425e-04 -3.66838263e-03  2.06057309e-05  5.69454936e-05
  3.98194399e-03  4.09891449e-03 -6.30869930e-04  1.41026367e-03
  3.38669868e-03  3.43137255e-03 -1.79507525e-04  1.30138674e-03
 -5.21848949e-06  4.05065288e-03 -2.78014294e-04  2.33014070e-03
  4.74073522e-03 -2.72110690e-03 -3.84263246e-05 -3.58968461e-03
 -3.31054461e-05 -1.96257555e-03 -4.32745291e-05  3.00247040e-06
  2.86733431e-03 -1.05619429e-03  3.77564406e-03  3.85004347e-03
  1.55304551e-03 -2.70917285e-03  4.37261220e-03  6.37162266e-04
  8.71428160e-04 -3.77537366e-03 -5.67853949e-05 -4.41377894e-03
  6.70003316e-05  1.09686983e-03  2.75663367e-04  1.27138464e-04
  2.12784591e-03 -6.41422290e-04 -1.44555211e-04  8.42728864e-05
  4.91459682e-03  2.27107692e-03  3.29425977e-03 -1.64908439e-03
 -2.86056913e-04 -4.73016690e-04  5.25182991e-04 -1.89390437e-04
  2.35191712e-03  1.80020392e-05 -1.10041978e-03 -1.10460719e-03
 -1.38244106e-04  1.34177291e-04  3.78663662e-04  4.29408828e-03
  3.21278830e-03 -3.99355018e-03 -8.65875668e-04  5.30496810e-04
  1.33916837e-03 -4.21599512e-03  3.81819933e-04 -3.32652862e-04
  7.05991771e-05 -7.14550144e-04 -1.91040194e-03 -2.75633811e-03
 -4.16718086e-03  4.83387525e-03  1.10040618e-03  2.45024655e-04
  3.00487503e-03 -3.81351563e-06 -1.55170124e-04 -9.04472734e-05
  7.48521992e-06 -3.21990663e-04 -3.23993797e-04  3.35656030e-04
 -3.70036571e-06  1.84028858e-03  4.58867409e-03 -1.96384212e-03
  7.52359525e-05 -7.82657386e-04  1.31864511e-06 -4.37721258e-04
  2.15399774e-03 -1.81461826e-03  1.19064303e-03  3.49967814e-05
  2.86798557e-03  6.25539612e-04 -3.46418480e-05 -2.56599494e-03
  1.64540517e-03  1.57312442e-03  4.05511461e-04 -1.02910685e-03
  1.48161253e-04  5.96773199e-04  2.42806225e-03  8.17244130e-05
  5.18733881e-04  1.20984335e-03  3.40667420e-04  4.23270019e-05
  4.98765152e-05  2.23551948e-03  1.11979153e-04  4.54686919e-05
  8.28077499e-04 -3.89106049e-04 -1.25967691e-03 -3.75296451e-05]
[-3.99487556e-04 -4.16544113e-03  1.14055563e-03 -2.25142123e-03
  8.18506613e-04  2.71734819e-03 -8.44809571e-04  3.04030545e-03
  6.23306717e-06 -2.20431334e-04  1.89820993e-03 -1.15456041e-03
  1.92435524e-03  2.78283889e-05 -4.05144132e-04 -1.28070539e-04
 -3.30762589e-05 -4.15629979e-05  1.82514464e-05  4.18341999e-03
  4.66319275e-03 -1.14883420e-05 -6.83005539e-04 -4.98966283e-04
  5.05887540e-03 -2.21331227e-03  8.63020905e-05 -4.74542005e-03
 -5.92233470e-04  8.98295167e-04 -1.49408446e-05 -1.31202157e-03
 -3.16511686e-03  1.91520839e-04 -4.82803791e-06 -5.18229572e-05
 -1.86551819e-03 -3.97940921e-03  2.57470733e-03  1.94809885e-03
 -2.95794673e-04 -1.54872847e-06  4.47153433e-04 -4.41156066e-03
  2.67781602e-03 -5.54140027e-04 -2.23737243e-04 -3.62505445e-03
 -2.71385924e-03  5.72348754e-04  4.58815093e-03 -8.57676118e-05
 -7.86817732e-04 -4.32576464e-03  1.48185867e-03 -1.57615168e-04
 -5.72110145e-04 -1.48760426e-03 -1.97823179e-06  9.98312461e-04
  7.94674045e-06  9.41882650e-04  1.91639131e-06 -3.53143782e-04
 -2.72900514e-05 -8.55867786e-05 -1.38719654e-04 -9.76395937e-05
  2.99913954e-03 -2.32698673e-04  1.17580504e-04 -1.24631488e-03
  8.27384700e-04 -1.45917538e-03 -1.34400973e-03  1.99545939e-04
 -2.71692101e-04  3.63257594e-04  2.12349354e-03 -1.53060639e-03
 -3.23651443e-05 -2.20446267e-03 -3.74180758e-04 -2.77926538e-05
 -1.97720378e-03 -2.56061091e-05 -3.17460127e-05  2.48327467e-04
 -3.03333948e-04  7.63310185e-06 -2.33249141e-03  3.80405701e-03
 -2.65678634e-03 -4.36316408e-04  2.48700791e-03  1.33619493e-03
  7.08149752e-04 -5.42739557e-05  9.56902578e-04  9.55549327e-04
  8.11743007e-04 -2.76722669e-05 -1.46025324e-03 -3.24169599e-04
  1.10941008e-03 -8.99665068e-04  1.28021247e-03  2.71575085e-03
  2.80372104e-04  1.02802202e-03  3.94075886e-03  1.63861723e-03
  4.40688185e-03  3.38904849e-03 -1.66774925e-04 -8.82701641e-04
 -1.70345798e-03  5.09110568e-04 -1.84464723e-03 -2.65430016e-07
  2.29000172e-03  1.62987365e-04 -3.57846821e-05  1.21132316e-03
  5.58644177e-04  4.61509386e-04 -2.59769850e-03  1.76130847e-03
  1.64960187e-03  1.40889863e-03 -8.40959973e-06  2.38949163e-03
 -3.81811159e-03 -1.72093373e-03 -6.06308085e-04  3.01455295e-04
 -1.64003097e-03  1.23712171e-05  4.95130368e-05  1.16117049e-05
  1.25853738e-04 -9.97906444e-04 -4.59155798e-04  7.47153368e-05
 -4.11489011e-03  6.60693521e-04  6.50788609e-04  3.98766071e-05
  9.81365395e-05 -7.08830549e-05 -3.19543280e-03  1.36340051e-03
 -4.60623928e-04 -8.82312897e-05  3.04005804e-03 -1.52112425e-04
 -8.05785699e-04 -3.34646791e-03 -8.04828215e-04  1.78489802e-03
 -1.04369291e-03  2.33108269e-03 -2.52722298e-04  4.58099742e-03
 -1.02122306e-04  1.36945971e-04  3.01904336e-05  4.20369633e-04
  1.10965786e-03  1.75757921e-05 -4.85740282e-04  2.85310935e-03
 -3.41772331e-03  1.63579576e-03 -3.96777290e-04 -2.88474072e-04
 -3.59033810e-03  2.43696621e-03 -2.22558511e-04 -2.57223481e-03
  3.34772529e-04 -1.77751838e-03 -1.69140836e-03  1.05904347e-04
 -4.61995141e-03 -4.28814156e-03  2.33515923e-03 -1.17295003e-04
  5.34224954e-05  2.88408848e-03  1.13159155e-04  3.44593129e-03
 -4.80930698e-04  5.10336762e-03 -3.10486497e-04 -1.49348659e-03
  2.75583297e-03 -1.04250364e-03 -1.24778424e-03 -8.95156125e-04
 -3.19291651e-03  2.90931306e-03 -4.87141712e-03  1.71517346e-03
 -5.17197707e-04  6.59712882e-06  3.97730469e-03  1.78759521e-05
 -5.04596311e-03  9.74151088e-04  1.18573972e-05  4.11298249e-04
 -1.13489375e-04  6.24149525e-06  1.82657249e-04  3.97559165e-03
  3.91069716e-04  2.59686609e-04 -7.73966667e-04  3.97108009e-05
  3.61447470e-03  8.81565253e-05 -6.20196750e-06  6.99078461e-05
  8.60422194e-04  4.13242180e-04  4.18104236e-03  4.93580980e-03
 -1.93632148e-03  5.51985382e-04  2.17347804e-05 -4.82893440e-03
 -2.19739652e-03  7.85008050e-04  2.51780115e-03 -6.87589532e-07
  1.99692563e-04 -2.80283495e-04 -8.64185410e-05 -1.47200933e-04
 -2.09239342e-03  2.40399396e-03  8.60746254e-04 -5.53705200e-06
 -2.18826748e-05 -6.50713534e-05 -4.34274535e-03  1.73628803e-03
 -5.33334893e-04  5.19721052e-05  4.19007981e-04 -1.64780901e-03
  1.55923199e-03  6.43653383e-04  1.31266463e-03 -2.34253541e-03]
[ 1.68655765e-03  8.32939847e-05 -8.84485432e-04 -9.02238391e-06
 -3.40358408e-03 -3.65153277e-03 -6.15758774e-04 -1.66821512e-04
 -2.03260209e-03 -4.45336481e-05  7.64699226e-04 -3.79396456e-03
 -2.28425361e-03 -2.13556650e-03 -2.18069461e-03 -2.66426827e-03
  6.83804158e-06  3.84394559e-03 -2.04147545e-04 -2.13872216e-04
 -1.82062825e-04  4.87578673e-05  7.10706922e-04 -1.15879855e-03
  4.28021466e-03  6.61914443e-04  6.05827608e-04 -3.46131371e-04
  3.25593279e-03 -1.98174072e-03 -3.00049974e-03 -7.34687451e-06
 -4.76699101e-05  2.95584860e-03  4.92568267e-04  8.10298010e-05
  4.24915224e-04  4.74750560e-05 -2.19265101e-04  9.03630548e-04
  8.43104109e-05  1.37919474e-03 -3.60848497e-03 -9.71381079e-04
  1.46447827e-03  1.46989652e-03 -2.33920778e-04  2.74926288e-03
  3.06664282e-03 -7.98159815e-05  2.96884213e-03  3.67212025e-05
  2.76466703e-05 -1.39058515e-03 -3.37150701e-06  1.16532419e-03
 -6.21394743e-04  9.55452902e-05  3.42232761e-03  1.88487813e-03
 -1.01603797e-03 -5.78511513e-06  1.56236751e-03  5.55098801e-04
 -7.00834661e-04  2.15852514e-03  8.18489131e-05  2.57881320e-03
  1.20090930e-04  3.56266654e-04 -1.25099685e-03 -5.04863122e-03
  3.30747656e-04  1.37634871e-04 -1.85181855e-04 -1.66534500e-06
 -2.47544216e-04 -3.67760477e-05  1.78572781e-05 -2.27538991e-03
  3.60514507e-03  4.21091896e-05  1.35096181e-04  2.04382911e-04
  1.11742758e-03 -4.17349061e-04  1.60471990e-04  9.51209413e-04
  4.56980694e-03 -2.71260182e-03  2.71605144e-04 -1.85573454e-03
 -2.80800849e-05  8.98722099e-05 -2.27669319e-03 -6.06954021e-04
  2.14347075e-03  7.59332860e-04 -3.00162213e-03 -1.33014115e-03
  8.47198352e-04  2.81448517e-04  3.68488897e-03  7.93148328e-04
  3.38231557e-03 -4.10071549e-03  2.36695126e-06  2.45186458e-03
  9.02590791e-04  2.72757732e-04  2.50355069e-04 -2.53788330e-03
 -7.28640222e-06 -7.18957591e-05 -1.86267251e-04 -2.23705844e-04
 -1.93745879e-03  9.41341266e-05 -3.13053119e-03 -7.88179775e-04
  1.45324340e-03  4.05133155e-03 -3.61200109e-04 -4.71913501e-03
  5.34811743e-06  1.58076419e-03 -4.83430630e-03 -1.14362263e-03
 -1.01901408e-05  3.96149089e-04  1.42452252e-03  9.68453550e-05
  4.00167802e-03 -1.59361382e-06  4.96254873e-03  4.31390122e-05
 -4.02608229e-03  2.44103727e-03  1.67359927e-03 -7.49026641e-04
  3.01308311e-05  1.10479366e-03 -1.85117422e-03  2.23830224e-05
  5.02672233e-03 -8.08122036e-05  4.58240334e-03 -2.24158058e-03
  1.61190161e-03 -3.49760032e-03 -5.82875864e-05 -3.94460732e-03
  2.76114495e-03 -2.19470502e-03 -1.94082648e-03 -2.31792341e-05
  4.73266847e-03 -6.11213038e-04 -1.38388918e-03 -3.28045067e-04
 -3.54979624e-03  4.68098139e-03  1.57894890e-05  5.22114810e-05
  1.30229322e-03 -1.82932664e-04  1.08977177e-03  1.51627176e-03
  2.56454053e-03 -8.53101746e-04  3.92223737e-03  2.06095213e-04
  4.86225632e-03  3.37742296e-03 -2.68533525e-04  4.89593290e-05
  4.51551092e-04  4.51769519e-04  1.29854236e-03 -4.89006797e-04
  2.02125606e-05  1.65292663e-03 -1.30905162e-04 -1.02871118e-03
  3.30167942e-04  2.48567961e-04 -2.43094447e-03 -4.53807192e-04
 -2.50336618e-03 -1.32075982e-03  3.87807668e-06  6.55219122e-04
  3.35240693e-04 -2.24782953e-04 -2.76335085e-03  1.92413066e-04
  4.85484501e-06  7.80564137e-04 -4.13878103e-03 -2.24262547e-04
  3.32063127e-03 -3.42713487e-03  1.93479135e-05  2.09001423e-04
 -1.26624860e-03  8.96851395e-05  6.55268283e-04  2.19185079e-03
 -3.51622359e-03  3.93209014e-05  3.13992821e-03 -4.43847171e-03
  6.44057739e-05 -2.67022036e-03 -1.76102404e-05  2.67092534e-03
 -2.44054817e-03  3.50846681e-03  6.09815376e-04  2.09943279e-03
 -4.39665643e-04  6.23234576e-05 -1.06656815e-03 -2.95209400e-03
  1.41600155e-03  2.44228355e-03 -9.74222502e-05  3.26858343e-03
  3.53721585e-04 -2.02011316e-03  1.40097883e-03 -8.58966610e-05
  3.46698228e-03  1.05006023e-04 -2.57240753e-05  3.69955662e-04
 -9.77813471e-04  6.14133389e-04 -1.21673557e-03  3.51176186e-03
 -1.76010420e-05 -1.81447420e-03  2.84997208e-03 -7.77404265e-04
  3.06467397e-03 -1.54969662e-05 -2.71559376e-05 -6.16397838e-04
 -9.91576965e-05 -8.59947370e-04 -8.85004980e-04  5.29017514e-04
  7.52149679e-07 -8.05004910e-04  8.14513888e-04 -6.98734397e-04]
[ 1.52417825e-04  3.88365523e-04  4.01758687e-03 -3.40362288e-04
 -3.16985060e-03 -3.35938299e-04 -1.63270412e-05 -1.86239664e-04
 -6.14139914e-05  5.01723679e-05 -2.04238758e-05  4.07045066e-05
 -2.57442041e-03 -1.85290446e-03 -5.18090275e-04 -3.34899350e-05
 -6.15480372e-05  4.94615277e-04 -9.82991853e-04  1.23034473e-03
 -4.26393794e-03  4.88217123e-03  3.44326580e-04  6.94628161e-04
 -3.74816023e-05 -3.41912563e-04  3.39077276e-03 -8.31808345e-05
  1.55368062e-03 -1.06913057e-04 -3.61787096e-06 -2.03787932e-03
  1.02704897e-04 -7.40159355e-04 -2.95240402e-03 -1.13153493e-06
  6.06150888e-05 -5.07686834e-03 -2.57765339e-04 -5.64178024e-05
 -2.14730255e-03 -4.87098014e-03 -9.08555439e-05  3.56916719e-03
  2.18950781e-03  7.23468838e-04  4.33586921e-04  9.66903115e-05
 -9.70943728e-05 -4.39158847e-03 -1.40734037e-03  5.02179850e-04
 -3.35672932e-03 -4.82366116e-03 -1.14075574e-03  3.10661759e-03
  8.22162896e-04 -3.23280951e-03 -1.16955735e-03  1.54568617e-05
  2.87960174e-03 -7.96305917e-04 -1.78053828e-03 -4.68428875e-03
 -1.45650883e-03  2.87627729e-05 -3.66133956e-03 -3.99161204e-03
 -7.08035735e-04  1.43402469e-05 -3.56113255e-03  3.79745348e-03
  3.21751305e-03  1.69969184e-05  2.47708607e-04 -4.35230372e-04
  1.17938250e-05  3.13013034e-03 -1.06686383e-03  3.67320504e-06
 -1.57486584e-03 -2.12076277e-04 -3.29547413e-03  4.50013955e-03
 -8.22439023e-04 -1.56518532e-05  7.79987459e-04 -1.01722046e-04
  2.05012808e-03 -4.31121753e-04 -6.76872393e-04  1.30290508e-04
  4.83999724e-03 -3.22768459e-03 -9.45971700e-05  1.14734593e-03
 -3.91866080e-03  1.33476232e-04  4.48834808e-03 -1.92772214e-03
  2.13241763e-03 -1.96933141e-03  4.94797677e-03 -2.08563390e-03
 -2.75372451e-04  1.01961948e-04  7.54755614e-04  5.32752917e-05
  4.39876728e-03  1.76154074e-04  2.16129851e-03 -1.67436129e-03
 -3.47831195e-03 -2.88429976e-03 -1.61731553e-04  1.56535427e-03
 -4.32141289e-04  4.58779991e-03  3.21307130e-03  3.69658672e-03
  1.49807348e-04  5.90118071e-04 -6.04523456e-04 -2.56827845e-03
 -2.04682732e-03  6.16744500e-07 -1.29460410e-04  4.45258826e-05
  1.17087953e-03  2.81478789e-05 -1.98207520e-03 -1.99768870e-04
 -3.77731444e-04  3.19292179e-03  8.85710909e-04  5.38433755e-04
 -3.60945892e-04 -5.65548674e-04 -3.01338916e-04  9.88646676e-04
  1.80357792e-03  3.07703013e-04 -4.82994072e-03 -4.08844137e-04
 -4.55029758e-04 -2.49862479e-03  1.58131536e-03  1.27810719e-05
 -2.00413017e-05  5.58130667e-04 -2.41209327e-03  1.73731015e-03
 -2.49496077e-03 -4.72053045e-04 -1.72719939e-03  6.36198761e-04
 -1.15346313e-03 -1.48093279e-03 -1.08628243e-05 -5.90353099e-04
  2.30670555e-04 -9.96923062e-06 -1.12196878e-03 -4.37531387e-03
 -2.72139487e-04 -2.54002491e-04  3.02507353e-04 -1.66379255e-03
 -6.92394423e-04 -6.61873253e-04 -2.93627905e-03 -1.56822771e-04
  1.52285979e-03 -6.63157284e-05 -4.05823512e-05 -7.75735564e-05
  2.34343354e-03 -4.51910568e-03  4.56531112e-03 -1.81428415e-03
 -3.61826830e-03  8.79679323e-04 -1.20031103e-03  3.62998421e-06
 -1.28145695e-04 -4.61758874e-03  6.28506271e-05  4.68092419e-03
 -2.51359399e-03 -4.03247743e-04  4.30392018e-04  1.17908834e-03
  2.82354056e-03 -6.41735526e-04 -1.00254830e-04 -1.54318086e-04
  1.94288679e-05  1.26457728e-04  3.99591420e-05  7.53041100e-05
  2.16820155e-03  4.09077252e-03 -2.56112731e-04 -1.89940435e-03
 -3.29986144e-03 -3.49407131e-04  3.38569715e-05  2.73749844e-03
  4.46910614e-04 -1.55502427e-03 -3.18501927e-03 -2.48701896e-03
 -1.04019520e-03 -3.29991660e-03 -6.37421536e-06 -6.35358878e-05
 -9.60662803e-05 -2.71054773e-03 -9.65702655e-05 -3.43698789e-04
 -1.43887503e-04 -2.96512539e-03  4.01248750e-03 -2.09181542e-03
  6.32046737e-04  2.78615484e-03 -5.16177443e-05  2.28194639e-03
  1.08153958e-03 -4.40570716e-06  4.33244347e-03  6.04371365e-05
  1.12564862e-03 -5.22011232e-06  2.57392139e-03 -1.85969607e-03
 -4.67523801e-03  4.25175104e-03 -2.09855983e-04 -1.36919072e-03
  2.13132143e-03 -1.67561952e-03  2.56230552e-04 -3.16442731e-03
  1.11450859e-04  9.96916466e-04 -5.36940695e-05  2.46657983e-03
  1.64390642e-03  3.43797760e-03  1.76513816e-03 -4.75133216e-03
  1.15031856e-03 -6.20307636e-04  1.70236014e-04 -8.05368794e-05]
[-8.97570942e-04 -6.06229757e-04  1.01720522e-03 -3.25199552e-03
  2.45203663e-03  1.26688972e-03  1.44366877e-04 -5.29655859e-06
  7.68730126e-04 -1.47857942e-03  1.28313245e-05  3.91425839e-03
  2.90578170e-05 -6.37233012e-05 -4.19603680e-03 -1.01575929e-04
 -3.13330092e-05  7.53643296e-04 -1.79519033e-04  2.49841868e-04
  2.03345095e-03  7.07553671e-04  6.48047890e-05  1.49548273e-03
 -4.90556599e-03 -4.47098578e-04  1.98994356e-03 -9.65661104e-05
 -4.66545678e-03  2.51109454e-03 -1.37861124e-03  3.16387139e-03
 -7.97371669e-05  4.82065213e-05 -2.63049217e-03 -1.49965949e-04
 -2.95281981e-04 -6.31201817e-05 -8.19862848e-05 -7.57720093e-04
  2.01056701e-04 -2.75585147e-03 -3.63368497e-03 -1.98259665e-03
 -2.18730178e-03 -5.71511396e-04 -2.49783464e-03  1.05153852e-04
  2.01277525e-03 -6.16198266e-04 -1.85583856e-04  9.76945122e-05
 -5.06139204e-03 -9.08880800e-04  4.57570998e-05  7.60144906e-04
  1.13077704e-03  5.26149626e-05 -1.14963719e-03  1.93041110e-03
  2.48098742e-05 -5.52553347e-04  1.77023937e-04 -2.83281107e-05
  4.02875550e-04 -8.73308412e-04  5.25254579e-04 -3.68380572e-03
 -3.39142146e-03 -4.63436815e-03  4.11067055e-03  1.05575821e-03
  9.44988451e-04  1.50239699e-03  4.91816014e-03  3.09748712e-03
 -4.64683548e-03 -1.62039155e-04  9.11702997e-04 -1.26702284e-04
 -3.37553387e-03 -2.06445822e-03  4.94034464e-03 -1.60891059e-03
  1.15124800e-03  4.94603333e-04 -1.45722420e-03  1.52769286e-03
  1.15467925e-03 -4.38944651e-04 -2.09625784e-05 -5.29465137e-04
  1.78373325e-03 -4.16766885e-03 -4.04180456e-03 -4.31697768e-03
 -1.47633723e-05 -1.61205061e-03  4.73652398e-04  1.24832636e-03
 -1.75072392e-05  2.93910747e-05  3.10516329e-05 -2.56983454e-05
  1.44005541e-04 -2.49258845e-03  1.00338492e-03 -1.46813608e-03
  9.97043367e-04 -1.96770961e-03  4.76392119e-04 -4.76642607e-03
  2.64703631e-03 -2.50634714e-04  3.87856979e-03  4.12843468e-06
 -2.56866134e-03 -1.54039393e-03  1.25673023e-04  2.82966632e-03
 -5.02107203e-03  5.48965883e-04  3.79445576e-04  2.98250683e-03
 -2.67179680e-03  6.19904567e-04 -4.90962139e-04  1.24446584e-03
  1.25877848e-04 -4.61650313e-03  4.32453150e-03 -2.09401294e-05
 -1.95821755e-04 -1.29385477e-05 -8.09193806e-06 -7.35098812e-04
  3.98232767e-03 -8.07265131e-05 -6.04462908e-04  9.02310191e-04
 -1.90098343e-03 -4.42980146e-03  5.45757931e-04  2.12234497e-03
 -4.78592042e-03 -1.94323340e-04 -5.73658126e-04 -9.89345732e-05
  3.45998551e-05  4.21637440e-03 -4.99922180e-05 -1.30445128e-03
 -2.47576708e-03  2.17884157e-05  4.62877293e-03 -1.43702722e-04
 -1.88864243e-03 -3.80980352e-03 -2.46234190e-03  8.75573448e-04
 -6.55879053e-04  4.41105185e-03 -3.45024234e-03 -4.48033380e-03
  2.96984891e-03 -1.18810482e-04  3.13219578e-05  1.15834469e-03
  3.00369143e-04  1.85751539e-03 -5.15629063e-05  7.54088429e-06
 -4.84490005e-04 -1.07862834e-06  1.64143510e-03  1.27502382e-03
 -1.87725845e-05  2.04683293e-03  4.04502334e-04  3.95753964e-03
  2.64482151e-06 -9.10571345e-06  4.29343997e-05  4.59556030e-03
  3.29792260e-03  1.73358540e-04 -3.12015713e-03 -3.99223053e-03
  3.18115646e-04 -4.73942255e-06  6.24518702e-04  2.75413917e-03
 -8.22425141e-04 -9.51436879e-05 -4.81590690e-05 -2.65020465e-03
 -2.81539393e-03  1.26810594e-03 -1.81363796e-04 -3.76797545e-04
 -2.09850663e-03 -3.67844892e-04  2.68698512e-03  1.59804949e-04
 -2.87377131e-03  2.09604217e-04  3.01444013e-06  3.59886388e-04
  3.53717201e-03  1.36852540e-03  3.93046216e-04 -8.98788836e-04
  8.48373797e-04 -1.28585144e-03 -5.73223169e-05 -4.08112768e-03
 -1.48603330e-04  3.99519289e-04 -2.32855422e-04  1.92651329e-04
 -6.12677088e-04  2.69484266e-05 -3.09606702e-04 -1.42032590e-04
 -2.55890885e-03  4.85766667e-05 -2.51387265e-04 -1.97639575e-04
 -3.40507427e-04  9.89873360e-05 -1.07796644e-05 -7.41914670e-04
 -1.80230854e-03  3.76133369e-03  1.41211693e-03  9.59723636e-05
 -1.19523471e-03 -1.08395841e-03  9.79517080e-04  8.10686732e-05
  9.29097050e-05 -1.27974646e-03  3.87288565e-03  3.63194255e-04
 -5.37480452e-04  2.71037751e-04 -2.26484317e-03  1.42970057e-03
  4.68973769e-03  1.19499729e-03 -2.05295946e-03  6.41696456e-06
  3.68657329e-03 -7.31443166e-04 -8.77747538e-07 -1.84025484e-03]
[-1.75383622e-03 -6.97790359e-04 -2.06914316e-03  2.42398300e-04
  1.54114516e-03  1.82334597e-03 -5.56836870e-04  3.28312297e-03
 -1.02972479e-05 -1.03822642e-03  1.62337635e-04 -1.33997909e-04
  6.03497162e-04  1.15101986e-05 -7.77880178e-05 -1.48797486e-03
  7.83619925e-04  1.72007545e-03 -7.25168384e-05  2.11331054e-04
  1.54555513e-04  1.58260222e-04  3.75899167e-03  6.17458534e-04
  4.15871950e-03  3.61311511e-03 -1.37605518e-03  4.95533821e-03
  3.22437166e-04 -8.27645500e-05  7.71428089e-05  9.74257009e-04
 -2.44082539e-03 -5.66228660e-05 -4.19428082e-03 -1.21650608e-03
 -2.39267036e-04 -2.32556794e-05 -1.71830144e-04 -4.86305791e-05
 -7.11982598e-04  4.78304874e-07 -2.61995901e-05 -1.31027021e-03
  1.67628083e-04  7.76334354e-04 -5.35557200e-04  1.46451878e-03
  1.16641711e-03 -9.56165661e-04  1.12542338e-06  2.53395337e-03
  4.52782865e-05  6.32893558e-04 -2.80740401e-04 -2.13270603e-03
  1.59435532e-03  6.23766735e-04  1.02722061e-04  2.58481708e-04
  7.38068277e-04 -6.84956045e-04 -3.50372479e-03  3.87161859e-03
 -8.93357245e-06 -2.69932110e-03  6.49425392e-04 -4.39408280e-03
 -8.30811575e-05  6.16016447e-05  1.19714468e-04 -4.71618442e-03
 -3.67128439e-05 -6.32914336e-04 -9.07443112e-05 -3.46954361e-03
 -4.68144605e-03  2.81514916e-04  1.21852561e-05  1.17765729e-04
  2.17006678e-03  7.19158433e-06  4.57565244e-03 -9.98029094e-04
 -3.20588013e-05  5.68680612e-04 -2.12535520e-03  6.90298169e-05
 -2.49207512e-04 -1.44166400e-04 -3.97188676e-03 -6.75377909e-04
  7.18655501e-04 -4.34106656e-03  2.70920508e-03 -4.72831195e-03
  1.88457646e-04 -2.90252166e-04  1.68618856e-03 -9.56335824e-04
 -4.46825999e-03  1.18344727e-04 -2.84175311e-04 -1.06421192e-03
  2.14308168e-03  8.08923915e-04  1.25987612e-03 -1.06112971e-04
  1.07750465e-03 -3.62600295e-03 -1.00859278e-03 -4.44871058e-06
  9.23275840e-05  2.63743227e-04 -1.96313823e-03  1.27592955e-04
  1.05504963e-03 -3.68609358e-03 -1.10562073e-04  1.67503356e-03
  1.49389778e-03  9.73927802e-04  7.29194325e-05  2.57319678e-03
  1.84964569e-04 -5.77291203e-04  1.04770344e-04  2.89865308e-03
 -4.02251069e-06 -1.04164750e-03 -1.39685853e-06 -4.05027214e-04
 -2.75170682e-04 -2.13032405e-03  6.40345316e-04 -1.39264278e-03
  1.61505778e-04 -3.00742019e-04 -4.71947960e-03 -1.94059700e-03
 -4.60386151e-03 -2.50928151e-03 -4.11140407e-07  4.89118112e-03
 -2.27139512e-04  7.42611833e-04 -3.41946230e-03  9.80188119e-04
 -5.77179980e-04  1.89199634e-03 -4.56156161e-03 -1.42447337e-03
 -1.92640171e-05 -1.89103072e-05  4.84311458e-05 -1.90235336e-04
 -2.23780323e-03  1.42876897e-03 -3.57060128e-05  6.83690664e-05
  5.59164575e-04 -9.30888311e-05 -1.77628891e-03  4.11276439e-03
 -2.01187116e-04 -3.54899421e-04 -2.64230162e-03  1.08045431e-03
  2.30725936e-03  5.56745266e-05  1.23898774e-03 -1.60526192e-03
 -1.47462194e-03  4.74182961e-03  2.84778488e-03  2.42656146e-04
 -3.77740416e-04  1.80740774e-06 -1.96694531e-03  3.63301303e-04
 -2.65533242e-05 -5.20670702e-04 -4.88650529e-03  1.53361989e-05
 -1.51388070e-04 -1.18879940e-04  2.14979130e-03  1.88965339e-03
  8.21797581e-04  4.33699500e-05  1.92736205e-03 -2.94777759e-05
  7.66832664e-04 -2.29390797e-04 -4.03487449e-03  3.98718831e-04
 -4.47975467e-04 -5.21660170e-04  1.06328030e-03  3.77015390e-03
  1.60187155e-03 -3.54110949e-05 -2.88981941e-03  1.41206737e-05
  2.18347161e-03  1.24902266e-05 -3.05992882e-03 -2.42734259e-04
  2.84912958e-03  3.16279518e-04 -7.49398634e-04 -3.13204812e-03
  3.07949054e-05 -9.00777546e-06 -1.88308872e-04 -4.13027510e-03
 -1.77811461e-03 -3.37782723e-03 -1.09234418e-04 -1.43740921e-03
 -1.31020321e-04  4.89895204e-05 -1.56678394e-03  9.85583461e-04
  2.62749793e-03 -3.68577288e-03  1.56867674e-04 -1.55565579e-04
 -1.22588740e-04 -3.90215130e-03  2.46613237e-03 -1.99878936e-03
 -4.63547086e-03  4.97893348e-03 -4.51280502e-04  7.89192940e-07
  3.06546851e-03 -4.00487491e-03 -5.85275199e-04  5.07954757e-03
 -2.79483279e-03 -3.08122455e-03  1.14837728e-03 -2.12499054e-03
 -1.80292652e-04 -2.21417716e-04  7.90933265e-05  5.48261356e-04
 -2.25499916e-03 -1.35301572e-03  8.04357948e-04 -2.85945440e-04
 -3.51213826e-03 -2.94115463e-04 -5.76131262e-06  4.94922663e-03]
[-3.88671094e-04 -9.09532002e-04  9.55878783e-04 -1.22113366e-03
  4.09679012e-03 -2.99778881e-03 -9.74927959e-05  3.83401456e-03
  2.54252278e-03 -6.49352319e-06  3.66903054e-03 -1.74090654e-03
 -4.85470953e-03 -5.78553419e-05 -4.13880522e-03  8.83255449e-04
 -3.21824450e-03  1.12907120e-03 -6.46895218e-06  1.05208686e-05
  2.37508514e-04  2.46506579e-03 -1.21347581e-03  3.13576866e-04
  3.84208690e-03 -3.16081958e-03  2.33891584e-04  6.64421847e-04
 -1.70425778e-03 -3.25996311e-03 -3.75630013e-03 -7.34959202e-04
  8.10534669e-04  1.82993807e-04  6.99235848e-04 -4.37107533e-03
  1.95570027e-03  1.93105724e-03  9.91952718e-04  3.50041880e-04
 -3.70604569e-04 -4.17170025e-03 -2.89748934e-04  2.70808905e-04
  5.06106273e-03  1.16725866e-04 -2.58998589e-04  1.12920734e-04
 -3.29688187e-03  9.43779753e-04 -1.75910190e-04 -2.63263768e-05
  1.11533177e-03 -2.06925798e-03 -3.79950926e-05 -4.46853501e-03
  2.81177753e-03 -2.52565671e-04 -2.00419055e-04 -2.38714053e-04
 -7.07806517e-05 -4.75351350e-03 -1.54643254e-03 -3.28259768e-03
 -5.25926387e-05 -3.74511357e-03  5.72801009e-05 -1.65642850e-05
 -4.50894651e-03 -3.62867845e-07 -4.94851592e-04  2.17973688e-03
 -3.57265741e-03 -5.95750797e-04 -6.47759723e-04  4.55645852e-03
 -6.37026592e-04 -2.10922599e-03  1.37148385e-03 -1.15669416e-03
  5.31189880e-05 -3.78880292e-03 -4.83618094e-03  2.37037537e-04
 -3.68769681e-03 -7.24337796e-05 -1.46484044e-03 -4.92364898e-05
  4.67543593e-05 -2.11023909e-03  3.04455245e-03 -3.78474146e-05
  2.21520013e-04 -3.34288202e-03 -2.97246797e-03  1.70849733e-04
 -1.05092633e-05  1.03296837e-03 -7.18497180e-04  5.64053320e-04
 -4.11870482e-05 -2.63784364e-03 -9.60137214e-04 -3.39503987e-03
  3.61578144e-03  9.94102641e-04  1.49267166e-03 -1.20829259e-03
 -1.11930786e-03 -1.86419263e-03  1.61342198e-03 -3.65347019e-04
 -9.22169225e-05 -5.55729152e-04  6.78897025e-04 -1.30409201e-03
  2.80268695e-04 -4.75089490e-03  3.10317584e-03 -1.11923962e-03
  1.36396723e-03  4.96012037e-06  1.11778124e-04  2.49057919e-04
 -3.68455079e-04  4.08223704e-03 -2.17987534e-03  9.03119692e-04
 -4.39673047e-04  2.17280704e-04  1.15209808e-04  1.47174976e-03
 -1.45516515e-05 -2.60360601e-03  9.86679916e-04 -5.77725630e-04
  1.93339880e-03 -4.42252876e-03 -2.00964626e-06 -4.77997307e-04
 -2.06456248e-04 -1.18860625e-03 -1.34666823e-03  5.78257015e-04
  5.36996570e-04  4.51363112e-03 -1.46537203e-03 -3.68592632e-04
 -2.52442775e-03  1.66990733e-03  2.09819651e-03 -1.06655285e-04
 -3.75266619e-03 -9.18515046e-04  1.24694374e-03  2.69152694e-03
  1.60875295e-03 -3.88020983e-03  4.67685870e-04  2.60029483e-05
 -2.09846799e-03 -8.61225213e-04 -3.10403109e-03  2.44897276e-05
  8.17817380e-04  3.61168944e-04  1.00397633e-03 -9.10651107e-04
  1.33153240e-03 -1.01333719e-04 -2.36585847e-03 -7.62452835e-04
  9.44842734e-04  3.50766903e-03  4.25717739e-04  1.55833094e-03
  2.44940256e-05  3.04368503e-03  2.05691205e-03 -1.49556763e-03
 -6.30172159e-06  7.36508382e-05 -2.89588710e-03  2.79190249e-04
 -3.86652957e-05  4.59958213e-03 -5.58895672e-04  1.17021145e-03
 -3.84170582e-04  3.80851146e-03  1.89474175e-03 -2.12544965e-04
 -2.37000367e-05  1.53823292e-03 -2.05896904e-04 -8.89384140e-05
  6.13740967e-04 -1.11333901e-03 -9.80681780e-04 -5.01692294e-03
  2.77716865e-03 -2.11783077e-05 -2.43858444e-05  1.54277614e-03
 -4.88631972e-06 -6.18130554e-05 -1.18642987e-04 -2.32857596e-03
 -1.68088265e-04 -3.47700114e-04  1.91256063e-03 -9.13006916e-05
 -2.23618690e-04 -9.87846524e-04  5.18653566e-04  1.13531565e-03
 -3.26569017e-04 -1.13301752e-03  5.85830318e-04  2.69444416e-03
 -1.12007576e-04 -2.75200292e-03 -1.92107128e-05 -2.71727195e-03
 -1.63458967e-03  2.95505844e-04  4.55639550e-03  2.47955387e-06
 -4.87593041e-03  4.39794978e-03  4.06287994e-03  3.84018972e-04
  2.60143168e-04  5.98961352e-06 -9.41288578e-05 -5.24581560e-04
  3.61318464e-04  2.05979620e-03  2.80825267e-03 -2.48016674e-03
 -5.26104913e-04 -2.11565100e-03 -2.31498498e-03  7.38746793e-06
  1.54004390e-03  3.09335533e-03  4.88074349e-04 -1.33935436e-03
 -1.19491256e-04 -6.30784324e-04  8.05748099e-06 -1.02555650e-03
 -3.06682841e-03 -3.74170940e-03 -1.08102056e-04 -1.72431426e-04]
[-4.77694790e-03 -2.46732517e-04  2.03467424e-03  3.57389062e-04
  1.98673590e-04 -5.02469434e-03 -3.21494888e-05 -6.29909960e-04
  8.01851654e-05 -4.11052194e-04 -2.03440533e-03 -4.24582262e-03
  3.71080686e-03  2.52386034e-03  2.47238684e-04 -2.41034021e-04
 -3.66091250e-03 -2.25436264e-03 -3.89078206e-03  2.23372957e-03
 -8.87488926e-05 -9.70662810e-04  4.27046316e-03 -5.02201713e-04
 -3.52184127e-04  3.32953417e-04 -4.30497408e-03 -4.08291562e-04
  4.21119441e-03  4.62200033e-03  1.89973968e-04 -1.27426831e-03
 -8.51668297e-06 -1.87848045e-05 -1.59353867e-04 -6.16656405e-05
 -3.34170787e-03  1.15673138e-03 -4.34960622e-05  1.70451128e-03
 -3.60461835e-04  2.76910919e-03 -3.11015335e-03  1.26851399e-03
  4.06094852e-03 -8.11467786e-04  2.34705409e-03  2.70257498e-03
  6.70686565e-04  1.23186043e-03  2.89730209e-07 -1.84082484e-06
 -2.64220727e-04  4.32452219e-03  1.80124859e-04 -2.08957959e-06
 -3.90043747e-03  2.12715888e-03  1.14644919e-04  1.11311108e-03
 -1.33616030e-04 -1.56577753e-04  9.55788863e-05  7.91648828e-04
 -5.75268570e-04  2.44993136e-07  2.01321501e-05 -4.43984832e-04
  3.90992019e-04  1.00525425e-04 -1.73121685e-03  5.80160680e-04
 -2.08589702e-03 -5.09252340e-03  2.72464017e-03  9.54720619e-05
  1.40902571e-03  4.11661562e-03  4.53247122e-03  1.35302270e-05
 -8.97008165e-06  1.24412831e-03 -5.27671171e-05  4.81913791e-04
  3.39261947e-03 -3.68618260e-04  3.68251929e-05  1.53903653e-04
 -4.13300465e-03  3.04667772e-05  6.66219596e-05 -1.51918040e-05
  3.45814052e-03 -1.06859810e-03  1.19728390e-03 -3.17998576e-04
 -4.10311218e-04  5.59858425e-04  3.68397093e-03  3.90541166e-03
 -4.97499326e-04  1.99202721e-03  1.90962890e-05  3.40223929e-03
  3.19458329e-03 -1.90975713e-03 -2.22887066e-03  1.28896523e-06
  2.58084682e-03 -1.57705436e-05 -1.28645666e-03 -1.02692617e-04
 -1.18854412e-03 -3.59756277e-05  1.09651495e-04  1.27795512e-03
  5.21875853e-04  3.62487032e-04 -3.74767418e-04 -6.87201892e-04
 -4.79383026e-03  9.26439469e-04  1.24299491e-03  3.04031624e-03
 -1.98210599e-03 -4.45016492e-03  3.15665070e-03 -3.49419398e-04
 -3.22795079e-03 -1.01905845e-03 -1.20639035e-04  2.94767025e-04
  2.37365528e-03  3.53393295e-05 -7.13534106e-04  5.08473451e-04
  1.09009501e-04 -4.95730073e-03  9.59375711e-04  3.07777663e-03
  1.52065427e-03  2.43429922e-03  1.60191078e-03  6.48665973e-04
 -2.70506369e-03 -9.76632008e-04 -9.76231420e-04  5.03331168e-04
  3.28531862e-05  5.04374191e-03  9.21989511e-04 -1.51752123e-03
 -2.06673049e-05 -1.55727377e-04  1.84419090e-03  4.79007634e-04
  2.43918374e-03  7.49602947e-04 -2.16931789e-03 -1.46149129e-05
 -1.60797881e-03 -2.74757233e-04 -1.73198636e-03  6.35149254e-05
  2.66858972e-03 -3.71872948e-05  5.60017612e-04  2.05416838e-05
 -3.31936147e-03  1.52820980e-03 -2.56507107e-03 -1.62898210e-03
  2.76658057e-06 -2.59171850e-03  6.83235881e-04  4.96054589e-03
 -2.50862366e-04  5.15130309e-04  2.29500830e-03  1.31044957e-03
  6.98171261e-04  2.59836661e-03 -2.68446035e-04  2.17993143e-04
  6.86581587e-04  3.81383518e-04 -1.90703909e-03  2.37433476e-05
  3.09798788e-04  5.07251667e-03  8.26588273e-04 -1.14163597e-03
  1.91262110e-06  1.27244389e-04  1.45421466e-03 -3.29263132e-04
  1.18898528e-04 -1.17473360e-05  4.14674175e-03  4.13471493e-04
  4.32415374e-03 -3.95535361e-03  4.44591317e-03 -1.25557566e-03
 -9.06684502e-04  5.22726424e-05 -2.59416817e-03 -2.19748558e-04
  2.26156416e-03  3.21468801e-03 -5.31294136e-04  1.94940915e-05
 -3.88733275e-05 -7.42530187e-05 -5.03900139e-03 -4.04208203e-03
 -4.60757881e-03 -1.95795114e-03  7.51880268e-04  2.63990471e-03
 -1.72258215e-03  8.21438899e-04  1.02357157e-05  1.20121527e-03
  1.10799269e-03  1.30008473e-05  7.49678760e-04  5.49408382e-04
 -3.04290296e-04  4.14745812e-03 -3.82370681e-03  1.79571922e-03
  1.75262845e-05 -1.59138479e-04  6.69235523e-05 -2.26057718e-05
 -1.98465267e-03 -3.28068943e-03  3.41615787e-03 -3.91589370e-03
  3.64385210e-03  3.01149558e-04 -9.85080926e-04 -4.28539980e-05
 -5.87034879e-04 -1.77918995e-04 -2.23952401e-03  1.65951109e-03
  6.40797605e-04 -2.01641559e-04  7.39472941e-05 -4.59099617e-03
  3.82303132e-04 -1.40310825e-03 -9.17796931e-04  1.23129231e-03]
[ 1.62328957e-05  3.59887610e-04  4.87422614e-04  1.00076585e-03
